{"learner":{"attributes":{"scikit_learn":"{\"_estimator_type\": \"regressor\"}"},"feature_names":[],"feature_types":[],"gradient_booster":{"model":{"gbtree_model_param":{"num_parallel_tree":"1","num_trees":"200"},"iteration_indptr":[0,2,4,6,8,10,12,14,16,18,20,22,24,26,28,30,32,34,36,38,40,42,44,46,48,50,52,54,56,58,60,62,64,66,68,70,72,74,76,78,80,82,84,86,88,90,92,94,96,98,100,102,104,106,108,110,112,114,116,118,120,122,124,126,128,130,132,134,136,138,140,142,144,146,148,150,152,154,156,158,160,162,164,166,168,170,172,174,176,178,180,182,184,186,188,190,192,194,196,198,200],"tree_info":[0,1,0,1,0,1,0,1,0,1,0,1,0,1,0,1,0,1,0,1,0,1,0,1,0,1,0,1,0,1,0,1,0,1,0,1,0,1,0,1,0,1,0,1,0,1,0,1,0,1,0,1,0,1,0,1,0,1,0,1,0,1,0,1,0,1,0,1,0,1,0,1,0,1,0,1,0,1,0,1,0,1,0,1,0,1,0,1,0,1,0,1,0,1,0,1,0,1,0,1,0,1,0,1,0,1,0,1,0,1,0,1,0,1,0,1,0,1,0,1,0,1,0,1,0,1,0,1,0,1,0,1,0,1,0,1,0,1,0,1,0,1,0,1,0,1,0,1,0,1,0,1,0,1,0,1,0,1,0,1,0,1,0,1,0,1,0,1,0,1,0,1,0,1,0,1,0,1,0,1,0,1,0,1,0,1,0,1,0,1,0,1,0,1,0,1,0,1,0,1],"trees":[{"base_weights":[1.0174086E0,9.5012397E-1,1.308124E0,8.675992E-1,9.8422724E-1,1.2169882E0,4.3015507E-1,8.743973E-1,1.6911681E-1,1.0426104E0,9.197364E-1,3.9950237E-1,1.1738647E0,2.4227618E-1,9.002791E-1,1.0292773E0,3.968331E-1,7.8527343E-1,9.898469E-1,3.34602E-1,3.7382028E-1,2.602269E-1,9.153879E-1,1.0418673E0,8.8002396E-1,6.8216336E-1,8.321172E-1,1.2950726E0,9.2994463E-1,2.7646714E-1,2.3639567E-1,3.0911672E-1,3.9023957E-1,2.1382529E-1,2.7929184E-1,2.2541232E-1,1.8759355E-1,3.2672927E-1,2.2610487E-1,3.9050972E-1,1.8955123E-1,2.5143534E-1,3.0611226E-1],"categories":[],"categories_nodes":[],"categories_segments":[],"categories_sizes":[],"default_left":[0,0,0,0,0,0,0,0,0,0,0,0,0,0,0,0,0,0,0,0,0,0,0,0,0,0,0,0,0,0,0,0,0,0,0,0,0,0,0,0,0,0,0],"id":0,"left_children":[1,3,5,7,9,11,-1,13,-1,15,17,-1,19,-1,21,23,-1,25,27,-1,-1,-1,29,31,33,35,37,39,41,-1,-1,-1,-1,-1,-1,-1,-1,-1,-1,-1,-1,-1,-1],"loss_changes":[2.0572852E2,2.3338379E1,2.1010986E1,4.716797E0,2.191455E1,4.1639404E0,0E0,3.5354004E0,0E0,1.0520996E1,2.6514404E1,0E0,2.2020264E0,0E0,8.3496094E-2,4.7973633E0,0E0,4.247986E0,3.35166E1,0E0,0E0,0E0,2.1148682E-1,6.9785156E0,1.4073792E0,7.774658E-1,1.2905457E1,5.3564453E-1,1.2356201E1,0E0,0E0,0E0,0E0,0E0,0E0,0E0,0E0,0E0,0E0,0E0,0E0,0E0,0E0],"parents":[2147483647,0,0,1,1,2,2,3,3,4,4,5,5,7,7,9,9,10,10,12,12,14,14,15,15,17,17,18,18,22,22,23,23,24,24,25,25,26,26,27,27,28,28],"right_children":[2,4,6,8,10,12,-1,14,-1,16,18,-1,20,-1,22,24,-1,26,28,-1,-1,-1,30,32,34,36,38,40,42,-1,-1,-1,-1,-1,-1,-1,-1,-1,-1,-1,-1,-1,-1],"split_conditions":[1.9546518E-5,6.6895525E-9,2.9766492E-5,7.962029E-11,5.165172E-8,1.2319568E-6,4.3015507E-1,1.0851096E-9,1.6911681E-1,4.5297142E-7,3.0290848E-6,3.9950237E-1,3.1593514E-5,2.4227618E-1,3.474218E-11,1.7579964E-8,3.968331E-1,9.667099E-7,3.6566894E-7,3.34602E-1,3.7382028E-1,2.602269E-1,1.4184484E-10,1.1675232E-7,1.5051542E-7,6.0955773E-7,5.064784E-7,1.870913E-6,9.327354E-6,2.7646714E-1,2.3639567E-1,3.0911672E-1,3.9023957E-1,2.1382529E-1,2.7929184E-1,2.2541232E-1,1.8759355E-1,3.2672927E-1,2.2610487E-1,3.9050972E-1,1.8955123E-1,2.5143534E-1,3.0611226E-1],"split_indices":[9,13,7,7,2,2,0,12,0,8,9,0,9,0,2,2,0,11,2,0,0,0,5,8,9,6,4,3,9,0,0,0,0,0,0,0,0,0,0,0,0,0,0],"split_type":[0,0,0,0,0,0,0,0,0,0,0,0,0,0,0,0,0,0,0,0,0,0,0,0,0,0,0,0,0,0,0,0,0,0,0,0,0,0,0,0,0,0,0],"sum_hessian":[1.058E4,8.595E3,1.985E3,2.521E3,6.074E3,1.157E3,8.28E2,2.464E3,5.7E1,3.18E3,2.894E3,3.08E2,8.49E2,6.97E2,1.767E3,3.04E3,1.4E2,9.96E2,1.898E3,4.78E2,3.71E2,5.75E2,1.192E3,2.798E3,2.42E2,3.16E2,6.8E2,3.08E2,1.59E3,1.131E3,6.1E1,2.684E3,1.14E2,6E1,1.82E2,1.37E2,1.79E2,1.56E2,5.24E2,3.04E2,4E0,7.94E2,7.96E2],"tree_param":{"num_deleted":"0","num_feature":"16","num_nodes":"43","size_leaf_vector":"1"}},{"base_weights":[-1.0174086E0,3.3702794E-1,-2.1053085E0,6.575951E-1,-3.5840705E-1,-1.344646E0,-2.5314074E0,7.405545E-1,4.2058963E-1,-1.7238234E0,-2.9180697E-1,-1.0572022E0,-1.6895552E0,-2.1838403E0,-2.756817E0,7.617654E-1,5.191491E-1,5.101411E-1,2.3305759E-1,-2.0571885E-1,-2.2555914E0,-2.402645E-2,-5.256416E-1,-2.6867533E0,-9.5737904E-1,-1.9803425E0,-1.3670737E0,-2.4332314E0,-2.0373445E0,-2.5052028E0,-2.816738E0,7.7870995E-1,6.0505116E-1,-7.818021E-1,5.3526205E-1,-3.7454063E-1,5.185759E-1,4.0340614E-1,2.0033878E-1,-1.5045274E0,1.3184074E-1,-3.0135822E-1,-6.938566E-1,1.5447566E-1,-9.7654924E-2,-2.0760531E0,-4.431988E-1,-1.8297302E0,-8.421358E-1,-7.696375E-1,-1.1229242E0,-1.7791967E0,-2.4018056E0,-1.172336E0,-1.5101159E0,-2.248122E0,-7.969902E-1,-1.7683496E0,-2.4014874E0,-7.926819E-1,-2.2501712E0,-2.6721466E0,-2.8674328E0,2.3420428E-1,1.8241928E-3,5.652544E-2,2.1480781E-1,1.0909452E-1,-4.609055E-1,2.7594262E-1,1.4964168E-1,1.730564E-1,1.1213941E-1,2.2364177E-1,1.0773431E-1,1.2779908E-1,5.3079136E-2,-5.145407E-1,-1.3090548E-1,2.4655123E-1,-4.999339E-2,9.749469E-2,2.5916256E-2,-1.3750513E-1,-2.468307E-2,-3.190846E-1,-6.811074E-1,-1.1131699E-1,-1.9200988E-1,-6.190846E-1,-2.7135825E-1,-4.1108397E-1,-2.1924525E-1,-3.0747458E-1,-3.893883E-1,-6.448656E-1,-4.4510064E-1,-6.8592364E-1,-8.276401E-1,-3.215686E-1,-3.73354E-1,-5.244604E-1,-4.0205577E-1,-7.407544E-1,-5.5740917E-1,-4.899233E-1,-5.94909E-1,-6.9603175E-1,-8.4113663E-1,-5.973719E-1,-7.3604304E-1,-7.7280337E-1,-8.841292E-1,-8.7308866E-1,-7.952797E-1],"categories":[],"categories_nodes":[],"categories_segments":[],"categories_sizes":[],"default_left":[0,0,0,0,0,0,0,0,0,0,0,0,0,0,0,0,0,0,0,0,0,0,0,0,0,0,0,0,0,0,0,0,0,0,0,0,0,0,0,0,0,0,0,0,0,0,0,0,0,0,0,0,0,0,0,0,0,0,0,0,0,0,0,0,0,0,0,0,0,0,0,0,0,0,0,0,0,0,0,0,0,0,0,0,0,0,0,0,0,0,0,0,0,0,0,0,0,0,0,0,0,0,0,0,0,0,0,0,0,0,0,0,0,0,0],"id":1,"left_children":[1,3,5,7,9,11,13,15,17,19,21,23,25,27,29,31,33,35,37,39,41,43,45,47,49,51,53,55,57,59,61,63,65,67,69,-1,71,73,75,77,79,-1,-1,81,83,85,87,89,-1,91,93,95,97,99,101,103,-1,105,107,-1,109,111,113,-1,-1,-1,-1,-1,-1,-1,-1,-1,-1,-1,-1,-1,-1,-1,-1,-1,-1,-1,-1,-1,-1,-1,-1,-1,-1,-1,-1,-1,-1,-1,-1,-1,-1,-1,-1,-1,-1,-1,-1,-1,-1,-1,-1,-1,-1,-1,-1,-1,-1,-1,-1],"loss_changes":[1.5591721E4,1.0511448E3,1.8985156E3,6.313733E1,1.3481104E2,2.0730444E2,2.8855664E2,1.082373E1,1.3971085E1,5.523825E1,8.890262E1,1.8498267E2,8.703369E1,4.9260254E1,2.7273438E1,5.312378E0,4.8624268E0,9.058075E0,1.4407759E0,8.528438E0,1.3303833E0,8.728786E0,9.596768E1,1.6720581E0,3.295038E1,3.819922E1,1.0959717E1,1.652417E1,8.792676E1,9.680176E0,5.758789E0,2.9831543E0,9.898254E0,3.151589E0,2.4852333E0,0E0,4.551544E0,3.8377142E-1,1.1448355E0,1.5146351E-1,3.432217E0,0E0,0E0,2.224165E0,2.5692773E0,5.060608E0,1.0000748E1,5.137062E-1,0E0,1.0960205E1,8.551086E0,3.4352295E1,2.4224854E-1,1.0140991E-1,8.176147E0,2.1627075E1,0E0,1.2588501E1,6.4924316E0,0E0,3.6951904E0,5.3603516E0,4.7382812E0,0E0,0E0,0E0,0E0,0E0,0E0,0E0,0E0,0E0,0E0,0E0,0E0,0E0,0E0,0E0,0E0,0E0,0E0,0E0,0E0,0E0,0E0,0E0,0E0,0E0,0E0,0E0,0E0,0E0,0E0,0E0,0E0,0E0,0E0,0E0,0E0,0E0,0E0,0E0,0E0,0E0,0E0,0E0,0E0,0E0,0E0,0E0,0E0,0E0,0E0,0E0,0E0],"parents":[2147483647,0,0,1,1,2,2,3,3,4,4,5,5,6,6,7,7,8,8,9,9,10,10,11,11,12,12,13,13,14,14,15,15,16,16,17,17,18,18,19,19,20,20,21,21,22,22,23,23,24,24,25,25,26,26,27,27,28,28,29,29,30,30,31,31,32,32,33,33,34,34,36,36,37,37,38,38,39,39,40,40,43,43,44,44,45,45,46,46,47,47,49,49,50,50,51,51,52,52,53,53,54,54,55,55,57,57,58,58,60,60,61,61,62,62],"right_children":[2,4,6,8,10,12,14,16,18,20,22,24,26,28,30,32,34,36,38,40,42,44,46,48,50,52,54,56,58,60,62,64,66,68,70,-1,72,74,76,78,80,-1,-1,82,84,86,88,90,-1,92,94,96,98,100,102,104,-1,106,108,-1,110,112,114,-1,-1,-1,-1,-1,-1,-1,-1,-1,-1,-1,-1,-1,-1,-1,-1,-1,-1,-1,-1,-1,-1,-1,-1,-1,-1,-1,-1,-1,-1,-1,-1,-1,-1,-1,-1,-1,-1,-1,-1,-1,-1,-1,-1,-1,-1,-1,-1,-1,-1,-1,-1],"split_conditions":[9.233939E-9,8.089522E-11,3.6566894E-7,9.103162E-11,6.790318E-9,8.038468E-8,1.2087138E-6,6.6777632E-9,1.439356E-9,9.16266E-11,2.0358837E-10,6.992602E-9,1.8368978E-6,6.394712E-6,5.239927E-6,6.6180325E-11,2.7981083E-11,1.0057858E-9,8.324315E-12,1.2137371E-9,2.0146776E-10,2.3719138E-10,3.0376732E-9,9.196625E-9,1.4882238E-8,1.3056081E-6,2.0438858E-7,3.9136894E-6,2.1167366E-6,1.4302248E-5,1.6324412E-6,2.280301E-9,1.0702029E-9,2.561848E-11,1.159733E-9,-3.7454063E-1,6.979011E-11,2.379423E-9,1.3696222E-10,4.252895E-11,6.5580545E-9,-3.0135822E-1,-6.938566E-1,1.7521579E-10,1.610551E-9,3.420426E-10,2.4264795E-9,3.6873047E-9,-8.421358E-1,2.003356E-8,4.6360526E-8,7.0288E-7,2.230091E-6,1.3496563E-7,3.88194E-6,3.6721867E-6,-7.969902E-1,8.371364E-7,4.9019123E-5,-7.926819E-1,2.8873085E-6,4.3860528E-6,1.3606509E-5,2.3420428E-1,1.8241928E-3,5.652544E-2,2.1480781E-1,1.0909452E-1,-4.609055E-1,2.7594262E-1,1.4964168E-1,1.730564E-1,1.1213941E-1,2.2364177E-1,1.0773431E-1,1.2779908E-1,5.3079136E-2,-5.145407E-1,-1.3090548E-1,2.4655123E-1,-4.999339E-2,9.749469E-2,2.5916256E-2,-1.3750513E-1,-2.468307E-2,-3.190846E-1,-6.811074E-1,-1.1131699E-1,-1.9200988E-1,-6.190846E-1,-2.7135825E-1,-4.1108397E-1,-2.1924525E-1,-3.0747458E-1,-3.893883E-1,-6.448656E-1,-4.4510064E-1,-6.8592364E-1,-8.276401E-1,-3.215686E-1,-3.73354E-1,-5.244604E-1,-4.0205577E-1,-7.407544E-1,-5.5740917E-1,-4.899233E-1,-5.94909E-1,-6.9603175E-1,-8.4113663E-1,-5.973719E-1,-7.3604304E-1,-7.7280337E-1,-8.841292E-1,-8.7308866E-1,-7.952797E-1],"split_indices":[7,7,2,4,13,2,2,13,12,7,7,14,14,13,4,7,2,11,3,12,8,5,14,8,2,6,2,6,3,14,2,14,11,2,11,0,7,14,5,2,13,0,0,5,11,7,9,11,0,5,2,14,6,2,10,11,0,2,14,0,3,3,4,0,0,0,0,0,0,0,0,0,0,0,0,0,0,0,0,0,0,0,0,0,0,0,0,0,0,0,0,0,0,0,0,0,0,0,0,0,0,0,0,0,0,0,0,0,0,0,0,0,0,0,0],"split_type":[0,0,0,0,0,0,0,0,0,0,0,0,0,0,0,0,0,0,0,0,0,0,0,0,0,0,0,0,0,0,0,0,0,0,0,0,0,0,0,0,0,0,0,0,0,0,0,0,0,0,0,0,0,0,0,0,0,0,0,0,0,0,0,0,0,0,0,0,0,0,0,0,0,0,0,0,0,0,0,0,0,0,0,0,0,0,0,0,0,0,0,0,0,0,0,0,0,0,0,0,0,0,0,0,0,0,0,0,0,0,0,0,0,0,0],"sum_hessian":[1.058E4,4.713E3,5.867E3,3.226E3,1.487E3,2.108E3,3.759E3,2.388E3,8.38E2,6.8E1,1.419E3,1.152E3,9.56E2,1.483E3,2.276E3,2.177E3,2.11E2,5.66E2,2.72E2,1.8E1,5E1,6.62E2,7.57E2,6.5E1,1.087E3,5E2,4.56E2,5.43E2,9.4E2,4.46E2,1.83E3,1.961E3,2.16E2,2E0,2.09E2,2E0,5.64E2,4.2E1,2.3E2,3E0,1.5E1,3E0,4.7E1,1.93E2,4.69E2,3.7E1,7.2E2,1E1,5.5E1,5.12E2,5.75E2,3.42E2,1.58E2,1.97E2,2.59E2,3.03E2,2.4E2,5.44E2,3.96E2,2.84E2,1.62E2,4.89E2,1.341E3,1.956E3,5E0,4.6E1,1.7E2,1E0,1E0,1.6E1,1.93E2,4E2,1.64E2,3E0,3.9E1,2E1,2.1E2,2E0,1E0,4E0,1.1E1,5.4E1,1.39E2,1.8E1,4.51E2,7E0,3E1,5.29E2,1.91E2,7E0,3E0,2.9E1,4.83E2,3.73E2,2.02E2,1.49E2,1.93E2,1.25E2,3.3E1,8.9E1,1.08E2,1.04E2,1.55E2,1.9E2,1.13E2,3.39E2,2.05E2,3.35E2,6.1E1,7.6E1,8.6E1,3.7E2,1.19E2,1.109E3,2.32E2],"tree_param":{"num_deleted":"0","num_feature":"16","num_nodes":"115","size_leaf_vector":"1"}},{"base_weights":[7.127923E-1,6.63658E-1,9.097367E-1,6.1105585E-1,6.9078255E-1,8.3855313E-1,9.9527794E-1,6.168714E-1,3.26377E-1,7.3887587E-1,6.304603E-1,2.9075736E-1,8.084224E-1,2.871782E-1,3.189559E-1,5.67998E-1,6.365418E-1,1.02523535E-1,6.460862E-2,7.241644E-1,9.3687207E-1,5.481557E-1,7.025604E-1,7.649301E-1,2.5578418E-1,5.570964E-1,6.559667E-1,6.418956E-1,5.8513755E-1,7.4047035E-1,5.367909E-1,9.518323E-2,9.442831E-1,4.6894416E-1,5.9109235E-1,9.194108E-1,6.373264E-1,2.4521218E-1,2.2202376E-1,1.7033386E-1,1.5168998E-1,5.700412E-2,1.9947156E-1,1.8373226E-1,1.960716E-1,1.0641738E-1,1.8259133E-1,2.1988268E-1,2.6969784E-1,1.4683056E-1,1.9376802E-1,5.2678794E-2,2.8414452E-1,1.5733525E-1,1.3052437E-1,2.4188496E-1,1.5440851E-1,2.8464597E-1,2.0248127E-1,1.8246217E-1,2.08233E-1],"categories":[],"categories_nodes":[],"categories_segments":[],"categories_sizes":[],"default_left":[0,0,0,0,0,0,0,0,0,0,0,0,0,0,0,0,0,0,0,0,0,0,0,0,0,0,0,0,0,0,0,0,0,0,0,0,0,0,0,0,0,0,0,0,0,0,0,0,0,0,0,0,0,0,0,0,0,0,0,0,0],"id":2,"left_children":[1,3,5,7,9,11,13,15,17,19,21,-1,23,-1,-1,25,27,-1,-1,29,31,33,35,37,-1,39,41,43,45,47,49,-1,51,53,55,57,59,-1,-1,-1,-1,-1,-1,-1,-1,-1,-1,-1,-1,-1,-1,-1,-1,-1,-1,-1,-1,-1,-1,-1,-1],"loss_changes":[1.01785645E2,1.16657715E1,1.2013428E1,4.584961E0,1.5728027E1,3.7746582E0,1.442627E0,2.360962E0,2.8766155E-2,8.351074E0,1.4349548E1,0E0,1.1679077E0,0E0,0E0,4.2288208E-1,1.7785645E-1,0E0,0E0,8.432495E0,6.6929626E-1,3.6816711E0,1.8086731E1,2.9785156E-2,0E0,1.18637085E-1,2.2767639E-1,2.2259521E-1,8.724594E-1,2.51062E0,8.9803314E-1,0E0,2.9177856E-1,5.499878E-1,1.19314575E1,1.5381165E0,1.2611389E0,0E0,0E0,0E0,0E0,0E0,0E0,0E0,0E0,0E0,0E0,0E0,0E0,0E0,0E0,0E0,0E0,0E0,0E0,0E0,0E0,0E0,0E0,0E0,0E0],"parents":[2147483647,0,0,1,1,2,2,3,3,4,4,5,5,6,6,7,7,8,8,9,9,10,10,12,12,15,15,16,16,19,19,20,20,21,21,22,22,23,23,25,25,26,26,27,27,28,28,29,29,30,30,32,32,33,33,34,34,35,35,36,36],"right_children":[2,4,6,8,10,12,14,16,18,20,22,-1,24,-1,-1,26,28,-1,-1,30,32,34,36,38,-1,40,42,44,46,48,50,-1,52,54,56,58,60,-1,-1,-1,-1,-1,-1,-1,-1,-1,-1,-1,-1,-1,-1,-1,-1,-1,-1,-1,-1,-1,-1,-1,-1],"split_conditions":[1.7659344E-5,6.8229236E-9,2.6622178E-5,8.6768565E-11,1.0180055E-7,9.664075E-7,3.5381967E-5,6.308509E-9,2.363427E-9,7.7282857E-7,5.8645956E-6,2.9075736E-1,2.7639799E-5,2.871782E-1,3.189559E-1,9.3318554E-11,7.093078E-11,1.02523535E-1,6.460862E-2,3.694388E-8,7.497045E-7,1.9328404E-6,6.421441E-7,5.8317455E-6,2.5578418E-1,3.3699574E-11,2.3766236E-10,5.569153E-10,1.1881307E-9,3.2336112E-7,6.3039977E-7,9.518323E-2,2.5293713E-7,9.4573886E-7,9.903603E-7,1.5673847E-6,1.5754196E-5,2.4521218E-1,2.2202376E-1,1.7033386E-1,1.5168998E-1,5.700412E-2,1.9947156E-1,1.8373226E-1,1.960716E-1,1.0641738E-1,1.8259133E-1,2.1988268E-1,2.6969784E-1,1.4683056E-1,1.9376802E-1,5.2678794E-2,2.8414452E-1,1.5733525E-1,1.3052437E-1,2.4188496E-1,1.5440851E-1,2.8464597E-1,2.0248127E-1,1.8246217E-1,2.08233E-1],"split_indices":[9,13,7,7,2,2,6,13,14,8,10,0,9,0,0,5,7,0,0,2,10,12,2,4,0,2,9,10,12,9,10,0,14,6,4,3,11,0,0,0,0,0,0,0,0,0,0,0,0,0,0,0,0,0,0,0,0,0,0,0,0],"split_type":[0,0,0,0,0,0,0,0,0,0,0,0,0,0,0,0,0,0,0,0,0,0,0,0,0,0,0,0,0,0,0,0,0,0,0,0,0,0,0,0,0,0,0,0,0,0,0,0,0,0,0,0,0,0,0,0,0,0,0,0,0],"sum_hessian":[1.058E4,8.471E3,2.109E3,2.89E3,5.581E3,1.157E3,9.52E2,2.831E3,5.9E1,3.099E3,2.482E3,2.11E2,9.46E2,6.2E2,3.32E2,8.21E2,2.01E3,5E1,9E0,2.889E3,2.1E2,1.163E3,1.319E3,4.86E2,4.6E2,7.37E2,8.4E1,1.81E3,2E2,2.655E3,2.34E2,3E0,2.07E2,4.13E2,7.5E2,3.02E2,1.017E3,1.46E2,3.4E2,6.02E2,1.35E2,2E0,8.2E1,5.29E2,1.281E3,2E1,1.8E2,2.54E3,1.15E2,1.67E2,6.7E1,1E0,2.06E2,1.51E2,2.62E2,1.94E2,5.56E2,2.67E2,3.5E1,6.8E2,3.37E2],"tree_param":{"num_deleted":"0","num_feature":"16","num_nodes":"61","size_leaf_vector":"1"}},{"base_weights":[-7.140039E-1,2.5087082E-1,-1.4650267E0,4.606277E-1,-2.3073392E-1,-9.5057535E-1,-1.7921692E0,5.071096E-1,2.3690455E-1,-1.3123819E0,-1.8405762E-1,-7.373145E-1,-1.2136059E0,-1.5744973E0,-1.9492035E0,5.265553E-1,3.689996E-1,-3.984724E-1,2.5062755E-1,-9.707431E-2,-1.5635486E0,2.6757056E-3,-3.4478074E-1,-1.9167098E0,-6.6029614E-1,-1.6148313E0,-1.0619358E0,-1.7580818E0,-1.4520594E0,-1.8415625E0,-2.014557E0,5.3907996E-1,4.22083E-1,-5.760542E-1,3.7933663E-1,3.2042965E-1,1.3509162E-1,2.1316777E-1,-4.8875678E-1,-3.4847322E-1,-1.6088024E0,7.243568E-2,-7.4116066E-2,-1.4037355E0,-2.9225296E-1,-1.9842339E0,-3.535666E-1,-3.8197723E-1,-7.3283046E-1,-1.4195666E0,-1.9162805E0,-8.95173E-1,-1.2280903E0,-1.6695696E0,-6.174172E-1,-1.1330502E0,-1.6586996E0,-1.7657076E0,-6.020099E-1,-2.0440187E0,-1.8480297E0,1.4600922E-1,1.6878806E-1,-1.5216623E-2,1.5387125E-1,-6.863943E-3,-2.2584574E-1,1.17583595E-1,-7.753701E-2,-4.6492837E-2,1.0460984E-1,2.1484354E-1,3.781847E-2,-3.1808725E-1,-3.6459085E-2,-1.5340649E-1,-3.4064772E-3,-2.3355262E-1,-4.945875E-1,1.15973115E-1,1.652605E-2,-2.4071516E-1,-1.7684933E-2,-1.425649E-1,-4.642315E-1,-6.61943E-2,-1.13175444E-1,-2.2221635E-1,-6.029745E-1,-2.091624E-1,-9.9819764E-2,-2.041699E-1,-2.7123278E-1,-4.9135002E-1,-3.206307E-1,-5.997194E-1,-4.2698652E-1,-2.1825396E-1,-2.9177523E-1,-4.3235102E-1,-2.879497E-1,-5.569813E-1,-4.3185076E-1,-2.9332033E-1,-3.5729113E-1,-4.546332E-1,-5.746657E-1,-5.645317E-1,-4.9024007E-1,-5.619932E-1,-6.2110686E-1,-4.1920412E-1,-6.3866806E-1],"categories":[],"categories_nodes":[],"categories_segments":[],"categories_sizes":[],"default_left":[0,0,0,0,0,0,0,0,0,0,0,0,0,0,0,0,0,0,0,0,0,0,0,0,0,0,0,0,0,0,0,0,0,0,0,0,0,0,0,0,0,0,0,0,0,0,0,0,0,0,0,0,0,0,0,0,0,0,0,0,0,0,0,0,0,0,0,0,0,0,0,0,0,0,0,0,0,0,0,0,0,0,0,0,0,0,0,0,0,0,0,0,0,0,0,0,0,0,0,0,0,0,0,0,0,0,0,0,0,0,0,0,0],"id":3,"left_children":[1,3,5,7,9,11,13,15,17,19,21,23,25,27,29,31,33,-1,35,37,39,41,43,45,47,49,51,53,55,57,59,61,63,65,67,69,71,-1,73,75,77,79,81,83,85,87,-1,89,91,93,95,97,99,101,-1,103,105,107,-1,109,111,-1,-1,-1,-1,-1,-1,-1,-1,-1,-1,-1,-1,-1,-1,-1,-1,-1,-1,-1,-1,-1,-1,-1,-1,-1,-1,-1,-1,-1,-1,-1,-1,-1,-1,-1,-1,-1,-1,-1,-1,-1,-1,-1,-1,-1,-1,-1,-1,-1,-1,-1,-1],"loss_changes":[7.6678154E3,4.680305E2,9.996758E2,3.3437683E1,7.0743614E1,1.2896313E2,1.2121582E2,6.979004E0,1.2296425E1,1.7552414E1,4.0487595E1,1.1509418E2,6.12688E1,3.1815674E1,1.1118652E1,2.8330078E0,3.471611E0,0E0,4.4164658E0,3.826985E0,2.0787506E0,3.3534884E0,3.9917564E1,1.5492554E0,2.4026062E1,1.3878906E1,1.9792847E1,1.2680786E1,5.896472E1,6.578125E0,2.6054688E0,2.2979126E0,1.0975895E1,3.739028E-1,2.7550735E0,4.677269E0,1.0115807E0,0E0,1.5502021E0,1.5892479E-1,2.3749542E-1,1.7663009E0,3.244145E0,3.8012772E0,4.1285133E0,7.4661255E-1,0E0,3.664402E0,7.9246216E0,1.1648865E1,1.5624695E0,4.2243347E0,2.0051819E1,1.7723999E1,0E0,2.1280823E0,1.7629272E1,5.507324E0,0E0,1.0493164E0,2.3100708E1,0E0,0E0,0E0,0E0,0E0,0E0,0E0,0E0,0E0,0E0,0E0,0E0,0E0,0E0,0E0,0E0,0E0,0E0,0E0,0E0,0E0,0E0,0E0,0E0,0E0,0E0,0E0,0E0,0E0,0E0,0E0,0E0,0E0,0E0,0E0,0E0,0E0,0E0,0E0,0E0,0E0,0E0,0E0,0E0,0E0,0E0,0E0,0E0,0E0,0E0,0E0,0E0],"parents":[2147483647,0,0,1,1,2,2,3,3,4,4,5,5,6,6,7,7,8,8,9,9,10,10,11,11,12,12,13,13,14,14,15,15,16,16,18,18,19,19,20,20,21,21,22,22,23,23,24,24,25,25,26,26,27,27,28,28,29,29,30,30,31,31,32,32,33,33,34,34,35,35,36,36,38,38,39,39,40,40,41,41,42,42,43,43,44,44,45,45,47,47,48,48,49,49,50,50,51,51,52,52,53,53,55,55,56,56,57,57,59,59,60,60],"right_children":[2,4,6,8,10,12,14,16,18,20,22,24,26,28,30,32,34,-1,36,38,40,42,44,46,48,50,52,54,56,58,60,62,64,66,68,70,72,-1,74,76,78,80,82,84,86,88,-1,90,92,94,96,98,100,102,-1,104,106,108,-1,110,112,-1,-1,-1,-1,-1,-1,-1,-1,-1,-1,-1,-1,-1,-1,-1,-1,-1,-1,-1,-1,-1,-1,-1,-1,-1,-1,-1,-1,-1,-1,-1,-1,-1,-1,-1,-1,-1,-1,-1,-1,-1,-1,-1,-1,-1,-1,-1,-1,-1,-1,-1,-1],"split_conditions":[6.0033245E-9,8.089522E-11,8.087901E-7,1.3471024E-10,6.7445343E-9,1.6073044E-7,1.2940451E-6,6.729397E-11,1.0994221E-9,8.6768565E-11,5.9752696E-11,6.992602E-9,1.1068626E-6,8.675591E-6,6.7258115E-6,8.992762E-11,2.6888988E-11,-3.984724E-1,2.4417035E-9,5.569153E-10,8.451269E-12,2.3824323E-11,2.9250302E-9,5.0782676E-9,2.0595591E-8,9.679906E-7,4.613667E-7,5.601207E-6,4.2021406E-6,2.0821367E-6,1.5760517E-5,9.893205E-10,2.614941E-10,3.7157447E-12,3.1460545E-10,4.6716533E-12,6.8949655E-9,2.1316777E-1,3.8050556E-11,4.0882842E-11,2.0146776E-10,1.4184484E-10,1.8850833E-10,2.2737248E-10,1.0158839E-9,6.213427E-10,-3.535666E-1,1.1518265E-8,5.165172E-8,7.528739E-7,1.0192178E-6,1.2623111E-7,4.640793E-6,4.2250745E-6,-6.174172E-1,2.4407889E-6,7.1967215E-6,1.6358277E-5,-6.020099E-1,2.5101083E-6,1.169422E-4,1.4600922E-1,1.6878806E-1,-1.5216623E-2,1.5387125E-1,-6.863943E-3,-2.2584574E-1,1.17583595E-1,-7.753701E-2,-4.6492837E-2,1.0460984E-1,2.1484354E-1,3.781847E-2,-3.1808725E-1,-3.6459085E-2,-1.5340649E-1,-3.4064772E-3,-2.3355262E-1,-4.945875E-1,1.15973115E-1,1.652605E-2,-2.4071516E-1,-1.7684933E-2,-1.425649E-1,-4.642315E-1,-6.61943E-2,-1.13175444E-1,-2.2221635E-1,-6.029745E-1,-2.091624E-1,-9.9819764E-2,-2.041699E-1,-2.7123278E-1,-4.9135002E-1,-3.206307E-1,-5.997194E-1,-4.2698652E-1,-2.1825396E-1,-2.9177523E-1,-4.3235102E-1,-2.879497E-1,-5.569813E-1,-4.3185076E-1,-2.9332033E-1,-3.5729113E-1,-4.546332E-1,-5.746657E-1,-5.645317E-1,-4.9024007E-1,-5.619932E-1,-6.2110686E-1,-4.1920412E-1,-6.3866806E-1],"split_indices":[7,7,3,5,13,3,2,7,11,7,3,14,14,10,4,4,2,0,14,10,3,3,14,14,14,7,3,6,4,2,4,11,9,3,9,3,13,0,2,2,8,5,6,7,9,2,0,14,2,11,14,2,11,14,0,4,4,13,0,3,11,0,0,0,0,0,0,0,0,0,0,0,0,0,0,0,0,0,0,0,0,0,0,0,0,0,0,0,0,0,0,0,0,0,0,0,0,0,0,0,0,0,0,0,0,0,0,0,0,0,0,0,0],"split_type":[0,0,0,0,0,0,0,0,0,0,0,0,0,0,0,0,0,0,0,0,0,0,0,0,0,0,0,0,0,0,0,0,0,0,0,0,0,0,0,0,0,0,0,0,0,0,0,0,0,0,0,0,0,0,0,0,0,0,0,0,0,0,0,0,0,0,0,0,0,0,0,0,0,0,0,0,0,0,0,0,0,0,0,0,0,0,0,0,0,0,0,0,0,0,0,0,0,0,0,0,0,0,0,0,0,0,0,0,0,0,0,0,0],"sum_hessian":[1.058E4,4.631E3,5.949E3,3.226E3,1.405E3,2.314E3,3.635E3,2.67E3,5.56E2,5.7E1,1.348E3,1.28E3,1.034E3,1.528E3,2.107E3,2.338E3,3.32E2,4E0,5.52E2,1E1,4.7E1,6.24E2,7.24E2,7.7E1,1.203E3,2.81E2,7.53E2,6.06E2,9.22E2,8.07E2,1.3E3,2.084E3,2.54E2,3E0,3.29E2,3.43E2,2.09E2,3E0,7E0,2E0,4.5E1,3.27E2,2.97E2,3.3E1,6.91E2,6.9E1,8E0,2.5E2,9.53E2,1.74E2,1.07E2,3.79E2,3.74E2,4.73E2,1.33E2,3.65E2,5.57E2,5.61E2,2.46E2,1.095E3,2.05E2,6.53E2,1.431E3,4.1E1,2.13E2,1E0,2E0,3.23E2,6E0,1.9E1,3.24E2,2E0,2.07E2,2E0,5E0,1E0,1E0,3E0,4.2E1,1.6E1,3.11E2,5E0,2.92E2,5E0,2.8E1,3.77E2,3.14E2,2E0,6.7E1,3.2E1,2.18E2,7.34E2,2.19E2,1.05E2,6.9E1,8.9E1,1.8E1,1.23E2,2.56E2,2.06E2,1.68E2,2.57E2,2.16E2,1.04E2,2.61E2,3.62E2,1.95E2,2.91E2,2.7E2,1.56E2,9.39E2,8.1E1,1.24E2],"tree_param":{"num_deleted":"0","num_feature":"16","num_nodes":"113","size_leaf_vector":"1"}},{"base_weights":[4.9950826E-1,4.6710372E-1,6.469385E-1,4.2897052E-1,4.8779768E-1,6.0962534E-1,7.2286433E-1,4.3366957E-1,2.09163E-1,5.475928E-1,4.6443003E-1,6.5229154E-1,5.724745E-1,2.0937063E-1,2.3075806E-1,4.0350246E-1,4.4919932E-1,7.487082E-2,1.3291374E-1,5.3106016E-1,6.817986E-1,1.8825946E-2,4.7329918E-1,2.0538588E-1,6.071367E-1,1.624417E-1,1.8377124E-1,4.0463394E-1,2.7323937E-2,3.6746353E-1,4.5135605E-1,2.3770086E-1,9.483192E-2,5.496606E-1,2.0312469E-1,1.6244607E-2,6.852123E-1,3.9826753E-3,1.0260593E-1,6.300532E-1,4.645898E-1,1.6489246E-1,1.9429168E-1,1.1290821E-1,1.2607662E-1,7.1655326E-2,1.330975E-1,2.7809566E-2,1.3550483E-1,2.0744607E-2,7.727447E-2,3.9789733E-2,1.7050402E-3,1.607537E-1,2.1266894E-1,1.177742E-2,9.56339E-2,3.1244608E-2,2.0642044E-1,3.9235962E-4,1.8717764E-2,4.2678066E-2,5.591371E-3,1.0276907E-1,2.2212104E-1,5.0621312E-2,1.4107054E-1],"categories":[],"categories_nodes":[],"categories_segments":[],"categories_sizes":[],"default_left":[0,0,0,0,0,0,0,0,0,0,0,0,0,0,0,0,0,0,0,0,0,0,0,0,0,0,0,0,0,0,0,0,0,0,0,0,0,0,0,0,0,0,0,0,0,0,0,0,0,0,0,0,0,0,0,0,0,0,0,0,0,0,0,0,0,0,0],"id":4,"left_children":[1,3,5,7,9,11,13,15,17,19,21,23,25,-1,-1,27,29,-1,31,33,35,37,39,-1,41,-1,-1,43,-1,45,47,49,51,53,55,-1,57,59,61,63,65,-1,-1,-1,-1,-1,-1,-1,-1,-1,-1,-1,-1,-1,-1,-1,-1,-1,-1,-1,-1,-1,-1,-1,-1,-1,-1],"loss_changes":[5.0247314E1,6.638794E0,4.95343E0,3.070984E0,7.595459E0,1.6602173E0,1.8249512E-1,1.22229E0,1.7017174E-1,3.1280518E0,1.5981445E1,4.4560242E-1,5.3100586E-1,0E0,0E0,3.265381E-1,1.812439E-1,0E0,7.722053E-2,8.458527E0,3.2500458E-1,9.907688E-2,5.123108E0,0E0,2.3784637E-1,0E0,0E0,2.940979E-1,0E0,4.428091E-1,1.8240356E-1,2.294153E-3,6.664334E-2,2.5437317E0,1.4467888E0,0E0,2.0710754E-1,1.0698634E-2,3.7304863E-2,6.281616E0,6.2038574E0,0E0,0E0,0E0,0E0,0E0,0E0,0E0,0E0,0E0,0E0,0E0,0E0,0E0,0E0,0E0,0E0,0E0,0E0,0E0,0E0,0E0,0E0,0E0,0E0,0E0,0E0],"parents":[2147483647,0,0,1,1,2,2,3,3,4,4,5,5,6,6,7,7,8,8,9,9,10,10,11,11,12,12,15,15,16,16,18,18,19,19,20,20,21,21,22,22,24,24,27,27,29,29,30,30,31,31,32,32,33,33,34,34,36,36,37,37,38,38,39,39,40,40],"right_children":[2,4,6,8,10,12,14,16,18,20,22,24,26,-1,-1,28,30,-1,32,34,36,38,40,-1,42,-1,-1,44,-1,46,48,50,52,54,56,-1,58,60,62,64,66,-1,-1,-1,-1,-1,-1,-1,-1,-1,-1,-1,-1,-1,-1,-1,-1,-1,-1,-1,-1,-1,-1,-1,-1,-1,-1],"split_conditions":[1.789656E-5,6.9211774E-9,4.9834794E-5,8.8744914E-11,4.5496993E-9,1.6062272E-6,1.5760517E-5,1.0390802E-9,6.6895525E-9,8.248746E-9,8.248746E-9,2.8873085E-6,2.9218952E-5,2.0937063E-1,2.3075806E-1,8.992762E-11,2.4150462E-10,7.487082E-2,9.5235174E-11,1.4411519E-9,4.3979678E-9,5.930001E-9,1.7138966E-8,2.0538588E-1,2.9218952E-5,1.624417E-1,1.8377124E-1,2.7394316E-11,2.7323937E-2,1.6052955E-10,4.467038E-11,2.8710584E-10,6.8229236E-9,5.1115627E-9,5.4155334E-9,1.6244607E-2,5.8142633E-9,1.7579964E-8,7.2797497E-9,1.7065116E-8,4.8835783E-8,1.6489246E-1,1.9429168E-1,1.1290821E-1,1.2607662E-1,7.1655326E-2,1.330975E-1,2.7809566E-2,1.3550483E-1,2.0744607E-2,7.727447E-2,3.9789733E-2,1.7050402E-3,1.607537E-1,2.1266894E-1,1.177742E-2,9.56339E-2,3.1244608E-2,2.0642044E-1,3.9235962E-4,1.8717764E-2,4.2678066E-2,5.591371E-3,1.0276907E-1,2.2212104E-1,5.0621312E-2,1.4107054E-1],"split_indices":[8,13,8,7,9,2,4,11,13,14,14,3,8,0,0,4,9,0,7,9,8,14,14,0,8,0,0,2,0,8,7,9,13,11,14,0,6,2,7,8,6,0,0,0,0,0,0,0,0,0,0,0,0,0,0,0,0,0,0,0,0,0,0,0,0,0,0],"split_type":[0,0,0,0,0,0,0,0,0,0,0,0,0,0,0,0,0,0,0,0,0,0,0,0,0,0,0,0,0,0,0,0,0,0,0,0,0,0,0,0,0,0,0,0,0,0,0,0,0,0,0,0,0,0,0,0,0,0,0,0,0,0,0,0,0,0,0],"sum_hessian":[1.058E4,8.677E3,1.903E3,3.06E3,5.617E3,1.282E3,6.21E2,2.995E3,6.5E1,1.572E3,4.045E3,5.89E2,6.93E2,4.14E2,2.07E2,1.027E3,1.968E3,4.1E1,2.4E1,1.404E3,1.68E2,7.9E1,3.966E3,3.35E2,2.54E2,3.99E2,2.94E2,1.023E3,4E0,5.5E1,1.913E3,5E0,1.9E1,1.328E3,7.6E1,1E0,1.67E2,6.8E1,1.1E1,2.05E2,3.761E3,1.11E2,1.43E2,3.73E2,6.5E2,2.2E1,3.3E1,2E0,1.911E3,1E0,4E0,1.3E1,6E0,1.226E3,1.02E2,3.2E1,4.4E1,1E0,1.66E2,6.6E1,2E0,7E0,4E0,5.8E1,1.47E2,7.1E1,3.69E3],"tree_param":{"num_deleted":"0","num_feature":"16","num_nodes":"67","size_leaf_vector":"1"}},{"base_weights":[-5.011241E-1,1.6476683E-1,-1.0359757E0,3.1063655E-1,-2.0856383E-1,-7.195516E-1,-1.2945381E0,3.5866344E-1,1.5393347E-1,-9.4389373E-1,-1.6118425E-1,-5.391902E-1,-8.9991444E-1,-1.1494753E0,-1.3798075E0,3.7614048E-1,2.4986532E-1,-3.0674213E-1,1.7048538E-1,2.0248458E-1,-1.1295843E0,-5.3124443E-2,-2.7970594E-1,-1.3425088E0,-4.9526912E-1,-1.1394724E0,-7.615029E-1,-1.3116461E0,-1.0393144E0,-1.2994465E0,-1.4172837E0,3.788651E-1,-2.0867425E-1,-7.770572E-1,2.5772893E-1,1.2088067E-1,-1.8948392E0,2.887289E-1,9.923463E-2,-1.8953626E-1,3.357627E-1,-8.5620576E-1,-1.2654537E0,1.288019E-1,-6.8423145E-2,-8.3770835E-1,-2.1310094E-1,-7.7771354E-1,-1.4048529E0,-3.8718125E-1,-6.0377514E-1,-1.0085355E0,-1.4511935E0,-6.1246157E-1,-9.2510784E-1,-1.2270579E0,-4.6780923E-1,-8.08127E-1,-1.1795324E0,-1.5289809E0,-1.2410166E0,-1.4396125E0,-1.3013592E0,1.1450879E-1,-6.7527995E-2,-1.6165249E-1,8.858848E-2,6.741213E-2,-4.1708788E-1,2.3913996E-2,8.707773E-2,1.4456484E-1,-1.8487008E-1,-6.896004E-1,1.8645665E-2,9.560899E-2,-1.2143392E-2,-2.3715228E-1,3.363318E-2,2.2589697E-1,2.5553642E-2,-3.7996197E-1,-1.6934033E-1,-3.291886E-1,-4.4734505E-1,-2.4069243E-3,6.986305E-2,-1.08444594E-1,-1.6853582E-2,-1.4710294E-1,-3.763208E-1,-5.598066E-2,-1.0880621E-1,-2.7266106E-1,-1.1596507E-1,-9.413893E-2,-4.2540807E-1,-2.8163984E-1,-1.1112203E-1,-2.1509154E-1,-1.2228004E-1,-3.5637408E-1,-2.1094337E-1,-3.2947E-1,-4.6368164E-1,-1.6678467E-1,-2.1315677E-1,-3.312611E-1,-2.2533284E-1,-4.1712257E-1,-3.1456637E-1,-2.3313257E-1,-3.388548E-1,-2.8177562E-1,-3.789334E-1,-9.657936E-2,-4.6076876E-1,-3.2427096E-1,-4.1386285E-1,-3.929201E-1,-4.422094E-1,-2.9482305E-1,-4.4167426E-1],"categories":[],"categories_nodes":[],"categories_segments":[],"categories_sizes":[],"default_left":[0,0,0,0,0,0,0,0,0,0,0,0,0,0,0,0,0,0,0,0,0,0,0,0,0,0,0,0,0,0,0,0,0,0,0,0,0,0,0,0,0,0,0,0,0,0,0,0,0,0,0,0,0,0,0,0,0,0,0,0,0,0,0,0,0,0,0,0,0,0,0,0,0,0,0,0,0,0,0,0,0,0,0,0,0,0,0,0,0,0,0,0,0,0,0,0,0,0,0,0,0,0,0,0,0,0,0,0,0,0,0,0,0,0,0,0,0,0,0,0,0,0,0],"id":5,"left_children":[1,3,5,7,9,11,13,15,17,19,21,23,25,27,29,31,33,35,37,39,41,43,45,47,49,51,53,55,57,59,61,63,65,67,69,71,73,75,77,-1,79,81,83,85,87,89,91,93,95,97,99,101,103,105,107,109,-1,111,113,115,117,119,121,-1,-1,-1,-1,-1,-1,-1,-1,-1,-1,-1,-1,-1,-1,-1,-1,-1,-1,-1,-1,-1,-1,-1,-1,-1,-1,-1,-1,-1,-1,-1,-1,-1,-1,-1,-1,-1,-1,-1,-1,-1,-1,-1,-1,-1,-1,-1,-1,-1,-1,-1,-1,-1,-1,-1,-1,-1,-1,-1,-1],"loss_changes":[3.7686238E3,2.567781E2,4.7916064E2,2.5457794E1,4.6010353E1,8.542786E1,3.8342773E1,4.8384094E0,6.1294746E0,1.7258446E1,1.5943199E1,4.6013977E1,4.2867188E1,2.0092407E1,4.2661133E0,3.6371155E0,3.1235352E0,1.9244032E1,6.4585514E0,1.5464134E0,1.4794388E0,1.8262672E0,2.1897942E1,1.3018265E0,1.4496796E1,1.8168823E1,1.9891449E1,8.186401E0,2.238684E1,6.9139404E0,1.6777344E0,3.8866272E0,1.9894533E0,2.1553612E0,2.0615788E0,6.4172473E0,4.8846016E0,2.86405E0,5.6105566E0,0E0,1.0859159E0,2.397543E0,3.3691406E-2,7.281108E-1,2.1434803E0,8.503849E0,2.04109E0,1.1040878E-1,4.174347E-1,5.500229E0,1.3586731E1,1.7899628E1,2.967865E0,2.054428E0,1.1573242E1,9.155823E0,0E0,1.8637085E0,7.7703247E0,5.822754E-1,1.0241943E1,3.170166E0,1.1184998E1,0E0,0E0,0E0,0E0,0E0,0E0,0E0,0E0,0E0,0E0,0E0,0E0,0E0,0E0,0E0,0E0,0E0,0E0,0E0,0E0,0E0,0E0,0E0,0E0,0E0,0E0,0E0,0E0,0E0,0E0,0E0,0E0,0E0,0E0,0E0,0E0,0E0,0E0,0E0,0E0,0E0,0E0,0E0,0E0,0E0,0E0,0E0,0E0,0E0,0E0,0E0,0E0,0E0,0E0,0E0,0E0,0E0,0E0,0E0,0E0],"parents":[2147483647,0,0,1,1,2,2,3,3,4,4,5,5,6,6,7,7,8,8,9,9,10,10,11,11,12,12,13,13,14,14,15,15,16,16,17,17,18,18,19,19,20,20,21,21,22,22,23,23,24,24,25,25,26,26,27,27,28,28,29,29,30,30,31,31,32,32,33,33,34,34,35,35,36,36,37,37,38,38,40,40,41,41,42,42,43,43,44,44,45,45,46,46,47,47,48,48,49,49,50,50,51,51,52,52,53,53,54,54,55,55,57,57,58,58,59,59,60,60,61,61,62,62],"right_children":[2,4,6,8,10,12,14,16,18,20,22,24,26,28,30,32,34,36,38,40,42,44,46,48,50,52,54,56,58,60,62,64,66,68,70,72,74,76,78,-1,80,82,84,86,88,90,92,94,96,98,100,102,104,106,108,110,-1,112,114,116,118,120,122,-1,-1,-1,-1,-1,-1,-1,-1,-1,-1,-1,-1,-1,-1,-1,-1,-1,-1,-1,-1,-1,-1,-1,-1,-1,-1,-1,-1,-1,-1,-1,-1,-1,-1,-1,-1,-1,-1,-1,-1,-1,-1,-1,-1,-1,-1,-1,-1,-1,-1,-1,-1,-1,-1,-1,-1,-1,-1,-1,-1],"split_conditions":[9.233939E-9,8.8744914E-11,1.1792982E-6,2.8449723E-10,7.022475E-9,2.072991E-7,2.5535276E-6,6.6777632E-9,1.0838357E-9,9.5235174E-11,1.3184494E-10,8.248746E-9,2.067622E-6,1.172165E-5,1.5651284E-6,7.962029E-11,2.7981083E-11,1.7978728E-10,1.3696222E-10,4.252895E-11,6.3989913E-10,1.6634866E-10,4.100672E-9,7.7943385E-9,2.3334637E-8,1.8920023E-6,4.3963732E-7,6.7214596E-6,4.7271715E-6,1.4057182E-5,1.3606509E-5,6.1977673E-10,1.4087384E-10,2.561848E-11,5.975049E-12,9.029214E-11,9.344294E-12,7.482425E-11,1.10283435E-10,-1.8953626E-1,6.11147E-11,5.6810634E-10,1.5159148E-9,7.852729E-11,1.7105259E-9,1.068994E-9,4.5496993E-9,3.5155399E-9,1.7138116E-9,1.6747094E-8,8.444452E-7,1.4015201E-6,1.5650328E-6,1.3829479E-6,6.743693E-6,6.3018338E-6,-4.6780923E-1,1.8384741E-6,1.1557344E-6,1.8475079E-6,1.2188245E-5,9.512337E-6,7.286204E-5,1.1450879E-1,-6.7527995E-2,-1.6165249E-1,8.858848E-2,6.741213E-2,-4.1708788E-1,2.3913996E-2,8.707773E-2,1.4456484E-1,-1.8487008E-1,-6.896004E-1,1.8645665E-2,9.560899E-2,-1.2143392E-2,-2.3715228E-1,3.363318E-2,2.2589697E-1,2.5553642E-2,-3.7996197E-1,-1.6934033E-1,-3.291886E-1,-4.4734505E-1,-2.4069243E-3,6.986305E-2,-1.08444594E-1,-1.6853582E-2,-1.4710294E-1,-3.763208E-1,-5.598066E-2,-1.0880621E-1,-2.7266106E-1,-1.1596507E-1,-9.413893E-2,-4.2540807E-1,-2.8163984E-1,-1.1112203E-1,-2.1509154E-1,-1.2228004E-1,-3.5637408E-1,-2.1094337E-1,-3.2947E-1,-4.6368164E-1,-1.6678467E-1,-2.1315677E-1,-3.312611E-1,-2.2533284E-1,-4.1712257E-1,-3.1456637E-1,-2.3313257E-1,-3.388548E-1,-2.8177562E-1,-3.789334E-1,-9.657936E-2,-4.6076876E-1,-3.2427096E-1,-4.1386285E-1,-3.929201E-1,-4.422094E-1,-2.9482305E-1,-4.4167426E-1],"split_indices":[7,7,3,9,13,3,3,13,11,7,3,14,14,11,2,7,2,8,5,2,10,4,14,8,2,6,2,6,4,11,4,10,6,2,3,6,3,7,6,0,2,10,11,2,11,8,9,11,12,5,9,11,5,4,12,11,0,2,2,4,5,5,14,0,0,0,0,0,0,0,0,0,0,0,0,0,0,0,0,0,0,0,0,0,0,0,0,0,0,0,0,0,0,0,0,0,0,0,0,0,0,0,0,0,0,0,0,0,0,0,0,0,0,0,0,0,0,0,0,0,0,0,0],"split_type":[0,0,0,0,0,0,0,0,0,0,0,0,0,0,0,0,0,0,0,0,0,0,0,0,0,0,0,0,0,0,0,0,0,0,0,0,0,0,0,0,0,0,0,0,0,0,0,0,0,0,0,0,0,0,0,0,0,0,0,0,0,0,0,0,0,0,0,0,0,0,0,0,0,0,0,0,0,0,0,0,0,0,0,0,0,0,0,0,0,0,0,0,0,0,0,0,0,0,0,0,0,0,0,0,0,0,0,0,0,0,0,0,0,0,0,0,0,0,0,0,0,0,0],"sum_hessian":[1.058E4,4.713E3,5.867E3,3.389E3,1.324E3,2.64E3,3.227E3,2.593E3,7.96E2,7.9E1,1.245E3,1.322E3,1.318E3,1.2E3,2.027E3,2.232E3,3.61E2,2.7E1,7.69E2,1.1E1,6.8E1,6.52E2,5.93E2,6.7E1,1.255E3,4.8E2,8.38E2,4.81E2,7.19E2,6.56E2,1.371E3,2.222E3,1E1,2E0,3.59E2,2.2E1,5E0,2.88E2,4.81E2,1E0,1E1,2.5E1,4.3E1,5E1,6.02E2,6.2E1,5.31E2,8E0,5.9E1,6.31E2,6.24E2,3.41E2,1.39E2,4.41E2,3.97E2,3.63E2,1.18E2,2.74E2,4.45E2,1.28E2,5.28E2,1.14E3,2.31E2,2.212E3,1E1,6E0,4E0,1E0,1E0,5.6E1,3.03E2,1.5E1,7E0,4E0,1E0,2.64E2,2.4E1,6E0,4.75E2,3E0,7E0,9E0,1.6E1,2.8E1,1.5E1,2.2E1,2.8E1,2.3E1,5.79E2,3.5E1,2.7E1,4.53E2,7.8E1,5E0,3E0,1E0,5.8E1,1.7E1,6.14E2,3.94E2,2.3E2,2.13E2,1.28E2,3.2E1,1.07E2,2.84E2,1.57E2,1.93E2,2.04E2,1.86E2,1.77E2,2.53E2,2.1E1,1.18E2,3.27E2,1E0,1.27E2,2.49E2,2.79E2,2.47E2,8.93E2,8.3E1,1.48E2],"tree_param":{"num_deleted":"0","num_feature":"16","num_nodes":"123","size_leaf_vector":"1"}},{"base_weights":[3.499883E-1,3.2373336E-1,4.4564888E-1,3.3404583E-1,2.8103137E-1,4.185252E-1,5.007169E-1,3.245518E-1,5.004378E-1,2.2067675E-1,3.3737272E-1,4.9724337E-1,3.9731374E-1,1.4445136E-1,1.6100626E-1,3.3363932E-1,2.0280139E-1,5.608664E-1,4.1728735E-1,1.7943284E-1,2.4716032E-1,4.9706694E-1,2.8744018E-1,5.19778E-1,1.2121669E-1,3.59419E-1,4.2213404E-1,3.0100307E-1,3.7775216E-1,1.5212542E-1,2.7173108E-1,2.553099E-2,1.6954036E-1,3.3867836E-1,1.6865474E-1,2.1151453E-1,1.6456099E-1,3.3481014E-1,2.2384411E-1,5.215928E-1,3.6342466E-1,3.3711666E-1,2.7349278E-1,5.2333266E-1,1.6589016E-1,1.3045368E-1,3.514924E-1,4.3984565E-1,1.20902345E-1,9.2007145E-2,2.4505123E-2,1.3236913E-1,1.07845984E-1,3.2590605E-2,5.18958E-2,1.0610577E-1,5.524507E-2,1.2106225E-1,6.7929454E-2,4.5762002E-2,7.782107E-2,4.3433048E-2,5.245128E-2,7.99649E-2,1.23757936E-1,7.6822475E-2,6.374043E-2,1.3735951E-1,1.6980214E-1,5.6582186E-2,1.1611857E-1,8.394351E-2,1.2280729E-1,7.8839086E-2,8.977231E-2,1.7143543E-1,1.470174E-1,1.0747675E-2,5.919095E-2,8.9805424E-2,1.0746871E-1,1.3617127E-1,1.198625E-1],"categories":[],"categories_nodes":[],"categories_segments":[],"categories_sizes":[],"default_left":[0,0,0,0,0,0,0,0,0,0,0,0,0,0,0,0,0,0,0,0,0,0,0,0,0,0,0,0,0,0,0,0,0,0,0,0,0,0,0,0,0,0,0,0,0,0,0,0,0,0,0,0,0,0,0,0,0,0,0,0,0,0,0,0,0,0,0,0,0,0,0,0,0,0,0,0,0,0,0,0,0,0,0],"id":6,"left_children":[1,3,5,7,9,11,13,15,17,19,21,23,25,-1,-1,27,29,31,33,35,37,39,41,43,-1,45,47,49,51,53,55,-1,-1,57,-1,59,61,63,65,67,69,71,73,75,77,-1,79,81,-1,-1,-1,-1,-1,-1,-1,-1,-1,-1,-1,-1,-1,-1,-1,-1,-1,-1,-1,-1,-1,-1,-1,-1,-1,-1,-1,-1,-1,-1,-1,-1,-1,-1,-1],"loss_changes":[2.6430542E1,3.5637207E0,3.1900024E0,1.0398132E1,5.441101E0,2.3587952E0,2.5712585E-1,6.932556E0,1.5698166E0,8.141899E-1,6.5313187E0,4.6406555E-1,9.872894E-1,0E0,0E0,8.360291E0,1.5026035E0,3.6817932E-1,1.5750599E0,1.13575935E-1,8.978367E-1,4.5941925E-1,3.512268E-1,2.3396301E-1,0E0,1.3772202E-1,6.867981E-2,4.2009583E0,2.738861E0,2.1436548E-1,1.2699146E0,0E0,0E0,6.585283E-1,0E0,2.2873259E-1,1.8806934E-2,4.099264E-1,8.455658E-2,2.0786667E-1,6.749153E-2,4.4846535E-1,6.043625E-2,1.23435974E-1,9.274371E-3,0E0,4.9072266E-2,2.6031494E-2,0E0,0E0,0E0,0E0,0E0,0E0,0E0,0E0,0E0,0E0,0E0,0E0,0E0,0E0,0E0,0E0,0E0,0E0,0E0,0E0,0E0,0E0,0E0,0E0,0E0,0E0,0E0,0E0,0E0,0E0,0E0,0E0,0E0,0E0,0E0],"parents":[2147483647,0,0,1,1,2,2,3,3,4,4,5,5,6,6,7,7,8,8,9,9,10,10,11,11,12,12,15,15,16,16,17,17,18,18,19,19,20,20,21,21,22,22,23,23,25,25,26,26,27,27,28,28,29,29,30,30,33,33,35,35,36,36,37,37,38,38,39,39,40,40,41,41,42,42,43,43,44,44,46,46,47,47],"right_children":[2,4,6,8,10,12,14,16,18,20,22,24,26,-1,-1,28,30,32,34,36,38,40,42,44,-1,46,48,50,52,54,56,-1,-1,58,-1,60,62,64,66,68,70,72,74,76,78,-1,80,82,-1,-1,-1,-1,-1,-1,-1,-1,-1,-1,-1,-1,-1,-1,-1,-1,-1,-1,-1,-1,-1,-1,-1,-1,-1,-1,-1,-1,-1,-1,-1,-1,-1,-1,-1],"split_conditions":[1.5464713E-5,3.12697E-7,3.2489665E-5,2.1826936E-6,8.058471E-6,2.0348994E-6,2.5168629E-5,1.6073044E-7,2.0438858E-7,3.164706E-6,3.097023E-6,1.4057368E-6,2.5344123E-5,1.4445136E-1,1.6100626E-1,7.2201947E-9,1.2947789E-6,1.9533968E-6,7.6220845E-6,2.230091E-6,1.8475079E-6,5.6062127E-6,3.980079E-6,7.824532E-6,1.2121669E-1,7.089048E-6,1.8665281E-6,9.9192994E-11,5.9752696E-11,4.8612765E-7,1.3056081E-6,2.553099E-2,1.6954036E-1,1.2294579E-6,1.6865474E-1,1.8632821E-6,2.067622E-6,4.9890355E-6,4.2311744E-6,9.327354E-6,8.675591E-6,1.2521805E-5,1.597795E-5,2.437795E-5,8.8736203E-7,1.3045368E-1,1.8791705E-5,4.1392886E-6,1.20902345E-1,9.2007145E-2,2.4505123E-2,1.3236913E-1,1.07845984E-1,3.2590605E-2,5.18958E-2,1.0610577E-1,5.524507E-2,1.2106225E-1,6.7929454E-2,4.5762002E-2,7.782107E-2,4.3433048E-2,5.245128E-2,7.99649E-2,1.23757936E-1,7.6822475E-2,6.374043E-2,1.3735951E-1,1.6980214E-1,5.6582186E-2,1.1611857E-1,8.394351E-2,1.2280729E-1,7.8839086E-2,8.977231E-2,1.7143543E-1,1.470174E-1,1.0747675E-2,5.919095E-2,8.9805424E-2,1.0746871E-1,1.3617127E-1,1.198625E-1],"split_indices":[9,2,7,9,12,3,5,3,2,14,4,2,9,0,0,13,11,10,10,6,4,5,4,4,0,5,2,7,3,14,6,0,0,4,0,13,14,12,6,9,10,12,12,11,2,0,10,3,0,0,0,0,0,0,0,0,0,0,0,0,0,0,0,0,0,0,0,0,0,0,0,0,0,0,0,0,0,0,0,0,0,0,0],"split_type":[0,0,0,0,0,0,0,0,0,0,0,0,0,0,0,0,0,0,0,0,0,0,0,0,0,0,0,0,0,0,0,0,0,0,0,0,0,0,0,0,0,0,0,0,0,0,0,0,0,0,0,0,0,0,0,0,0,0,0,0,0,0,0,0,0,0,0,0,0,0,0,0,0,0,0,0,0,0,0,0,0,0,0],"sum_hessian":[1.058E4,8.305E3,2.275E3,6.684E3,1.621E3,1.53E3,7.45E2,6.326E3,3.58E2,7.85E2,8.36E2,3.2E2,1.21E3,4.95E2,2.5E2,5.885E3,4.41E2,2.04E2,1.54E2,3.1E2,4.75E2,1.97E2,6.39E2,2.54E2,6.6E1,4.85E2,7.25E2,3.387E3,2.498E3,2.56E2,1.85E2,2E0,2.02E2,1.02E2,5.2E1,9.4E1,2.16E2,9.7E1,3.78E2,1.64E2,3.3E1,1.35E2,5.04E2,2.51E2,3E0,4.1E1,4.44E2,3.65E2,3.6E2,3.301E3,8.6E1,5.53E2,1.945E3,8.5E1,1.71E2,9.4E1,9.1E1,6.3E1,3.9E1,4.4E1,5E1,7.9E1,1.37E2,5.4E1,4.3E1,9.3E1,2.85E2,7.2E1,9.2E1,5E0,2.8E1,7.8E1,5.7E1,3.64E2,1.4E2,9.6E1,1.55E2,1E0,2E0,5.6E1,3.88E2,2.63E2,1.02E2],"tree_param":{"num_deleted":"0","num_feature":"16","num_nodes":"83","size_leaf_vector":"1"}},{"base_weights":[-3.5195318E-1,3.5675827E-2,-8.048033E-1,1.9958411E-1,-2.625042E-1,-6.359685E-1,-9.3339545E-1,2.4507602E-1,5.1701996E-2,-7.906612E-1,-2.3142883E-1,-1.0679528E0,-6.142037E-1,-8.802206E-1,-1.0200942E0,2.686289E-1,1.616411E-1,-8.7674767E-1,6.686194E-2,-5.8739406E-1,-9.3393356E-1,-1.0687072E-1,-3.1771946E-1,-6.690987E-1,-1.1655076E0,-3.8080588E-1,-6.696634E-1,-9.591533E-1,-8.199661E-1,-3.367101E-1,-9.7448766E-1,5.227432E-1,2.6330346E-1,-1.393222E-1,1.8479285E-1,-4.3858767E-1,-4.1635892E-1,1.9754215E-1,1.9802187E-2,-6.8077594E-1,-2.7643067E-1,-9.897962E-1,-7.044833E-1,-5.706958E-2,-1.5886337E-1,-1.0672485E0,-2.8272486E-1,-3.260464E-1,-1.4469254E-1,-9.7035325E-1,-1.2844149E0,-5.982051E-1,-3.2523558E-1,-7.584244E-1,-5.667682E-1,-8.398365E-1,-1.1016767E0,-6.370561E-1,-8.951084E-1,-2.7766254E-2,-9.849248E-1,1.8788661E-1,-6.4492E-3,-5.301856E-2,8.050621E-2,-1.241935E-1,3.5475295E-2,1.4124775E-1,5.064781E-2,7.735789E-3,-1.7248487E-1,6.3073166E-2,-2.4501024E-1,-4.258251E-1,9.385277E-3,-4.4584654E-2,-2.2223303E-1,4.659083E-3,-1.22375004E-1,-2.2182246E-1,-3.333993E-1,-2.2968224E-1,-5.5322837E-2,-1.0826994E-1,-1.1558903E-2,-1.08984575E-1,-2.8995845E-2,-6.1845053E-2,-3.2418442E-1,-4.5881182E-2,-9.925513E-2,-3.3643955E-1,-1.9199495E-1,-5.0881505E-1,-3.3688778E-1,-1.1430838E-1,-2.6954705E-1,-6.910277E-2,-1.2034047E-1,-1.874345E-1,-2.7593789E-1,-1.3571374E-1,-2.0933782E-1,-2.828044E-1,-1.9942679E-1,-1.4007358E-1,-3.3355942E-1,-1.7736804E-1,-2.584273E-1,-2.4091E-1,-3.0089974E-1,-1.8287838E-1,6.7666605E-2,-1.6359185E-1,-2.989968E-1],"categories":[],"categories_nodes":[],"categories_segments":[],"categories_sizes":[],"default_left":[0,0,0,0,0,0,0,0,0,0,0,0,0,0,0,0,0,0,0,0,0,0,0,0,0,0,0,0,0,0,0,0,0,0,0,0,0,0,0,0,0,0,0,0,0,0,0,0,0,0,0,0,0,0,0,0,0,0,0,0,0,0,0,0,0,0,0,0,0,0,0,0,0,0,0,0,0,0,0,0,0,0,0,0,0,0,0,0,0,0,0,0,0,0,0,0,0,0,0,0,0,0,0,0,0,0,0,0,0,0,0,0,0,0,0],"id":7,"left_children":[1,3,5,7,9,11,13,15,17,19,21,23,25,27,29,31,33,35,37,39,41,43,45,47,49,51,53,55,57,-1,59,61,63,65,67,69,-1,71,73,75,77,79,81,83,85,87,89,-1,-1,91,93,95,97,99,101,103,105,107,109,111,113,-1,-1,-1,-1,-1,-1,-1,-1,-1,-1,-1,-1,-1,-1,-1,-1,-1,-1,-1,-1,-1,-1,-1,-1,-1,-1,-1,-1,-1,-1,-1,-1,-1,-1,-1,-1,-1,-1,-1,-1,-1,-1,-1,-1,-1,-1,-1,-1,-1,-1,-1,-1,-1,-1],"loss_changes":[1.8573945E3,2.7873294E2,1.05355225E2,2.4744308E1,3.301985E1,1.9210632E1,1.1863037E1,5.4864655E0,1.226186E1,2.7131424E0,2.0516602E1,3.1111908E0,2.5814575E1,7.408325E0,3.7851562E0,2.8300781E0,4.35973E0,2.5266047E0,5.247999E0,1.2346935E0,1.2303543E-1,2.0209398E0,2.9311333E1,1.1924009E0,5.868759E-1,4.5049324E0,1.4420532E1,1.1658691E1,1.2954041E1,0E0,7.1956787E0,2.4930239E0,4.8256073E0,3.2324355E0,2.5602589E0,5.8473134E-1,0E0,3.0831823E0,1.0438764E1,1.0713196E0,5.0538903E-1,6.69384E-1,3.6743927E-1,2.2505531E0,4.835497E0,3.5271454E-1,6.695183E0,0E0,0E0,9.7966003E-1,1.1526031E0,4.744425E0,2.1547241E0,1.818747E1,1.103009E1,6.7018433E0,1.6408691E0,2.4726791E0,6.098755E0,1.4640045E0,3.1851807E0,0E0,0E0,0E0,0E0,0E0,0E0,0E0,0E0,0E0,0E0,0E0,0E0,0E0,0E0,0E0,0E0,0E0,0E0,0E0,0E0,0E0,0E0,0E0,0E0,0E0,0E0,0E0,0E0,0E0,0E0,0E0,0E0,0E0,0E0,0E0,0E0,0E0,0E0,0E0,0E0,0E0,0E0,0E0,0E0,0E0,0E0,0E0,0E0,0E0,0E0,0E0,0E0,0E0,0E0],"parents":[2147483647,0,0,1,1,2,2,3,3,4,4,5,5,6,6,7,7,8,8,9,9,10,10,11,11,12,12,13,13,14,14,15,15,16,16,17,17,18,18,19,19,20,20,21,21,22,22,23,23,24,24,25,25,26,26,27,27,28,28,30,30,31,31,32,32,33,33,34,34,35,35,37,37,38,38,39,39,40,40,41,41,42,42,43,43,44,44,45,45,46,46,49,49,50,50,51,51,52,52,53,53,54,54,55,55,56,56,57,57,58,58,59,59,60,60],"right_children":[2,4,6,8,10,12,14,16,18,20,22,24,26,28,30,32,34,36,38,40,42,44,46,48,50,52,54,56,58,-1,60,62,64,66,68,70,-1,72,74,76,78,80,82,84,86,88,90,-1,-1,92,94,96,98,100,102,104,106,108,110,112,114,-1,-1,-1,-1,-1,-1,-1,-1,-1,-1,-1,-1,-1,-1,-1,-1,-1,-1,-1,-1,-1,-1,-1,-1,-1,-1,-1,-1,-1,-1,-1,-1,-1,-1,-1,-1,-1,-1,-1,-1,-1,-1,-1,-1,-1,-1,-1,-1,-1,-1,-1,-1,-1,-1],"split_conditions":[2.140155E-7,1.2019188E-10,9.1418815E-7,7.093078E-11,7.556521E-9,3.8194756E-7,7.965044E-6,1.1675595E-10,1.0655262E-9,6.12238E-10,2.9013565E-9,3.7376074E-7,1.3496563E-7,1.6358277E-5,2.3620194E-5,9.275927E-10,4.6716533E-12,2.8102345E-10,5.9548383E-10,1.7812694E-9,3.2882947E-9,1.6345583E-10,5.4155334E-9,1.6933139E-7,4.468787E-7,7.497045E-7,5.6267963E-6,6.768741E-6,9.717646E-6,-3.367101E-1,3.3655335E-5,2.43794E-10,4.1228652E-11,5.697218E-10,3.5178523E-11,7.274917E-11,-4.1635892E-1,9.5235174E-11,1.190653E-9,1.6417798E-10,3.1380162E-11,1.5159148E-9,2.5590865E-9,2.1144557E-9,4.3150274E-9,1.4527013E-9,1.7138966E-8,-3.260464E-1,-1.4469254E-1,2.5293713E-7,7.312171E-7,5.201794E-7,6.4162595E-7,2.3968223E-6,2.9538655E-6,9.287161E-6,2.9538655E-6,6.9624343E-6,1.899923E-6,1.6577133E-5,4.0778672E-5,1.8788661E-1,-6.4492E-3,-5.301856E-2,8.050621E-2,-1.241935E-1,3.5475295E-2,1.4124775E-1,5.064781E-2,7.735789E-3,-1.7248487E-1,6.3073166E-2,-2.4501024E-1,-4.258251E-1,9.385277E-3,-4.4584654E-2,-2.2223303E-1,4.659083E-3,-1.22375004E-1,-2.2182246E-1,-3.333993E-1,-2.2968224E-1,-5.5322837E-2,-1.0826994E-1,-1.1558903E-2,-1.08984575E-1,-2.8995845E-2,-6.1845053E-2,-3.2418442E-1,-4.5881182E-2,-9.925513E-2,-3.3643955E-1,-1.9199495E-1,-5.0881505E-1,-3.3688778E-1,-1.1430838E-1,-2.6954705E-1,-6.910277E-2,-1.2034047E-1,-1.874345E-1,-2.7593789E-1,-1.3571374E-1,-2.0933782E-1,-2.828044E-1,-1.9942679E-1,-1.4007358E-1,-3.3355942E-1,-1.7736804E-1,-2.584273E-1,-2.4091E-1,-3.0089974E-1,-1.8287838E-1,6.7666605E-2,-1.6359185E-1,-2.989968E-1],"split_indices":[4,7,2,7,13,14,4,5,11,9,9,7,2,13,7,12,3,9,10,11,11,3,14,14,9,10,10,5,5,0,13,9,4,10,2,7,0,7,11,5,3,11,12,11,11,10,14,0,0,14,6,7,5,6,4,10,4,4,2,6,10,0,0,0,0,0,0,0,0,0,0,0,0,0,0,0,0,0,0,0,0,0,0,0,0,0,0,0,0,0,0,0,0,0,0,0,0,0,0,0,0,0,0,0,0,0,0,0,0,0,0,0,0,0,0],"split_type":[0,0,0,0,0,0,0,0,0,0,0,0,0,0,0,0,0,0,0,0,0,0,0,0,0,0,0,0,0,0,0,0,0,0,0,0,0,0,0,0,0,0,0,0,0,0,0,0,0,0,0,0,0,0,0,0,0,0,0,0,0,0,0,0,0,0,0,0,0,0,0,0,0,0,0,0,0,0,0,0,0,0,0,0,0,0,0,0,0,0,0,0,0,0,0,0,0,0,0,0,0,0,0,0,0,0,0,0,0,0,0,0,0,0,0],"sum_hessian":[1.058E4,5.701E3,4.879E3,3.679E3,2.022E3,2.112E3,2.767E3,2.813E3,8.66E2,1.11E2,1.911E3,9.9E1,2.013E3,1.722E3,1.045E3,2.192E3,6.21E2,1.3E1,8.53E2,4.8E1,6.3E1,7.83E2,1.128E3,2.1E1,7.8E1,3.88E2,1.625E3,7.39E2,9.83E2,3.15E2,7.3E2,4.3E1,2.149E3,4.4E1,5.77E2,8E0,5E0,2.25E2,6.28E2,3.6E1,1.2E1,4.8E1,1.5E1,4.01E2,3.82E2,4.9E1,1.079E3,5E0,1.6E1,3.3E1,4.5E1,7.7E1,3.11E2,8.69E2,7.56E2,4.06E2,3.33E2,2.89E2,6.94E2,8E0,7.22E2,3.6E1,7E0,2.4E1,2.125E3,2.1E1,2.3E1,2.9E1,5.48E2,2E0,6E0,2.23E2,2E0,4E0,6.24E2,4E0,3.2E1,4E0,8E0,1.8E1,3E1,1.3E1,2E0,2.2E1,3.79E2,8.8E1,2.94E2,1E0,4.8E1,2.93E2,7.86E2,2.1E1,1.2E1,1E1,3.5E1,4.6E1,3.1E1,1.4E2,1.71E2,4.78E2,3.91E2,4.06E2,3.5E2,2.53E2,1.53E2,6E0,3.27E2,2.43E2,4.6E1,3.79E2,3.15E2,2E0,6E0,2E1,7.02E2],"tree_param":{"num_deleted":"0","num_feature":"16","num_nodes":"115","size_leaf_vector":"1"}},{"base_weights":[2.4537872E-1,2.2692329E-1,3.1262192E-1,2.3280369E-1,1.8693878E-1,2.8460094E-1,3.413909E-1,2.2567686E-1,3.4971341E-1,1.4604211E-1,2.1627301E-1,3.6341044E-1,2.6667666E-1,3.2702035E-1,1.10731184E-1,2.3408942E-1,1.530186E-1,3.916076E-1,2.7012944E-1,1.0757537E-1,1.5938999E-1,2.8417507E-1,1.9327281E-1,3.835049E-1,3.0058473E-1,3.348096E-1,2.6234883E-1,1.0229807E-1,3.132131E-1,2.2824194E-1,3.7625548E-1,1.1155644E-1,1.926836E-1,3.6918598E-1,1.3729754E-1,1.9209109E-1,3.3210996E-1,9.0580225E-2,1.1668621E-1,1.76567E-1,1.4316168E-1,3.222847E-1,2.2931042E-1,2.2850679E-1,1.8594868E-1,1.2588967E-1,1.0704959E-1,3.8717E-2,9.235765E-2,3.3904296E-1,1.7201383E-2,2.4763091E-1,8.4983185E-2,8.79188E-2,3.2702267E-1,6.976233E-2,3.4359667E-2,1.3508435E-1,9.7907946E-2,2.0172188E-2,3.8199384E-2,8.300304E-2,4.3666877E-2,1.23834945E-1,9.974828E-2,6.788308E-2,3.7682347E-2,1.0309052E-1,4.8848763E-2,2.8465563E-2,1.08906925E-2,4.1747414E-2,3.1735893E-2,4.751714E-2,6.7239046E-2,4.3163076E-2,1.6187487E-2,9.817038E-2,4.0587544E-2,5.858012E-2,8.578411E-2,6.021985E-2,8.1443064E-2,5.4199908E-2,6.652605E-2,2.6104886E-2,1.0268354E-1,8.07947E-2,6.9755286E-2,1.3055213E-1,9.611359E-2],"categories":[],"categories_nodes":[],"categories_segments":[],"categories_sizes":[],"default_left":[0,0,0,0,0,0,0,0,0,0,0,0,0,0,0,0,0,0,0,0,0,0,0,0,0,0,0,0,0,0,0,0,0,0,0,0,0,0,0,0,0,0,0,0,0,0,0,0,0,0,0,0,0,0,0,0,0,0,0,0,0,0,0,0,0,0,0,0,0,0,0,0,0,0,0,0,0,0,0,0,0,0,0,0,0,0,0,0,0,0,0],"id":8,"left_children":[1,3,5,7,9,11,13,15,17,19,21,23,25,27,-1,29,31,33,35,37,39,41,43,45,47,49,51,-1,53,55,57,59,61,63,-1,65,67,69,71,73,75,77,79,81,83,-1,-1,-1,-1,85,-1,87,-1,-1,89,-1,-1,-1,-1,-1,-1,-1,-1,-1,-1,-1,-1,-1,-1,-1,-1,-1,-1,-1,-1,-1,-1,-1,-1,-1,-1,-1,-1,-1,-1,-1,-1,-1,-1,-1,-1],"loss_changes":[1.306012E1,1.9094238E0,1.7376099E0,5.950897E0,1.2520638E0,1.5402985E0,3.2453918E-1,4.135315E0,1.2745361E0,2.1390533E-1,9.1492844E-1,1.5236282E-1,1.9168854E-1,3.692627E-2,0E0,4.9967957E0,1.1478138E0,2.2941971E-1,6.4238644E-1,7.856488E-3,6.7269325E-2,2.5018215E-1,7.802391E-2,1.5506744E-3,3.0140877E-2,4.2815685E-2,2.0584106E-1,0E0,1.1856079E-2,2.8453674E0,7.3950195E-1,2.3611403E-1,1.3926601E0,1.9227791E-1,0E0,1.238544E-1,1.00123405E-1,7.3040724E-3,3.404498E-3,1.0023165E-1,3.4656525E-3,3.810501E-2,7.334685E-2,3.6207914E-2,3.4077644E-2,0E0,0E0,0E0,0E0,1.2619019E-2,0E0,1.1238861E-1,0E0,0E0,1.938057E-2,0E0,0E0,0E0,0E0,0E0,0E0,0E0,0E0,0E0,0E0,0E0,0E0,0E0,0E0,0E0,0E0,0E0,0E0,0E0,0E0,0E0,0E0,0E0,0E0,0E0,0E0,0E0,0E0,0E0,0E0,0E0,0E0,0E0,0E0,0E0,0E0],"parents":[2147483647,0,0,1,1,2,2,3,3,4,4,5,5,6,6,7,7,8,8,9,9,10,10,11,11,12,12,13,13,15,15,16,16,17,17,18,18,19,19,20,20,21,21,22,22,23,23,24,24,25,25,26,26,28,28,29,29,30,30,31,31,32,32,33,33,35,35,36,36,37,37,38,38,39,39,40,40,41,41,42,42,43,43,44,44,49,49,51,51,54,54],"right_children":[2,4,6,8,10,12,14,16,18,20,22,24,26,28,-1,30,32,34,36,38,40,42,44,46,48,50,52,-1,54,56,58,60,62,64,-1,66,68,70,72,74,76,78,80,82,84,-1,-1,-1,-1,86,-1,88,-1,-1,90,-1,-1,-1,-1,-1,-1,-1,-1,-1,-1,-1,-1,-1,-1,-1,-1,-1,-1,-1,-1,-1,-1,-1,-1,-1,-1,-1,-1,-1,-1,-1,-1,-1,-1,-1,-1],"split_conditions":[1.5464713E-5,1.1424155E-6,2.3620194E-5,4.1519675E-6,8.675591E-6,4.2021406E-6,4.8754144E-5,1.3496563E-7,5.4927153E-7,4.0534255E-6,3.8629623E-6,2.16801E-6,8.676793E-7,3.3446197E-6,1.10731184E-1,9.760001E-7,2.30307E-6,6.6697285E-6,7.619125E-6,4.881918E-7,5.601207E-6,5.6062127E-6,1.087613E-6,1.9546518E-5,1.7855622E-5,1.3535389E-5,3.2120908E-5,1.0229807E-1,2.2682721E-5,2.140155E-7,1.3037027E-7,7.0288E-7,1.7387645E-6,2.0438858E-7,1.3729754E-1,4.687283E-6,1.3121314E-6,4.640793E-6,3.3935742E-6,7.444395E-6,1.0834908E-5,3.300034E-6,1.4182288E-5,1.33526855E-5,1.6358277E-5,1.2588967E-1,1.0704959E-1,3.8717E-2,9.235765E-2,6.6411656E-7,1.7201383E-2,9.717646E-6,8.4983185E-2,8.79188E-2,3.8360035E-5,6.976233E-2,3.4359667E-2,1.3508435E-1,9.7907946E-2,2.0172188E-2,3.8199384E-2,8.300304E-2,4.3666877E-2,1.23834945E-1,9.974828E-2,6.788308E-2,3.7682347E-2,1.0309052E-1,4.8848763E-2,2.8465563E-2,1.08906925E-2,4.1747414E-2,3.1735893E-2,4.751714E-2,6.7239046E-2,4.3163076E-2,1.6187487E-2,9.817038E-2,4.0587544E-2,5.858012E-2,8.578411E-2,6.021985E-2,8.1443064E-2,5.4199908E-2,6.652605E-2,2.6104886E-2,1.0268354E-1,8.07947E-2,6.9755286E-2,1.3055213E-1,9.611359E-2],"split_indices":[9,3,7,9,10,4,7,2,2,8,4,3,2,3,0,9,11,7,11,2,6,5,2,9,12,5,12,0,6,4,3,14,5,2,0,6,2,11,6,12,14,3,12,12,13,0,0,0,0,3,0,5,0,0,13,0,0,0,0,0,0,0,0,0,0,0,0,0,0,0,0,0,0,0,0,0,0,0,0,0,0,0,0,0,0,0,0,0,0,0,0],"split_type":[0,0,0,0,0,0,0,0,0,0,0,0,0,0,0,0,0,0,0,0,0,0,0,0,0,0,0,0,0,0,0,0,0,0,0,0,0,0,0,0,0,0,0,0,0,0,0,0,0,0,0,0,0,0,0,0,0,0,0,0,0,0,0,0,0,0,0,0,0,0,0,0,0,0,0,0,0,0,0,0,0,0,0,0,0,0,0,0,0,0,0],"sum_hessian":[1.058E4,8.305E3,2.275E3,7.236E3,1.069E3,1.158E3,1.117E3,6.823E3,4.13E2,4.49E2,6.2E2,2.11E2,9.47E2,7.44E2,3.73E2,6.113E3,7.1E2,2.68E2,1.45E2,1.18E2,3.31E2,1.54E2,4.66E2,1.56E2,5.5E1,5.2E1,8.95E2,3.58E2,3.86E2,5.874E3,2.39E2,3.49E2,3.61E2,2.05E2,6.3E1,6.6E1,7.9E1,4.5E1,7.3E1,1.56E2,1.75E2,8.8E1,6.6E1,7.5E1,3.91E2,6E1,9.6E1,3E0,5.2E1,5.1E1,1E0,5.33E2,3.62E2,1.66E2,2.2E2,5.659E3,2.15E2,9.3E1,1.46E2,9.3E1,2.56E2,1.28E2,2.33E2,8.9E1,1.16E2,4.2E1,2.4E1,7.3E1,6E0,4.1E1,4E0,2E1,5.3E1,1.16E2,4E1,1.73E2,2E0,8.5E1,3E0,4.4E1,2.2E1,4.9E1,2.6E1,3.46E2,4.5E1,1E0,5E1,2.12E2,3.21E2,9E0,2.11E2],"tree_param":{"num_deleted":"0","num_feature":"16","num_nodes":"91","size_leaf_vector":"1"}},{"base_weights":[-2.472136E-1,4.4434614E-2,-5.431462E-1,1.4901337E-1,-1.5139276E-1,-3.9477494E-1,-6.456934E-1,1.7904393E-1,5.984749E-2,-5.530594E-1,-1.3084868E-1,-2.8331375E-1,-4.439899E-1,-5.887526E-1,-7.0689845E-1,2.5904238E-1,1.6896233E-1,3.6114278E-1,4.6520766E-2,-1.6633897E-1,-6.04801E-1,-3.8285032E-2,-1.9986771E-1,-3.781817E-1,-1.6997746E-1,-6.209574E-1,-3.6916944E-1,-6.898087E-1,-5.310933E-1,-8.02897E-1,-6.867253E-1,2.241794E-1,5.320301E-1,-3.856761E-1,1.7202511E-1,2.7003777E-1,2.3605372E-1,-3.2290033E-1,6.200814E-2,-4.8132864E-1,1.274149E-1,-4.7752497E-1,-6.9035345E-1,1.7560085E-2,-7.386084E-2,-6.0877246E-1,-1.4208284E-1,-3.2548386E-1,-7.903099E-1,-1.1915191E-1,-2.3853463E-1,-5.095784E-1,-8.6181414E-1,-2.390276E-1,-4.5163256E-1,-5.9622777E-1,-7.953475E-1,-4.4914678E-1,-6.7109835E-1,-7.5290656E-1,-9.331287E-1,-3.7207294E-1,-6.9475913E-1,8.72374E-2,-3.159175E-3,3.421536E-2,1.7140096E-1,-5.554577E-1,1.4146131E-1,2.9731497E-2,5.6047354E-2,1.0292305E-1,-3.1093271E-2,-1.3466951E-1,2.2029288E-1,5.9323873E-2,8.768291E-3,-1.7377216E-1,1.2346298E-3,7.608848E-2,-3.762371E-2,-1.612923E-1,-2.7901842E-3,-2.1800216E-1,-7.633674E-2,-1.7304191E-2,2.0628242E-2,-5.8337815E-2,1.5668104E-3,-1.217935E-1,-2.0056178E-1,-2.5023269E-2,-6.244578E-2,-3.2542232E-1,-9.151141E-2,7.397747E-3,-2.4355167E-1,-1.1833802E-1,-3.4116134E-2,-1.3802266E-1,-6.284707E-2,-2.4260381E-1,-1.2499437E-1,-3.2461375E-1,-2.2826472E-1,-6.046755E-2,-1.0822536E-1,-1.963747E-1,-1.0940438E-1,-2.0851259E-1,-1.3381052E-1,-1.8050613E-1,-2.5157502E-1,-1.1831811E-1,-1.8962173E-1,-1.9260399E-1,-2.667557E-1,-2.1212186E-1,-2.762543E-1,-1.7048484E-1,-2.880426E-1,-9.5470205E-2,-2.048541E-1,-2.0455538E-1,-2.56525E-1],"categories":[],"categories_nodes":[],"categories_segments":[],"categories_sizes":[],"default_left":[0,0,0,0,0,0,0,0,0,0,0,0,0,0,0,0,0,0,0,0,0,0,0,0,0,0,0,0,0,0,0,0,0,0,0,0,0,0,0,0,0,0,0,0,0,0,0,0,0,0,0,0,0,0,0,0,0,0,0,0,0,0,0,0,0,0,0,0,0,0,0,0,0,0,0,0,0,0,0,0,0,0,0,0,0,0,0,0,0,0,0,0,0,0,0,0,0,0,0,0,0,0,0,0,0,0,0,0,0,0,0,0,0,0,0,0,0,0,0,0,0,0,0,0,0],"id":9,"left_children":[1,3,5,7,9,11,13,15,17,19,21,23,25,27,29,31,33,35,37,39,41,43,45,47,49,51,53,55,57,59,61,63,65,67,69,71,-1,73,75,77,79,81,83,85,87,89,91,93,95,97,99,101,103,105,107,109,111,113,115,117,119,121,123,-1,-1,-1,-1,-1,-1,-1,-1,-1,-1,-1,-1,-1,-1,-1,-1,-1,-1,-1,-1,-1,-1,-1,-1,-1,-1,-1,-1,-1,-1,-1,-1,-1,-1,-1,-1,-1,-1,-1,-1,-1,-1,-1,-1,-1,-1,-1,-1,-1,-1,-1,-1,-1,-1,-1,-1,-1,-1,-1,-1,-1,-1],"loss_changes":[9.132513E2,1.0917768E2,7.965454E1,9.294289E0,1.5243107E1,1.1662689E1,1.0401367E1,2.0523605E0,3.5045986E0,1.7002563E0,1.1281097E1,7.042778E0,1.9486267E1,9.038147E0,2.3360596E0,2.6311913E0,3.9921265E0,1.222518E0,4.8316875E0,1.1716814E0,5.3055E-1,1.5032688E0,2.3825554E1,7.539627E0,1.0273685E0,1.1391251E1,1.1149826E1,5.2837524E0,1.1538635E1,9.445648E-1,2.8734741E0,4.0367594E0,4.6057415E-1,1.7208166E1,2.4625092E0,9.0894604E-1,0E0,4.8586473E0,3.5894668E0,2.8756845E-1,2.551794E-1,9.8017263E-1,5.275326E-1,1.140418E0,4.4072757E0,1.2436333E0,3.4249191E0,4.636673E0,7.218361E-1,2.1831965E-1,7.272372E-1,8.112938E0,2.2442017E0,1.7926846E0,1.1072861E1,4.3352814E0,1.7645416E0,6.30101E0,1.8331604E0,7.9599E-1,1.0484314E-1,3.3484268E-1,1.9147949E0,0E0,0E0,0E0,0E0,0E0,0E0,0E0,0E0,0E0,0E0,0E0,0E0,0E0,0E0,0E0,0E0,0E0,0E0,0E0,0E0,0E0,0E0,0E0,0E0,0E0,0E0,0E0,0E0,0E0,0E0,0E0,0E0,0E0,0E0,0E0,0E0,0E0,0E0,0E0,0E0,0E0,0E0,0E0,0E0,0E0,0E0,0E0,0E0,0E0,0E0,0E0,0E0,0E0,0E0,0E0,0E0,0E0,0E0,0E0,0E0,0E0,0E0],"parents":[2147483647,0,0,1,1,2,2,3,3,4,4,5,5,6,6,7,7,8,8,9,9,10,10,11,11,12,12,13,13,14,14,15,15,16,16,17,17,18,18,19,19,20,20,21,21,22,22,23,23,24,24,25,25,26,26,27,27,28,28,29,29,30,30,31,31,32,32,33,33,34,34,35,35,37,37,38,38,39,39,40,40,41,41,42,42,43,43,44,44,45,45,46,46,47,47,48,48,49,49,50,50,51,51,52,52,53,53,54,54,55,55,56,56,57,57,58,58,59,59,60,60,61,61,62,62],"right_children":[2,4,6,8,10,12,14,16,18,20,22,24,26,28,30,32,34,36,38,40,42,44,46,48,50,52,54,56,58,60,62,64,66,68,70,72,-1,74,76,78,80,82,84,86,88,90,92,94,96,98,100,102,104,106,108,110,112,114,116,118,120,122,124,-1,-1,-1,-1,-1,-1,-1,-1,-1,-1,-1,-1,-1,-1,-1,-1,-1,-1,-1,-1,-1,-1,-1,-1,-1,-1,-1,-1,-1,-1,-1,-1,-1,-1,-1,-1,-1,-1,-1,-1,-1,-1,-1,-1,-1,-1,-1,-1,-1,-1,-1,-1,-1,-1,-1,-1,-1,-1,-1,-1,-1,-1],"split_conditions":[3.2256537E-8,9.5235174E-11,1.3161762E-6,2.8449723E-10,7.1870563E-9,1.0180055E-7,3.1883333E-6,1.4226328E-10,5.4345595E-10,1.6408168E-11,1.0158839E-9,6.3039977E-7,2.139868E-6,1.1125193E-5,1.9316923E-5,7.410974E-12,4.1228652E-11,1.9053183E-10,1.2040835E-9,1.5090554E-9,7.5839224E-10,4.382305E-11,6.4294485E-9,4.6702195E-7,3.1206505E-7,1.2807438E-6,1.4658614E-6,6.3845087E-6,7.3200017E-6,9.717646E-6,8.159119E-6,5.7125893E-12,2.2889184E-10,5.304452E-10,9.893205E-10,1.2352654E-10,2.3605372E-1,9.768452E-11,7.511914E-12,6.43777E-11,2.1427954E-10,6.481727E-10,5.401617E-9,2.01557E-9,3.110014E-9,1.6655255E-9,1.7138966E-8,5.513368E-8,1.7579964E-8,3.3472736E-7,7.497045E-7,4.8612765E-7,1.4015201E-6,2.2324507E-6,4.413367E-6,7.052714E-6,5.3110953E-6,1.8384741E-6,7.964337E-5,2.1765456E-6,4.4173134E-6,8.88897E-6,1.03773076E-4,8.72374E-2,-3.159175E-3,3.421536E-2,1.7140096E-1,-5.554577E-1,1.4146131E-1,2.9731497E-2,5.6047354E-2,1.0292305E-1,-3.1093271E-2,-1.3466951E-1,2.2029288E-1,5.9323873E-2,8.768291E-3,-1.7377216E-1,1.2346298E-3,7.608848E-2,-3.762371E-2,-1.612923E-1,-2.7901842E-3,-2.1800216E-1,-7.633674E-2,-1.7304191E-2,2.0628242E-2,-5.8337815E-2,1.5668104E-3,-1.217935E-1,-2.0056178E-1,-2.5023269E-2,-6.244578E-2,-3.2542232E-1,-9.151141E-2,7.397747E-3,-2.4355167E-1,-1.1833802E-1,-3.4116134E-2,-1.3802266E-1,-6.284707E-2,-2.4260381E-1,-1.2499437E-1,-3.2461375E-1,-2.2826472E-1,-6.046755E-2,-1.0822536E-1,-1.963747E-1,-1.0940438E-1,-2.0851259E-1,-1.3381052E-1,-1.8050613E-1,-2.5157502E-1,-1.1831811E-1,-1.8962173E-1,-1.9260399E-1,-2.667557E-1,-2.1212186E-1,-2.762543E-1,-1.7048484E-1,-2.880426E-1,-9.5470205E-2,-2.048541E-1,-2.0455538E-1,-2.56525E-1],"split_indices":[3,7,3,9,13,2,3,8,10,3,9,10,11,9,13,3,4,8,12,12,10,3,14,7,4,7,4,6,4,5,5,3,9,10,11,5,0,4,3,2,6,4,9,11,11,9,14,10,2,13,10,14,11,5,13,12,5,2,12,2,4,4,13,0,0,0,0,0,0,0,0,0,0,0,0,0,0,0,0,0,0,0,0,0,0,0,0,0,0,0,0,0,0,0,0,0,0,0,0,0,0,0,0,0,0,0,0,0,0,0,0,0,0,0,0,0,0,0,0,0,0,0,0,0,0],"split_type":[0,0,0,0,0,0,0,0,0,0,0,0,0,0,0,0,0,0,0,0,0,0,0,0,0,0,0,0,0,0,0,0,0,0,0,0,0,0,0,0,0,0,0,0,0,0,0,0,0,0,0,0,0,0,0,0,0,0,0,0,0,0,0,0,0,0,0,0,0,0,0,0,0,0,0,0,0,0,0,0,0,0,0,0,0,0,0,0,0,0,0,0,0,0,0,0,0,0,0,0,0,0,0,0,0,0,0,0,0,0,0,0,0,0,0,0,0,0,0,0,0,0,0,0,0],"sum_hessian":[1.058E4,5.329E3,5.251E3,3.474E3,1.855E3,2.148E3,3.103E3,2.598E3,8.76E2,8.9E1,1.766E3,6.6E2,1.488E3,1.613E3,1.49E3,2.88E2,2.31E3,3.6E1,8.4E2,1.1E1,7.8E1,7.55E2,1.011E3,3.58E2,3.02E2,4.4E2,1.048E3,5.82E2,1.031E3,2.52E2,1.238E3,2.57E2,3.1E1,1.2E1,2.298E3,3.1E1,5E0,3.3E1,8.07E2,5E0,6E0,3.4E1,4.4E1,2.94E2,4.61E2,1.24E2,8.87E2,3.19E2,3.9E1,1.75E2,1.27E2,3.03E2,1.37E2,4.08E2,6.4E2,3.12E2,2.7E2,6.53E2,3.78E2,1.87E2,6.5E1,3.2E1,1.206E3,2E2,5.7E1,3E0,2.8E1,4E0,8E0,3.89E2,1.909E3,2.6E1,5E0,3E1,3E0,1.56E2,6.51E2,4E0,1E0,4E0,2E0,3E1,4E0,4E1,4E0,1.19E2,1.75E2,1.82E2,2.79E2,3E1,9.4E1,4.71E2,4.16E2,7E0,3.12E2,1E0,3.8E1,2E0,1.73E2,1.3E1,1.14E2,7E1,2.33E2,4E1,9.7E1,3.14E2,9.4E1,1.9E2,4.5E2,1.86E2,1.26E2,5.2E1,2.18E2,5.05E2,1.48E2,3.37E2,4.1E1,1.51E2,3.6E1,6E0,5.9E1,2.9E1,3E0,1.121E3,8.5E1],"tree_param":{"num_deleted":"0","num_feature":"16","num_nodes":"125","size_leaf_vector":"1"}},{"base_weights":[1.7207189E-1,1.571344E-1,2.1417795E-1,1.6437152E-1,1.21983424E-1,2.8496823E-1,2.0603321E-1,1.4380406E-1,1.9776659E-1,8.731617E-2,1.4621879E-1,3.724167E-1,2.7690214E-1,1.7668709E-1,2.3537883E-1,1.5424168E-1,-1.0520246E-1,2.3543519E-1,1.6440071E-1,6.4264975E-2,1.029328E-1,2.3251446E-1,1.2715702E-1,1.1942471E-1,2.5718575E-2,2.1767735E-2,8.322154E-2,2.1462676E-1,1.6662131E-1,2.2044255E-1,2.545218E-1,1.4637162E-1,2.4461667E-1,5.9856705E-2,-1.5453883E-1,2.1292903E-1,4.1772434E-1,1.242392E-1,2.6246947E-1,4.3965336E-2,7.0382506E-2,1.5545464E-1,7.987804E-2,1.9695757E-1,2.629379E-1,1.4605992E-1,1.1453612E-1,2.4334115E-1,1.6682462E-1,1.3997062E-1,1.8445235E-1,2.3044111E-1,6.0194522E-2,7.342574E-2,8.2356766E-2,4.4800527E-2,-3.6305273E-3,8.42193E-2,3.8133513E-2,2.499414E-2,6.270556E-4,-1.5567046E-2,-5.3525053E-2,6.85915E-2,-1.0883921E-2,-6.02148E-2,1.2728328E-1,8.859786E-3,4.4535123E-2,9.040266E-2,5.921719E-2,-1.3964309E-2,1.3951049E-2,3.510001E-2,1.7912937E-2,2.7595645E-2,5.413048E-2,3.1577617E-2,2.0293793E-2,6.726604E-2,3.855692E-2,3.023143E-2,8.053449E-2,3.7445538E-2,6.347056E-2,2.9316803E-2,3.859273E-2,7.454119E-2,4.7939796E-2,2.0547051E-2,5.17118E-2,5.6036115E-2,4.0191956E-2,5.7856783E-2,5.056768E-2,7.059847E-2,5.9114058E-2],"categories":[],"categories_nodes":[],"categories_segments":[],"categories_sizes":[],"default_left":[0,0,0,0,0,0,0,0,0,0,0,0,0,0,0,0,0,0,0,0,0,0,0,0,0,0,0,0,0,0,0,0,0,0,0,0,0,0,0,0,0,0,0,0,0,0,0,0,0,0,0,0,0,0,0,0,0,0,0,0,0,0,0,0,0,0,0,0,0,0,0,0,0,0,0,0,0,0,0,0,0,0,0,0,0,0,0,0,0,0,0,0,0,0,0,0,0],"id":10,"left_children":[1,3,5,7,9,11,13,15,17,19,21,23,25,27,29,31,33,35,37,39,41,43,45,-1,-1,-1,-1,47,49,51,53,55,57,59,61,63,65,67,69,71,73,75,77,79,81,83,85,87,89,91,93,95,-1,-1,-1,-1,-1,-1,-1,-1,-1,-1,-1,-1,-1,-1,-1,-1,-1,-1,-1,-1,-1,-1,-1,-1,-1,-1,-1,-1,-1,-1,-1,-1,-1,-1,-1,-1,-1,-1,-1,-1,-1,-1,-1,-1,-1],"loss_changes":[6.6213684E0,1.9677734E0,1.5372391E0,4.4203033E0,1.1113853E0,9.649658E-2,2.0992966E0,1.0443558E1,3.0606766E0,1.9245529E-1,1.2633648E0,1.20391846E-1,6.904602E-3,4.4046402E-1,2.9843903E-1,2.7032394E0,1.328484E0,4.653694E0,5.1308823E0,2.4971128E-2,3.8475084E-1,1.0074043E-1,1.3738728E-1,0E0,0E0,0E0,0E0,3.135376E-1,4.446373E-1,9.309387E-2,3.7734985E-2,1.6666565E0,1.2671051E0,5.1317155E-2,2.9712248E-1,4.044552E0,5.9581184E-1,2.1326542E0,9.018383E-1,1.4800146E-2,7.8590095E-2,1.4036489E-1,6.428516E-2,9.991598E-2,3.8180828E-2,3.2842398E-1,8.04019E-2,2.8429985E-2,4.2750835E-2,8.7567806E-2,4.6295166E-2,2.8863907E-2,0E0,0E0,0E0,0E0,0E0,0E0,0E0,0E0,0E0,0E0,0E0,0E0,0E0,0E0,0E0,0E0,0E0,0E0,0E0,0E0,0E0,0E0,0E0,0E0,0E0,0E0,0E0,0E0,0E0,0E0,0E0,0E0,0E0,0E0,0E0,0E0,0E0,0E0,0E0,0E0,0E0,0E0,0E0,0E0,0E0],"parents":[2147483647,0,0,1,1,2,2,3,3,4,4,5,5,6,6,7,7,8,8,9,9,10,10,11,11,12,12,13,13,14,14,15,15,16,16,17,17,18,18,19,19,20,20,21,21,22,22,27,27,28,28,29,29,30,30,31,31,32,32,33,33,34,34,35,35,36,36,37,37,38,38,39,39,40,40,41,41,42,42,43,43,44,44,45,45,46,46,47,47,48,48,49,49,50,50,51,51],"right_children":[2,4,6,8,10,12,14,16,18,20,22,24,26,28,30,32,34,36,38,40,42,44,46,-1,-1,-1,-1,48,50,52,54,56,58,60,62,64,66,68,70,72,74,76,78,80,82,84,86,88,90,92,94,96,-1,-1,-1,-1,-1,-1,-1,-1,-1,-1,-1,-1,-1,-1,-1,-1,-1,-1,-1,-1,-1,-1,-1,-1,-1,-1,-1,-1,-1,-1,-1,-1,-1,-1,-1,-1,-1,-1,-1,-1,-1,-1,-1,-1,-1],"split_conditions":[1.0051196E-5,4.3026483E-7,7.160732E-7,8.577723E-9,4.807763E-6,1.0005529E-5,2.7510665E-5,1.8014182E-10,1.0158569E-8,2.067622E-6,1.9310767E-6,6.421441E-7,1.1093521E-5,2.1167366E-6,4.1159212E-5,1.8907176E-9,6.8229236E-9,5.939087E-8,1.4157879E-6,1.4015201E-6,2.5597444E-6,6.3114167E-6,5.601207E-6,1.1942471E-1,2.5718575E-2,2.1767735E-2,8.322154E-2,5.150314E-6,2.0677726E-5,3.97068E-6,2.0241778E-5,2.6194238E-10,4.382305E-11,6.6895525E-9,2.2737248E-10,3.1847517E-8,2.6358196E-9,1.842055E-7,1.6630656E-7,3.4772253E-7,1.7048496E-6,2.2964862E-6,3.2262446E-6,3.558919E-6,1.5589276E-7,8.61128E-6,9.2734845E-6,1.8384741E-6,1.0622618E-5,6.29236E-6,7.824532E-6,2.4413473E-6,6.0194522E-2,7.342574E-2,8.2356766E-2,4.4800527E-2,-3.6305273E-3,8.42193E-2,3.8133513E-2,2.499414E-2,6.270556E-4,-1.5567046E-2,-5.3525053E-2,6.85915E-2,-1.0883921E-2,-6.02148E-2,1.2728328E-1,8.859786E-3,4.4535123E-2,9.040266E-2,5.921719E-2,-1.3964309E-2,1.3951049E-2,3.510001E-2,1.7912937E-2,2.7595645E-2,5.413048E-2,3.1577617E-2,2.0293793E-2,6.726604E-2,3.855692E-2,3.023143E-2,8.053449E-2,3.7445538E-2,6.347056E-2,2.9316803E-2,3.859273E-2,7.454119E-2,4.7939796E-2,2.0547051E-2,5.17118E-2,5.6036115E-2,4.0191956E-2,5.7856783E-2,5.056768E-2,7.059847E-2,5.9114058E-2],"split_indices":[9,3,2,13,12,13,8,7,2,14,4,2,12,3,7,11,13,8,9,11,6,9,6,0,0,0,0,4,10,3,4,5,3,13,7,14,2,9,2,4,6,9,6,6,2,12,12,2,8,5,4,2,0,0,0,0,0,0,0,0,0,0,0,0,0,0,0,0,0,0,0,0,0,0,0,0,0,0,0,0,0,0,0,0,0,0,0,0,0,0,0,0,0,0,0,0,0],"split_type":[0,0,0,0,0,0,0,0,0,0,0,0,0,0,0,0,0,0,0,0,0,0,0,0,0,0,0,0,0,0,0,0,0,0,0,0,0,0,0,0,0,0,0,0,0,0,0,0,0,0,0,0,0,0,0,0,0,0,0,0,0,0,0,0,0,0,0,0,0,0,0,0,0,0,0,0,0,0,0,0,0,0,0,0,0,0,0,0,0,0,0,0,0,0,0,0,0],"sum_hessian":[1.058E4,7.813E3,2.767E3,6.476E3,1.337E3,2.82E2,2.485E3,4.011E3,2.465E3,5.52E2,7.85E2,2E1,2.62E2,1.246E3,1.239E3,3.85E3,1.61E2,1.155E3,1.31E3,2.25E2,3.27E2,1.4E2,6.45E2,1.8E1,2E0,1E0,2.61E2,2.57E2,9.89E2,7.03E2,5.36E2,3.544E3,3.06E2,3.7E1,1.24E2,1.03E3,1.25E2,9.31E2,3.79E2,5.4E1,1.71E2,9.8E1,2.29E2,6.8E1,7.2E1,2.54E2,3.91E2,1.58E2,9.9E1,4E2,5.89E2,4.6E2,2.43E2,3.69E2,1.67E2,3.479E3,6.5E1,2.33E2,7.3E1,2.6E1,1.1E1,2.4E1,1E2,9.69E2,6.1E1,1E0,1.24E2,1.9E2,7.41E2,2.35E2,1.44E2,1E0,5.3E1,3E1,1.41E2,2.9E1,6.9E1,7.2E1,1.57E2,4.7E1,2.1E1,3E0,6.9E1,1.94E2,6E1,1.82E2,2.09E2,1.47E2,1.1E1,6E0,9.3E1,4.2E1,3.58E2,3.78E2,2.11E2,3.96E2,6.4E1],"tree_param":{"num_deleted":"0","num_feature":"16","num_nodes":"97","size_leaf_vector":"1"}},{"base_weights":[-1.7364344E-1,1.743468E-2,-3.968717E-1,9.7109206E-2,-1.3227053E-1,-3.0987856E-1,-4.653262E-1,1.2296494E-1,1.6960526E-2,-3.900481E-1,-1.0909844E-1,-5.29227E-1,-2.9423591E-1,-6.2663823E-1,-4.5456672E-1,1.5653253E-1,9.7983204E-2,-5.140925E-1,2.8875245E-2,-1.7387909E-1,-4.4152543E-1,-3.299438E-2,-1.456982E-1,-3.6778566E-1,-6.4286965E-1,-1.6841245E-1,-3.2138434E-1,-5.418799E-1,-7.628077E-1,-4.067382E-1,-5.08598E-1,1.1154674E-1,2.0308824E-1,-3.3078218E-1,1.09354734E-1,-8.829711E-2,-9.3105817E-1,1.6091843E-1,1.1199151E-2,-5.136176E-2,-3.0084366E-1,-3.9212987E-1,-6.3527745E-1,9.125307E-2,-4.743948E-2,-4.4765255E-1,-1.2199677E-1,-7.41103E-1,-2.6123646E-1,-5.7532763E-1,-2.6565677E-1,-3.0174592E-1,-1.2594861E-1,-4.7369507E-1,-2.8753763E-1,-5.500502E-1,4.8626628E-2,-3.009639E-2,-7.7202356E-1,-3.760804E-1,-5.219999E-1,-5.348258E-1,-3.772793E-1,-9.859782E-3,4.8179667E-2,1.3793257E-1,5.5951495E-2,-3.1851567E-2,-3.1167537E-1,-7.829603E-2,3.56042E-2,9.870626E-2,-1.12130255E-1,-3.973806E-1,-2.8776326E-3,-6.8863645E-2,5.7345305E-2,-8.427178E-2,9.173547E-3,-7.788142E-2,1.46103855E-2,-1.1037101E-1,-2.306617E-3,-1.2536752E-1,-3.0135227E-2,-1.2146068E-2,-2.0557143E-1,3.2440465E-2,-1.4078064E-1,-7.412983E-2,-8.802043E-3,-1.4375998E-1,-2.8920958E-3,-9.197498E-3,-4.7142275E-2,-2.5179946E-1,-4.0169194E-2,-1.05664805E-1,-2.0778669E-2,-1.3115676E-1,-2.0265478E-1,-5.63238E-2,-2.165946E-1,-2.0564395E-1,-3.5794277E-2,-9.044221E-2,-1.7921554E-1,-4.769687E-2,-9.94383E-2,-1.6693799E-1,1.844616E-2,-6.849108E-2,-2.3597558E-1,-1.3668244E-1,-1.0077174E-1,-1.5913372E-1,1.660924E-2,-1.546503E-1,-2.1513852E-1,3.870308E-2,-1.4183341E-1],"categories":[],"categories_nodes":[],"categories_segments":[],"categories_sizes":[],"default_left":[0,0,0,0,0,0,0,0,0,0,0,0,0,0,0,0,0,0,0,0,0,0,0,0,0,0,0,0,0,0,0,0,0,0,0,0,0,0,0,0,0,0,0,0,0,0,0,0,0,0,0,0,0,0,0,0,0,0,0,0,0,0,0,0,0,0,0,0,0,0,0,0,0,0,0,0,0,0,0,0,0,0,0,0,0,0,0,0,0,0,0,0,0,0,0,0,0,0,0,0,0,0,0,0,0,0,0,0,0,0,0,0,0,0,0,0,0,0,0,0,0],"id":11,"left_children":[1,3,5,7,9,11,13,15,17,19,21,23,25,27,29,31,33,35,37,39,41,43,45,47,49,51,53,55,57,59,61,63,65,67,69,71,73,75,77,79,81,83,85,87,89,91,93,95,97,99,-1,101,103,105,107,109,-1,-1,111,113,115,117,119,-1,-1,-1,-1,-1,-1,-1,-1,-1,-1,-1,-1,-1,-1,-1,-1,-1,-1,-1,-1,-1,-1,-1,-1,-1,-1,-1,-1,-1,-1,-1,-1,-1,-1,-1,-1,-1,-1,-1,-1,-1,-1,-1,-1,-1,-1,-1,-1,-1,-1,-1,-1,-1,-1,-1,-1,-1,-1],"loss_changes":[4.5132922E2,6.802454E1,2.8916565E1,7.711029E0,1.179044E1,7.2282257E0,4.451721E0,2.3444176E0,5.7664037E0,1.7370605E0,5.061819E0,2.3687782E0,6.8152466E0,1.5256195E0,6.4139404E0,2.4884644E0,7.9153366E0,3.4686308E0,2.0754645E0,4.9787492E-1,1.0046234E0,1.0668309E0,8.733875E0,2.2327728E0,8.344536E-1,1.9946012E0,8.385376E0,7.045822E-1,3.0108643E-1,4.6236115E0,3.927826E0,4.3405333E0,2.4171963E0,6.5699883E0,5.47068E0,1.4334283E0,3.6136665E0,1.2833745E0,4.4579806E0,3.8771674E-1,3.1171334E-1,7.620411E-1,7.1515846E-1,6.374271E-1,1.9116315E0,1.2251949E0,3.6545944E0,6.630001E-1,8.314254E-1,6.3194275E-1,0E0,3.9844422E0,9.353347E-1,6.189209E0,7.5979843E0,4.4971466E-1,0E0,0E0,3.0338287E-1,3.3007355E0,1.414238E0,3.1427002E0,9.876041E0,0E0,0E0,0E0,0E0,0E0,0E0,0E0,0E0,0E0,0E0,0E0,0E0,0E0,0E0,0E0,0E0,0E0,0E0,0E0,0E0,0E0,0E0,0E0,0E0,0E0,0E0,0E0,0E0,0E0,0E0,0E0,0E0,0E0,0E0,0E0,0E0,0E0,0E0,0E0,0E0,0E0,0E0,0E0,0E0,0E0,0E0,0E0,0E0,0E0,0E0,0E0,0E0,0E0,0E0,0E0,0E0,0E0,0E0],"parents":[2147483647,0,0,1,1,2,2,3,3,4,4,5,5,6,6,7,7,8,8,9,9,10,10,11,11,12,12,13,13,14,14,15,15,16,16,17,17,18,18,19,19,20,20,21,21,22,22,23,23,24,24,25,25,26,26,27,27,28,28,29,29,30,30,31,31,32,32,33,33,34,34,35,35,36,36,37,37,38,38,39,39,40,40,41,41,42,42,43,43,44,44,45,45,46,46,47,47,48,48,49,49,51,51,52,52,53,53,54,54,55,55,58,58,59,59,60,60,61,61,62,62],"right_children":[2,4,6,8,10,12,14,16,18,20,22,24,26,28,30,32,34,36,38,40,42,44,46,48,50,52,54,56,58,60,62,64,66,68,70,72,74,76,78,80,82,84,86,88,90,92,94,96,98,100,-1,102,104,106,108,110,-1,-1,112,114,116,118,120,-1,-1,-1,-1,-1,-1,-1,-1,-1,-1,-1,-1,-1,-1,-1,-1,-1,-1,-1,-1,-1,-1,-1,-1,-1,-1,-1,-1,-1,-1,-1,-1,-1,-1,-1,-1,-1,-1,-1,-1,-1,-1,-1,-1,-1,-1,-1,-1,-1,-1,-1,-1,-1,-1,-1,-1,-1,-1],"split_conditions":[2.140155E-7,1.3067149E-10,1.7628823E-6,7.093078E-11,8.002351E-9,4.8612765E-7,7.509045E-6,2.5996272E-10,2.1181121E-9,1.4971174E-10,1.6655255E-9,5.201794E-7,2.5855033E-7,5.4320817E-6,3.5799212E-6,2.4840643E-10,2.6057762E-10,2.6578106E-10,7.1499204E-12,3.1380162E-11,1.4661211E-9,3.9767514E-10,8.248746E-9,1.6933139E-7,2.0438858E-7,8.872853E-7,2.0081832E-6,1.7352053E-6,3.6134263E-6,2.1765456E-6,2.8131555E-5,5.1124136E-11,5.214314E-10,2.1770628E-9,1.0510871E-9,3.9657395E-11,9.332775E-11,3.672169E-11,2.2619338E-9,2.9199293E-10,2.287811E-9,2.3206363E-9,1.7105259E-9,1.1606387E-10,2.6791684E-9,1.0158569E-8,1.5387764E-8,6.607415E-7,5.1890356E-7,2.072991E-7,-2.6565677E-1,8.314337E-7,8.163709E-7,1.2081675E-6,2.3621647E-6,3.5799212E-6,4.8626628E-2,-3.009639E-2,5.935069E-7,1.8082317E-5,2.5168629E-5,8.190378E-5,6.5133805E-5,-9.859782E-3,4.8179667E-2,1.3793257E-1,5.5951495E-2,-3.1851567E-2,-3.1167537E-1,-7.829603E-2,3.56042E-2,9.870626E-2,-1.12130255E-1,-3.973806E-1,-2.8776326E-3,-6.8863645E-2,5.7345305E-2,-8.427178E-2,9.173547E-3,-7.788142E-2,1.46103855E-2,-1.1037101E-1,-2.306617E-3,-1.2536752E-1,-3.0135227E-2,-1.2146068E-2,-2.0557143E-1,3.2440465E-2,-1.4078064E-1,-7.412983E-2,-8.802043E-3,-1.4375998E-1,-2.8920958E-3,-9.197498E-3,-4.7142275E-2,-2.5179946E-1,-4.0169194E-2,-1.05664805E-1,-2.0778669E-2,-1.3115676E-1,-2.0265478E-1,-5.63238E-2,-2.165946E-1,-2.0564395E-1,-3.5794277E-2,-9.044221E-2,-1.7921554E-1,-4.769687E-2,-9.94383E-2,-1.6693799E-1,1.844616E-2,-6.849108E-2,-2.3597558E-1,-1.3668244E-1,-1.0077174E-1,-1.5913372E-1,1.660924E-2,-1.546503E-1,-2.1513852E-1,3.870308E-2,-1.4183341E-1],"split_indices":[4,7,3,7,13,14,9,9,14,7,9,7,3,7,3,9,9,9,3,3,2,4,14,14,2,10,13,2,5,2,5,7,10,14,12,2,4,2,14,6,11,12,11,3,11,2,14,6,11,3,0,6,11,7,5,3,0,0,2,11,5,10,14,0,0,0,0,0,0,0,0,0,0,0,0,0,0,0,0,0,0,0,0,0,0,0,0,0,0,0,0,0,0,0,0,0,0,0,0,0,0,0,0,0,0,0,0,0,0,0,0,0,0,0,0,0,0,0,0,0,0],"split_type":[0,0,0,0,0,0,0,0,0,0,0,0,0,0,0,0,0,0,0,0,0,0,0,0,0,0,0,0,0,0,0,0,0,0,0,0,0,0,0,0,0,0,0,0,0,0,0,0,0,0,0,0,0,0,0,0,0,0,0,0,0,0,0,0,0,0,0,0,0,0,0,0,0,0,0,0,0,0,0,0,0,0,0,0,0,0,0,0,0,0,0,0,0,0,0,0,0,0,0,0,0,0,0,0,0,0,0,0,0,0,0,0,0,0,0,0,0,0,0,0,0],"sum_hessian":[1.058E4,5.701E3,4.879E3,3.721E3,1.98E3,2.151E3,2.728E3,2.813E3,9.08E2,1.62E2,1.818E3,1.41E2,2.01E3,1.67E2,2.561E3,1.198E3,1.615E3,1.9E1,8.89E2,3.2E1,1.3E2,5.91E2,1.227E3,6E1,8.1E1,3.58E2,1.652E3,1.06E2,6.1E1,1.363E3,1.198E3,6.11E2,5.87E2,4.1E1,1.574E3,1E1,9E0,1.04E2,7.85E2,1.7E1,1.5E1,1.06E2,2.4E1,6.1E1,5.3E2,8.8E1,1.139E3,1.2E1,4.8E1,6.6E1,1.5E1,8.5E1,2.73E2,2.98E2,1.354E3,1.05E2,1E0,1E0,6E1,1.08E3,2.83E2,9.96E2,2.02E2,1.55E2,4.56E2,3.4E1,5.53E2,3.2E1,9E0,3.8E1,1.536E3,4E0,6E0,6E0,3E0,7E0,9.7E1,4.8E1,7.37E2,5E0,1.2E1,1.2E1,3E0,9.7E1,9E0,2E0,2.2E1,6E1,1E0,4.3E1,4.87E2,8.2E1,6E0,3.17E2,8.22E2,1E1,2E0,3.2E1,1.6E1,3E1,3.6E1,6.8E1,1.7E1,2E0,2.71E2,1.26E2,1.72E2,3.46E2,1.008E3,1.04E2,1E0,2E0,5.8E1,3.59E2,7.21E2,2.79E2,4E0,9.04E2,9.2E1,3.2E1,1.7E2],"tree_param":{"num_deleted":"0","num_feature":"16","num_nodes":"121","size_leaf_vector":"1"}},{"base_weights":[1.2064077E-1,1.1012459E-1,1.5028411E-1,8.2269065E-2,1.17821485E-1,1.978148E-1,1.4414361E-1,8.702185E-2,2.625327E-2,1.3129021E-1,9.056013E-2,2.2181976E-1,1.794188E-1,1.2488853E-1,1.6690843E-1,8.068843E-2,1.3909385E-1,8.844984E-2,-2.237635E-2,1.2406433E-1,2.3958853E-1,3.2129064E-2,1.04505375E-1,2.974595E-1,6.309742E-2,1.8313017E-1,1.2923577E-1,1.0474368E-1,1.3432212E-1,1.5964328E-1,1.8701261E-1,7.2334714E-2,1.1340244E-1,1.1174985E-1,3.15479E-1,-5.4928516E-3,1.5302463E-1,-1.18002295E-1,2.4027977E-2,1.2969166E-1,2.949852E-4,2.6878437E-1,1.3103926E-1,-3.64379E-2,5.0104503E-2,1.8194087E-1,9.0538554E-2,2.1854032E-2,9.248998E-2,1.8590774E-1,1.0434039E-1,1.8568195E-2,4.6265688E-2,1.4244285E-1,9.002911E-2,1.6724798E-1,1.265897E-1,2.0721015E-1,1.5778817E-1,1.779744E-2,1.8768865E-1,2.2323374E-2,-1.7471021E-2,4.2397108E-2,9.396114E-4,-2.8398508E-2,3.776923E-2,1.0839653E-1,-2.8589694E-2,8.245262E-2,-2.159331E-2,2.1465605E-2,9.0965346E-2,6.724113E-3,-4.905716E-2,-5.4897647E-3,2.9552024E-2,3.7474748E-2,8.820313E-2,1.2433747E-2,-1.7372482E-2,1.11791715E-1,7.380925E-2,-1.20719345E-2,5.5127133E-2,4.1663982E-2,-1.3456054E-2,2.8461857E-2,6.32844E-3,4.4907197E-2,7.147106E-2,1.8835947E-2,3.1308517E-2,4.326847E-2,5.704366E-2,8.616606E-3,3.3311963E-2,5.1188115E-2,3.263788E-2,3.1595137E-2,2.409487E-2,5.800044E-2,4.6590507E-2,5.2159417E-2,3.732232E-2,4.05573E-2,8.397296E-2,3.451025E-2,4.7669988E-2,4.7789056E-2,5.751716E-2],"categories":[],"categories_nodes":[],"categories_segments":[],"categories_sizes":[],"default_left":[0,0,0,0,0,0,0,0,0,0,0,0,0,0,0,0,0,0,0,0,0,0,0,0,0,0,0,0,0,0,0,0,0,0,0,0,0,0,0,0,0,0,0,0,0,0,0,0,0,0,0,0,0,0,0,0,0,0,0,0,0,0,0,0,0,0,0,0,0,0,0,0,0,0,0,0,0,0,0,0,0,0,0,0,0,0,0,0,0,0,0,0,0,0,0,0,0,0,0,0,0,0,0,0,0,0,0,0,0,0,0],"id":12,"left_children":[1,3,5,7,9,11,13,15,17,19,21,23,25,27,29,31,33,35,37,39,41,43,45,47,-1,49,51,53,55,57,59,61,63,65,67,69,71,73,75,77,79,81,83,85,87,89,91,-1,-1,93,95,-1,-1,97,99,101,103,105,107,-1,109,-1,-1,-1,-1,-1,-1,-1,-1,-1,-1,-1,-1,-1,-1,-1,-1,-1,-1,-1,-1,-1,-1,-1,-1,-1,-1,-1,-1,-1,-1,-1,-1,-1,-1,-1,-1,-1,-1,-1,-1,-1,-1,-1,-1,-1,-1,-1,-1,-1,-1],"loss_changes":[3.2819061E0,1.6656342E0,7.793617E-1,4.4897747E-1,2.2352219E0,9.8861694E-2,1.0552788E0,5.0391483E-1,4.0727496E-1,3.1740417E0,1.6483135E0,5.2208424E-2,1.0416508E-2,2.3943901E-1,1.3402367E-1,3.730278E-1,7.7502203E-1,3.5875398E-1,3.400821E-1,2.674488E0,7.7292156E-1,4.8497406E-1,1.7529068E0,1.4064908E-2,0E0,1.736784E-2,1.7373383E-2,2.2570848E-1,2.0923996E-1,4.0634155E-2,1.4071465E-2,3.063779E-1,8.6780334E-1,4.4119048E-1,4.4871998E-1,4.8573306E-1,4.0658617E-1,1.6346404E-1,1.6573139E-1,2.8456993E0,4.04779E-1,3.8092995E-1,5.130441E-1,1.2721264E-1,4.0189952E-1,4.1641235E-1,5.2591324E-1,0E0,0E0,1.0128021E-3,8.635372E-4,0E0,0E0,9.429598E-2,3.7870407E-2,2.2641659E-2,5.4392815E-2,1.0876036E-1,1.9937515E-2,0E0,2.6836395E-3,0E0,0E0,0E0,0E0,0E0,0E0,0E0,0E0,0E0,0E0,0E0,0E0,0E0,0E0,0E0,0E0,0E0,0E0,0E0,0E0,0E0,0E0,0E0,0E0,0E0,0E0,0E0,0E0,0E0,0E0,0E0,0E0,0E0,0E0,0E0,0E0,0E0,0E0,0E0,0E0,0E0,0E0,0E0,0E0,0E0,0E0,0E0,0E0,0E0,0E0],"parents":[2147483647,0,0,1,1,2,2,3,3,4,4,5,5,6,6,7,7,8,8,9,9,10,10,11,11,12,12,13,13,14,14,15,15,16,16,17,17,18,18,19,19,20,20,21,21,22,22,23,23,25,25,26,26,27,27,28,28,29,29,30,30,31,31,32,32,33,33,34,34,35,35,36,36,37,37,38,38,39,39,40,40,41,41,42,42,43,43,44,44,45,45,46,46,49,49,50,50,53,53,54,54,55,55,56,56,57,57,58,58,60,60],"right_children":[2,4,6,8,10,12,14,16,18,20,22,24,26,28,30,32,34,36,38,40,42,44,46,48,-1,50,52,54,56,58,60,62,64,66,68,70,72,74,76,78,80,82,84,86,88,90,92,-1,-1,94,96,-1,-1,98,100,102,104,106,108,-1,110,-1,-1,-1,-1,-1,-1,-1,-1,-1,-1,-1,-1,-1,-1,-1,-1,-1,-1,-1,-1,-1,-1,-1,-1,-1,-1,-1,-1,-1,-1,-1,-1,-1,-1,-1,-1,-1,-1,-1,-1,-1,-1,-1,-1,-1,-1,-1,-1,-1,-1],"split_conditions":[1.0051196E-5,1.1202944E-9,7.6444405E-7,1.0740679E-10,6.666921E-8,1.099847E-6,2.2844823E-5,4.0520528E-11,5.888827E-11,3.9848578E-7,1.3596396E-6,9.682293E-6,7.1967215E-6,1.6499069E-5,2.3523935E-5,9.1311174E-11,1.8114099E-10,5.577054E-10,1.11301295E-10,4.2068688E-8,1.3037027E-7,5.1890356E-7,3.3941367E-7,4.0914162E-7,6.309742E-2,3.4007137E-6,3.2489665E-5,6.908262E-6,5.0319277E-6,3.3655335E-5,3.7823862E-5,2.1770628E-9,1.1920933E-9,1.977388E-9,7.093078E-11,1.5332015E-10,8.592097E-12,1.6422197E-10,4.5068206E-11,1.3893961E-7,1.3224343E-7,3.639401E-8,6.9774745E-7,3.311992E-7,7.7628846E-7,2.1471049E-6,3.9908705E-6,2.1854032E-2,9.248998E-2,1.2649702E-5,3.5132823E-6,1.8568195E-2,4.6265688E-2,2.3625084E-6,9.301756E-6,2.072537E-5,1.7127744E-6,2.5058127E-5,2.8075006E-5,1.779744E-2,1.0695903E-5,2.2323374E-2,-1.7471021E-2,4.2397108E-2,9.396114E-4,-2.8398508E-2,3.776923E-2,1.0839653E-1,-2.8589694E-2,8.245262E-2,-2.159331E-2,2.1465605E-2,9.0965346E-2,6.724113E-3,-4.905716E-2,-5.4897647E-3,2.9552024E-2,3.7474748E-2,8.820313E-2,1.2433747E-2,-1.7372482E-2,1.11791715E-1,7.380925E-2,-1.20719345E-2,5.5127133E-2,4.1663982E-2,-1.3456054E-2,2.8461857E-2,6.32844E-3,4.4907197E-2,7.147106E-2,1.8835947E-2,3.1308517E-2,4.326847E-2,5.704366E-2,8.616606E-3,3.3311963E-2,5.1188115E-2,3.263788E-2,3.1595137E-2,2.409487E-2,5.800044E-2,4.6590507E-2,5.2159417E-2,3.732232E-2,4.05573E-2,8.397296E-2,3.451025E-2,4.7669988E-2,4.7789056E-2,5.751716E-2],"split_indices":[9,11,2,5,2,3,7,2,7,9,10,13,4,9,5,5,8,10,5,3,3,11,3,3,0,3,7,5,4,13,7,14,12,14,7,8,3,8,2,8,4,3,12,6,6,7,12,0,0,13,3,0,0,3,6,13,3,7,8,0,4,0,0,0,0,0,0,0,0,0,0,0,0,0,0,0,0,0,0,0,0,0,0,0,0,0,0,0,0,0,0,0,0,0,0,0,0,0,0,0,0,0,0,0,0,0,0,0,0,0,0],"split_type":[0,0,0,0,0,0,0,0,0,0,0,0,0,0,0,0,0,0,0,0,0,0,0,0,0,0,0,0,0,0,0,0,0,0,0,0,0,0,0,0,0,0,0,0,0,0,0,0,0,0,0,0,0,0,0,0,0,0,0,0,0,0,0,0,0,0,0,0,0,0,0,0,0,0,0,0,0,0,0,0,0,0,0,0,0,0,0,0,0,0,0,0,0,0,0,0,0,0,0,0,0,0,0,0,0,0,0,0,0,0,0],"sum_hessian":[1.058E4,7.813E3,2.767E3,1.694E3,6.119E3,3.13E2,2.454E3,1.561E3,1.33E2,4.093E3,2.026E3,1.31E2,1.82E2,1.333E3,1.121E3,1.394E3,1.67E2,5.8E1,7.5E1,3.839E3,2.54E2,3.91E2,1.635E3,1.4E1,1.17E2,1.67E2,1.5E1,4.29E2,9.04E2,8.3E2,2.91E2,1.113E3,2.81E2,1.46E2,2.1E1,2.4E1,3.4E1,2.4E1,5.1E1,3.672E3,1.67E2,1.99E2,5.5E1,8.1E1,3.1E2,2.48E2,1.387E3,1E0,1.3E1,1.6E2,7E0,5E0,1E1,1.18E2,3.11E2,1.68E2,7.36E2,2.7E1,8.03E2,2E0,2.89E2,1.096E3,1.7E1,2.24E2,5.7E1,9E0,1.37E2,1.9E1,2E0,4E0,2E1,2.3E1,1.1E1,6E0,1.8E1,3.3E1,1.8E1,3.57E3,1.02E2,9.8E1,6.9E1,3.3E1,1.66E2,1.3E1,4.2E1,3E0,7.8E1,1.21E2,1.89E2,1.6E2,8.8E1,4.63E2,9.24E2,1.8E1,1.42E2,1E0,6E0,6.2E1,5.6E1,1.17E2,1.94E2,4.8E1,1.2E2,2.9E1,7.07E2,1.5E1,1.2E1,2.3E1,7.8E2,4.1E1,2.48E2],"tree_param":{"num_deleted":"0","num_feature":"16","num_nodes":"111","size_leaf_vector":"1"}},{"base_weights":[-1.22007295E-1,1.9782929E-2,-2.7041093E-1,7.5855926E-2,-7.433848E-2,-1.9643255E-1,-3.2318047E-1,1.0554085E-1,4.3089293E-2,-2.0503955E-2,-1.030374E-1,-2.363513E-1,-1.464958E-1,-2.794948E-1,-3.4991607E-1,1.2170758E-1,2.3133097E-2,4.6055153E-2,-5.580638E-1,-9.566056E-2,4.729424E-3,-3.3554512E-1,-6.6439226E-2,-1.8852466E-1,-4.464981E-1,-7.7933736E-2,-2.1210037E-1,-3.783119E-1,-2.3361902E-1,-5.225208E-1,-3.370176E-1,1.0049759E-1,2.402254E-1,-2.1153873E-1,1.0339453E-1,-3.6292493E-1,4.987728E-2,-2.4311464E-1,-2.4459645E-1,-1.9194322E-2,-2.4075711E-1,4.73713E-2,-2.5882863E-2,-3.1369153E-1,-6.135335E-1,-8.4530674E-2,5.5393554E-2,-2.2843906E-1,-6.784524E-2,-3.9794564E-1,-7.669509E-1,-3.6410224E-1,-7.220274E-2,-5.0751513E-1,-1.68912E-1,-2.0471926E-1,-4.3228957E-1,-1.5190192E-1,-2.8354368E-1,-4.2166063E-1,-6.7652667E-1,5.68957E-2,-3.4163105E-1,2.5149077E-2,6.521344E-2,7.777802E-2,-7.3623866E-2,-1.13209374E-1,3.4647964E-2,-9.384914E-2,4.0003695E-2,-2.2167183E-1,1.7526563E-2,1.16322815E-1,1.3469719E-2,-1.3766157E-2,-1.0853208E-1,-3.4735724E-2,1.963086E-2,-1.9197673E-2,-7.986937E-2,1.0790227E-2,6.0476027E-2,-5.0019007E-2,8.303745E-3,-1.0249393E-1,-3.677999E-2,-3.1555828E-1,-1.2620458E-1,-1.6503973E-2,-7.745356E-2,1.9835327E-2,-2.2815958E-1,-4.9266648E-2,-1.15644164E-1,-8.6376965E-2,-1.7457457E-2,-1.8483311E-1,-1.0225606E-1,-3.565086E-1,-1.7096756E-1,3.185426E-2,-1.5409127E-1,2.1932038E-2,-2.4093991E-2,-6.367863E-2,-1.791686E-1,-7.820775E-2,-3.1023787E-2,-1.7645922E-1,-4.440432E-2,-1.696013E-1,-1.17573485E-1,-4.0013783E-2,-1.0531705E-1,-8.016112E-2,-1.6908453E-1,-3.3608366E-2,-1.3494505E-1,-2.2584878E-1,-1.4658426E-1,3.433678E-2,-2.237268E-2,-8.5703164E-2,-1.0829853E-1],"categories":[],"categories_nodes":[],"categories_segments":[],"categories_sizes":[],"default_left":[0,0,0,0,0,0,0,0,0,0,0,0,0,0,0,0,0,0,0,0,0,0,0,0,0,0,0,0,0,0,0,0,0,0,0,0,0,0,0,0,0,0,0,0,0,0,0,0,0,0,0,0,0,0,0,0,0,0,0,0,0,0,0,0,0,0,0,0,0,0,0,0,0,0,0,0,0,0,0,0,0,0,0,0,0,0,0,0,0,0,0,0,0,0,0,0,0,0,0,0,0,0,0,0,0,0,0,0,0,0,0,0,0,0,0,0,0,0,0,0,0,0,0,0,0],"id":13,"left_children":[1,3,5,7,9,11,13,15,17,19,21,23,25,27,29,31,33,35,37,39,41,43,45,47,49,51,53,55,57,59,61,63,65,67,69,71,73,-1,75,77,79,81,83,85,87,89,91,93,95,97,99,101,103,105,107,109,111,113,115,117,119,121,123,-1,-1,-1,-1,-1,-1,-1,-1,-1,-1,-1,-1,-1,-1,-1,-1,-1,-1,-1,-1,-1,-1,-1,-1,-1,-1,-1,-1,-1,-1,-1,-1,-1,-1,-1,-1,-1,-1,-1,-1,-1,-1,-1,-1,-1,-1,-1,-1,-1,-1,-1,-1,-1,-1,-1,-1,-1,-1,-1,-1,-1,-1],"loss_changes":[2.2265268E2,2.8568388E1,2.0119202E1,3.2947655E0,3.1203175E0,4.261177E0,3.4247742E0,2.367279E0,2.9033597E0,1.335557E0,1.1193041E1,1.1936363E1,4.3015366E0,5.1249313E0,3.9804688E0,3.7138252E0,5.540556E0,2.530121E0,4.345317E-1,1.9591914E0,6.904591E-1,8.9497185E-1,2.517393E0,4.6857452E0,3.1332817E0,7.461648E-1,6.1659336E0,3.3128548E0,3.1717262E0,1.7029686E0,3.1815643E0,2.442212E0,2.1435156E0,4.1108584E0,2.7718573E0,2.4194455E0,2.6619654E0,0E0,9.982011E-2,9.640027E-1,2.576418E-1,3.8141206E-1,2.3281844E0,8.555622E-1,5.7188654E-1,5.0755553E0,1.3453065E0,7.3287926E0,5.016409E-1,2.2063599E0,1.6479626E0,6.8745387E-1,5.515363E-1,1.5154982E0,2.552003E0,1.826505E0,1.2611694E0,1.0635276E0,2.0826645E0,6.470537E-1,3.3472824E-1,1.6745348E-1,1.7604523E0,0E0,0E0,0E0,0E0,0E0,0E0,0E0,0E0,0E0,0E0,0E0,0E0,0E0,0E0,0E0,0E0,0E0,0E0,0E0,0E0,0E0,0E0,0E0,0E0,0E0,0E0,0E0,0E0,0E0,0E0,0E0,0E0,0E0,0E0,0E0,0E0,0E0,0E0,0E0,0E0,0E0,0E0,0E0,0E0,0E0,0E0,0E0,0E0,0E0,0E0,0E0,0E0,0E0,0E0,0E0,0E0,0E0,0E0,0E0,0E0,0E0,0E0],"parents":[2147483647,0,0,1,1,2,2,3,3,4,4,5,5,6,6,7,7,8,8,9,9,10,10,11,11,12,12,13,13,14,14,15,15,16,16,17,17,18,18,19,19,20,20,21,21,22,22,23,23,24,24,25,25,26,26,27,27,28,28,29,29,30,30,31,31,32,32,33,33,34,34,35,35,36,36,38,38,39,39,40,40,41,41,42,42,43,43,44,44,45,45,46,46,47,47,48,48,49,49,50,50,51,51,52,52,53,53,54,54,55,55,56,56,57,57,58,58,59,59,60,60,61,61,62,62],"right_children":[2,4,6,8,10,12,14,16,18,20,22,24,26,28,30,32,34,36,38,40,42,44,46,48,50,52,54,56,58,60,62,64,66,68,70,72,74,-1,76,78,80,82,84,86,88,90,92,94,96,98,100,102,104,106,108,110,112,114,116,118,120,122,124,-1,-1,-1,-1,-1,-1,-1,-1,-1,-1,-1,-1,-1,-1,-1,-1,-1,-1,-1,-1,-1,-1,-1,-1,-1,-1,-1,-1,-1,-1,-1,-1,-1,-1,-1,-1,-1,-1,-1,-1,-1,-1,-1,-1,-1,-1,-1,-1,-1,-1,-1,-1,-1,-1,-1,-1,-1,-1,-1,-1,-1,-1],"split_conditions":[4.2068688E-8,1.6634866E-10,7.6444405E-7,7.738456E-11,3.420426E-10,2.9357427E-6,5.8317455E-6,8.324315E-12,6.9195744E-10,1.8907176E-9,9.65585E-9,1.8920023E-6,1.9310767E-6,9.664606E-6,1.5728927E-5,7.2241E-12,6.2655006E-11,1.0057858E-9,1.3329623E-9,2.6194238E-10,3.5257622E-10,4.5105546E-9,1.3893961E-7,1.4157879E-6,2.9046912E-6,1.954554E-6,3.5324565E-6,4.51465E-6,2.16801E-6,9.578955E-6,6.908262E-6,7.234159E-11,1.9053183E-10,9.046515E-11,8.311721E-11,2.6057762E-10,2.0199833E-9,-2.4311464E-1,1.4194798E-9,2.7656646E-10,2.407934E-10,2.4325109E-9,2.6791684E-9,3.334823E-9,1.106287E-9,4.610208E-8,5.165172E-8,8.314337E-7,9.467754E-7,1.2928278E-6,7.124816E-7,7.124816E-7,2.5854083E-6,3.3935742E-6,9.632937E-6,3.484472E-6,5.2790615E-6,2.0091477E-6,1.5939566E-5,6.3845087E-6,3.300034E-6,6.9624343E-6,1.1365441E-5,2.5149077E-2,6.521344E-2,7.777802E-2,-7.3623866E-2,-1.13209374E-1,3.4647964E-2,-9.384914E-2,4.0003695E-2,-2.2167183E-1,1.7526563E-2,1.16322815E-1,1.3469719E-2,-1.3766157E-2,-1.0853208E-1,-3.4735724E-2,1.963086E-2,-1.9197673E-2,-7.986937E-2,1.0790227E-2,6.0476027E-2,-5.0019007E-2,8.303745E-3,-1.0249393E-1,-3.677999E-2,-3.1555828E-1,-1.2620458E-1,-1.6503973E-2,-7.745356E-2,1.9835327E-2,-2.2815958E-1,-4.9266648E-2,-1.15644164E-1,-8.6376965E-2,-1.7457457E-2,-1.8483311E-1,-1.0225606E-1,-3.565086E-1,-1.7096756E-1,3.185426E-2,-1.5409127E-1,2.1932038E-2,-2.4093991E-2,-6.367863E-2,-1.791686E-1,-7.820775E-2,-3.1023787E-2,-1.7645922E-1,-4.440432E-2,-1.696013E-1,-1.17573485E-1,-4.0013783E-2,-1.0531705E-1,-8.016112E-2,-1.6908453E-1,-3.3608366E-2,-1.3494505E-1,-2.2584878E-1,-1.4658426E-1,3.433678E-2,-2.237268E-2,-8.5703164E-2,-1.0829853E-1],"split_indices":[3,4,2,4,7,10,4,3,10,11,13,6,4,12,10,3,4,11,12,5,4,12,8,9,7,14,14,6,3,6,5,4,8,5,6,9,14,0,11,8,6,12,11,12,3,14,2,6,14,14,3,3,13,6,9,10,13,2,5,6,3,4,5,0,0,0,0,0,0,0,0,0,0,0,0,0,0,0,0,0,0,0,0,0,0,0,0,0,0,0,0,0,0,0,0,0,0,0,0,0,0,0,0,0,0,0,0,0,0,0,0,0,0,0,0,0,0,0,0,0,0,0,0,0,0],"split_type":[0,0,0,0,0,0,0,0,0,0,0,0,0,0,0,0,0,0,0,0,0,0,0,0,0,0,0,0,0,0,0,0,0,0,0,0,0,0,0,0,0,0,0,0,0,0,0,0,0,0,0,0,0,0,0,0,0,0,0,0,0,0,0,0,0,0,0,0,0,0,0,0,0,0,0,0,0,0,0,0,0,0,0,0,0,0,0,0,0,0,0,0,0,0,0,0,0,0,0,0,0,0,0,0,0,0,0,0,0,0,0,0,0,0,0,0,0,0,0,0,0,0,0,0,0],"sum_hessian":[1.058E4,5.411E3,5.169E3,3.391E3,2.02E3,2.154E3,3.015E3,1.778E3,1.613E3,7.03E2,1.317E3,1.195E3,9.59E2,1.149E3,1.866E3,1.486E3,2.92E2,1.606E3,7E0,1.76E2,5.27E2,1.78E2,1.139E3,9.75E2,2.2E2,4.7E2,4.89E2,3.62E2,7.87E2,1.27E2,1.739E3,1.262E3,2.24E2,7.4E1,2.18E2,1.4E1,1.592E3,3E0,4E0,1.16E2,6E1,2.2E2,3.07E2,1.67E2,1.1E1,9.92E2,1.47E2,7.32E2,2.43E2,1.93E2,2.7E1,8E0,4.62E2,6.1E1,4.28E2,8.7E1,2.75E2,3E2,4.87E2,7.9E1,4.8E1,2E1,1.719E3,1.106E3,1.56E2,2.16E2,8E0,4.9E1,2.5E1,1.4E1,2.04E2,7E0,7E0,2.2E1,1.57E3,2E0,2E0,5.4E1,6.2E1,8E0,5.2E1,2.06E2,1.4E1,8.4E1,2.23E2,1.45E2,2.2E1,2E0,9E0,8.49E2,1.43E2,1.46E2,1E0,5.21E2,2.11E2,9E0,2.34E2,3.8E1,1.55E2,7E0,2E1,2E0,6E0,2.4E1,4.38E2,1.5E1,4.6E1,1.77E2,2.51E2,1E1,7.7E1,6.1E1,2.14E2,2.76E2,2.4E1,4.62E2,2.5E1,7E0,7.2E1,3.2E1,1.6E1,1.4E1,6E0,4.46E2,1.273E3],"tree_param":{"num_deleted":"0","num_feature":"16","num_nodes":"125","size_leaf_vector":"1"}},{"base_weights":[8.4629916E-2,6.756523E-2,9.4360635E-2,7.436558E-2,-1.1708328E-1,2.1635287E-1,9.09017E-2,6.7192666E-2,1.2284113E-1,7.8751175E-3,-1.6003837E-1,1.5942308E-1,2.5915948E-1,-8.012775E-2,9.41321E-2,7.066926E-2,2.1046514E-2,1.9042134E-1,7.032436E-2,2.388613E-2,-3.0685013E-2,7.22895E-2,-1.6639449E-1,1.9257222E-1,-7.204608E-2,3.6082944E-1,1.9260629E-1,1.1171386E-2,-2.2605556E-1,1.8073584E-1,9.086177E-2,6.6178255E-2,1.264396E-1,-2.4994856E-2,4.377918E-2,1.4265443E-1,2.502683E-1,-2.63014E-2,1.06263354E-1,6.364351E-4,7.401558E-3,-1.3560592E-2,-4.7796555E-3,-1.9429289E-1,-1.2881395E-1,2.1402268E-1,-5.78421E-3,4.8722275E-2,-1.4219217E-1,1.7028865E-1,1.1150289E-1,1.3721655E-1,2.5663435E-1,-1.2850608E-1,5.6735188E-2,-2.3720706E-2,-2.3428035E-1,1.2832686E-1,2.412518E-1,-2.1207614E-1,9.3956806E-2,1.089973E-2,2.1399008E-2,-4.770659E-3,4.1932464E-2,3.8510367E-2,-1.272414E-2,-4.78754E-2,1.682995E-2,4.6123948E-2,-4.163261E-2,-3.5372604E-2,7.796004E-2,1.18039595E-2,-5.4977316E-2,7.632047E-2,2.5565937E-2,-2.1646151E-2,-6.145576E-2,2.2455905E-2,-4.342921E-2,7.0672326E-2,2.604221E-2,4.85887E-2,-4.1647382E-2,-5.060751E-2,1.0470598E-2,7.074364E-2,-3.9422708E-3,5.875052E-2,8.077948E-3,9.095775E-2,8.288811E-3,8.865428E-3,-4.465182E-2,3.5645097E-2,-2.308482E-2,-5.5442274E-2,-7.934621E-2,7.143629E-2,-4.53856E-3,7.628824E-2,-2.2701241E-2,-4.8108757E-2,-7.32244E-2,4.6559617E-2,2.6651561E-2],"categories":[],"categories_nodes":[],"categories_segments":[],"categories_sizes":[],"default_left":[0,0,0,0,0,0,0,0,0,0,0,0,0,0,0,0,0,0,0,0,0,0,0,0,0,0,0,0,0,0,0,0,0,0,0,0,0,0,0,0,0,0,0,0,0,0,0,0,0,0,0,0,0,0,0,0,0,0,0,0,0,0,0,0,0,0,0,0,0,0,0,0,0,0,0,0,0,0,0,0,0,0,0,0,0,0,0,0,0,0,0,0,0,0,0,0,0,0,0,0,0,0,0,0,0,0,0],"id":14,"left_children":[1,3,5,7,9,11,13,15,17,19,21,23,25,27,29,31,33,35,37,39,41,-1,43,45,47,49,51,53,55,57,59,61,63,65,67,69,71,73,75,-1,-1,-1,-1,77,79,81,83,-1,85,87,-1,89,91,93,95,-1,97,99,101,103,105,-1,-1,-1,-1,-1,-1,-1,-1,-1,-1,-1,-1,-1,-1,-1,-1,-1,-1,-1,-1,-1,-1,-1,-1,-1,-1,-1,-1,-1,-1,-1,-1,-1,-1,-1,-1,-1,-1,-1,-1,-1,-1,-1,-1,-1,-1],"loss_changes":[1.750618E0,4.838026E0,2.8226738E0,1.2817554E0,7.3662126E-1,4.0952396E-1,3.6274757E0,5.173483E-1,1.6795268E0,2.2958867E-2,3.000753E-1,6.4306045E-1,6.342139E-1,1.6279415E0,1.8049889E0,7.4478054E-1,2.3972885E-1,5.589094E-1,9.404057E-1,3.9229076E-4,1.6356623E-3,0E0,8.086491E-2,3.0758595E-1,2.039992E-1,1.9378662E-2,1.9530773E-1,4.9097273E-1,3.8295746E-2,7.080183E-1,5.8321304E0,4.256258E-1,4.2551398E-1,2.0847224E-1,3.9230576E-1,3.8968945E-1,3.5222864E-1,7.6969606E-1,5.924394E-1,0E0,0E0,0E0,0E0,5.744481E-2,1.6026735E-1,1.5776205E-1,2.0102087E-1,0E0,4.812385E-2,5.117455E-2,0E0,2.3393333E-1,3.0082238E-1,6.546128E-2,4.9050692E-1,0E0,1.6875267E-2,2.003923E0,4.615178E-1,6.5129995E-2,1.909874E0,0E0,0E0,0E0,0E0,0E0,0E0,0E0,0E0,0E0,0E0,0E0,0E0,0E0,0E0,0E0,0E0,0E0,0E0,0E0,0E0,0E0,0E0,0E0,0E0,0E0,0E0,0E0,0E0,0E0,0E0,0E0,0E0,0E0,0E0,0E0,0E0,0E0,0E0,0E0,0E0,0E0,0E0,0E0,0E0,0E0,0E0],"parents":[2147483647,0,0,1,1,2,2,3,3,4,4,5,5,6,6,7,7,8,8,9,9,10,10,11,11,12,12,13,13,14,14,15,15,16,16,17,17,18,18,19,19,20,20,22,22,23,23,24,24,25,25,26,26,27,27,28,28,29,29,30,30,31,31,32,32,33,33,34,34,35,35,36,36,37,37,38,38,43,43,44,44,45,45,46,46,48,48,49,49,51,51,52,52,53,53,54,54,56,56,57,57,58,58,59,59,60,60],"right_children":[2,4,6,8,10,12,14,16,18,20,22,24,26,28,30,32,34,36,38,40,42,-1,44,46,48,50,52,54,56,58,60,62,64,66,68,70,72,74,76,-1,-1,-1,-1,78,80,82,84,-1,86,88,-1,90,92,94,96,-1,98,100,102,104,106,-1,-1,-1,-1,-1,-1,-1,-1,-1,-1,-1,-1,-1,-1,-1,-1,-1,-1,-1,-1,-1,-1,-1,-1,-1,-1,-1,-1,-1,-1,-1,-1,-1,-1,-1,-1,-1,-1,-1,-1,-1,-1,-1,-1,-1,-1],"split_conditions":[8.002351E-9,4.382305E-11,6.8890275E-11,1.5494797E-9,6.8229236E-9,2.4325109E-9,9.020374E-9,1.5973169E-10,1.7381403E-10,6.6895525E-9,9.16266E-11,4.133253E-10,4.3080164E-10,2.8827163E-10,1.0158839E-9,1.3307923E-9,1.3797091E-9,1.7105259E-9,1.7812694E-9,5.1428E-11,2.3502422E-9,7.22895E-2,2.287811E-9,6.200706E-10,3.3022023E-9,2.2401771E-11,3.110014E-9,2.6791684E-9,5.029027E-10,4.3150274E-9,6.4294485E-9,2.7394316E-11,1.1861963E-10,6.25186E-11,4.7535094E-11,1.0327372E-10,1.7557171E-10,2.6194238E-10,2.3719138E-10,6.364351E-4,7.401558E-3,-1.3560592E-2,-4.7796555E-3,6.3989913E-10,5.1428E-11,3.9767514E-10,1.4971174E-10,4.8722275E-2,6.0583294E-10,1.6899833E-10,1.1150289E-1,5.550333E-10,8.3359325E-10,7.329817E-10,7.0909667E-10,-2.3720706E-2,8.577723E-9,1.3590862E-9,8.87129E-10,1.4388074E-9,1.7138966E-8,1.089973E-2,2.1399008E-2,-4.770659E-3,4.1932464E-2,3.8510367E-2,-1.272414E-2,-4.78754E-2,1.682995E-2,4.6123948E-2,-4.163261E-2,-3.5372604E-2,7.796004E-2,1.18039595E-2,-5.4977316E-2,7.632047E-2,2.5565937E-2,-2.1646151E-2,-6.145576E-2,2.2455905E-2,-4.342921E-2,7.0672326E-2,2.604221E-2,4.85887E-2,-4.1647382E-2,-5.060751E-2,1.0470598E-2,7.074364E-2,-3.9422708E-3,5.875052E-2,8.077948E-3,9.095775E-2,8.288811E-3,8.865428E-3,-4.465182E-2,3.5645097E-2,-2.308482E-2,-5.5442274E-2,-7.934621E-2,7.143629E-2,-4.53856E-3,7.628824E-2,-2.2701241E-2,-4.8108757E-2,-7.32244E-2,4.6559617E-2,2.6651561E-2],"split_indices":[13,3,3,11,13,12,13,5,4,13,7,9,4,7,9,11,11,11,11,3,14,0,11,5,14,3,11,11,9,11,14,2,5,7,2,7,6,5,5,0,0,0,0,10,3,4,7,0,8,2,0,4,4,10,4,0,13,5,7,7,14,0,0,0,0,0,0,0,0,0,0,0,0,0,0,0,0,0,0,0,0,0,0,0,0,0,0,0,0,0,0,0,0,0,0,0,0,0,0,0,0,0,0,0,0,0,0],"split_type":[0,0,0,0,0,0,0,0,0,0,0,0,0,0,0,0,0,0,0,0,0,0,0,0,0,0,0,0,0,0,0,0,0,0,0,0,0,0,0,0,0,0,0,0,0,0,0,0,0,0,0,0,0,0,0,0,0,0,0,0,0,0,0,0,0,0,0,0,0,0,0,0,0,0,0,0,0,0,0,0,0,0,0,0,0,0,0,0,0,0,0,0,0,0,0,0,0,0,0,0,0,0,0,0,0,0,0],"sum_hessian":[1.058E4,3.845E3,6.735E3,3.709E3,1.36E2,1.84E2,6.551E3,3.233E3,4.76E2,3.5E1,1.01E2,8.1E1,1.03E2,1.21E2,6.43E3,3.006E3,2.27E2,2.07E2,2.69E2,2.5E1,1E1,1E0,1E2,7.1E1,1E1,3.9E1,6.4E1,7.5E1,4.6E1,2.32E2,6.198E3,2.784E3,2.22E2,7.5E1,1.52E2,1.17E2,9E1,7.3E1,1.96E2,1E0,2.4E1,4E0,6E0,5.5E1,4.5E1,6.4E1,7E0,2E0,8E0,3E0,3.6E1,3.6E1,2.8E1,1.8E1,5.7E1,3E0,4.3E1,1.26E2,1.06E2,6.2E1,6.136E3,4.11E2,2.373E3,1.9E1,2.03E2,7E0,6.8E1,8E0,1.44E2,1.13E2,4E0,2E0,8.8E1,5.2E1,2.1E1,2.3E1,1.73E2,5E0,5E1,3E0,4.2E1,5.4E1,1E1,3E0,4E0,7E0,1E0,2E0,1E0,2.3E1,1.3E1,2.3E1,5E0,2E0,1.6E1,3.9E1,1.8E1,1.9E1,2.4E1,7.1E1,5.5E1,1.02E2,4E0,2.6E1,3.6E1,4.71E2,5.665E3],"tree_param":{"num_deleted":"0","num_feature":"16","num_nodes":"107","size_leaf_vector":"1"}},{"base_weights":[-8.584278E-2,3.205139E-2,-1.7455183E-1,6.409749E-2,-1.439473E-2,-1.127288E-1,-2.2139937E-1,2.581216E-1,6.0846858E-2,-3.833899E-1,-9.351458E-3,-2.750145E-1,-1.0340019E-1,-1.8395701E-1,-2.4298832E-1,3.31065E-1,-1.1150669E-1,-5.45502E-2,6.7024305E-2,8.5646715E-3,-7.4585295E-1,2.1669982E-1,-1.4131736E-2,-2.5697216E-1,-6.3813835E-1,1.7841274E-2,-1.160047E-1,-2.4081454E-1,-8.9166254E-2,-3.7898412E-1,-2.2094257E-1,3.909081E-1,-1.3011244E-1,-5.4952544E-1,3.9592135E-1,-1.3812742E-1,2.425743E-1,1.0449638E-1,4.65773E-2,3.3345217E-1,-2.3617153E-1,-6.478421E-1,-2.925152E-1,2.5503486E-1,-1.7290688E-1,-2.477506E-1,-6.743356E-3,-4.514176E-1,-2.3275097E-1,-2.4987388E-2,-2.1973485E-1,2.960659E-2,-6.631247E-1,-5.566476E-1,-1.075088E-1,-1.495982E-1,-2.9201898E-1,-1.22903556E-1,-3.537737E-3,-4.6465468E-1,-3.1914547E-1,-1.3849056E-1,-2.4860226E-1,1.2989563E-1,-6.7196526E-3,-9.6234E-2,9.4883665E-2,4.149545E-2,1.413897E-1,-5.079876E-3,-1.3337672E-1,1.18144184E-1,-2.97859E-2,2.8127884E-2,9.540661E-2,-6.3996665E-2,1.8312642E-2,3.3922326E-2,1.24611735E-1,-1.5062142E-2,-1.2287524E-1,3.380942E-2,-2.403932E-1,4.580481E-2,1.6012627E-1,-8.118329E-2,1.8030815E-2,-6.5179807E-3,-1.6838224E-1,9.363048E-2,-3.13279E-3,3.1616844E-2,-1.5070674E-1,1.4923239E-2,-7.3542796E-2,2.1216247E-2,-2.8061314E-2,-2.754852E-1,-8.159311E-2,-7.566948E-2,-2.9684433E-1,5.4716663E-3,-3.646401E-2,-8.4849924E-2,-1.2214274E-2,-1.056647E-1,-7.212696E-2,-1.5887622E-2,-7.376148E-2,2.7704747E-2,-1.1801556E-2,-1.254209E-1,-2.1833797E-1,-7.231385E-2,-1.1619257E-1,-2.0699166E-2,-7.065047E-2,-9.349794E-2,-6.392517E-2],"categories":[],"categories_nodes":[],"categories_segments":[],"categories_sizes":[],"default_left":[0,0,0,0,0,0,0,0,0,0,0,0,0,0,0,0,0,0,0,0,0,0,0,0,0,0,0,0,0,0,0,0,0,0,0,0,0,0,0,0,0,0,0,0,0,0,0,0,0,0,0,0,0,0,0,0,0,0,0,0,0,0,0,0,0,0,0,0,0,0,0,0,0,0,0,0,0,0,0,0,0,0,0,0,0,0,0,0,0,0,0,0,0,0,0,0,0,0,0,0,0,0,0,0,0,0,0,0,0,0,0,0,0,0,0,0,0,0,0],"id":15,"left_children":[1,3,5,7,9,11,13,15,17,19,21,23,25,27,29,31,33,35,37,39,41,43,45,47,49,51,53,55,57,59,61,63,65,-1,67,69,71,73,75,77,79,-1,81,83,85,87,89,91,93,-1,-1,95,97,99,101,103,105,107,109,111,113,115,117,-1,-1,-1,-1,-1,-1,-1,-1,-1,-1,-1,-1,-1,-1,-1,-1,-1,-1,-1,-1,-1,-1,-1,-1,-1,-1,-1,-1,-1,-1,-1,-1,-1,-1,-1,-1,-1,-1,-1,-1,-1,-1,-1,-1,-1,-1,-1,-1,-1,-1,-1,-1,-1,-1,-1,-1],"loss_changes":[1.1066466E2,6.7642884E0,1.7462646E1,1.6802464E0,3.4503245E0,3.9152718E0,2.7311249E0,1.2232411E0,1.889883E0,3.558114E0,1.9826992E0,7.597923E-1,3.7690563E0,6.7693825E0,6.437195E0,1.0719991E0,7.708433E0,3.3859396E0,1.9198065E0,1.1124045E0,7.699341E0,6.116499E-1,3.0966158E0,5.354519E-1,2.5296283E-1,1.8863776E0,8.299742E0,3.632145E0,1.368892E0,1.3998833E0,4.239403E0,5.835962E-1,5.270176E-1,0E0,7.073331E-2,3.9294665E0,1.5901866E0,2.0014057E0,6.129573E0,6.135243E-2,2.374245E-1,0E0,2.3581839E0,9.169686E-1,1.0732841E-1,3.8853161E0,2.0567613E0,4.5002127E-1,4.4276667E-1,0E0,0E0,1.1711013E0,1.4946759E-1,5.2844048E0,3.8716068E0,4.1230197E0,1.4775848E0,2.9113111E0,4.6706432E-1,1.1912441E0,8.701916E-1,3.1725368E0,3.0736542E0,0E0,0E0,0E0,0E0,0E0,0E0,0E0,0E0,0E0,0E0,0E0,0E0,0E0,0E0,0E0,0E0,0E0,0E0,0E0,0E0,0E0,0E0,0E0,0E0,0E0,0E0,0E0,0E0,0E0,0E0,0E0,0E0,0E0,0E0,0E0,0E0,0E0,0E0,0E0,0E0,0E0,0E0,0E0,0E0,0E0,0E0,0E0,0E0,0E0,0E0,0E0,0E0,0E0,0E0,0E0,0E0],"parents":[2147483647,0,0,1,1,2,2,3,3,4,4,5,5,6,6,7,7,8,8,9,9,10,10,11,11,12,12,13,13,14,14,15,15,16,16,17,17,18,18,19,19,20,20,21,21,22,22,23,23,24,24,25,25,26,26,27,27,28,28,29,29,30,30,31,31,32,32,34,34,35,35,36,36,37,37,38,38,39,39,40,40,42,42,43,43,44,44,45,45,46,46,47,47,48,48,51,51,52,52,53,53,54,54,55,55,56,56,57,57,58,58,59,59,60,60,61,61,62,62],"right_children":[2,4,6,8,10,12,14,16,18,20,22,24,26,28,30,32,34,36,38,40,42,44,46,48,50,52,54,56,58,60,62,64,66,-1,68,70,72,74,76,78,80,-1,82,84,86,88,90,92,94,-1,-1,96,98,100,102,104,106,108,110,112,114,116,118,-1,-1,-1,-1,-1,-1,-1,-1,-1,-1,-1,-1,-1,-1,-1,-1,-1,-1,-1,-1,-1,-1,-1,-1,-1,-1,-1,-1,-1,-1,-1,-1,-1,-1,-1,-1,-1,-1,-1,-1,-1,-1,-1,-1,-1,-1,-1,-1,-1,-1,-1,-1,-1,-1,-1,-1],"split_conditions":[2.9013565E-9,2.8710584E-10,5.254831E-7,9.275927E-10,2.1087885E-9,1.0409644E-8,8.159119E-6,2.43794E-10,4.7770222E-11,2.0827302E-9,1.687972E-10,2.1655385E-8,1.7138966E-8,1.0051196E-5,1.7659344E-5,5.0667102E-11,1.2752824E-10,5.76259E-11,3.3699574E-11,3.0213695E-10,6.0215145E-11,4.9252147E-11,6.5766077E-9,4.3979678E-9,6.9026185E-9,1.8887617E-8,1.7116745E-8,4.687283E-6,1.6908165E-5,1.5888437E-6,1.1365441E-5,5.5330485E-10,2.4383509E-11,-5.4952544E-1,3.213829E-12,5.4422848E-11,6.25186E-11,3.3404363E-11,1.989999E-9,1.6211309E-10,6.308509E-9,-6.478421E-1,2.9511185E-10,8.451269E-12,5.4674102E-11,7.016198E-11,5.4742405E-10,1.6689693E-9,1.7818519E-9,-2.4987388E-2,-2.1973485E-1,3.9043746E-9,2.6358196E-9,1.959658E-8,1.0158569E-8,3.8771686E-6,8.058471E-6,9.301756E-6,2.512065E-5,1.1943107E-5,1.03426955E-5,1.805393E-6,2.6622178E-5,1.2989563E-1,-6.7196526E-3,-9.6234E-2,9.4883665E-2,4.149545E-2,1.413897E-1,-5.079876E-3,-1.3337672E-1,1.18144184E-1,-2.97859E-2,2.8127884E-2,9.540661E-2,-6.3996665E-2,1.8312642E-2,3.3922326E-2,1.24611735E-1,-1.5062142E-2,-1.2287524E-1,3.380942E-2,-2.403932E-1,4.580481E-2,1.6012627E-1,-8.118329E-2,1.8030815E-2,-6.5179807E-3,-1.6838224E-1,9.363048E-2,-3.13279E-3,3.1616844E-2,-1.5070674E-1,1.4923239E-2,-7.3542796E-2,2.1216247E-2,-2.8061314E-2,-2.754852E-1,-8.159311E-2,-7.566948E-2,-2.9684433E-1,5.4716663E-3,-3.646401E-2,-8.4849924E-2,-1.2214274E-2,-1.056647E-1,-7.212696E-2,-1.5887622E-2,-7.376148E-2,2.7704747E-2,-1.1801556E-2,-1.254209E-1,-2.1833797E-1,-7.231385E-2,-1.1619257E-1,-2.0699166E-2,-7.065047E-2,-9.349794E-2,-6.392517E-2],"split_indices":[9,9,2,12,14,14,5,9,4,14,8,11,14,9,9,4,8,7,2,9,7,2,13,8,3,3,4,6,8,2,5,10,2,0,3,7,7,2,14,8,13,0,9,3,2,7,10,11,12,0,0,2,2,8,2,9,12,6,11,6,6,2,7,0,0,0,0,0,0,0,0,0,0,0,0,0,0,0,0,0,0,0,0,0,0,0,0,0,0,0,0,0,0,0,0,0,0,0,0,0,0,0,0,0,0,0,0,0,0,0,0,0,0,0,0,0,0,0,0],"split_type":[0,0,0,0,0,0,0,0,0,0,0,0,0,0,0,0,0,0,0,0,0,0,0,0,0,0,0,0,0,0,0,0,0,0,0,0,0,0,0,0,0,0,0,0,0,0,0,0,0,0,0,0,0,0,0,0,0,0,0,0,0,0,0,0,0,0,0,0,0,0,0,0,0,0,0,0,0,0,0,0,0,0,0,0,0,0,0,0,0,0,0,0,0,0,0,0,0,0,0,0,0,0,0,0,0,0,0,0,0,0,0,0,0,0,0,0,0,0,0],"sum_hessian":[1.058E4,4.543E3,6.037E3,2.688E3,1.855E3,2.604E3,3.433E3,4.3E1,2.645E3,2.4E1,1.831E3,1.4E2,2.464E3,1.259E3,2.174E3,3.6E1,7E0,1.34E2,2.511E3,1.2E1,1.2E1,3.7E1,1.794E3,1.35E2,5E0,2.32E2,2.232E3,7.86E2,4.73E2,3.01E2,1.873E3,3.2E1,4E0,1E0,6E0,1.05E2,2.9E1,8.85E2,1.626E3,5E0,7E0,2E0,1E1,3.4E1,3E0,5.4E1,1.74E3,1.3E1,1.22E2,1E0,4E0,2.29E2,3E0,4.1E1,2.191E3,2.84E2,5.02E2,3.39E2,1.34E2,1.21E2,1.8E2,4.72E2,1.401E3,2.9E1,3E0,3E0,1E0,2E0,4E0,7.6E1,2.9E1,2E1,9E0,8.44E2,4.1E1,8.5E1,1.541E3,2E0,3E0,4E0,3E0,6E0,4E0,2.6E1,8E0,2E0,1E0,3.2E1,2.2E1,1.9E1,1.721E3,1E0,1.2E1,5E0,1.17E2,1.72E2,5.7E1,1E0,2E0,2.5E1,1.6E1,2.2E2,1.971E3,1.27E2,1.57E2,2.29E2,2.73E2,2.17E2,1.22E2,3.6E1,9.8E1,1.05E2,1.6E1,8.6E1,9.4E1,2.76E2,1.96E2,5.02E2,8.99E2],"tree_param":{"num_deleted":"0","num_feature":"16","num_nodes":"119","size_leaf_vector":"1"}},{"base_weights":[5.9285846E-2,5.3864762E-2,8.5351914E-2,3.029638E-2,5.631728E-2,7.885815E-2,9.909917E-2,2.5810137E-2,1.0266013E-1,6.2284898E-2,4.6346974E-2,7.258658E-2,7.800262E-2,9.330824E-2,1.0947373E-1,3.6019355E-2,-1.1094871E-2,2.986161E-1,5.6003526E-2,5.7949793E-2,1.420616E-1,3.0780777E-3,5.644536E-2,8.844981E-2,6.946998E-2,7.390738E-3,2.8027423E-2,4.425593E-2,1.0735146E-1,1.6055465E-2,7.528772E-2,-3.7873138E-2,8.292103E-2,3.5944495E-1,-2.820219E-2,-3.7024688E-2,1.6077286E-1,6.1899927E-2,-2.0281479E-2,2.093544E-1,1.1122435E-1,-4.2651217E-2,1.606236E-2,1.0212332E-1,4.4204537E-2,9.472427E-2,6.1469823E-2,6.821911E-2,1.0972593E-1,1.2317372E-2,3.2347713E-2,2.9126676E-2,2.0138032E-3,3.154272E-2,2.6669548E-4,6.89129E-2,-1.3744537E-2,7.054703E-2,-1.6943454E-3,1.1731037E-1,2.0747662E-2,6.0030323E-2,-2.1222696E-2,7.752445E-2,-1.7360117E-3,1.675343E-2,4.329985E-2,-1.7717382E-2,8.603355E-3,7.980369E-2,5.2962266E-2,-6.2943767E-3,4.4993304E-2,3.376214E-2,-1.4613483E-2,2.104142E-2,-1.1227735E-3,2.2185717E-2,4.0474243E-2,3.5667336E-3,1.6949624E-2,2.9114792E-2,1.7383631E-2,9.806517E-3,2.0193763E-2,2.1393757E-2,1.5464255E-2,3.5279274E-2,8.563399E-3],"categories":[],"categories_nodes":[],"categories_segments":[],"categories_sizes":[],"default_left":[0,0,0,0,0,0,0,0,0,0,0,0,0,0,0,0,0,0,0,0,0,0,0,0,0,0,0,0,0,0,0,0,0,0,0,0,0,0,0,0,0,0,0,0,0,0,0,0,0,0,0,0,0,0,0,0,0,0,0,0,0,0,0,0,0,0,0,0,0,0,0,0,0,0,0,0,0,0,0,0,0,0,0,0,0,0,0,0,0],"id":16,"left_children":[1,3,5,7,9,11,13,15,17,19,21,-1,23,25,27,29,31,33,35,37,39,41,43,45,47,-1,-1,-1,49,51,53,55,57,59,-1,61,63,65,67,69,71,73,75,77,79,81,83,85,87,-1,-1,-1,-1,-1,-1,-1,-1,-1,-1,-1,-1,-1,-1,-1,-1,-1,-1,-1,-1,-1,-1,-1,-1,-1,-1,-1,-1,-1,-1,-1,-1,-1,-1,-1,-1,-1,-1,-1,-1],"loss_changes":[1.4905663E0,5.047531E-1,1.5466022E-1,2.6615328E-1,4.6923828E-1,1.5428972E-1,2.463007E-2,2.94658E-1,4.221232E-1,1.7074814E0,1.2997398E0,0E0,1.04034424E-1,7.305145E-4,4.7397614E-4,4.7856814E-1,4.3112952E-1,2.4873579E-1,3.958127E-1,1.4558325E0,5.058718E-1,3.355669E-1,1.344121E0,8.762264E-2,2.7008295E-2,0E0,0E0,0E0,1.7035007E-3,3.074792E-1,4.5746338E-1,2.931676E-1,5.136951E-1,4.6316743E-2,0E0,1.900526E-1,3.1049624E-1,2.2286053E0,4.326462E-1,9.991026E-2,9.0998983E-1,1.2304731E-1,4.7148752E-1,4.6021128E-1,7.5577354E-1,3.251505E-2,1.5792966E-2,3.072238E-2,8.784756E-3,0E0,0E0,0E0,0E0,0E0,0E0,0E0,0E0,0E0,0E0,0E0,0E0,0E0,0E0,0E0,0E0,0E0,0E0,0E0,0E0,0E0,0E0,0E0,0E0,0E0,0E0,0E0,0E0,0E0,0E0,0E0,0E0,0E0,0E0,0E0,0E0,0E0,0E0,0E0,0E0],"parents":[2147483647,0,0,1,1,2,2,3,3,4,4,5,5,6,6,7,7,8,8,9,9,10,10,12,12,13,13,14,14,15,15,16,16,17,17,18,18,19,19,20,20,21,21,22,22,23,23,24,24,28,28,29,29,30,30,31,31,32,32,33,33,35,35,36,36,37,37,38,38,39,39,40,40,41,41,42,42,43,43,44,44,45,45,46,46,47,47,48,48],"right_children":[2,4,6,8,10,12,14,16,18,20,22,-1,24,26,28,30,32,34,36,38,40,42,44,46,48,-1,-1,-1,50,52,54,56,58,60,-1,62,64,66,68,70,72,74,76,78,80,82,84,86,88,-1,-1,-1,-1,-1,-1,-1,-1,-1,-1,-1,-1,-1,-1,-1,-1,-1,-1,-1,-1,-1,-1,-1,-1,-1,-1,-1,-1,-1,-1,-1,-1,-1,-1,-1,-1,-1,-1,-1,-1],"split_conditions":[2.1823374E-5,6.308509E-9,5.301711E-5,5.7757094E-10,6.666921E-8,1.8806104E-5,6.470991E-6,3.3699574E-11,1.4861355E-10,3.9848578E-7,1.9533968E-6,7.258658E-2,6.9624343E-6,6.9546E-7,6.3146916E-5,2.920966E-11,1.0390802E-9,7.612597E-12,8.648119E-11,3.2256537E-8,3.0300967E-8,6.3068796E-7,7.124816E-7,2.1765456E-6,3.1273557E-5,7.390738E-3,2.8027423E-2,4.425593E-2,4.31593E-5,9.275927E-10,9.893205E-10,4.467038E-11,6.2548864E-9,3.2368858E-11,-2.820219E-2,6.1399025E-11,1.0159216E-11,6.564176E-8,2.6006845E-7,9.4288666E-8,5.895727E-7,3.311992E-7,6.4162595E-7,