{"learner":{"attributes":{"scikit_learn":"{\"_estimator_type\": \"regressor\"}"},"feature_names":[],"feature_types":[],"gradient_booster":{"model":{"gbtree_model_param":{"num_parallel_tree":"1","num_trees":"200"},"iteration_indptr":[0,2,4,6,8,10,12,14,16,18,20,22,24,26,28,30,32,34,36,38,40,42,44,46,48,50,52,54,56,58,60,62,64,66,68,70,72,74,76,78,80,82,84,86,88,90,92,94,96,98,100,102,104,106,108,110,112,114,116,118,120,122,124,126,128,130,132,134,136,138,140,142,144,146,148,150,152,154,156,158,160,162,164,166,168,170,172,174,176,178,180,182,184,186,188,190,192,194,196,198,200],"tree_info":[0,1,0,1,0,1,0,1,0,1,0,1,0,1,0,1,0,1,0,1,0,1,0,1,0,1,0,1,0,1,0,1,0,1,0,1,0,1,0,1,0,1,0,1,0,1,0,1,0,1,0,1,0,1,0,1,0,1,0,1,0,1,0,1,0,1,0,1,0,1,0,1,0,1,0,1,0,1,0,1,0,1,0,1,0,1,0,1,0,1,0,1,0,1,0,1,0,1,0,1,0,1,0,1,0,1,0,1,0,1,0,1,0,1,0,1,0,1,0,1,0,1,0,1,0,1,0,1,0,1,0,1,0,1,0,1,0,1,0,1,0,1,0,1,0,1,0,1,0,1,0,1,0,1,0,1,0,1,0,1,0,1,0,1,0,1,0,1,0,1,0,1,0,1,0,1,0,1,0,1,0,1,0,1,0,1,0,1,0,1,0,1,0,1,0,1,0,1,0,1],"trees":[{"base_weights":[1.0174086E0,9.5398736E-1,1.3221774E0,1.1352565E0,9.14228E-1,1.2134104E0,1.4200728E0,3.8625622E-1,1.0798875E0,8.8918746E-1,1.0435178E0,3.9657307E-1,1.1819274E0,4.1238078E-1,4.4591123E-1,1.1145062E0,9.687904E-1,9.562157E-1,8.5719234E-1,3.796173E-1,1.0080748E0,3.3738068E-1,3.698837E-1,3.5721493E-1,1.072614E0,9.191186E-1,3.7186736E-1,2.0662527E-1,9.627821E-1,8.430067E-1,8.942195E-1,9.4643885E-1,1.0855261E0,2.5444326E-1,3.3105147E-1,2.882089E-1,2.2437772E-1,3.0942652E-1,2.787155E-1,2.559192E-1,2.1450658E-1,3.9460933E-1,2.6332894E-1,3.070591E-1,2.757224E-1,3.5808757E-1,3.110078E-1],"categories":[],"categories_nodes":[],"categories_segments":[],"categories_sizes":[],"default_left":[0,0,0,0,0,0,0,0,0,0,0,0,0,0,0,0,0,0,0,0,0,0,0,0,0,0,0,0,0,0,0,0,0,0,0,0,0,0,0,0,0,0,0,0,0,0,0],"id":0,"left_children":[1,3,5,7,9,11,13,-1,15,17,19,-1,21,-1,-1,23,25,27,29,-1,31,-1,-1,-1,33,35,-1,-1,37,39,41,43,45,-1,-1,-1,-1,-1,-1,-1,-1,-1,-1,-1,-1,-1,-1],"loss_changes":[2.0325684E2,6.211084E1,1.7656006E1,1.1862671E1,2.2353027E1,1.4060059E0,8.267822E-1,0E0,3.3776855E0,1.2114258E1,7.85437E0,0E0,6.109619E-1,0E0,0E0,1.5227051E0,2.6669312E0,2.7440186E0,1.3955078E0,0E0,3.7750244E0,0E0,0E0,0E0,3.0581055E0,1.0110931E0,0E0,0E0,3.4197998E0,3.2207031E0,6.586792E0,2.5756836E-1,1.079956E0,0E0,0E0,0E0,0E0,0E0,0E0,0E0,0E0,0E0,0E0,0E0,0E0,0E0,0E0],"parents":[2147483647,0,0,1,1,2,2,3,3,4,4,5,5,6,6,8,8,9,9,10,10,12,12,15,15,16,16,17,17,18,18,20,20,24,24,25,25,28,28,29,29,30,30,31,31,32,32],"right_children":[2,4,6,8,10,12,14,-1,16,18,20,-1,22,-1,-1,24,26,28,30,-1,32,-1,-1,-1,34,36,-1,-1,38,40,42,44,46,-1,-1,-1,-1,-1,-1,-1,-1,-1,-1,-1,-1,-1,-1],"split_conditions":[9.831802E-6,2.0785471E-7,1.990022E-5,1.4334259E-7,4.0786163E-6,6.9168686E-7,2.7557833E-5,3.8625622E-1,3.0943678E-8,2.235123E-7,2.589358E-7,3.9657307E-1,2.3254932E-5,4.1238078E-1,4.4591123E-1,1.84934E-7,9.839719E-8,6.558143E-8,4.078351E-7,3.796173E-1,1.0616272E-5,3.3738068E-1,3.698837E-1,3.5721493E-1,6.2261854E-8,1.9092187E-7,3.7186736E-1,2.0662527E-1,2.1719994E-7,6.1410907E-7,7.3718047E-7,3.8041225E-7,5.9953686E-7,2.5444326E-1,3.3105147E-1,2.882089E-1,2.2437772E-1,3.0942652E-1,2.787155E-1,2.559192E-1,2.1450658E-1,3.9460933E-1,2.6332894E-1,3.070591E-1,2.757224E-1,3.5808757E-1,3.110078E-1],"split_indices":[7,13,7,13,8,2,6,0,6,13,2,0,9,0,0,13,12,14,7,0,9,0,0,0,14,13,0,0,13,13,13,2,2,0,0,0,0,0,0,0,0,0,0,0,0,0,0],"split_type":[0,0,0,0,0,0,0,0,0,0,0,0,0,0,0,0,0,0,0,0,0,0,0,0,0,0,0,0,0,0,0,0,0,0,0,0,0,0,0,0,0,0,0,0,0,0,0],"sum_hessian":[1.058E4,8.761E3,1.819E3,1.571E3,7.19E3,8.68E2,9.51E2,4.13E2,1.158E3,6.03E3,1.16E3,1.86E2,6.82E2,5.77E2,3.74E2,8.76E2,2.82E2,1.939E3,4.091E3,1.55E2,1.005E3,3.32E2,3.5E2,3.01E2,5.75E2,2.42E2,4E1,4.9E1,1.89E3,2.975E3,1.116E3,5.67E2,4.38E2,7.3E1,5.02E2,1.91E2,5.1E1,6.13E2,1.277E3,2.753E3,2.22E2,3.9E1,1.077E3,1.39E2,4.28E2,1.29E2,3.09E2],"tree_param":{"num_deleted":"0","num_feature":"16","num_nodes":"47","size_leaf_vector":"1"}},{"base_weights":[-1.0174086E0,1.4741908E-1,-2.2778444E0,-5.0928026E-1,4.4209075E-1,-1.8455443E0,-2.638573E0,-6.2857383E-1,-2.401838E-1,1.9088551E-1,5.5047655E-1,-1.0089028E0,-1.9582977E0,-2.4235053E0,-2.791071E0,-5.5294883E-1,-8.161077E-1,-3.2124427E-1,-1.08976975E-1,2.9957453E-2,2.5510228E-1,5.1089746E-1,7.15306E-1,-2.7180082E-1,-1.1819762E0,-1.680419E0,-2.049403E0,-2.6590996E0,-2.2874699E0,-7.4583703E-1,-8.4179676E-1,-5.306521E-1,-9.0387255E-1,-7.552821E-1,-9.8221236E-1,-2.379071E-1,-5.256849E-1,8.7170966E-2,-1.8668458E-1,7.122138E-2,-6.0906804E-1,1.0865748E-1,3.4736192E-1,5.1488924E-1,-1.2981626E0,7.631268E-1,3.9791566E-1,-3.7242097E-1,-2.7445593E-1,-1.7225492E0,-1.1128953E0,-2.1384578E0,-1.7494653E0,-4.4817582E-1,-8.0088425E-1,-1.9877664E0,-2.4584148E0,-1.7934167E-1,-1.22643806E-1,-2.3204495E-1,-3.4435692E-1,-8.944878E-2,-2.2844332E-1,-2.4176203E-1,-3.2726568E-1,-6.657759E-2,-1.6164634E-1,-1.3460827E-1,-2.604478E-1,-1.965805E-2,1.0779908E-1,-1.9962987E-1,-4.503295E-2,4.8840582E-2,-6.204719E-2,-5.844094E-1,3.117553E-2,-2.694488E-1,3.730308E-2,1.0649604E-1,-5.209055E-1,-1.343736E-1,1.5588726E-1,1.9094517E-2,-4.9635825E-1,4.3302223E-2,2.353428E-1,-1.5408462E-1,1.5273437E-1,-4.4217125E-1,-5.369014E-1,-2.771832E-1,-3.875868E-1,-6.086135E-1,-7.327497E-1,-4.6670407E-1,-5.989233E-1,-5.481414E-1,-6.6215503E-1,-7.0914304E-1,-8.345929E-1],"categories":[],"categories_nodes":[],"categories_segments":[],"categories_sizes":[],"default_left":[0,0,0,0,0,0,0,0,0,0,0,0,0,0,0,0,0,0,0,0,0,0,0,0,0,0,0,0,0,0,0,0,0,0,0,0,0,0,0,0,0,0,0,0,0,0,0,0,0,0,0,0,0,0,0,0,0,0,0,0,0,0,0,0,0,0,0,0,0,0,0,0,0,0,0,0,0,0,0,0,0,0,0,0,0,0,0,0,0,0,0,0,0,0,0,0,0,0,0,0,0],"id":1,"left_children":[1,3,5,7,9,11,13,15,17,19,21,23,25,27,29,31,33,35,37,39,41,43,45,-1,47,49,51,53,55,-1,-1,57,59,61,63,65,67,69,71,73,75,77,79,81,83,85,87,-1,-1,89,91,93,95,-1,-1,97,99,-1,-1,-1,-1,-1,-1,-1,-1,-1,-1,-1,-1,-1,-1,-1,-1,-1,-1,-1,-1,-1,-1,-1,-1,-1,-1,-1,-1,-1,-1,-1,-1,-1,-1,-1,-1,-1,-1,-1,-1,-1,-1,-1,-1],"loss_changes":[1.5535258E4,1.064534E3,7.876328E2,5.4549927E1,1.0327612E2,2.1640869E2,8.401758E1,1.6283813E1,5.548731E0,1.1835442E1,1.6935608E1,3.8623047E0,4.817578E1,3.0966309E1,3.6132812E-1,6.124176E0,2.663025E0,5.3950844E0,3.0951958E0,8.692313E0,1.1027718E1,1.6136597E1,7.45224E0,0E0,4.517212E-1,1.0253052E1,3.715332E1,1.1206055E0,3.302539E1,0E0,0E0,6.268448E0,6.7098236E-1,4.8381042E-1,7.8809357E-1,9.961443E-1,2.062624E0,2.433917E0,2.439077E0,7.901908E0,1.9295689E1,5.1338882E0,8.592194E0,9.979431E0,2.5318155E0,5.739044E0,7.255416E0,0E0,0E0,5.239746E0,9.198761E-2,3.4285156E1,1.393042E1,0E0,0E0,5.6241455E0,7.718994E0,0E0,0E0,0E0,0E0,0E0,0E0,0E0,0E0,0E0,0E0,0E0,0E0,0E0,0E0,0E0,0E0,0E0,0E0,0E0,0E0,0E0,0E0,0E0,0E0,0E0,0E0,0E0,0E0,0E0,0E0,0E0,0E0,0E0,0E0,0E0,0E0,0E0,0E0,0E0,0E0,0E0,0E0,0E0,0E0],"parents":[2147483647,0,0,1,1,2,2,3,3,4,4,5,5,6,6,7,7,8,8,9,9,10,10,11,11,12,12,13,13,14,14,15,15,16,16,17,17,18,18,19,19,20,20,21,21,22,22,24,24,25,25,26,26,27,27,28,28,31,31,32,32,33,33,34,34,35,35,36,36,37,37,38,38,39,39,40,40,41,41,42,42,43,43,44,44,45,45,46,46,49,49,50,50,51,51,52,52,55,55,56,56],"right_children":[2,4,6,8,10,12,14,16,18,20,22,24,26,28,30,32,34,36,38,40,42,44,46,-1,48,50,52,54,56,-1,-1,58,60,62,64,66,68,70,72,74,76,78,80,82,84,86,88,-1,-1,90,92,94,96,-1,-1,98,100,-1,-1,-1,-1,-1,-1,-1,-1,-1,-1,-1,-1,-1,-1,-1,-1,-1,-1,-1,-1,-1,-1,-1,-1,-1,-1,-1,-1,-1,-1,-1,-1,-1,-1,-1,-1,-1,-1,-1,-1,-1,-1,-1,-1],"split_conditions":[2.0868596E-8,6.762144E-8,3.5443028E-7,6.558143E-8,6.9104864E-8,2.0785471E-7,8.604022E-7,3.0943678E-8,6.7036446E-8,6.8236034E-8,7.080891E-8,1.5825673E-7,6.1410907E-7,5.604198E-6,1.0710379E-6,2.072065E-7,1.8157364E-8,2.1245678E-7,2.9823426E-8,2.308926E-8,2.2003414E-7,1.2884464E-8,2.7594806E-8,-2.7180082E-1,1.3212505E-7,3.4092602E-7,3.7543766E-6,2.627748E-7,5.9953686E-7,-7.4583703E-1,-8.4179676E-1,6.289554E-8,2.8939278E-8,6.259991E-9,1.3020886E-7,1.246971E-8,2.1771217E-7,2.184906E-7,2.2859684E-8,6.0609144E-9,2.404272E-8,7.673358E-9,7.6023285E-9,7.906603E-9,5.2738502E-9,1.9274186E-8,4.9519198E-9,-3.7242097E-1,-2.7445593E-1,8.9638785E-9,4.9898085E-7,2.843123E-7,5.806505E-7,-4.4817582E-1,-8.0088425E-1,1.3767135E-6,2.4121045E-6,-1.7934167E-1,-1.22643806E-1,-2.3204495E-1,-3.4435692E-1,-8.944878E-2,-2.2844332E-1,-2.4176203E-1,-3.2726568E-1,-6.657759E-2,-1.6164634E-1,-1.3460827E-1,-2.604478E-1,-1.965805E-2,1.0779908E-1,-1.9962987E-1,-4.503295E-2,4.8840582E-2,-6.204719E-2,-5.844094E-1,3.117553E-2,-2.694488E-1,3.730308E-2,1.0649604E-1,-5.209055E-1,-1.343736E-1,1.5588726E-1,1.9094517E-2,-4.9635825E-1,4.3302223E-2,2.353428E-1,-1.5408462E-1,1.5273437E-1,-4.4217125E-1,-5.369014E-1,-2.771832E-1,-3.875868E-1,-6.086135E-1,-7.327497E-1,-4.6670407E-1,-5.989233E-1,-5.481414E-1,-6.6215503E-1,-7.0914304E-1,-8.345929E-1],"split_indices":[12,14,2,14,14,13,2,6,14,14,14,13,13,7,3,13,12,13,11,10,13,7,6,0,14,7,8,3,2,0,0,14,6,5,13,4,13,13,8,3,8,2,3,2,3,9,3,0,0,2,13,3,3,0,0,3,3,0,0,0,0,0,0,0,0,0,0,0,0,0,0,0,0,0,0,0,0,0,0,0,0,0,0,0,0,0,0,0,0,0,0,0,0,0,0,0,0,0,0,0,0],"split_type":[0,0,0,0,0,0,0,0,0,0,0,0,0,0,0,0,0,0,0,0,0,0,0,0,0,0,0,0,0,0,0,0,0,0,0,0,0,0,0,0,0,0,0,0,0,0,0,0,0,0,0,0,0,0,0,0,0,0,0,0,0,0,0,0,0,0,0,0,0,0,0,0,0,0,0,0,0,0,0,0,0,0,0,0,0,0,0,0,0,0,0,0,0,0,0,0,0,0,0,0,0],"sum_hessian":[1.058E4,5.499E3,5.081E3,1.703E3,3.796E3,2.314E3,2.767E3,1.179E3,5.24E2,1.145E3,2.651E3,2.76E2,2.038E3,1.155E3,1.612E3,8.43E2,3.36E2,3.23E2,2.01E2,3.27E2,8.18E2,2.141E3,5.1E2,1.77E2,9.9E1,5.08E2,1.53E3,4.16E2,7.39E2,8.3E1,1.529E3,7.95E2,4.8E1,2.5E2,8.6E1,2.31E2,9.2E1,5.7E1,1.44E2,3.08E2,1.9E1,3.17E2,5.01E2,2.137E3,4E0,4.42E2,6.8E1,7.8E1,2.1E1,4.71E2,3.7E1,1.175E3,3.55E2,5E0,4.11E2,2.73E2,4.66E2,5.1E2,2.85E2,3.4E1,1.4E1,4E0,2.46E2,3.6E1,5E1,2.21E2,1E1,7.7E1,1.5E1,3.7E1,2E1,9E0,1.35E2,2.32E2,7.6E1,6E0,1.3E1,4E0,3.13E2,5E2,1E0,1E1,2.127E3,1E0,3E0,1.5E1,4.27E2,7E0,6.1E1,1.05E2,3.66E2,2.1E1,1.6E1,8.69E2,3.06E2,2.03E2,1.52E2,1.63E2,1.1E2,3.67E2,9.9E1],"tree_param":{"num_deleted":"0","num_feature":"16","num_nodes":"101","size_leaf_vector":"1"}},{"base_weights":[7.1291655E-1,6.6511816E-1,9.141762E-1,8.312605E-1,6.411264E-1,8.5173315E-1,1.011356E0,2.8511894E-1,7.9424083E-1,7.107105E-1,6.277412E-1,2.814397E-1,8.3383197E-1,2.9652065E-1,3.2106498E-1,8.556829E-1,7.3467994E-1,7.312196E-1,5.7295996E-1,6.107284E-1,7.133822E-1,2.359131E-1,2.6406685E-1,9.194798E-1,8.1595623E-1,7.0744693E-1,2.7180344E-1,5.884497E-1,7.478163E-1,5.386561E-1,8.2982993E-1,6.4195466E-1,5.902782E-1,8.469109E-1,6.6679543E-1,2.822011E-1,1.9574784E-1,1.8974844E-1,2.565758E-1,2.27516E-1,1.8577185E-1,1.8802376E-1,1.2046642E-1,2.403617E-1,2.168719E-1,1.9048376E-1,1.2651023E-1,6.4180546E-2,2.5648573E-1,9.307815E-2,1.9317147E-1,1.7129764E-1,1.8705323E-1,2.6784477E-1,2.1509452E-1,1.739611E-1,2.0891364E-1],"categories":[],"categories_nodes":[],"categories_segments":[],"categories_sizes":[],"default_left":[0,0,0,0,0,0,0,0,0,0,0,0,0,0,0,0,0,0,0,0,0,0,0,0,0,0,0,0,0,0,0,0,0,0,0,0,0,0,0,0,0,0,0,0,0,0,0,0,0,0,0,0,0,0,0,0,0],"id":2,"left_children":[1,3,5,7,9,11,13,-1,15,17,19,-1,21,-1,-1,23,25,27,29,31,33,-1,-1,35,37,39,-1,41,43,45,47,49,51,53,55,-1,-1,-1,-1,-1,-1,-1,-1,-1,-1,-1,-1,-1,-1,-1,-1,-1,-1,-1,-1,-1,-1],"loss_changes":[1.01180176E2,3.356372E1,1.1444824E1,3.9907227E0,6.5197754E0,1.137207E0,6.8359375E-3,0E0,2.3978271E0,2.9683838E0,8.715576E0,0E0,1.5906982E0,0E0,0E0,2.6605225E-1,1.3513641E0,2.024231E0,9.628639E-1,2.9718018E0,5.873657E0,0E0,0E0,2.122345E-1,1.3046722E0,1.2063751E0,0E0,5.5710983E-1,6.550293E-1,1.3539162E0,8.013344E-2,1.1360474E0,1.68396E0,9.344635E-1,1.5814209E0,0E0,0E0,0E0,0E0,0E0,0E0,0E0,0E0,0E0,0E0,0E0,0E0,0E0,0E0,0E0,0E0,0E0,0E0,0E0,0E0,0E0,0E0],"parents":[2147483647,0,0,1,1,2,2,3,3,4,4,5,5,6,6,8,8,9,9,10,10,12,12,15,15,16,16,17,17,18,18,19,19,20,20,23,23,24,24,25,25,27,27,28,28,29,29,30,30,31,31,32,32,33,33,34,34],"right_children":[2,4,6,8,10,12,14,-1,16,18,20,-1,22,-1,-1,24,26,28,30,32,34,-1,-1,36,38,40,-1,42,44,46,48,50,52,54,56,-1,-1,-1,-1,-1,-1,-1,-1,-1,-1,-1,-1,-1,-1,-1,-1,-1,-1,-1,-1,-1,-1],"split_conditions":[1.1169676E-5,1.9323392E-7,2.3924149E-5,1.2549667E-7,2.1746152E-7,5.9953686E-7,2.3540566E-5,2.8511894E-1,3.0321065E-8,2.269685E-8,3.7543766E-6,2.814397E-1,1.9121819E-5,2.9652065E-1,3.2106498E-1,1.6902635E-7,8.919429E-8,6.383176E-8,1.3212505E-7,2.2610581E-7,5.5479967E-7,2.359131E-1,2.6406685E-1,4.7638005E-9,5.9702934E-8,1.8166812E-8,2.7180344E-1,2.0171433E-7,7.849715E-9,2.9934817E-8,5.3804836E-9,6.685054E-8,5.481697E-7,3.5443028E-7,6.6404723E-6,2.822011E-1,1.9574784E-1,1.8974844E-1,2.565758E-1,2.27516E-1,1.8577185E-1,1.8802376E-1,1.2046642E-1,2.403617E-1,2.168719E-1,1.9048376E-1,1.2651023E-1,6.4180546E-2,2.5648573E-1,9.307815E-2,1.9317147E-1,1.7129764E-1,1.8705323E-1,2.6784477E-1,2.1509452E-1,1.739611E-1,2.0891364E-1],"split_indices":[8,13,7,13,13,2,5,0,6,10,8,0,8,0,0,13,14,14,14,13,3,0,0,3,14,12,0,13,2,6,2,14,9,2,9,0,0,0,0,0,0,0,0,0,0,0,0,0,0,0,0,0,0,0,0,0,0],"split_type":[0,0,0,0,0,0,0,0,0,0,0,0,0,0,0,0,0,0,0,0,0,0,0,0,0,0,0,0,0,0,0,0,0,0,0,0,0,0,0,0,0,0,0,0,0,0,0,0,0,0,0,0,0,0,0,0,0],"sum_hessian":[1.058E4,8.553E3,2.027E3,1.075E3,7.478E3,1.24E3,7.87E2,2.49E2,8.26E2,1.198E3,6.28E3,2.04E2,1.036E3,5.79E2,2.08E2,4E2,4.26E2,1.039E3,1.59E2,5.246E3,1.034E3,5.21E2,5.15E2,1.45E2,2.55E2,3.72E2,5.4E1,1.12E2,9.27E2,1.43E2,1.6E1,2.064E3,3.182E3,2.63E2,7.71E2,1.32E2,1.3E1,4.8E1,2.07E2,2.31E2,1.41E2,9.1E1,2.1E1,2.85E2,6.42E2,7.6E1,6.7E1,1E0,1.5E1,1.3E1,2.051E3,2.025E3,1.157E3,1.9E2,7.3E1,2.01E2,5.7E2],"tree_param":{"num_deleted":"0","num_feature":"16","num_nodes":"57","size_leaf_vector":"1"}},{"base_weights":[-7.1355605E-1,1.0247763E-1,-1.596569E0,-3.2148117E-1,3.2812744E-1,-1.3067852E0,-1.8632808E0,-4.2849478E-1,-9.418565E-2,1.6640179E-1,3.852663E-1,-8.9509714E-1,-1.4222711E0,-1.7344728E0,-1.9749511E0,-3.5047293E-1,-5.2673805E-1,-3.1661335E-2,-2.4324004E-1,1.7335364E-1,-9.4350266E-1,3.881134E-1,-1.1996169E0,-6.73875E-1,-1.07429E0,-1.4593409E0,-1.1305591E0,-1.8852937E0,-1.6100012E0,-2.0058928E0,-1.8227502E0,-3.2809895E-1,-5.9823084E-1,-3.861033E-1,-5.671363E-1,-2.3573421E-2,-3.549214E-1,-2.1187864E-1,-1.1226344E0,1.7895249E-1,-1.173115E0,1.0359814E-1,-1.4929526E0,3.1853834E-1,4.4555232E-1,1.1618437E-1,-5.079485E-1,-5.9054977E-1,-7.4412376E-1,-1.299579E0,-8.3547056E-1,-1.3941903E0,-1.7912035E0,-2.974121E-1,-1.3646679E0,-1.7629412E0,-2.0445566E0,-1.3454593E0,-1.784582E0,-1.9396687E0,-6.2923527E-1,-1.2991736E0,-1.9931059E0,-7.796216E-2,-1.1278265E-1,-1.8711264E-1,2.5577942E-2,-1.4827904E-1,-8.883346E-2,-1.6623098E-1,-3.6196274E-1,-4.13751E-2,1.7225692E-2,-5.2856456E-2,-1.8368499E-1,-4.56035E-1,-6.5534055E-2,1.6629161E-2,6.943629E-2,-7.650095E-2,-4.182454E-1,6.312011E-2,-1.650095E-2,-1.3650095E-1,-5.061804E-1,9.68637E-2,-3.183366E-1,1.0801746E-2,1.3850899E-1,-6.0203046E-2,-1.7973736E-1,-3.0135361E-2,-2.2452034E-1,-3.0668306E-1,-4.3347383E-1,-2.0604531E-1,-3.0014902E-1,-4.3607333E-1,-3.5629016E-1,-5.960163E-1,-4.9773887E-1,-4.9184102E-1,-3.2894215E-1,-6.0777557E-1,-4.869644E-1,-6.1543727E-1,-2.488122E-1,-2.9421812E-1,-4.2040217E-1,-4.964341E-1,-5.8168405E-1,-5.5751187E-1,-6.1061865E-1,-2.516876E-1,-4.4678852E-1,-5.47398E-1,-6.503269E-1],"categories":[],"categories_nodes":[],"categories_segments":[],"categories_sizes":[],"default_left":[0,0,0,0,0,0,0,0,0,0,0,0,0,0,0,0,0,0,0,0,0,0,0,0,0,0,0,0,0,0,0,0,0,0,0,0,0,0,0,0,0,0,0,0,0,0,0,0,0,0,0,0,0,0,0,0,0,0,0,0,0,0,0,0,0,0,0,0,0,0,0,0,0,0,0,0,0,0,0,0,0,0,0,0,0,0,0,0,0,0,0,0,0,0,0,0,0,0,0,0,0,0,0,0,0,0,0,0,0,0,0,0,0,0,0,0,0],"id":3,"left_children":[1,3,5,7,9,11,13,15,17,19,21,23,25,27,29,31,33,35,37,39,41,43,45,47,49,51,53,55,57,59,61,63,65,67,69,71,-1,73,75,77,79,81,83,85,87,-1,-1,89,91,93,95,97,99,-1,101,103,105,107,109,111,-1,113,115,-1,-1,-1,-1,-1,-1,-1,-1,-1,-1,-1,-1,-1,-1,-1,-1,-1,-1,-1,-1,-1,-1,-1,-1,-1,-1,-1,-1,-1,-1,-1,-1,-1,-1,-1,-1,-1,-1,-1,-1,-1,-1,-1,-1,-1,-1,-1,-1,-1,-1,-1,-1,-1,-1],"loss_changes":[7.6244966E3,5.262697E2,3.9034668E2,4.644226E1,3.3110413E1,1.146875E2,3.460547E1,9.772369E0,5.705167E0,7.4087753E0,1.2432343E1,2.0563507E1,1.892871E1,2.0167969E1,2.9794922E0,3.833725E0,3.0364685E0,4.004426E0,4.7539434E0,7.2510433E0,3.6066442E0,1.0440308E1,4.5717564E0,9.8295593E-1,1.4786224E1,3.3934326E1,5.7831116E0,7.1713867E0,2.9188599E1,2.9707031E0,1.9619995E1,2.0859833E0,1.0806007E0,1.1287327E0,3.0231323E0,3.9993932E0,0E0,2.4072733E0,1.8243251E0,6.0248184E0,4.5623064E-1,6.2389612E-2,3.9046288E-2,7.534958E0,9.557312E0,0E0,0E0,2.6756287E-1,2.772293E-1,4.5681E0,2.894455E0,1.5606689E1,3.753357E0,0E0,4.0246887E0,8.469849E0,2.6080322E-1,4.251007E0,4.98645E0,1.5639648E0,0E0,4.350342E0,1.5166016E0,0E0,0E0,0E0,0E0,0E0,0E0,0E0,0E0,0E0,0E0,0E0,0E0,0E0,0E0,0E0,0E0,0E0,0E0,0E0,0E0,0E0,0E0,0E0,0E0,0E0,0E0,0E0,0E0,0E0,0E0,0E0,0E0,0E0,0E0,0E0,0E0,0E0,0E0,0E0,0E0,0E0,0E0,0E0,0E0,0E0,0E0,0E0,0E0,0E0,0E0,0E0,0E0,0E0,0E0],"parents":[2147483647,0,0,1,1,2,2,3,3,4,4,5,5,6,6,7,7,8,8,9,9,10,10,11,11,12,12,13,13,14,14,15,15,16,16,17,17,18,18,19,19,20,20,21,21,22,22,23,23,24,24,25,25,26,26,27,27,28,28,29,29,30,30,31,31,32,32,33,33,34,34,35,35,37,37,38,38,39,39,40,40,41,41,42,42,43,43,44,44,47,47,48,48,49,49,50,50,51,51,52,52,54,54,55,55,56,56,57,57,58,58,59,59,61,61,62,62],"right_children":[2,4,6,8,10,12,14,16,18,20,22,24,26,28,30,32,34,36,38,40,42,44,46,48,50,52,54,56,58,60,62,64,66,68,70,72,-1,74,76,78,80,82,84,86,88,-1,-1,90,92,94,96,98,100,-1,102,104,106,108,110,112,-1,114,116,-1,-1,-1,-1,-1,-1,-1,-1,-1,-1,-1,-1,-1,-1,-1,-1,-1,-1,-1,-1,-1,-1,-1,-1,-1,-1,-1,-1,-1,-1,-1,-1,-1,-1,-1,-1,-1,-1,-1,-1,-1,-1,-1,-1,-1,-1,-1,-1,-1,-1,-1,-1,-1,-1],"split_conditions":[2.0868596E-8,6.804582E-8,3.975454E-7,6.618921E-8,6.9104864E-8,3.4275743E-7,9.4900145E-7,2.9934817E-8,3.1013457E-8,7.3623703E-9,3.1144324E-8,1.9323392E-7,6.6404723E-6,1.29641985E-5,1.1186944E-5,2.0969112E-7,7.4304967E-9,1.9324766E-8,2.3396062E-8,3.1144324E-8,6.6759216E-9,6.9977084E-8,7.906603E-9,1.3020886E-7,1.2711062E-7,4.5343592E-7,8.797678E-7,2.274969E-6,1.5871922E-6,1.3919642E-6,5.3918608E-5,7.169347E-9,2.3114001E-8,6.1746626E-8,2.0405123E-7,6.7137535E-8,-3.549214E-1,6.624322E-9,5.5412315E-9,2.184906E-7,1.0085182E-8,8.561623E-9,2.5956586E-8,1.2884464E-8,1.9226393E-8,1.1618437E-1,-5.079485E-1,1.2369374E-8,9.32854E-9,7.849715E-9,2.7790216E-7,2.1661199E-6,3.3929803E-6,-2.974121E-1,1.1475069E-5,4.8440256E-6,9.145082E-6,1.4386105E-5,2.4121045E-6,2.2986383E-6,-6.2923527E-1,4.0872495E-5,8.8875495E-5,-7.796216E-2,-1.1278265E-1,-1.8711264E-1,2.5577942E-2,-1.4827904E-1,-8.883346E-2,-1.6623098E-1,-3.6196274E-1,-4.13751E-2,1.7225692E-2,-5.2856456E-2,-1.8368499E-1,-4.56035E-1,-6.5534055E-2,1.6629161E-2,6.943629E-2,-7.650095E-2,-4.182454E-1,6.312011E-2,-1.650095E-2,-1.3650095E-1,-5.061804E-1,9.68637E-2,-3.183366E-1,1.0801746E-2,1.3850899E-1,-6.0203046E-2,-1.7973736E-1,-3.0135361E-2,-2.2452034E-1,-3.0668306E-1,-4.3347383E-1,-2.0604531E-1,-3.0014902E-1,-4.3607333E-1,-3.5629016E-1,-5.960163E-1,-4.9773887E-1,-4.9184102E-1,-3.2894215E-1,-6.0777557E-1,-4.869644E-1,-6.1543727E-1,-2.488122E-1,-2.9421812E-1,-4.2040217E-1,-4.964341E-1,-5.8168405E-1,-5.5751187E-1,-6.1061865E-1,-2.516876E-1,-4.4678852E-1,-5.47398E-1,-6.503269E-1],"split_indices":[12,14,2,14,14,13,2,6,11,3,6,13,9,9,4,13,5,12,10,6,5,14,2,13,12,3,3,4,3,2,14,5,9,14,13,14,0,3,3,13,4,2,6,7,9,0,0,5,4,2,13,8,8,0,9,8,7,13,3,3,0,14,13,0,0,0,0,0,0,0,0,0,0,0,0,0,0,0,0,0,0,0,0,0,0,0,0,0,0,0,0,0,0,0,0,0,0,0,0,0,0,0,0,0,0,0,0,0,0,0,0,0,0,0,0,0,0],"split_type":[0,0,0,0,0,0,0,0,0,0,0,0,0,0,0,0,0,0,0,0,0,0,0,0,0,0,0,0,0,0,0,0,0,0,0,0,0,0,0,0,0,0,0,0,0,0,0,0,0,0,0,0,0,0,0,0,0,0,0,0,0,0,0,0,0,0,0,0,0,0,0,0,0,0,0,0,0,0,0,0,0,0,0,0,0,0,0,0,0,0,0,0,0,0,0,0,0,0,0,0,0,0,0,0,0,0,0,0,0,0,0,0,0,0,0,0,0],"sum_hessian":[1.058E4,5.499E3,5.081E3,1.91E3,3.589E3,2.438E3,2.643E3,1.298E3,6.12E2,9.38E2,2.651E3,5.36E2,1.902E3,1.235E3,1.408E3,7.26E2,5.72E2,4.32E2,1.8E2,9.33E2,5E0,2.647E3,4E0,2.42E2,2.94E2,1.684E3,2.18E2,5.52E2,6.83E2,1.16E3,2.48E2,6.68E2,5.8E1,1.3E2,4.42E2,4.3E2,2E0,1.75E2,5E0,9.3E2,3E0,2E0,3E0,1.2E3,1.447E3,1E0,3E0,1.15E2,1.27E2,1.49E2,1.45E2,1.412E3,2.72E2,1.4E2,7.8E1,3.19E2,2.33E2,2.75E2,4.08E2,6.86E2,4.74E2,6.3E1,1.85E2,2.78E2,3.9E2,5.6E1,2E0,5.7E1,7.3E1,4.35E2,7E0,1.78E2,2.52E2,1.62E2,1.3E1,3E0,2E0,2.78E2,6.52E2,1E0,2E0,1E0,1E0,1E0,2E0,1.197E3,3E0,5.5E1,1.392E3,3E0,1.12E2,1E0,1.26E2,5.4E1,9.5E1,7.9E1,6.6E1,1.092E3,3.2E2,1.04E2,1.68E2,3.6E1,4.2E1,1.06E2,2.13E2,2.31E2,2E0,3.9E1,2.36E2,2.28E2,1.8E2,3.82E2,3.04E2,2E1,4.3E1,1E2,8.5E1],"tree_param":{"num_deleted":"0","num_feature":"16","num_nodes":"117","size_leaf_vector":"1"}},{"base_weights":[4.9962822E-1,4.6680376E-1,6.452239E-1,5.761097E-1,4.4838753E-1,5.981401E-1,7.0782983E-1,6.316104E-1,5.3293884E-1,4.3957844E-1,5.1388544E-1,6.58877E-1,5.779772E-1,2.0602813E-1,2.2332686E-1,2.0558508E-1,6.0603034E-1,5.6552887E-1,4.325259E-1,4.744183E-1,4.2090157E-1,6.1921984E-1,4.742191E-1,2.0595142E-1,1.6293243E-1,1.6474015E-1,1.8689404E-1,6.6737366E-1,5.4783845E-1,5.744784E-1,3.6212814E-1,3.9329612E-1,1.7939861E-1,3.635843E-1,4.8327446E-1,4.1294083E-1,4.5362598E-1,6.7338E-1,4.872547E-1,1.3145904E-1,5.025054E-1,2.0251212E-1,1.1542416E-1,1.5354824E-1,2.0996827E-1,1.4757903E-1,1.7816935E-1,1.3367514E-1,7.941853E-2,1.4550705E-1,1.0214074E-1,1.2645155E-1,8.7992705E-2,1.6510122E-1,1.3988134E-1,1.2645538E-1,8.939865E-2,1.8088993E-1,1.2216878E-1,1.1105383E-1,2.0359392E-1,1.2578711E-1,1.7207134E-1,1.7562553E-1,1.4611891E-1],"categories":[],"categories_nodes":[],"categories_segments":[],"categories_sizes":[],"default_left":[0,0,0,0,0,0,0,0,0,0,0,0,0,0,0,0,0,0,0,0,0,0,0,0,0,0,0,0,0,0,0,0,0,0,0,0,0,0,0,0,0,0,0,0,0,0,0,0,0,0,0,0,0,0,0,0,0,0,0,0,0,0,0,0,0],"id":4,"left_children":[1,3,5,7,9,11,13,15,17,19,21,23,25,-1,-1,-1,27,29,31,33,35,37,39,-1,-1,-1,-1,41,43,45,47,49,-1,51,53,55,57,59,61,-1,63,-1,-1,-1,-1,-1,-1,-1,-1,-1,-1,-1,-1,-1,-1,-1,-1,-1,-1,-1,-1,-1,-1,-1,-1],"loss_changes":[5.0266357E1,1.7130005E1,5.307007E0,2.6392212E0,4.0421143E0,9.859009E-1,1.2792969E-1,3.23349E-1,2.0624847E0,4.0473633E0,3.3455963E0,4.9391937E-1,7.560425E-1,0E0,0E0,0E0,9.6588135E-1,7.549286E-1,9.137764E-1,2.0523987E0,9.2193604E-1,1.3515015E0,4.2886353E-1,0E0,0E0,0E0,0E0,1.23809814E-1,7.2047806E-1,5.173645E-1,8.5255384E-2,5.423336E-1,0E0,5.7647896E-1,2.1368713E0,3.261963E0,5.4569397E0,1.0650635E-2,1.818924E-1,0E0,1.6299438E-1,0E0,0E0,0E0,0E0,0E0,0E0,0E0,0E0,0E0,0E0,0E0,0E0,0E0,0E0,0E0,0E0,0E0,0E0,0E0,0E0,0E0,0E0,0E0,0E0],"parents":[2147483647,0,0,1,1,2,2,3,3,4,4,5,5,6,6,7,7,8,8,9,9,10,10,11,11,12,12,16,16,17,17,18,18,19,19,20,20,21,21,22,22,27,27,28,28,29,29,30,30,31,31,33,33,34,34,35,35,36,36,37,37,38,38,40,40],"right_children":[2,4,6,8,10,12,14,16,18,20,22,24,26,-1,-1,-1,28,30,32,34,36,38,40,-1,-1,-1,-1,42,44,46,48,50,-1,52,54,56,58,60,62,-1,64,-1,-1,-1,-1,-1,-1,-1,-1,-1,-1,-1,-1,-1,-1,-1,-1,-1,-1,-1,-1,-1,-1,-1,-1],"split_conditions":[8.884296E-6,1.9898312E-7,1.6394368E-5,1.5825673E-7,4.8440256E-6,1.3767135E-6,1.0243174E-5,1.12156116E-7,8.26213E-9,2.235123E-7,3.975454E-7,1.0389749E-6,2.210961E-5,2.0602813E-1,2.2332686E-1,2.0558508E-1,3.1765097E-8,9.983365E-9,1.0417259E-7,6.532424E-8,1.4659589E-6,8.123529E-7,5.847324E-6,2.0595142E-1,1.6293243E-1,1.6474015E-1,1.8689404E-1,1.8308258E-8,9.664631E-9,5.9207345E-8,6.6245094E-9,8.8773024E-9,1.7939861E-1,2.0405123E-7,2.1245678E-7,1.1385426E-7,2.428763E-7,3.0486415E-6,7.676362E-6,1.3145904E-1,8.492602E-7,2.0251212E-1,1.1542416E-1,1.5354824E-1,2.0996827E-1,1.4757903E-1,1.7816935E-1,1.3367514E-1,7.941853E-2,1.4550705E-1,1.0214074E-1,1.2645155E-1,8.7992705E-2,1.6510122E-1,1.3988134E-1,1.2645538E-1,8.939865E-2,1.8088993E-1,1.2216878E-1,1.1105383E-1,2.0359392E-1,1.2578711E-1,1.7207134E-1,1.7562553E-1,1.4611891E-1],"split_indices":[7,13,6,13,8,3,4,13,5,13,2,2,8,0,0,0,6,7,14,14,8,3,7,0,0,0,0,12,3,14,2,7,0,13,13,3,3,7,8,0,3,0,0,0,0,0,0,0,0,0,0,0,0,0,0,0,0,0,0,0,0,0,0,0,0],"split_type":[0,0,0,0,0,0,0,0,0,0,0,0,0,0,0,0,0,0,0,0,0,0,0,0,0,0,0,0,0,0,0,0,0,0,0,0,0,0,0,0,0,0,0,0,0,0,0,0,0,0,0,0,0,0,0,0,0,0,0,0,0,0,0,0,0],"sum_hessian":[1.058E4,8.637E3,1.943E3,1.241E3,7.396E3,1.115E3,8.28E2,5.37E2,7.04E2,6.526E3,8.7E2,2.7E2,8.45E2,5.38E2,2.9E2,1.65E2,3.72E2,5.28E2,1.76E2,2.269E3,4.257E3,2.34E2,6.36E2,2.14E2,5.6E1,5.23E2,3.22E2,1.76E2,1.96E2,5.04E2,2.4E1,1.45E2,3.1E1,1.71E2,2.098E3,3.435E3,8.22E2,1.63E2,7.1E1,2.87E2,3.49E2,1.7E2,6E0,1.62E2,3.4E1,1.01E2,4.03E2,1.1E1,1.3E1,5E1,9.5E1,9.1E1,8E1,4.18E2,1.68E3,3.194E3,2.41E2,1.92E2,6.3E2,4E0,1.59E2,4.3E1,2.8E1,4.9E1,3E2],"tree_param":{"num_deleted":"0","num_feature":"16","num_nodes":"65","size_leaf_vector":"1"}},{"base_weights":[-5.0099325E-1,7.105736E-2,-1.119997E0,-2.4273261E-1,2.2201902E-1,-7.609156E-1,-1.2349517E0,-3.1722438E-1,-1.1130768E-1,6.450908E-2,2.5819367E-1,-4.8352748E-1,-8.336715E-1,-1.0929691E0,-1.3513844E0,-2.3565865E-1,-3.70273E-1,-4.6288658E-2,-1.8610938E-1,6.985943E-2,-5.472954E-1,2.5282528E-2,2.7774712E-1,-3.7842008E-1,-5.1679325E-1,-8.9735395E-1,-5.148385E-1,-1.3563774E0,-1.0440569E0,-1.29162E0,-1.3955427E0,-2.9713506E-1,-1.4932203E-1,-3.470293E-1,-5.9183973E-1,-7.562226E-2,2.0231602E-1,-1.5276212E-1,-6.020697E-1,5.429091E-2,6.866592E-1,1.2100216E-1,-2.6230487E-1,3.0162367E-1,1.4694375E-1,-3.317476E-2,-3.8083938E-1,-3.2160956E-1,-5.301875E-1,-8.2154995E-1,-1.1399117E0,-3.5522404E-1,-7.882434E-1,-1.1349535E0,-1.4806817E0,-7.287693E-1,-1.0891267E0,-1.4512992E0,-1.2142082E0,-1.4600247E0,-1.3244526E0,-7.6259375E-2,-1.4984785E-1,-3.8663216E-2,-1.5133135E-1,-9.824018E-2,-1.5884206E-1,-1.4017156E-1,-2.5278014E-1,-1.0457876E-2,-4.2978633E-2,-2.1021752E-1,9.07817E-2,-3.8808268E-2,-2.1398045E-1,-2.8899476E-2,-3.5979667E-1,2.2333922E-2,-2.066639E-1,2.3540957E-1,-9.727108E-3,1.08752675E-1,1.435296E-2,-6.6472775E-1,-4.64669E-2,-2.3637552E-2,9.292238E-2,9.202184E-3,1.1525405E-1,-3.317476E-2,-1.150003E-1,-2.110491E-2,-1.00359514E-1,-1.7291963E-1,-1.3309385E-1,-2.6179615E-1,-1.406467E-1,-4.268503E-1,-3.1442922E-1,-1.765432E-1,-8.279014E-2,-9.1320544E-2,-2.7085865E-1,-3.650872E-1,-1.8697451E-1,-4.7361735E-1,-3.843651E-1,-1.5575944E-1,-2.584248E-1,-3.635088E-1,-2.8388685E-1,-4.0518042E-1,-4.6204498E-1,-2.823293E-1,-3.885068E-1,-4.3841442E-1,-9.304315E-2,-1.3601108E-1,-4.054348E-1],"categories":[],"categories_nodes":[],"categories_segments":[],"categories_sizes":[],"default_left":[0,0,0,0,0,0,0,0,0,0,0,0,0,0,0,0,0,0,0,0,0,0,0,0,0,0,0,0,0,0,0,0,0,0,0,0,0,0,0,0,0,0,0,0,0,0,0,0,0,0,0,0,0,0,0,0,0,0,0,0,0,0,0,0,0,0,0,0,0,0,0,0,0,0,0,0,0,0,0,0,0,0,0,0,0,0,0,0,0,0,0,0,0,0,0,0,0,0,0,0,0,0,0,0,0,0,0,0,0,0,0,0,0,0,0,0,0,0,0],"id":5,"left_children":[1,3,5,7,9,11,13,15,17,19,21,23,25,27,29,31,33,35,37,39,-1,41,43,45,47,49,51,53,55,57,59,61,63,65,67,69,71,73,75,77,79,81,83,85,87,-1,89,91,93,95,97,99,101,103,105,107,109,111,113,115,117,-1,-1,-1,-1,-1,-1,-1,-1,-1,-1,-1,-1,-1,-1,-1,-1,-1,-1,-1,-1,-1,-1,-1,-1,-1,-1,-1,-1,-1,-1,-1,-1,-1,-1,-1,-1,-1,-1,-1,-1,-1,-1,-1,-1,-1,-1,-1,-1,-1,-1,-1,-1,-1,-1,-1,-1,-1,-1],"loss_changes":[3.7468276E3,2.6059027E2,2.0883545E2,1.7459564E1,2.1145203E1,2.452118E1,6.213623E1,4.845459E0,3.1429548E0,7.1510386E0,1.3746704E1,7.100296E-1,1.9375122E1,2.098877E1,3.7658691E0,2.3546944E0,3.3429794E0,2.5530794E0,4.0832396E0,6.626967E0,0E0,6.5007634E0,8.656738E0,6.532669E-4,3.366661E-1,1.4011963E1,6.9204903E0,5.7233887E0,2.010913E1,9.48645E0,3.5717773E0,2.1581497E0,1.3144298E0,2.0607986E0,1.6059914E0,8.552462E-1,3.5629735E0,3.580358E0,6.529641E0,1.0207024E1,1.223916E0,3.10996E0,1.2036814E1,7.2967834E0,1.1904257E1,0E0,1.4371872E-3,2.5168061E-2,4.6413803E-1,1.0820892E1,3.47023E0,1.7972155E0,3.0526085E0,3.4796906E0,1.2822876E0,4.7511444E0,2.1350586E1,5.3240967E-1,1.2443359E1,5.13916E-1,1.30737915E1,0E0,0E0,0E0,0E0,0E0,0E0,0E0,0E0,0E0,0E0,0E0,0E0,0E0,0E0,0E0,0E0,0E0,0E0,0E0,0E0,0E0,0E0,0E0,0E0,0E0,0E0,0E0,0E0,0E0,0E0,0E0,0E0,0E0,0E0,0E0,0E0,0E0,0E0,0E0,0E0,0E0,0E0,0E0,0E0,0E0,0E0,0E0,0E0,0E0,0E0,0E0,0E0,0E0,0E0,0E0,0E0,0E0,0E0],"parents":[2147483647,0,0,1,1,2,2,3,3,4,4,5,5,6,6,7,7,8,8,9,9,10,10,11,11,12,12,13,13,14,14,15,15,16,16,17,17,18,18,19,19,21,21,22,22,23,23,24,24,25,25,26,26,27,27,28,28,29,29,30,30,31,31,32,32,33,33,34,34,35,35,36,36,37,37,38,38,39,39,40,40,41,41,42,42,43,43,44,44,46,46,47,47,48,48,49,49,50,50,51,51,52,52,53,53,54,54,55,55,56,56,57,57,58,58,59,59,60,60],"right_children":[2,4,6,8,10,12,14,16,18,20,22,24,26,28,30,32,34,36,38,40,-1,42,44,46,48,50,52,54,56,58,60,62,64,66,68,70,72,74,76,78,80,82,84,86,88,-1,90,92,94,96,98,100,102,104,106,108,110,112,114,116,118,-1,-1,-1,-1,-1,-1,-1,-1,-1,-1,-1,-1,-1,-1,-1,-1,-1,-1,-1,-1,-1,-1,-1,-1,-1,-1,-1,-1,-1,-1,-1,-1,-1,-1,-1,-1,-1,-1,-1,-1,-1,-1,-1,-1,-1,-1,-1,-1,-1,-1,-1,-1,-1,-1,-1,-1,-1,-1],"split_conditions":[2.0868596E-8,6.778393E-8,1.1385426E-7,6.532424E-8,6.875453E-8,2.0038405E-7,6.3755505E-7,8.7124015E-9,2.1532115E-8,2.3291E-7,2.1927993E-7,1.0333493E-7,9.3574226E-7,1.9377417E-6,1.0657428E-6,6.1746626E-8,1.8687278E-8,2.1798155E-7,1.8794024E-8,2.2791883E-7,-5.472954E-1,2.58303E-8,1.0967583E-8,4.969732E-9,1.05463025E-8,8.283626E-7,7.246274E-8,2.6396611E-7,1.4375522E-7,1.3853989E-5,2.5122747E-5,6.422271E-9,2.0612443E-7,7.736521E-9,2.9520004E-8,8.3503435E-9,7.849715E-9,6.8529755E-9,2.1409014E-7,2.2681552E-7,1.0944573E-8,1.7798445E-8,5.6157767E-9,8.396929E-9,7.0489705E-8,-3.317476E-2,8.318499E-9,3.7214518E-9,8.919429E-8,5.481697E-7,7.330222E-7,5.3883036E-7,1.3030892E-6,1.2120522E-6,1.332284E-6,2.2885197E-7,6.6404723E-6,1.2186105E-6,3.48799E-6,5.0618404E-5,3.7524038E-5,-7.6259375E-2,-1.4984785E-1,-3.8663216E-2,-1.5133135E-1,-9.824018E-2,-1.5884206E-1,-1.4017156E-1,-2.5278014E-1,-1.0457876E-2,-4.2978633E-2,-2.1021752E-1,9.07817E-2,-3.8808268E-2,-2.1398045E-1,-2.8899476E-2,-3.5979667E-1,2.2333922E-2,-2.066639E-1,2.3540957E-1,-9.727108E-3,1.08752675E-1,1.435296E-2,-6.6472775E-1,-4.64669E-2,-2.3637552E-2,9.292238E-2,9.202184E-3,1.1525405E-1,-3.317476E-2,-1.150003E-1,-2.110491E-2,-1.00359514E-1,-1.7291963E-1,-1.3309385E-1,-2.6179615E-1,-1.406467E-1,-4.268503E-1,-3.1442922E-1,-1.765432E-1,-8.279014E-2,-9.1320544E-2,-2.7085865E-1,-3.650872E-1,-1.8697451E-1,-4.7361735E-1,-3.843651E-1,-1.5575944E-1,-2.584248E-1,-3.635088E-1,-2.8388685E-1,-4.0518042E-1,-4.6204498E-1,-2.823293E-1,-3.885068E-1,-4.3841442E-1,-9.304315E-2,-1.3601108E-1,-4.054348E-1],"split_indices":[12,14,3,14,14,13,2,7,10,13,13,13,9,9,2,14,12,13,12,13,0,8,7,3,4,13,2,4,2,9,7,2,13,2,11,2,2,3,13,13,4,12,5,7,14,0,4,3,14,9,14,7,13,8,8,3,9,3,4,13,13,0,0,0,0,0,0,0,0,0,0,0,0,0,0,0,0,0,0,0,0,0,0,0,0,0,0,0,0,0,0,0,0,0,0,0,0,0,0,0,0,0,0,0,0,0,0,0,0,0,0,0,0,0,0,0,0,0,0],"split_type":[0,0,0,0,0,0,0,0,0,0,0,0,0,0,0,0,0,0,0,0,0,0,0,0,0,0,0,0,0,0,0,0,0,0,0,0,0,0,0,0,0,0,0,0,0,0,0,0,0,0,0,0,0,0,0,0,0,0,0,0,0,0,0,0,0,0,0,0,0,0,0,0,0,0,0,0,0,0,0,0,0,0,0,0,0,0,0,0,0,0,0,0,0,0,0,0,0,0,0,0,0,0,0,0,0,0,0,0,0,0,0,0,0,0,0,0,0,0,0],"sum_hessian":[1.058E4,5.499E3,5.081E3,1.786E3,3.713E3,1.234E3,3.847E3,1.139E3,6.47E2,6.94E2,3.019E3,2.58E2,9.76E2,1.738E3,2.109E3,4.51E2,6.88E2,3.47E2,3E2,6.93E2,1E0,2.34E2,2.785E3,6.5E1,1.93E2,8.12E2,1.64E2,2.68E2,1.47E3,9.09E2,1.2E3,2.62E2,1.89E2,6.25E2,6.3E1,3.11E2,3.6E1,2.79E2,2.1E1,6.77E2,1.6E1,1.76E2,5.8E1,2.354E3,4.31E2,1E0,6.4E1,1.4E1,1.79E2,6.22E2,1.9E2,1.05E2,5.9E1,1E2,1.68E2,1.86E2,1.284E3,2.91E2,6.18E2,6.19E2,5.81E2,2.18E2,4.4E1,1.8E2,9E0,5.67E2,5.8E1,4.4E1,1.9E1,1.95E2,1.16E2,3E0,3.3E1,2.69E2,1E1,1.2E1,9E0,6.6E2,1.7E1,1.4E1,2E0,4E1,1.36E2,2E0,5.6E1,4.9E1,2.305E3,2.9E2,1.41E2,1E0,6.3E1,1E0,1.3E1,1.13E2,6.6E1,5.42E2,8E1,4.3E1,1.47E2,2.5E1,8E1,1.2E1,4.7E1,8.5E1,1.5E1,1.08E2,6E1,7.4E1,1.12E2,6.87E2,5.97E2,1.44E2,1.47E2,1.44E2,4.74E2,6.18E2,1E0,1.8E1,5.63E2],"tree_param":{"num_deleted":"0","num_feature":"16","num_nodes":"119","size_leaf_vector":"1"}},{"base_weights":[3.5022238E-1,3.2946903E-1,4.653191E-1,4.37994E-1,3.2078078E-1,4.3609077E-1,5.024806E-1,5.14224E-1,4.2510077E-1,3.1332222E-1,3.7540188E-1,4.6848103E-1,4.0993413E-1,1.4575064E-1,1.5737033E-1,5.259745E-1,7.802874E-2,4.6325913E-1,3.874434E-1,3.5654524E-1,3.014385E-1,4.6063307E-1,3.5054874E-1,1.4605795E-1,4.1291288E-1,1.1643595E-1,1.2798682E-1,6.51696E-2,1.5922183E-1,1.5953752E-1,4.4956416E-1,3.4503716E-1,4.3974334E-1,3.7015495E-1,2.6078504E-1,3.3406353E-1,2.9603797E-1,5.0420773E-1,3.8061976E-1,3.2103673E-1,3.7643513E-1,1.1101004E-1,1.3606116E-1,1.4586885E-1,1.24190934E-1,1.1380174E-1,7.9869695E-2,1.3648635E-1,1.0373204E-1,1.1572959E-1,9.4111376E-2,6.809299E-2,1.431034E-1,2.5039354E-2,1.0093956E-1,8.6676925E-2,9.928394E-2,3.9816674E-2,1.5177765E-1,7.689524E-2,1.1888034E-1,1.0681828E-1,9.252515E-2,1.3234346E-1,1.0783586E-1],"categories":[],"categories_nodes":[],"categories_segments":[],"categories_sizes":[],"default_left":[0,0,0,0,0,0,0,0,0,0,0,0,0,0,0,0,0,0,0,0,0,0,0,0,0,0,0,0,0,0,0,0,0,0,0,0,0,0,0,0,0,0,0,0,0,0,0,0,0,0,0,0,0,0,0,0,0,0,0,0,0,0,0,0,0],"id":6,"left_children":[1,3,5,7,9,11,13,15,17,19,21,23,25,-1,-1,27,-1,29,31,33,35,37,39,-1,41,-1,-1,-1,-1,-1,43,45,47,49,51,53,55,57,59,61,63,-1,-1,-1,-1,-1,-1,-1,-1,-1,-1,-1,-1,-1,-1,-1,-1,-1,-1,-1,-1,-1,-1,-1,-1],"loss_changes":[2.5120972E1,8.315308E0,1.5339355E0,4.3203735E-1,3.2666016E0,5.7977295E-1,3.9520264E-3,1.3493538E-1,6.4245605E-1,3.6498413E0,1.9419708E0,2.0747375E-1,2.0812988E-2,0E0,0E0,1.1224747E-2,0E0,2.2777557E-2,5.003166E-1,1.9521942E0,9.13147E-1,5.786171E-1,4.6968842E-1,0E0,1.6822815E-2,0E0,0E0,0E0,0E0,0E0,1.1063385E-1,3.5043526E-1,2.5651932E-2,1.0897675E0,1.3464737E0,4.582138E-1,1.1306152E0,2.218628E-2,5.7926178E-2,5.283737E-2,2.8759003E-1,0E0,0E0,0E0,0E0,0E0,0E0,0E0,0E0,0E0,0E0,0E0,0E0,0E0,0E0,0E0,0E0,0E0,0E0,0E0,0E0,0E0,0E0,0E0,0E0],"parents":[2147483647,0,0,1,1,2,2,3,3,4,4,5,5,6,6,7,7,8,8,9,9,10,10,11,11,12,12,15,15,17,17,18,18,19,19,20,20,21,21,22,22,24,24,30,30,31,31,32,32,33,33,34,34,35,35,36,36,37,37,38,38,39,39,40,40],"right_children":[2,4,6,8,10,12,14,16,18,20,22,24,26,-1,-1,28,-1,30,32,34,36,38,40,-1,42,-1,-1,-1,-1,-1,44,46,48,50,52,54,56,58,60,62,64,-1,-1,-1,-1,-1,-1,-1,-1,-1,-1,-1,-1,-1,-1,-1,-1,-1,-1,-1,-1,-1,-1,-1,-1],"split_conditions":[1.1562519E-5,1.6902635E-7,2.6303025E-5,2.9506788E-8,4.499336E-6,9.945805E-7,1.949149E-5,2.137241E-8,1.3020886E-7,2.1719994E-7,8.492602E-7,2.4121045E-6,1.2414779E-5,1.4575064E-1,1.5737033E-1,1.9047791E-8,7.802874E-2,8.86392E-8,5.6890958E-8,3.0943678E-8,1.7843083E-8,4.856122E-7,1.29641985E-5,1.4605795E-1,2.475558E-5,1.1643595E-1,1.2798682E-1,6.51696E-2,1.5922183E-1,1.5953752E-1,1.7598731E-8,1.7798445E-8,1.6598298E-7,5.8526117E-9,1.3212505E-7,6.685054E-8,2.1661199E-6,4.4752296E-6,4.8774664E-6,2.1185224E-6,2.7235446E-6,1.1101004E-1,1.3606116E-1,1.4586885E-1,1.24190934E-1,1.1380174E-1,7.9869695E-2,1.3648635E-1,1.0373204E-1,1.1572959E-1,9.4111376E-2,6.809299E-2,1.431034E-1,2.5039354E-2,1.0093956E-1,8.6676925E-2,9.928394E-2,3.9816674E-2,1.5177765E-1,7.689524E-2,1.1888034E-1,1.0681828E-1,9.252515E-2,1.3234346E-1,1.0783586E-1],"split_indices":[7,13,7,6,7,2,5,10,13,13,3,3,6,0,0,8,0,13,14,6,12,2,9,0,8,0,0,0,0,0,12,12,13,3,14,14,8,8,7,4,4,0,0,0,0,0,0,0,0,0,0,0,0,0,0,0,0,0,0,0,0,0,0,0,0],"split_type":[0,0,0,0,0,0,0,0,0,0,0,0,0,0,0,0,0,0,0,0,0,0,0,0,0,0,0,0,0,0,0,0,0,0,0,0,0,0,0,0,0,0,0,0,0,0,0,0,0,0,0,0,0,0,0,0,0,0,0,0,0,0,0,0,0],"sum_hessian":[1.058E4,8.967E3,1.613E3,6.61E2,8.306E3,9.1E2,7.03E2,9E1,5.71E2,7.314E3,9.92E2,3.99E2,5.11E2,4.14E2,2.89E2,8.5E1,5E0,2.78E2,2.93E2,1.571E3,5.743E3,2.2E2,7.72E2,2.94E2,1.05E2,2.32E2,2.79E2,2E0,8.3E1,4E1,2.38E2,1.66E2,1.27E2,1.373E3,1.98E2,8.07E2,4.936E3,1.39E2,8.1E1,3.67E2,4.05E2,5.6E1,4.9E1,1.11E2,1.27E2,1.13E2,5.3E1,1.06E2,2.1E1,1.071E3,3.02E2,1.73E2,2.5E1,8E0,7.99E2,4.108E3,8.28E2,1E0,1.38E2,1.1E1,7E1,9E1,2.77E2,7.9E1,3.26E2],"tree_param":{"num_deleted":"0","num_feature":"16","num_nodes":"65","size_leaf_vector":"1"}},{"base_weights":[-3.5166278E-1,4.9234547E-2,-7.854652E-1,-1.844972E-1,1.5058467E-1,-6.1137724E-1,-9.122974E-1,-1.1778055E-1,-2.590528E-1,4.0772706E-2,1.8205631E-1,-4.1397765E-1,-6.695717E-1,-8.540447E-1,-9.7880113E-1,-1.5039791E-1,-5.0902482E-2,-2.3118551E-1,-3.80459E-1,-7.795618E-1,4.7480434E-2,-2.9949037E-2,1.9528428E-1,-4.6442443E-1,-2.120865E-1,-7.1615595E-1,-4.4312787E-1,-9.4385165E-1,-7.288969E-1,-1.1209198E0,-9.3685097E-1,-1.3058417E-1,-4.13007E-1,-2.2919945E-1,-1.7218553E-2,-1.792166E-1,-2.8116384E-1,-3.4984288E-1,-5.5431783E-1,2.8392762E-1,-1.2617431E0,5.3121164E-2,-9.1642755E-1,1.9136888E-1,-2.9792264E-1,2.2207227E-1,1.1847887E-1,-3.7820908E-1,-7.2997963E-1,-2.9242653E-1,-1.1895925E-1,-6.690318E-1,-9.935907E-1,-3.635901E-1,-7.0673895E-1,-8.17969E-1,-1.0395473E0,-5.291314E-1,-8.3978146E-1,-4.1582504E-1,-3.3725727E-1,-2.4455558E-1,-9.595542E-1,-3.627478E-2,-9.875023E-2,3.6296133E-2,-1.3304807E-1,-3.1709984E-2,-1.1974069E-1,3.9821183E-3,-6.617928E-2,-6.603932E-2,-3.6728177E-2,-6.937456E-2,-1.258142E-1,-1.1328755E-1,3.058255E-3,-6.9363974E-2,-2.131535E-1,-3.9003275E-2,1.6677071E-1,-4.3198097E-1,-8.234541E-2,2.954048E-2,-1.0945953E-2,-6.7178756E-2,-3.1007096E-1,-1.01760365E-1,9.496559E-2,-5.61398E-2,-3.814923E-1,6.703669E-2,-3.9808145E-1,9.692177E-3,8.774276E-2,-8.9320354E-2,-1.3606448E-1,-2.602992E-1,-1.5018596E-1,-6.1135646E-2,-1.1299169E-1,-1.6981889E-2,-5.8929536E-2,-2.0958394E-1,-9.2693985E-2,-2.7906144E-1,-4.1240942E-1,-2.3803506E-2,-1.2499516E-1,-2.9233274E-1,-1.5451898E-1,-3.1151658E-1,-1.9544815E-1,-3.346057E-1,-2.923374E-1,-1.3310707E-1,-1.9073234E-1,3.5297096E-2,-2.5544629E-1,-2.1963541E-1,3.2514133E-2,-2.518149E-1,3.068521E-2,-2.6768517E-1,-3.1270307E-1],"categories":[],"categories_nodes":[],"categories_segments":[],"categories_sizes":[],"default_left":[0,0,0,0,0,0,0,0,0,0,0,0,0,0,0,0,0,0,0,0,0,0,0,0,0,0,0,0,0,0,0,0,0,0,0,0,0,0,0,0,0,0,0,0,0,0,0,0,0,0,0,0,0,0,0,0,0,0,0,0,0,0,0,0,0,0,0,0,0,0,0,0,0,0,0,0,0,0,0,0,0,0,0,0,0,0,0,0,0,0,0,0,0,0,0,0,0,0,0,0,0,0,0,0,0,0,0,0,0,0,0,0,0,0,0,0,0,0,0,0,0,0,0,0,0],"id":7,"left_children":[1,3,5,7,9,11,13,15,17,19,21,23,25,27,29,31,33,35,37,39,41,43,45,47,49,51,53,55,57,59,61,63,65,67,69,71,73,75,77,79,81,83,85,87,89,91,93,95,97,99,101,103,105,107,109,111,113,115,117,119,-1,121,123,-1,-1,-1,-1,-1,-1,-1,-1,-1,-1,-1,-1,-1,-1,-1,-1,-1,-1,-1,-1,-1,-1,-1,-1,-1,-1,-1,-1,-1,-1,-1,-1,-1,-1,-1,-1,-1,-1,-1,-1,-1,-1,-1,-1,-1,-1,-1,-1,-1,-1,-1,-1,-1,-1,-1,-1,-1,-1,-1,-1,-1,-1],"loss_changes":[1.8401826E3,1.3031584E2,1.1165283E2,8.2463875E0,1.325312E1,2.4363708E1,1.0545898E1,1.9119644E0,2.567913E0,4.747223E0,8.368561E0,4.902214E0,1.7140747E1,1.7002441E1,7.0877686E0,3.0212002E0,1.7377192E0,1.6144867E0,5.778942E-1,3.9478073E0,4.6702566E0,1.0495108E1,5.748993E0,8.69873E0,7.13398E-1,1.7259521E1,5.7186394E0,1.0148071E1,1.4219574E1,2.3828125E-1,1.642572E1,1.0180912E0,7.2112274E-1,9.232147E-1,1.5222933E0,7.0960236E-1,2.1452389E0,1.264184E0,8.4505844E-1,4.1001582E-1,4.8437357E-1,3.4412694E0,1.7415762E-1,6.549959E0,8.392293E0,4.753525E0,1.0905891E1,1.6717033E0,2.5656548E0,3.1887436E-1,2.2075158E-1,1.2298828E1,3.4801483E0,3.3000946E0,2.833397E0,1.3964539E1,1.4541626E0,1.8956146E0,4.8523254E0,5.7675487E-1,0E0,7.3066945E0,4.7839355E0,0E0,0E0,0E0,0E0,0E0,0E0,0E0,0E0,0E0,0E0,0E0,0E0,0E0,0E0,0E0,0E0,0E0,0E0,0E0,0E0,0E0,0E0,0E0,0E0,0E0,0E0,0E0,0E0,0E0,0E0,0E0,0E0,0E0,0E0,0E0,0E0,0E0,0E0,0E0,0E0,0E0,0E0,0E0,0E0,0E0,0E0,0E0,0E0,0E0,0E0,0E0,0E0,0E0,0E0,0E0,0E0,0E0,0E0,0E0,0E0,0E0,0E0],"parents":[2147483647,0,0,1,1,2,2,3,3,4,4,5,5,6,6,7,7,8,8,9,9,10,10,11,11,12,12,13,13,14,14,15,15,16,16,17,17,18,18,19,19,20,20,21,21,22,22,23,23,24,24,25,25,26,26,27,27,28,28,29,29,30,30,31,31,32,32,33,33,34,34,35,35,36,36,37,37,38,38,39,39,40,40,41,41,42,42,43,43,44,44,45,45,46,46,47,47,48,48,49,49,50,50,51,51,52,52,53,53,54,54,55,55,56,56,57,57,58,58,59,59,61,61,62,62],"right_children":[2,4,6,8,10,12,14,16,18,20,22,24,26,28,30,32,34,36,38,40,42,44,46,48,50,52,54,56,58,60,62,64,66,68,70,72,74,76,78,80,82,84,86,88,90,92,94,96,98,100,102,104,106,108,110,112,114,116,118,120,-1,122,124,-1,-1,-1,-1,-1,-1,-1,-1,-1,-1,-1,-1,-1,-1,-1,-1,-1,-1,-1,-1,-1,-1,-1,-1,-1,-1,-1,-1,-1,-1,-1,-1,-1,-1,-1,-1,-1,-1,-1,-1,-1,-1,-1,-1,-1,-1,-1,-1,-1,-1,-1,-1,-1,-1,-1,-1,-1,-1,-1,-1,-1,-1],"split_conditions":[2.0868596E-8,6.751567E-8,2.8335697E-7,2.9258736E-8,2.206612E-7,3.0859374E-7,4.3902114E-6,6.638134E-8,1.822292E-8,2.4010879E-8,6.8447946E-8,1.4914029E-7,3.3929803E-6,1.1169676E-5,1.6110402E-5,2.1245678E-7,2.3834868E-8,8.03276E-9,3.0693368E-8,5.0305595E-9,3.1144324E-8,3.0693368E-8,1.067324E-8,2.2382693E-7,2.011531E-7,6.118342E-7,1.5552524E-6,8.492602E-7,7.24213E-7,1.10145875E-5,3.1366875E-5,6.2429626E-9,2.8887403E-8,2.1805736E-8,2.2033596E-8,6.2261854E-8,1.6598298E-7,6.532424E-8,4.814318E-9,8.772779E-9,6.4124563E-9,2.5652474E-8,5.5591793E-9,9.461325E-9,2.3016153E-8,3.078221E-8,3.1430947E-8,1.4334259E-7,1.3212505E-7,1.8247573E-7,2.5672605E-7,2.1661199E-6,2.109583E-6,3.637453E-6,5.2996234E-6,5.342827E-6,8.699506E-6,1.3767135E-6,1.0429141E-5,6.1668203E-7,-3.3725727E-1,1.2414779E-5,4.3799442E-5,-3.627478E-2,-9.875023E-2,3.6296133E-2,-1.3304807E-1,-3.1709984E-2,-1.1974069E-1,3.9821183E-3,-6.617928E-2,-6.603932E-2,-3.6728177E-2,-6.937456E-2,-1.258142E-1,-1.1328755E-1,3.058255E-3,-6.9363974E-2,-2.131535E-1,-3.9003275E-2,1.6677071E-1,-4.3198097E-1,-8.234541E-2,2.954048E-2,-1.0945953E-2,-6.7178756E-2,-3.1007096E-1,-1.01760365E-1,9.496559E-2,-5.61398E-2,-3.814923E-1,6.703669E-2,-3.9808145E-1,9.692177E-3,8.774276E-2,-8.9320354E-2,-1.3606448E-1,-2.602992E-1,-1.5018596E-1,-6.1135646E-2,-1.1299169E-1,-1.6981889E-2,-5.8929536E-2,-2.0958394E-1,-9.2693985E-2,-2.7906144E-1,-4.1240942E-1,-2.3803506E-2,-1.2499516E-1,-2.9233274E-1,-1.5451898E-1,-3.1151658E-1,-1.9544815E-1,-3.346057E-1,-2.923374E-1,-1.3310707E-1,-1.9073234E-1,3.5297096E-2,-2.5544629E-1,-2.1963541E-1,3.2514133E-2,-2.518149E-1,3.068521E-2,-2.6768517E-1,-3.1270307E-1],"split_indices":[12,14,2,6,13,13,4,14,12,6,14,12,8,8,7,13,8,5,11,3,6,11,7,13,12,4,4,3,2,13,12,3,11,10,9,14,13,14,3,2,3,8,3,7,10,6,11,13,14,11,13,8,6,14,8,9,9,3,14,2,0,6,14,0,0,0,0,0,0,0,0,0,0,0,0,0,0,0,0,0,0,0,0,0,0,0,0,0,0,0,0,0,0,0,0,0,0,0,0,0,0,0,0,0,0,0,0,0,0,0,0,0,0,0,0,0,0,0,0,0,0,0,0,0,0],"split_type":[0,0,0,0,0,0,0,0,0,0,0,0,0,0,0,0,0,0,0,0,0,0,0,0,0,0,0,0,0,0,0,0,0,0,0,0,0,0,0,0,0,0,0,0,0,0,0,0,0,0,0,0,0,0,0,0,0,0,0,0,0,0,0,0,0,0,0,0,0,0,0,0,0,0,0,0,0,0,0,0,0,0,0,0,0,0,0,0,0,0,0,0,0,0,0,0,0,0,0,0,0,0,0,0,0,0,0,0,0,0,0,0,0,0,0,0,0,0,0,0,0,0,0,0,0],"sum_hessian":[1.058E4,5.499E3,5.081E3,1.663E3,3.836E3,2.144E3,2.937E3,8.79E2,7.84E2,8.55E2,2.981E3,4.9E2,1.654E3,1.573E3,1.364E3,5.9E2,2.89E2,6.4E2,1.44E2,6E0,8.49E2,1.75E2,2.806E3,3.91E2,9.9E1,1.37E3,2.84E2,9.12E2,6.61E2,3.05E2,1.059E3,5.5E2,4E1,4.5E1,2.44E2,3.16E2,3.24E2,1.25E2,1.9E1,2E0,4E0,8.45E2,4E0,9.6E1,7.9E1,2.079E3,7.27E2,2.97E2,9.4E1,5.2E1,4.7E1,1.174E3,1.96E2,2.2E2,6.4E1,3.98E2,5.14E2,2.38E2,4.23E2,2E0,3.03E2,3.4E1,1.025E3,5.26E2,2.4E1,2E0,3.8E1,2.7E1,1.8E1,2.13E2,3.1E1,1.82E2,1.34E2,2.4E2,8.4E1,1.16E2,9E0,7E0,1.2E1,1E0,1E0,3E0,1E0,5.61E2,2.84E2,1E0,3E0,1.8E1,7.8E1,7.2E1,7E0,2.078E3,1E0,4.87E2,2.4E2,1.46E2,1.51E2,5.7E1,3.7E1,2.7E1,2.5E1,2.7E1,2E1,1.084E3,9E1,1.71E2,2.5E1,3.5E1,1.85E2,2.5E1,3.9E1,1.69E2,2.29E2,2.3E2,2.84E2,1.35E2,1.03E2,5E0,4.18E2,1E0,1E0,1.2E1,2.2E1,5.72E2,4.53E2],"tree_param":{"num_deleted":"0","num_feature":"16","num_nodes":"125","size_leaf_vector":"1"}},{"base_weights":[2.4550219E-1,2.3001654E-1,3.2193986E-1,2.83206E-1,2.1985823E-1,2.9059997E-1,3.421747E-1,3.1346002E-1,2.6169753E-1,1.2606923E-1,2.2232735E-1,4.2085648E-1,2.8378114E-1,3.2459727E-1,1.07706256E-1,3.3781096E-1,2.8579167E-1,1.7254004E-1,2.7956328E-1,2.4614492E-1,1.0319597E-1,2.7189776E-1,2.1746103E-1,1.304322E-1,-3.6754892E-3,3.3266586E-1,2.757616E-1,4.181711E-1,3.164295E-1,3.4647134E-1,2.4745251E-1,2.3145872E-1,3.514031E-1,2.0978035E-1,7.65934E-2,3.349433E-1,2.5718215E-1,3.5346746E-1,2.8636197E-2,1.5138124E-1,4.7412675E-2,2.8263286E-1,5.909885E-2,2.0843895E-1,2.518053E-1,3.3737013E-1,1.4718196E-1,7.247133E-2,2.8408337E-1,8.273455E-2,1.3200536E-1,9.829673E-2,8.9593284E-2,1.00399494E-1,1.3994876E-1,9.3425795E-2,5.1605355E-2,8.861525E-2,6.152544E-2,9.862233E-2,1.2118002E-1,4.165081E-2,7.9293E-2,6.255372E-2,2.0424785E-2,1.0594621E-1,6.555741E-2,9.497053E-2,6.993167E-2,1.2089009E-1,3.731271E-2,-1.9004589E-2,3.4754496E-2,7.169968E-2,3.1724744E-2,2.5603894E-2,-6.605782E-3,-2.224672E-2,8.571275E-2,-8.528871E-3,8.578243E-2,6.735058E-2,5.6237146E-2,1.1434867E-1,6.990637E-2,3.8345687E-2,1.02239095E-1,1.3272894E-2,5.002419E-2,9.075622E-2,8.1465185E-2],"categories":[],"categories_nodes":[],"categories_segments":[],"categories_sizes":[],"default_left":[0,0,0,0,0,0,0,0,0,0,0,0,0,0,0,0,0,0,0,0,0,0,0,0,0,0,0,0,0,0,0,0,0,0,0,0,0,0,0,0,0,0,0,0,0,0,0,0,0,0,0,0,0,0,0,0,0,0,0,0,0,0,0,0,0,0,0,0,0,0,0,0,0,0,0,0,0,0,0,0,0,0,0,0,0,0,0,0,0,0,0],"id":8,"left_children":[1,3,5,7,9,11,13,15,17,19,21,23,25,27,-1,29,31,33,35,37,39,41,43,-1,-1,45,47,49,51,53,55,57,59,61,63,65,67,69,71,73,75,77,79,81,83,85,87,-1,89,-1,-1,-1,-1,-1,-1,-1,-1,-1,-1,-1,-1,-1,-1,-1,-1,-1,-1,-1,-1,-1,-1,-1,-1,-1,-1,-1,-1,-1,-1,-1,-1,-1,-1,-1,-1,-1,-1,-1,-1,-1,-1],"loss_changes":[1.2450562E1,4.6935425E0,1.0293732E0,8.341751E-1,1.6845093E0,5.067444E-1,2.0207977E-1,2.942314E-1,1.2722511E0,5.019312E-1,1.6786804E0,2.0424366E-1,1.7210388E-1,2.7809906E-1,0E0,1.5137863E-1,9.096966E-1,4.8773718E-1,7.6784897E-1,6.901859E-1,4.3095565E-1,1.445324E0,1.98172E0,0E0,0E0,2.8875351E-2,9.754181E-2,3.0813217E-3,1.5792847E-3,2.3214722E-1,9.118962E-2,2.0074558E-1,1.4824867E-2,3.5402918E-1,3.1836018E-2,3.3624077E-1,6.3396835E-1,1.7667913E-1,9.558293E-2,3.2256782E-1,2.0468237E-1,6.89621E-1,6.434947E-1,1.712143E0,3.2182083E0,1.8915176E-2,6.787479E-4,0E0,2.5062561E-2,0E0,0E0,0E0,0E0,0E0,0E0,0E0,0E0,0E0,0E0,0E0,0E0,0E0,0E0,0E0,0E0,0E0,0E0,0E0,0E0,0E0,0E0,0E0,0E0,0E0,0E0,0E0,0E0,0E0,0E0,0E0,0E0,0E0,0E0,0E0,0E0,0E0,0E0,0E0,0E0,0E0,0E0],"parents":[2147483647,0,0,1,1,2,2,3,3,4,4,5,5,6,6,7,7,8,8,9,9,10,10,11,11,12,12,13,13,15,15,16,16,17,17,18,18,19,19,20,20,21,21,22,22,25,25,26,26,27,27,28,28,29,29,30,30,31,31,32,32,33,33,34,34,35,35,36,36,37,37,38,38,39,39,40,40,41,41,42,42,43,43,44,44,45,45,46,46,48,48],"right_children":[2,4,6,8,10,12,14,16,18,20,22,24,26,28,-1,30,32,34,36,38,40,42,44,-1,-1,46,48,50,52,54,56,58,60,62,64,66,68,70,72,74,76,78,80,82,84,86,88,-1,90,-1,-1,-1,-1,-1,-1,-1,-1,-1,-1,-1,-1,-1,-1,-1,-1,-1,-1,-1,-1,-1,-1,-1,-1,-1,-1,-1,-1,-1,-1,-1,-1,-1,-1,-1,-1,-1,-1,-1,-1,-1,-1],"split_conditions":[1.3779968E-5,2.0405123E-7,1.79806E-5,1.622885E-7,6.618921E-8,1.5350235E-5,3.2590353E-5,3.2965325E-8,5.9207345E-8,8.539158E-9,2.1719994E-7,4.2787324E-6,5.9953686E-7,2.746474E-5,1.07706256E-1,1.8213807E-8,7.3623703E-9,1.7481055E-7,8.335377E-9,1.1471574E-8,3.0158407E-8,1.9324766E-8,2.4291717E-6,1.304322E-1,-3.6754892E-3,5.624678E-6,1.8925864E-5,1.1642346E-5,1.2495728E-6,5.7504757E-8,1.05463025E-8,1.0333493E-7,1.5231455E-8,5.7504757E-8,6.617474E-9,1.8193631E-8,6.9109496E-9,7.275644E-9,5.186659E-9,6.64743E-9,7.472647E-9,2.4519931E-8,6.748856E-8,2.2284182E-8,2.2063308E-7,1.540886E-5,5.192957E-7,7.247133E-2,4.2787324E-6,8.273455E-2,1.3200536E-1,9.829673E-2,8.9593284E-2,1.00399494E-1,1.3994876E-1,9.3425795E-2,5.1605355E-2,8.861525E-2,6.152544E-2,9.862233E-2,1.2118002E-1,4.165081E-2,7.9293E-2,6.255372E-2,2.0424785E-2,1.0594621E-1,6.555741E-2,9.497053E-2,6.993167E-2,1.2089009E-1,3.731271E-2,-1.9004589E-2,3.4754496E-2,7.169968E-2,3.1724744E-2,2.5603894E-2,-6.605782E-3,-2.224672E-2,8.571275E-2,-8.528871E-3,8.578243E-2,6.735058E-2,5.6237146E-2,1.1434867E-1,6.990637E-2,3.8345687E-2,1.02239095E-1,1.3272894E-2,5.002419E-2,9.075622E-2,8.1465185E-2],"split_indices":[8,13,7,13,14,13,7,6,14,7,13,4,2,13,0,12,3,13,7,4,11,12,7,0,0,4,9,6,2,14,4,13,3,14,5,12,5,5,3,5,5,6,12,9,2,9,2,0,4,0,0,0,0,0,0,0,0,0,0,0,0,0,0,0,0,0,0,0,0,0,0,0,0,0,0,0,0,0,0,0,0,0,0,0,0,0,0,0,0,0,0],"split_type":[0,0,0,0,0,0,0,0,0,0,0,0,0,0,0,0,0,0,0,0,0,0,0,0,0,0,0,0,0,0,0,0,0,0,0,0,0,0,0,0,0,0,0,0,0,0,0,0,0,0,0,0,0,0,0,0,0,0,0,0,0,0,0,0,0,0,0,0,0,0,0,0,0,0,0,0,0,0,0,0,0,0,0,0,0,0,0,0,0,0,0],"sum_hessian":[1.058E4,8.801E3,1.779E3,1.407E3,7.394E3,7.04E2,1.075E3,5.79E2,8.28E2,1.91E2,7.203E3,3.2E1,6.72E2,5.36E2,5.39E2,3.02E2,2.77E2,1.4E2,6.88E2,2.9E1,1.62E2,6.39E2,6.564E3,3.1E1,1E0,8.9E1,5.83E2,3.9E1,4.97E2,2.73E2,2.9E1,1.54E2,1.23E2,1E2,4E1,1.94E2,4.94E2,1.9E1,1E1,8.6E1,7.6E1,6.08E2,3.1E1,5.204E3,1.36E3,8.6E1,3E0,1.2E2,4.63E2,7E0,3.2E1,2.94E2,2.03E2,2.52E2,2.1E1,1.4E1,1.5E1,4.2E1,1.12E2,9.1E1,3.2E1,4.5E1,5.5E1,1E0,3.9E1,1.66E2,2.8E1,1.39E2,3.55E2,1.5E1,4E0,5E0,5E0,2.8E1,5.8E1,4.9E1,2.7E1,5E0,6.03E2,2.3E1,8E0,2.942E3,2.262E3,1.7E2,1.19E3,2E0,8.4E1,1E0,2E0,1.78E2,2.85E2],"tree_param":{"num_deleted":"0","num_feature":"16","num_nodes":"91","size_leaf_vector":"1"}},{"base_weights":[-2.4692366E-1,3.3998847E-2,-5.5090374E-1,-1.09909706E-1,1.1555511E-1,-3.601687E-1,-6.119762E-1,-1.6759662E-1,-4.919852E-2,1.1770398E-1,-8.40097E-1,-3.877499E-1,-1.2069147E-1,-5.410973E-1,-6.652766E-1,-1.4935112E-1,-3.9225993E-1,-5.752809E-2,3.7118456E-1,1.3693222E-1,2.0329973E-2,-8.612995E-2,-1.2752513E0,-3.1266895E-1,-5.166147E-1,4.9909763E-2,-2.697637E-1,-7.0000106E-1,-4.86233E-1,-7.9945874E-1,-6.5316576E-1,-1.7892668E-1,-6.0243826E-2,-1.8095168E-1,-3.3050817E-1,-5.2804448E-2,-2.382826E-1,-1.061297E-1,5.492346E-1,3.9202246E-1,1.2999228E-1,4.846092E-2,-4.182899E-1,8.001478E-2,-8.779517E-2,-4.361479E-1,-8.4142685E-2,-3.4285378E-1,-3.0786827E-2,-7.4378115E-1,-4.476876E-1,-3.328258E-1,9.00259E-2,-6.054681E-1,-1.3940786E-1,-5.699013E-1,-8.3048654E-1,-2.9446897E-1,-5.41373E-1,-5.752475E-1,-8.4684575E-1,-5.162511E-1,-6.768946E-1,-4.6630204E-2,-1.2163416E-1,3.7187994E-3,-4.5977455E-2,-7.0493564E-2,-1.467526E-1,-1.2211279E-2,-9.1957375E-2,-9.03458E-2,5.6783248E-2,4.6280965E-2,1.9287832E-1,1.3300663E-1,-1.3075316E-1,-3.249056E-1,3.9367314E-2,-2.0408032E-2,4.6490725E-2,3.5270315E-3,-5.6135017E-1,-8.901635E-2,-1.7764296E-1,-1.0262736E-1,2.573789E-2,-1.8057173E-1,-3.3797807E-1,-1.0882326E-1,-2.1694444E-1,5.8543265E-2,-2.7775317E-1,3.5089646E-2,-1.2746857E-1,-8.593268E-2,-2.303089E-1,5.3719264E-3,-1.3652693E-1,-2.1353143E-1,-8.698879E-2,-3.267751E-1,-2.3533164E-1,-7.513898E-2,-1.9110473E-1,-1.9468352E-1,-1.3221188E-1,-2.3069267E-1,-9.277273E-2,-2.5847438E-1,-3.471299E-2,-1.4609595E-1,-2.934653E-1,-2.0810513E-1,-1.6577923E-1],"categories":[],"categories_nodes":[],"categories_segments":[],"categories_sizes":[],"default_left":[0,0,0,0,0,0,0,0,0,0,0,0,0,0,0,0,0,0,0,0,0,0,0,0,0,0,0,0,0,0,0,0,0,0,0,0,0,0,0,0,0,0,0,0,0,0,0,0,0,0,0,0,0,0,0,0,0,0,0,0,0,0,0,0,0,0,0,0,0,0,0,0,0,0,0,0,0,0,0,0,0,0,0,0,0,0,0,0,0,0,0,0,0,0,0,0,0,0,0,0,0,0,0,0,0,0,0,0,0,0,0,0,0,0,0],"id":9,"left_children":[1,3,5,7,9,11,13,15,17,19,21,23,25,27,29,31,33,35,37,39,41,43,45,47,49,51,53,55,57,59,61,63,65,-1,67,69,-1,71,73,75,77,79,81,-1,-1,-1,-1,83,85,87,89,91,93,95,97,99,101,103,105,107,109,111,113,-1,-1,-1,-1,-1,-1,-1,-1,-1,-1,-1,-1,-1,-1,-1,-1,-1,-1,-1,-1,-1,-1,-1,-1,-1,-1,-1,-1,-1,-1,-1,-1,-1,-1,-1,-1,-1,-1,-1,-1,-1,-1,-1,-1,-1,-1,-1,-1,-1,-1,-1,-1],"loss_changes":[9.0358167E2,6.456424E1,5.8978027E1,6.961214E0,7.3089943E0,8.110458E0,1.4177246E1,4.1224957E0,3.421417E0,6.557865E0,2.5148988E0,1.0549011E1,3.2941794E0,1.4105591E1,3.039978E0,2.4796734E0,7.9048634E-1,3.274622E0,1.6730211E0,5.1289825E0,7.164432E0,3.695343E-1,4.8044777E-1,5.9624557E0,6.0241394E0,9.665491E-1,2.9351048E0,6.707596E0,1.28993225E1,1.393425E0,6.2001343E0,3.7099724E0,1.6032012E0,0E0,8.096566E-1,2.897941E0,0E0,4.0266854E-1,4.188919E-1,3.4654922E0,4.4016113E0,6.772297E0,2.1890175E1,0E0,0E0,0E0,0E0,7.115532E0,2.533483E0,4.372879E0,7.0848236E0,2.0592477E0,8.265165E-1,7.6344395E-1,2.5408738E0,8.332321E0,1.6358795E0,4.0310287E0,1.0088135E1,1.5143108E0,1.4517059E0,3.6064453E0,3.1956177E0,0E0,0E0,0E0,0E0,0E0,0E0,0E0,0E0,0E0,0E0,0E0,0E0,0E0,0E0,0E0,0E0,0E0,0E0,0E0,0E0,0E0,0E0,0E0,0E0,0E0,0E0,0E0,0E0,0E0,0E0,0E0,0E0,0E0,0E0,0E0,0E0,0E0,0E0,0E0,0E0,0E0,0E0,0E0,0E0,0E0,0E0,0E0,0E0,0E0,0E0,0E0,0E0],"parents":[2147483647,0,0,1,1,2,2,3,3,4,4,5,5,6,6,7,7,8,8,9,9,10,10,11,11,12,12,13,13,14,14,15,15,16,16,17,17,18,18,19,19,20,20,21,21,22,22,23,23,24,24,25,25,26,26,27,27,28,28,29,29,30,30,31,31,32,32,34,34,35,35,37,37,38,38,39,39,40,40,41,41,42,42,47,47,48,48,49,49,50,50,51,51,52,52,53,53,54,54,55,55,56,56,57,57,58,58,59,59,60,60,61,61,62,62],"right_children":[2,4,6,8,10,12,14,16,18,20,22,24,26,28,30,32,34,36,38,40,42,44,46,48,50,52,54,56,58,60,62,64,66,-1,68,70,-1,72,74,76,78,80,82,-1,-1,-1,-1,84,86,88,90,92,94,96,98,100,102,104,106,108,110,112,114,-1,-1,-1,-1,-1,-1,-1,-1,-1,-1,-1,-1,-1,-1,-1,-1,-1,-1,-1,-1,-1,-1,-1,-1,-1,-1,-1,-1,-1,-1,-1,-1,-1,-1,-1,-1,-1,-1,-1,-1,-1,-1,-1,-1,-1,-1,-1,-1,-1,-1,-1,-1],"split_conditions":[2.0868596E-8,6.817451E-8,1.1385426E-7,6.4442595E-8,3.1144324E-8,1.012451E-6,5.9953686E-7,1.9898312E-7,9.766168E-9,2.6446276E-8,8.318774E-9,4.9898085E-7,1.2270665E-6,2.1661199E-6,5.847324E-6,6.1746626E-8,6.289554E-8,1.9324766E-8,6.739113E-8,8.844835E-9,2.8573647E-8,5.165551E-9,8.568989E-9,3.4865138E-7,3.594508E-7,5.872145E-7,1.3230629E-6,1.9534622E-7,2.0525444E-7,1.6432904E-6,1.3767135E-6,1.84934E-7,1.9323392E-7,-1.8095168E-1,2.0521239E-7,2.308926E-8,-2.382826E-1,5.8960894E-9,2.3279576E-8,2.7851085E-8,2.8335672E-8,2.7080295E-8,2.221459E-8,8.001478E-2,-8.779517E-2,-4.361479E-1,-8.4142685E-2,3.4275743E-7,2.426445E-7,3.5269036E-8,1.2056295E-6,1.2341914E-6,9.27217E-8,4.031216E-7,9.27217E-8,1.332284E-6,1.573823E-6,6.080333E-7,6.6404723E-6,3.6996587E-6,9.852561E-6,6.0372113E-6,1.3064296E-5,-4.6630204E-2,-1.2163416E-1,3.7187994E-3,-4.5977455E-2,-7.0493564E-2,-1.467526E-1,-1.2211279E-2,-9.1957375E-2,-9.03458E-2,5.6783248E-2,4.6280965E-2,1.9287832E-1,1.3300663E-1,-1.3075316E-1,-3.249056E-1,3.9367314E-2,-2.0408032E-2,4.6490725E-2,3.5270315E-3,-5.6135017E-1,-8.901635E-2,-1.7764296E-1,-1.0262736E-1,2.573789E-2,-1.8057173E-1,-3.3797807E-1,-1.0882326E-1,-2.1694444E-1,5.8543265E-2,-2.7775317E-1,3.5089646E-2,-1.2746857E-1,-8.593268E-2,-2.303089E-1,5.3719264E-3,-1.3652693E-1,-2.1353143E-1,-8.698879E-2,-3.267751E-1,-2.3533164E-1,-7.513898E-2,-1.9110473E-1,-1.9468352E-1,-1.3221188E-1,-2.3069267E-1,-9.277273E-2,-2.5847438E-1,-3.471299E-2,-1.4609595E-1,-2.934653E-1,-2.0810513E-1,-1.6577923E-1],"split_indices":[12,14,3,14,6,9,2,13,2,8,2,13,14,8,7,14,14,12,14,4,6,3,5,14,9,14,9,3,2,4,3,13,13,0,13,10,0,3,8,6,11,8,10,0,0,0,0,13,10,3,13,10,2,5,2,8,10,3,9,7,8,4,4,0,0,0,0,0,0,0,0,0,0,0,0,0,0,0,0,0,0,0,0,0,0,0,0,0,0,0,0,0,0,0,0,0,0,0,0,0,0,0,0,0,0,0,0,0,0,0,0,0,0,0,0],"split_type":[0,0,0,0,0,0,0,0,0,0,0,0,0,0,0,0,0,0,0,0,0,0,0,0,0,0,0,0,0,0,0,0,0,0,0,0,0,0,0,0,0,0,0,0,0,0,0,0,0,0,0,0,0,0,0,0,0,0,0,0,0,0,0,0,0,0,0,0,0,0,0,0,0,0,0,0,0,0,0,0,0,0,0,0,0,0,0,0,0,0,0,0,0,0,0,0,0,0,0,0,0,0,0,0,0,0,0,0,0,0,0,0,0,0,0],"sum_hessian":[1.058E4,5.499E3,5.081E3,1.989E3,3.51E3,1.234E3,3.847E3,1.019E3,9.7E2,3.503E3,7E0,1.106E3,1.28E2,1.656E3,2.191E3,9.44E2,7.5E1,9.52E2,1.8E1,2.925E3,5.78E2,3E0,4E0,7.01E2,4.05E2,6E1,6.8E1,4.22E2,1.234E3,1.76E2,2.015E3,7.08E2,2.36E2,1.5E1,6E1,9.47E2,5E0,5E0,1.3E1,7.6E1,2.849E3,5.44E2,3.4E1,1E0,2E0,3E0,1E0,6.33E2,6.8E1,9.2E1,3.13E2,5E0,5.5E1,1.8E1,5E1,2.14E2,2.08E2,2.77E2,9.57E2,3.3E1,1.43E2,3.01E2,1.714E3,6.43E2,6.5E1,1.33E2,1.03E2,3.9E1,2.1E1,9.05E2,4.2E1,3E0,2E0,3E0,1E1,7.2E1,4E0,2E0,2.847E3,2.6E2,2.84E2,2.7E1,7E0,5.36E2,9.7E1,1.8E1,5E1,6.9E1,2.3E1,2.41E2,7.2E1,3E0,2E0,5.3E1,2E0,7E0,1.1E1,3.4E1,1.6E1,1.41E2,7.3E1,2.8E1,1.8E2,2.47E2,3E1,4.6E2,4.97E2,1.8E1,1.5E1,1.4E2,3E0,2.85E2,1.6E1,1.506E3,2.08E2],"tree_param":{"num_deleted":"0","num_feature":"16","num_nodes":"115","size_leaf_vector":"1"}},{"base_weights":[1.7214699E-1,1.5918604E-1,2.2050235E-1,2.0859389E-1,1.521803E-1,2.0190723E-1,2.4032691E-1,1.9430721E-1,2.487032E-1,2.331792E-2,1.5367404E-1,2.4957578E-1,1.8585888E-1,2.3329553E-1,8.051373E-2,2.1300027E-1,9.932385E-2,3.1147066E-1,2.1935694E-1,8.189818E-2,-2.1392033E-2,1.7238376E-1,1.4198375E-1,2.691304E-1,1.9864923E-1,1.514511E-1,1.9196431E-1,3.046824E-1,2.3019858E-1,2.2916892E-1,1.6872834E-1,1.440882E-1,2.660971E-2,2.4295522E-1,3.6392912E-1,2.391431E-2,2.2686635E-1,-8.816903E-2,1.17658585E-1,-1.11119546E-1,1.5746463E-3,1.750371E-1,3.6564695E-3,1.23845786E-1,1.6373652E-1,1.0171577E-1,2.5232893E-1,3.7163634E-2,2.0821904E-1,1.7071813E-1,1.370912E-1,1.2531929E-1,1.8922344E-1,2.1477342E-2,9.291878E-2,2.2031075E-1,7.252996E-2,8.035111E-2,6.494057E-2,7.973509E-2,4.5910664E-2,2.1614892E-2,6.7174315E-2,3.9429523E-2,-5.34159E-3,1.0612824E-1,6.0884584E-2,8.592108E-2,1.2434803E-1,-2.6291633E-2,2.2711542E-2,-1.2423823E-2,6.950238E-2,-2.823202E-2,-7.881435E-3,-4.7117183E-3,5.1879186E-2,-9.2550125E-3,-4.2334083E-2,-6.553573E-3,1.5568907E-2,6.520974E-2,5.0350554E-2,5.720009E-2,-1.1063117E-2,4.125827E-2,1.4578221E-2,1.1952361E-1,4.5397718E-2,7.7333376E-2,3.7863437E-2,7.0767E-2,5.0259102E-2,5.556572E-2,3.3221047E-2,9.8689115E-3,4.1388214E-2,5.26857E-2,6.0047433E-2,6.931252E-2,5.9334144E-2],"categories":[],"categories_nodes":[],"categories_segments":[],"categories_sizes":[],"default_left":[0,0,0,0,0,0,0,0,0,0,0,0,0,0,0,0,0,0,0,0,0,0,0,0,0,0,0,0,0,0,0,0,0,0,0,0,0,0,0,0,0,0,0,0,0,0,0,0,0,0,0,0,0,0,0,0,0,0,0,0,0,0,0,0,0,0,0,0,0,0,0,0,0,0,0,0,0,0,0,0,0,0,0,0,0,0,0,0,0,0,0,0,0,0,0,0,0,0,0,0,0],"id":10,"left_children":[1,3,5,7,9,11,13,15,17,19,21,23,25,27,-1,29,31,33,35,37,39,41,43,45,47,49,51,53,55,57,59,61,63,65,67,69,71,73,75,77,79,81,83,85,87,-1,89,-1,91,93,95,-1,97,-1,-1,99,-1,-1,-1,-1,-1,-1,-1,-1,-1,-1,-1,-1,-1,-1,-1,-1,-1,-1,-1,-1,-1,-1,-1,-1,-1,-1,-1,-1,-1,-1,-1,-1,-1,-1,-1,-1,-1,-1,-1,-1,-1,-1,-1,-1,-1],"loss_changes":[6.596344E0,2.8578186E0,7.750244E-1,5.4418945E-1,1.4044495E0,8.402481E-1,1.4962387E-1,1.3406754E0,4.253292E-1,2.2437724E-1,1.5570984E0,2.3434067E-1,1.5390205E-1,1.2176514E-1,0E0,4.1945457E-1,4.1280615E-1,2.0990181E-1,2.6755905E-1,2.3539568E-1,1.01151384E-1,1.2421646E0,1.7378387E0,1.5645409E-1,3.4311533E-2,1.4223576E-2,3.7639046E-1,1.6646862E-2,4.23584E-2,1.7087364E-1,2.258625E-1,4.3816113E-1,2.3512377E-1,1.0109019E-1,5.7688236E-2,5.285411E-2,2.4049473E-1,1.0038167E-4,2.312268E-1,1.9722745E-2,4.8274837E-2,7.966614E-1,3.4055978E-1,2.4993095E0,5.8317184E0,0E0,8.428955E-2,0E0,4.2671442E-2,2.6457667E-2,2.981186E-3,0E0,7.3293686E-2,0E0,0E0,6.60038E-2,0E0,0E0,0E0,0E0,0E0,0E0,0E0,0E0,0E0,0E0,0E0,0E0,0E0,0E0,0E0,0E0,0E0,0E0,0E0,0E0,0E0,0E0,0E0,0E0,0E0,0E0,0E0,0E0,0E0,0E0,0E0,0E0,0E0,0E0,0E0,0E0,0E0,0E0,0E0,0E0,0E0,0E0,0E0,0E0,0E0],"parents":[2147483647,0,0,1,1,2,2,3,3,4,4,5,5,6,6,7,7,8,8,9,9,10,10,11,11,12,12,13,13,15,15,16,16,17,17,18,18,19,19,20,20,21,21,22,22,23,23,24,24,25,25,26,26,27,27,28,28,29,29,30,30,31,31,32,32,33,33,34,34,35,35,36,36,37,37,38,38,39,39,40,40,41,41,42,42,43,43,44,44,46,46,48,48,49,49,50,50,52,52,55,55],"right_children":[2,4,6,8,10,12,14,16,18,20,22,24,26,28,-1,30,32,34,36,38,40,42,44,46,48,50,52,54,56,58,60,62,64,66,68,70,72,74,76,78,80,82,84,86,88,-1,90,-1,92,94,96,-1,98,-1,-1,100,-1,-1,-1,-1,-1,-1,-1,-1,-1,-1,-1,-1,-1,-1,-1,-1,-1,-1,-1,-1,-1,-1,-1,-1,-1,-1,-1,-1,-1,-1,-1,-1,-1,-1,-1,-1,-1,-1,-1,-1,-1,-1,-1,-1,-1],"split_conditions":[9.139293E-6,1.9092187E-7,2.475558E-5,6.1384384E-8,6.289554E-8,1.2186105E-6,1.3064296E-5,1.7481055E-7,1.7771699E-8,8.8773024E-9,5.8405907E-9,8.3989244E-7,1.1650133E-5,3.260229E-5,8.051373E-2,1.18204575E-8,6.422271E-9,2.3972072E-8,2.2534165E-8,2.0139293E-8,9.177353E-9,1.9628287E-8,4.920402E-7,9.978029E-6,1.20061595E-5,1.5871922E-6,1.3914686E-5,6.791545E-7,4.328249E-5,8.03276E-9,9.735617E-8,6.026511E-8,1.7157364E-8,6.163911E-9,2.9337553E-8,2.0569725E-8,2.6804152E-8,1.1778388E-8,2.8685069E-8,6.1746626E-8,8.433213E-9,2.0969112E-7,2.5903923E-8,2.7790216E-7,7.3718047E-7,1.0171577E-1,4.3902114E-6,3.7163634E-2,1.1691031E-6,3.977187E-6,3.2265504E-7,1.2531929E-1,1.661647E-5,2.1477342E-2,9.291878E-2,2.6993723E-6,7.252996E-2,8.035111E-2,6.494057E-2,7.973509E-2,4.5910664E-2,2.1614892E-2,6.7174315E-2,3.9429523E-2,-5.34159E-3,1.0612824E-1,6.0884584E-2,8.592108E-2,1.2434803E-1,-2.6291633E-2,2.2711542E-2,-1.2423823E-2,6.950238E-2,-2.823202E-2,-7.881435E-3,-4.7117183E-3,5.1879186E-2,-9.2550125E-3,-4.2334083E-2,-6.553573E-3,1.5568907E-2,6.520974E-2,5.0350554E-2,5.720009E-2,-1.1063117E-2,4.125827E-2,1.4578221E-2,1.1952361E-1,4.5397718E-2,7.7333376E-2,3.7863437E-2,7.0767E-2,5.0259102E-2,5.556572E-2,3.3221047E-2,9.8689115E-3,4.1388214E-2,5.26857E-2,6.0047433E-2,6.931252E-2,5.9334144E-2],"split_indices":[8,13,8,14,14,3,4,13,12,7,3,2,8,12,0,4,2,8,8,10,7,12,9,14,9,3,12,3,8,5,13,14,12,2,11,10,6,4,11,14,5,13,6,13,13,0,4,0,2,4,2,0,8,0,0,3,0,0,0,0,0,0,0,0,0,0,0,0,0,0,0,0,0,0,0,0,0,0,0,0,0,0,0,0,0,0,0,0,0,0,0,0,0,0,0,0,0,0,0,0,0],"split_type":[0,0,0,0,0,0,0,0,0,0,0,0,0,0,0,0,0,0,0,0,0,0,0,0,0,0,0,0,0,0,0,0,0,0,0,0,0,0,0,0,0,0,0,0,0,0,0,0,0,0,0,0,0,0,0,0,0,0,0,0,0,0,0,0,0,0,0,0,0,0,0,0,0,0,0,0,0,0,0,0,0,0,0,0,0,0,0,0,0,0,0,0,0,0,0,0,0,0,0,0,0],"sum_hessian":[1.058E4,8.347E3,2.233E3,1.033E3,7.314E3,1.158E3,1.075E3,7.66E2,2.67E2,8.4E1,7.23E3,2.88E2,8.7E2,8.67E2,2.08E2,6.39E2,1.27E2,8.2E1,1.85E2,3.6E1,4.8E1,2.775E3,4.455E3,2.05E2,8.3E1,1.35E2,7.35E2,3.2E1,8.35E2,4.65E2,1.74E2,7.8E1,4.9E1,3.8E1,4.4E1,7E0,1.78E2,6E0,3E1,9E0,3.9E1,2.732E3,4.3E1,2.433E3,2.022E3,3.6E1,1.69E2,1.1E1,7.2E1,5.3E1,8.2E1,7E0,7.28E2,1E0,3.1E1,4.61E2,3.74E2,1.1E2,3.55E2,2.2E1,1.52E2,4.2E1,3.6E1,1.4E1,3.5E1,8E0,3E1,2E1,2.4E1,2E0,5E0,3E0,1.75E2,5E0,1E0,9E0,2.1E1,3E0,6E0,2.7E1,1.2E1,3.93E2,2.339E3,7E0,3.6E1,2.058E3,3.75E2,1E2,1.922E3,1.61E2,8E0,4E1,3.2E1,4.1E1,1.2E1,1E0,8.1E1,3.32E2,3.96E2,3.06E2,1.55E2],"tree_param":{"num_deleted":"0","num_feature":"16","num_nodes":"101","size_leaf_vector":"1"}},{"base_weights":[-1.735007E-1,9.070064E-3,-4.0458953E-1,-8.4318005E-2,7.472421E-2,-3.2757056E-1,-4.611583E-1,-2.5072059E-2,-1.3742194E-1,8.761279E-2,-2.2160624E-1,-3.570842E-1,-2.0022117E-1,-5.7728714E-1,-4.4209757E-1,-9.186852E-3,-1.7742747E-1,-7.354972E-2,-1.5936998E-1,5.258333E-2,1.3447052E-1,-7.3426414E-1,-1.2886365E-1,-2.9169005E-1,-4.4182864E-1,-1.1040885E-1,-3.6092532E-1,-5.249637E-1,-7.090853E-1,-2.7738854E-1,-4.701169E-1,-2.052733E-2,2.0820358E-1,-9.5059074E-2,-7.7837414E-1,-1.5132168E-1,-2.8017676E-2,-1.2086654E-1,-1.9951092E-1,7.564272E-2,-1.5486434E-1,-1.5655565E-1,1.4628558E-1,1.3802013E-1,-1.3487703E0,4.3117824E-1,-2.4723315E-1,-5.0899154E-1,-2.5416717E-1,-7.4574876E-1,-4.0997276E-1,-2.0169592E-1,-4.015124E-2,-5.204334E-1,-8.254308E-2,-6.9250375E-1,-4.6150404E-1,-7.2400886E-1,-2.6879746E-1,-3.3923692E-1,-1.1958913E-1,-6.283047E-1,-4.5697308E-1,-3.986697E-3,-2.198696E-1,-3.9130723E-1,7.9031184E-2,-6.4612194E-3,-1.2496231E-1,-4.6396992E-1,-7.953438E-2,-2.7146729E-2,-8.353971E-2,3.1559147E-2,-1.9188406E-2,-2.232607E-2,-4.2034786E-2,-4.534013E-2,-8.27418E-2,3.1451978E-2,-6.874153E-3,-2.3199674E-2,-3.3887038E-1,3.1078847E-2,-1.7852254E-1,-8.988568E-2,4.6341326E-2,-1.646164E-1,8.2588136E-2,-6.673554E-1,-8.4102295E-2,2.2565544E-1,1.2537395E-2,-2.0842281E-1,-2.126991E-2,-1.2177048E-1,-2.594091E-1,-1.9102529E-2,-8.695252E-2,-2.3512787E-1,8.956432E-3,-6.316998E-2,-1.3515455E-1,-2.3605874E-2,-1.4030887E-1,5.3912994E-2,-2.4344848E-2,-6.251407E-2,-1.839732E-1,1.0042642E-2,-3.0662498E-2,-9.261687E-2,-2.1485488E-1,-1.2660225E-1,-1.9934554E-1,-2.1926966E-1,-6.285024E-3,-1.0351453E-1,5.4309727E-3,-7.396093E-2,-1.5547197E-1,-3.119497E-2,-1.7217386E-1,-1.903287E-1,4.1713893E-2,8.6047255E-2,-1.3861297E-1],"categories":[],"categories_nodes":[],"categories_segments":[],"categories_sizes":[],"default_left":[0,0,0,0,0,0,0,0,0,0,0,0,0,0,0,0,0,0,0,0,0,0,0,0,0,0,0,0,0,0,0,0,0,0,0,0,0,0,0,0,0,0,0,0,0,0,0,0,0,0,0,0,0,0,0,0,0,0,0,0,0,0,0,0,0,0,0,0,0,0,0,0,0,0,0,0,0,0,0,0,0,0,0,0,0,0,0,0,0,0,0,0,0,0,0,0,0,0,0,0,0,0,0,0,0,0,0,0,0,0,0,0,0,0,0,0,0,0,0,0,0,0,0,0,0,0,0],"id":11,"left_children":[1,3,5,7,9,11,13,15,17,19,21,23,25,27,29,31,33,35,37,39,41,43,45,47,49,51,53,55,57,59,61,63,65,67,69,71,73,75,77,79,81,83,85,87,89,91,93,95,97,99,101,103,105,107,109,111,113,115,117,119,121,123,125,-1,-1,-1,-1,-1,-1,-1,-1,-1,-1,-1,-1,-1,-1,-1,-1,-1,-1,-1,-1,-1,-1,-1,-1,-1,-1,-1,-1,-1,-1,-1,-1,-1,-1,-1,-1,-1,-1,-1,-1,-1,-1,-1,-1,-1,-1,-1,-1,-1,-1,-1,-1,-1,-1,-1,-1,-1,-1,-1,-1,-1,-1,-1,-1],"loss_changes":[4.4641675E2,3.625463E1,2.0195496E1,7.6764107E0,1.3279953E1,7.374176E0,5.6990967E0,2.7936978E0,1.7924862E0,5.455511E0,6.799436E0,8.776779E0,5.3726053E0,2.2207031E0,1.0553406E1,2.585455E0,5.321401E0,1.16787E0,1.4549923E0,9.129292E0,4.9158707E0,1.1978687E1,8.326794E0,7.290573E0,6.452057E0,1.5439956E0,5.9072075E0,2.5829468E0,4.887352E-1,3.2679462E0,3.8234558E0,5.1260204E0,4.6879215E0,2.2837102E0,4.7156487E0,9.184108E-1,1.0122567E0,4.285574E-1,1.681984E0,4.940322E0,1.4346674E1,6.4502187E0,5.039423E0,1.0937746E0,1.1540144E1,2.718472E0,8.078566E0,4.526081E0,5.2686195E0,1.939682E0,5.0306473E0,3.3988628E0,1.258505E0,2.3339672E0,1.1749816E-1,4.4228745E-1,1.3310127E0,4.6909714E-1,1.1562875E-1,3.9044952E0,6.280652E-1,7.884369E-1,7.029907E0,0E0,0E0,0E0,0E0,0E0,0E0,0E0,0E0,0E0,0E0,0E0,0E0,0E0,0E0,0E0,0E0,0E0,0E0,0E0,0E0,0E0,0E0,0E0,0E0,0E0,0E0,0E0,0E0,0E0,0E0,0E0,0E0,0E0,0E0,0E0,0E0,0E0,0E0,0E0,0E0,0E0,0E0,0E0,0E0,0E0,0E0,0E0,0E0,0E0,0E0,0E0,0E0,0E0,0E0,0E0,0E0,0E0,0E0,0E0,0E0,0E0,0E0,0E0,0E0],"parents":[2147483647,0,0,1,1,2,2,3,3,4,4,5,5,6,6,7,7,8,8,9,9,10,10,11,11,12,12,13,13,14,14,15,15,16,16,17,17,18,18,19,19,20,20,21,21,22,22,23,23,24,24,25,25,26,26,27,27,28,28,29,29,30,30,31,31,32,32,33,33,34,34,35,35,36,36,37,37,38,38,39,39,40,40,41,41,42,42,43,43,44,44,45,45,46,46,47,47,48,48,49,49,50,50,51,51,52,52,53,53,54,54,55,55,56,56,57,57,58,58,59,59,60,60,61,61,62,62],"right_children":[2,4,6,8,10,12,14,16,18,20,22,24,26,28,30,32,34,36,38,40,42,44,46,48,50,52,54,56,58,60,62,64,66,68,70,72,74,76,78,80,82,84,86,88,90,92,94,96,98,100,102,104,106,108,110,112,114,116,118,120,122,124,126,-1,-1,-1,-1,-1,-1,-1,-1,-1,-1,-1,-1,-1,-1,-1,-1,-1,-1,-1,-1,-1,-1,-1,-1,-1,-1,-1,-1,-1,-1,-1,-1,-1,-1,-1,-1,-1,-1,-1,-1,-1,-1,-1,-1,-1,-1,-1,-1,-1,-1,-1,-1,-1,-1,-1,-1,-1,-1,-1,-1,-1,-1,-1,-1],"split_conditions":[2.5672605E-7,2.184906E-7,7.130441E-7,2.881645E-8,1.2029221E-8,4.7464687E-6,9.113237E-6,6.3310615E-9,8.7124015E-9,6.9977084E-8,1.8180534E-8,1.4118373E-7,1.5552524E-6,3.2749235E-6,2.8624931E-6,6.92544E-8,2.1798155E-7,5.9207345E-8,1.622885E-7,6.982564E-8,1.9226393E-8,2.0557E-8,2.2910688E-8,2.2212194E-7,1.3230629E-6,3.5264763E-6,9.139293E-6,5.1420107E-6,1.4430738E-5,1.3779968E-5,1.1169676E-5,6.918763E-8,8.94164E-9,7.4031146E-9,2.613427E-8,1.6902635E-7,1.80159E-7,3.1765097E-8,8.342878E-9,2.7767154E-8,2.3144683E-7,1.0703998E-8,8.279729E-9,9.098281E-9,7.076935E-9,6.9977084E-8,8.919429E-8,1.9336936E-8,4.5136758E-7,1.7440256E-6,1.0040663E-7,2.0100176E-6,4.950406E-6,2.1094372E-6,4.6939203E-6,1.8456475E-7,2.5237102E-6,8.662538E-6,5.327834E-6,7.648927E-7,3.411986E-6,8.760999E-6,1.5276799E-5,-3.986697E-3,-2.198696E-1,-3.9130723E-1,7.9031184E-2,-6.4612194E-3,-1.2496231E-1,-4.6396992E-1,-7.953438E-2,-2.7146729E-2,-8.353971E-2,3.1559147E-2,-1.9188406E-2,-2.232607E-2,-4.2034786E-2,-4.534013E-2,-8.27418E-2,3.1451978E-2,-6.874153E-3,-2.3199674E-2,-3.3887038E-1,3.1078847E-2,-1.7852254E-1,-8.988568E-2,4.6341326E-2,-1.646164E-1,8.2588136E-2,-6.673554E-1,-8.4102295E-2,2.2565544E-1,1.2537395E-2,-2.0842281E-1,-2.126991E-2,-1.2177048E-1,-2.594091E-1,-1.9102529E-2,-8.695252E-2,-2.3512787E-1,8.956432E-3,-6.316998E-2,-1.3515455E-1,-2.3605874E-2,-1.4030887E-1,5.3912994E-2,-2.4344848E-2,-6.251407E-2,-1.839732E-1,1.0042642E-2,-3.0662498E-2,-9.261687E-2,-2.1485488E-1,-1.2660225E-1,-1.9934554E-1,-2.1926966E-1,-6.285024E-3,-1.0351453E-1,5.4309727E-3,-7.396093E-2,-1.5547197E-1,-3.119497E-2,-1.7217386E-1,-1.903287E-1,4.1713893E-2,8.6047255E-2,-1.3861297E-1],"split_indices":[13,13,3,6,7,9,9,3,7,14,12,3,4,5,4,14,13,14,13,14,9,9,10,14,9,7,8,9,12,8,8,14,4,5,6,13,13,6,5,6,13,4,7,4,5,14,14,2,13,10,2,5,13,5,6,2,4,8,7,2,3,6,11,0,0,0,0,0,0,0,0,0,0,0,0,0,0,0,0,0,0,0,0,0,0,0,0,0,0,0,0,0,0,0,0,0,0,0,0,0,0,0,0,0,0,0,0,0,0,0,0,0,0,0,0,0,0,0,0,0,0,0,0,0,0,0,0],"split_type":[0,0,0,0,0,0,0,0,0,0,0,0,0,0,0,0,0,0,0,0,0,0,0,0,0,0,0,0,0,0,0,0,0,0,0,0,0,0,0,0,0,0,0,0,0,0,0,0,0,0,0,0,0,0,0,0,0,0,0,0,0,0,0,0,0,0,0,0,0,0,0,0,0,0,0,0,0,0,0,0,0,0,0,0,0,0,0,0,0,0,0,0,0,0,0,0,0,0,0,0,0,0,0,0,0,0,0,0,0,0,0,0,0,0,0,0,0,0,0,0,0,0,0,0,0,0,0],"sum_hessian":[1.058E4,5.911E3,4.669E3,2.44E3,3.471E3,1.98E3,2.689E3,1.154E3,1.286E3,3.327E3,1.44E2,1.606E3,3.74E2,3.75E2,2.314E3,1.046E3,1.08E2,3.3E2,9.56E2,1.905E3,1.422E3,2.1E1,1.23E2,9.09E2,6.97E2,2.41E2,1.33E2,2.72E2,1.03E2,3.38E2,1.976E3,9.95E2,5.1E1,9.6E1,1.2E1,1.21E2,2.09E2,4.9E2,4.66E2,1.715E3,1.9E2,5.5E1,1.367E3,9E0,1.2E1,2.1E1,1.02E2,1.32E2,7.77E2,6.4E1,6.33E2,1.04E2,1.37E2,8.4E1,4.9E1,7.2E1,2E2,9.9E1,4E0,2.42E2,9.6E1,1.48E2,1.828E3,9.86E2,9E0,1E0,5E1,7.9E1,1.7E1,4E0,8E0,8.3E1,3.8E1,4.4E1,1.65E2,1.45E2,3.45E2,2.87E2,1.79E2,1.323E3,3.92E2,1.77E2,1.3E1,3.5E1,2E1,2.4E1,1.343E3,1E0,8E0,6E0,6E0,1.1E1,1E1,2.8E1,7.4E1,1.04E2,2.8E1,1.23E2,6.54E2,6.1E1,3E0,1.08E2,5.25E2,7.2E1,3.2E1,2.1E1,1.16E2,2E1,6.4E1,7E0,4.2E1,5E0,6.7E1,1.7E2,3E1,9.8E1,1E0,3E0,1E0,1.61E2,8.1E1,9.4E1,2E0,1.47E2,1E0,1.2E1,1.816E3],"tree_param":{"num_deleted":"0","num_feature":"16","num_nodes":"127","size_leaf_vector":"1"}},{"base_weights":[1.2072261E-1,1.1080448E-1,1.5304174E-1,1.2803519E-1,9.865626E-2,2.2512873E-1,1.4902632E-1,1.7458472E-1,1.2357742E-1,1.03843085E-1,6.758075E-2,2.9499096E-1,1.892271E-1,1.3079013E-1,1.6768429E-1,2.4064319E-1,1.6457416E-1,1.2193778E-1,2.701332E-1,9.5514104E-2,2.0752877E-1,3.273871E-2,9.494911E-2,8.954087E-2,2.2855354E-2,9.0273745E-2,2.0517536E-1,1.04327306E-1,1.3896328E-1,2.1384573E-1,1.6536862E-1,7.329056E-2,1.6888477E-2,1.5635777E-1,7.114264E-2,1.275204E-1,5.052983E-2,1.4456093E-1,2.9268402E-1,1.00153394E-1,3.980955E-3,3.2881185E-1,1.536635E-1,-3.8661077E-3,4.5502294E-2,3.0460918E-1,8.732606E-2,1.07901745E-1,5.7684975E-3,2.1325004E-1,4.947979E-2,1.1280258E-1,7.603836E-2,2.9426023E-1,1.3532142E-1,1.6288665E-1,2.4578616E-1,1.51015E-1,1.747607E-1,4.946303E-2,2.0263698E-2,4.729941E-2,3.6206555E-2,7.4083186E-3,4.5307897E-2,6.8032034E-2,-1.2194064E-2,3.41952E-2,9.0726204E-2,2.8303793E-2,6.926619E-2,-1.7242992E-2,4.357422E-3,1.1813994E-1,6.503419E-2,2.2227654E-2,6.0801785E-2,-7.4350312E-3,3.0477967E-3,4.408607E-2,1.0285028E-2,1.2655188E-1,2.9260134E-2,3.9481465E-2,2.0203523E-2,3.868999E-2,1.7049165E-2,6.564837E-2,2.8757056E-2,1.6369866E-2,4.37011E-3,2.7363412E-2,3.6913082E-2,1.7254937E-2,2.8024012E-2,2.0293802E-2,9.9081546E-2,4.752087E-2,3.794121E-2,5.623085E-2,2.802804E-2,2.620097E-2,7.619545E-2,4.825689E-2,3.939312E-2,5.03799E-2,5.664641E-2],"categories":[],"categories_nodes":[],"categories_segments":[],"categories_sizes":[],"default_left":[0,0,0,0,0,0,0,0,0,0,0,0,0,0,0,0,0,0,0,0,0,0,0,0,0,0,0,0,0,0,0,0,0,0,0,0,0,0,0,0,0,0,0,0,0,0,0,0,0,0,0,0,0,0,0,0,0,0,0,0,0,0,0,0,0,0,0,0,0,0,0,0,0,0,0,0,0,0,0,0,0,0,0,0,0,0,0,0,0,0,0,0,0,0,0,0,0,0,0,0,0,0,0,0,0,0,0],"id":12,"left_children":[1,3,5,7,9,11,13,15,17,19,21,23,25,27,29,31,33,35,37,39,41,43,45,-1,-1,47,49,51,53,55,57,-1,-1,59,-1,61,63,65,67,69,71,73,75,77,79,81,83,85,-1,87,89,91,93,95,97,99,101,103,105,-1,-1,-1,-1,-1,-1,-1,-1,-1,-1,-1,-1,-1,-1,-1,-1,-1,-1,-1,-1,-1,-1,-1,-1,-1,-1,-1,-1,-1,-1,-1,-1,-1,-1,-1,-1,-1,-1,-1,-1,-1,-1,-1,-1,-1,-1,-1,-1],"loss_changes":[3.3747406E0,1.6828842E0,6.8488693E-1,6.7274475E-1,7.5940704E-1,2.677331E-1,7.790184E-1,1.5216827E-1,7.016525E-1,3.4976044E0,6.4817953E-1,9.228706E-3,1.20354176E-1,2.4396133E-1,8.863449E-2,1.0527849E-2,1.1496401E-1,1.1994476E0,5.1137447E-2,1.6013756E0,1.9224234E0,1.412729E-1,5.8393097E-1,0E0,0E0,1.5458666E-2,8.373785E-2,5.9993267E-2,4.748478E-1,4.4602633E-2,1.23111725E-1,0E0,0E0,1.64392E-1,0E0,5.5864334E-1,5.7006854E-1,1.1580239E-1,1.25072E-2,2.7038383E0,1.1941801E-1,5.844536E-1,8.078246E-1,2.3428371E-2,2.4991155E-1,2.7443838E-1,3.1848884E-1,4.504651E-3,0E0,2.5514841E-2,9.3039125E-5,3.6980152E-2,1.683265E-2,1.4087307E-1,1.6198921E-1,2.170819E-2,1.679027E-2,6.536579E-2,3.2035828E-2,0E0,0E0,0E0,0E0,0E0,0E0,0E0,0E0,0E0,0E0,0E0,0E0,0E0,0E0,0E0,0E0,0E0,0E0,0E0,0E0,0E0,0E0,0E0,0E0,0E0,0E0,0E0,0E0,0E0,0E0,0E0,0E0,0E0,0E0,0E0,0E0,0E0,0E0,0E0,0E0,0E0,0E0,0E0,0E0,0E0,0E0,0E0,0E0],"parents":[2147483647,0,0,1,1,2,2,3,3,4,4,5,5,6,6,7,7,8,8,9,9,10,10,11,11,12,12,13,13,14,14,15,15,16,16,17,17,18,18,19,19,20,20,21,21,22,22,25,25,26,26,27,27,28,28,29,29,30,30,33,33,35,35,36,36,37,37,38,38,39,39,40,40,41,41,42,42,43,43,44,44,45,45,46,46,47,47,49,49,50,50,51,51,52,52,53,53,54,54,55,55,56,56,57,57,58,58],"right_children":[2,4,6,8,10,12,14,16,18,20,22,24,26,28,30,32,34,36,38,40,42,44,46,-1,-1,48,50,52,54,56,58,-1,-1,60,-1,62,64,66,68,70,72,74,76,78,80,82,84,86,-1,88,90,92,94,96,98,100,102,104,106,-1,-1,-1,-1,-1,-1,-1,-1,-1,-1,-1,-1,-1,-1,-1,-1,-1,-1,-1,-1,-1,-1,-1,-1,-1,-1,-1,-1,-1,-1,-1,-1,-1,-1,-1,-1,-1,-1,-1,-1,-1,-1,-1,-1,-1,-1,-1,-1],"split_conditions":[5.109709E-6,2.229492E-7,1.8613423E-6,1.3020886E-7,2.2063308E-7,2.8795569E-6,1.6744547E-5,8.5963086E-9,1.4914029E-7,2.1661199E-6,5.1420107E-6,1.3429638E-5,8.699506E-6,1.0240677E-5,3.1366875E-5,5.0707376E-9,6.868163E-8,1.9324766E-8,7.849715E-9,1.9534622E-7,6.118342E-7,2.6685102E-6,4.70521E-6,8.954087E-2,2.2855354E-2,1.1438324E-6,1.7857229E-6,3.3050972E-6,1.1471101E-5,1.2414779E-5,3.8471495E-5,7.329056E-2,1.6888477E-2,1.648535E-8,7.114264E-2,4.5705226E-9,1.0417259E-7,2.4883732E-8,1.2213656E-8,8.1244315E-7,1.3230629E-6,2.843123E-7,3.3929803E-6,2.1661199E-6,6.578806E-7,5.5479967E-7,1.4089619E-6,9.998642E-6,5.7684975E-3,7.648927E-7,6.9168686E-7,5.847324E-6,8.604022E-7,8.011627E-6,1.3767135E-6,4.8328584E-6,6.4448755E-6,1.3056751E-6,5.1854204E-6,4.946303E-2,2.0263698E-2,4.729941E-2,3.6206555E-2,7.4083186E-3,4.5307897E-2,6.8032034E-2,-1.2194064E-2,3.41952E-2,9.0726204E-2,2.8303793E-2,6.926619E-2,-1.7242992E-2,4.357422E-3,1.1813994E-1,6.503419E-2,2.2227654E-2,6.0801785E-2,-7.4350312E-3,3.0477967E-3,4.408607E-2,1.0285028E-2,1.2655188E-1,2.9260134E-2,3.9481465E-2,2.0203523E-2,3.868999E-2,1.7049165E-2,6.564837E-2,2.8757056E-2,1.6369866E-2,4.37011E-3,2.7363412E-2,3.6913082E-2,1.7254937E-2,2.8024012E-2,2.0293802E-2,9.9081546E-2,4.752087E-2,3.794121E-2,5.623085E-2,2.802804E-2,2.620097E-2,7.619545E-2,4.825689E-2,3.939312E-2,5.03799E-2,5.664641E-2],"split_indices":[7,13,4,13,2,5,7,4,12,8,9,10,9,8,12,2,14,12,2,3,4,8,13,0,0,3,3,4,13,6,8,0,0,4,0,3,14,4,3,7,9,3,8,8,4,3,4,13,0,2,2,7,2,7,3,4,5,2,3,0,0,0,0,0,0,0,0,0,0,0,0,0,0,0,0,0,0,0,0,0,0,0,0,0,0,0,0,0,0,0,0,0,0,0,0,0,0,0,0,0,0,0,0,0,0,0,0],"split_type":[0,0,0,0,0,0,0,0,0,0,0,0,0,0,0,0,0,0,0,0,0,0,0,0,0,0,0,0,0,0,0,0,0,0,0,0,0,0,0,0,0,0,0,0,0,0,0,0,0,0,0,0,0,0,0,0,0,0,0,0,0,0,0,0,0,0,0,0,0,0,0,0,0,0,0,0,0,0,0,0,0,0,0,0,0,0,0,0,0,0,0,0,0,0,0,0,0,0,0,0,0,0,0,0,0,0,0],"sum_hessian":[1.058E4,8.099E3,2.481E3,3.345E3,4.754E3,1.28E2,2.353E3,2.89E2,3.056E3,4.072E3,6.82E2,4.1E1,8.7E1,1.194E3,1.159E3,3.5E1,2.54E2,3.024E3,3.2E1,3.771E3,3.01E2,3.01E2,3.81E2,4E1,1E0,1.3E1,7.4E1,2.85E2,9.09E2,5.1E1,1.108E3,3.4E1,1E0,2.31E2,2.3E1,2.804E3,2.2E2,6E0,2.6E1,3.589E3,1.82E2,9.1E1,2.1E2,7.8E1,2.23E2,1.2E1,3.69E2,1E1,3E0,7E1,4E0,2.17E2,6.8E1,1.9E1,8.9E2,2.2E1,2.9E1,4.45E2,6.63E2,2.1E2,2.1E1,5.14E2,2.29E3,1.76E2,4.4E1,4E0,2E0,2E0,2.4E1,3.438E3,1.51E2,2.6E1,1.56E2,5.6E1,3.5E1,8.1E1,1.29E2,3.1E1,4.7E1,2.1E1,2.02E2,7E0,5E0,1.13E2,2.56E2,6E0,4E0,6.6E1,4E0,3E0,1E0,7.3E1,1.44E2,3.5E1,3.3E1,3E0,1.6E1,2.42E2,6.48E2,1.5E1,7E0,2E0,2.7E1,2.92E2,1.53E2,4.55E2,2.08E2],"tree_param":{"num_deleted":"0","num_feature":"16","num_nodes":"107","size_leaf_vector":"1"}},{"base_weights":[-1.2199481E-1,5.8660824E-3,-2.8383455E-1,-6.8723634E-2,4.854388E-2,-2.3499583E-1,-3.2992995E-1,-4.1573275E-2,-1.1277572E-1,5.8740903E-2,-1.4130977E-1,-2.516291E-1,-1.2140365E-1,-3.2226688E-1,-5.3237206E-1,-3.165064E-2,-1.7665307E-1,-6.376393E-2,-1.3933061E-1,1.1110509E-1,3.393873E-2,-5.4042774E-1,-1.2318651E-1,-2.328724E-1,-4.4376072E-1,-1.7560425E-3,-2.0486851E-1,-3.37645E-1,-4.7822926E-2,-6.4396383E-3,-5.5794877E-1,-3.602305E-2,2.3752342E-1,8.420306E-3,-2.3937525E-1,-3.0821824E-2,-8.431839E-2,-1.5665595E-1,-1.4892053E-2,-2.935715E-1,1.2373094E-1,7.295931E-2,-4.1362967E-2,-9.4600135E-1,-1.0052736E-1,-2.4923837E-1,-6.968296E-2,-1.689133E-1,-4.9058706E-1,1.448946E-1,-1.6273169E-2,-3.3464342E-1,-1.103273E-1,-3.2065374E-1,-5.2242523E-1,3.2112867E-1,-1.7425978E-1,-2.3707438E-2,9.438855E-3,-3.7505704E-1,-6.14763E-1,-1.282195E-2,3.9927494E-2,1.3561243E-1,-6.6596116E-3,-4.860805E-2,7.8974694E-2,-5.074743E-2,-1.7635493E-1,-3.1864073E-3,-3.4168657E-2,-4.35863E-2,-2.0019548E-2,-3.5255644E-2,-7.464781E-2,-7.5168246E-3,9.686548E-2,-4.0203717E-1,4.7784443E-3,3.124276E-2,8.884743E-2,-1.0887862E-1,2.5403412E-2,7.986311E-3,-4.8899926E-2,2.955273E-2,-5.0255346E-1,5.4660555E-2,-5.5103373E-2,-7.069577E-2,-1.3312592E-1,1.1744925E-2,-5.141338E-2,-1.1811384E-1,-1.6061746E-2,-1.8363431E-1,-1.1677829E-1,5.5552874E-2,1.7856417E-2,-1.6103156E-2,1.894287E-2,-3.8797714E-2,-1.4346594E-1,-2.3148524E-2,-1.04962505E-1,-1.09910734E-1,-8.089996E-2,2.8719235E-2,-1.5790431E-1,2.2000134E-2,1.12647474E-1,-1.8633577E-1,-1.9839527E-2,2.0853281E-2,-1.198611E-1,-5.3707447E-2,-1.8571247E-1],"categories":[],"categories_nodes":[],"categories_segments":[],"categories_sizes":[],"default_left":[0,0,0,0,0,0,0,0,0,0,0,0,0,0,0,0,0,0,0,0,0,0,0,0,0,0,0,0,0,0,0,0,0,0,0,0,0,0,0,0,0,0,0,0,0,0,0,0,0,0,0,0,0,0,0,0,0,0,0,0,0,0,0,0,0,0,0,0,0,0,0,0,0,0,0,0,0,0,0,0,0,0,0,0,0,0,0,0,0,0,0,0,0,0,0,0,0,0,0,0,0,0,0,0,0,0,0,0,0,0,0,0,0,0,0,0,0],"id":13,"left_children":[1,3,5,7,9,11,13,15,17,19,21,23,25,27,29,31,33,35,37,39,41,-1,43,45,47,49,51,53,55,57,59,61,63,65,67,69,71,73,75,77,79,81,83,85,87,89,91,93,95,97,99,101,103,105,107,109,111,-1,-1,113,115,-1,-1,-1,-1,-1,-1,-1,-1,-1,-1,-1,-1,-1,-1,-1,-1,-1,-1,-1,-1,-1,-1,-1,-1,-1,-1,-1,-1,-1,-1,-1,-1,-1,-1,-1,-1,-1,-1,-1,-1,-1,-1,-1,-1,-1,-1,-1,-1,-1,-1,-1,-1,-1,-1,-1,-1],"loss_changes":[2.1895404E2,1.8823154E1,1.043573E1,2.5691671E0,7.2893763E0,4.2603073E0,3.5516052E0,1.7810919E0,1.0583487E0,4.6327515E0,5.554737E0,7.0321045E0,2.9156609E0,9.754135E0,1.1532459E0,1.4714924E0,1.0583622E0,1.937623E-1,1.1424723E0,5.8967924E0,7.125495E0,0E0,3.4659593E0,4.8060226E0,2.1693993E0,2.5996035E-1,2.073361E0,6.7145996E0,5.8404455E0,1.6242135E-2,6.2148094E-1,1.3960379E0,1.1243362E0,1.085089E0,1.5644448E0,1.8841866E-1,1.8116355E-1,1.6517467E0,2.3467977E-1,1.1358111E1,3.7283974E0,8.1882925E0,6.851365E0,3.9731827E0,4.429666E0,4.2319946E0,1.8439537E0,6.791942E-1,1.5964966E0,2.6806757E-2,3.331126E-1,2.060625E0,7.754209E-1,4.5862885E0,4.941063E-1,4.0353084E-1,4.452501E0,0E0,0E0,2.671981E-1,2.89917E-3,0E0,0E0,0E0,0E0,0E0,0E0,0E0,0E0,0E0,0E0,0E0,0E0,0E0,0E0,0E0,0E0,0E0,0E0,0E0,0E0,0E0,0E0,0E0,0E0,0E0,0E0,0E0,0E0,0E0,0E0,0E0,0E0,0E0,0E0,0E0,0E0,0E0,0E0,0E0,0E0,0E0,0E0,0E0,0E0,0E0,0E0,0E0,0E0,0E0,0E0,0E0,0E0,0E0,0E0,0E0,0E0],"parents":[2147483647,0,0,1,1,2,2,3,3,4,4,5,5,6,6,7,7,8,8,9,9,10,10,11,11,12,12,13,13,14,14,15,15,16,16,17,17,18,18,19,19,20,20,22,22,23,23,24,24,25,25,26,26,27,27,28,28,29,29,30,30,31,31,32,32,33,33,34,34,35,35,36,36,37,37,38,38,39,39,40,40,41,41,42,42,43,43,44,44,45,45,46,46,47,47,48,48,49,49,50,50,51,51,52,52,53,53,54,54,55,55,56,56,59,59,60,60],"right_children":[2,4,6,8,10,12,14,16,18,20,22,24,26,28,30,32,34,36,38,40,42,-1,44,46,48,50,52,54,56,58,60,62,64,66,68,70,72,74,76,78,80,82,84,86,88,90,92,94,96,98,100,102,104,106,108,110,112,-1,-1,114,116,-1,-1,-1,-1,-1,-1,-1,-1,-1,-1,-1,-1,-1,-1,-1,-1,-1,-1,-1,-1,-1,-1,-1,-1,-1,-1,-1,-1,-1,-1,-1,-1,-1,-1,-1,-1,-1,-1,-1,-1,-1,-1,-1,-1,-1,-1,-1,-1,-1,-1,-1,-1,-1,-1,-1,-1],"split_conditions":[2.5672605E-7,2.1643133E-7,9.443344E-7,8.03276E-9,1.9324766E-8,4.696199E-6,1.2316673E-4,2.269685E-8,1.3020886E-7,6.4010734E-9,1.887834E-8,2.1932515E-6,1.9452991E-6,2.3540566E-5,4.2660296E-5,6.9279885E-8,6.512404E-9,3.2965325E-8,1.0417259E-7,8.49898E-9,2.5652474E-8,-5.4042774E-1,5.716739E-9,4.0786163E-6,1.0846146E-6,2.0100176E-6,9.852561E-6,6.840916E-5,5.1491596E-5,2.4127012E-5,7.342252E-5,2.7545505E-8,6.963148E-8,6.0828045E-9,2.716827E-8,2.0384523E-8,1.7039726E-8,5.4870144E-9,2.1525739E-7,3.041353E-8,1.134326E-8,6.4306542E-9,5.923284E-9,9.746174E-9,1.0216676E-8,2.109583E-6,6.020988E-6,6.009719E-6,3.5264763E-6,5.327834E-6,7.801167E-7,3.4380166E-6,1.3303513E-6,1.9121819E-5,2.9769979E-5,1.9641059E-6,1.3064296E-5,-2.3707438E-2,9.438855E-3,2.4127012E-5,1.7599195E-5,-1.282195E-2,3.9927494E-2,1.3561243E-1,-6.6596116E-3,-4.860805E-2,7.8974694E-2,-5.074743E-2,-1.7635493E-1,-3.1864073E-3,-3.4168657E-2,-4.35863E-2,-2.0019548E-2,-3.5255644E-2,-7.464781E-2,-7.5168246E-3,9.686548E-2,-4.0203717E-1,4.7784443E-3,3.124276E-2,8.884743E-2,-1.0887862E-1,2.5403412E-2,7.986311E-3,-4.8899926E-2,2.955273E-2,-5.0255346E-1,5.4660555E-2,-5.5103373E-2,-7.069577E-2,-1.3312592E-1,1.1744925E-2,-5.141338E-2,-1.1811384E-1,-1.6061746E-2,-1.8363431E-1,-1.1677829E-1,5.5552874E-2,1.7856417E-2,-1.6103156E-2,1.894287E-2,-3.8797714E-2,-1.4346594E-1,-2.3148524E-2,-1.04962505E-1,-1.09910734E-1,-8.089996E-2,2.8719235E-2,-1.5790431E-1,2.2000134E-2,1.12647474E-1,-1.8633577E-1,-1.9839527E-2,2.0853281E-2,-1.198611E-1,-5.3707447E-2,-1.8571247E-1],"split_indices":[13,13,3,5,12,7,9,10,13,5,9,5,4,5,5,14,5,6,14,7,8,0,5,8,4,5,8,12,14,4,14,8,14,5,8,10,7,3,13,11,4,5,3,2,7,6,13,10,7,7,3,5,2,8,7,2,4,0,0,4,4,0,0,0,0,0,0,0,0,0,0,0,0,0,0,0,0,0,0,0,0,0,0,0,0,0,0,0,0,0,0,0,0,0,0,0,0,0,0,0,0,0,0,0,0,0,0,0,0,0,0,0,0,0,0,0,0],"split_type":[0,0,0,0,0,0,0,0,0,0,0,0,0,0,0,0,0,0,0,0,0,0,0,0,0,0,0,0,0,0,0,0,0,0,0,0,0,0,0,0,0,0,0,0,0,0,0,0,0,0,0,0,0,0,0,0,0,0,0,0,0,0,0,0,0,0,0,0,0,0,0,0,0,0,0,0,0,0,0,0,0,0,0,0,0,0,0,0,0,0,0,0,0,0,0,0,0,0,0,0,0,0,0,0,0,0,0,0,0,0,0,0,0,0,0,0,0],"sum_hessian":[1.058E4,5.911E3,4.669E3,2.151E3,3.76E3,2.27E3,2.399E3,1.332E3,8.19E2,3.569E3,1.91E2,1.979E3,2.91E2,2.314E3,8.5E1,1.242E3,9E1,2.89E2,5.3E2,1.146E3,2.423E3,1E0,1.9E2,1.805E3,1.74E2,1.2E2,1.71E2,2.191E3,1.23E2,4E0,8.1E1,1.223E3,1.9E1,2.3E1,6.7E1,1.12E2,1.77E2,4.65E2,6.5E1,3.4E1,1.112E3,1.596E3,8.27E2,4E0,1.86E2,1.64E3,1.65E2,2.6E1,1.48E2,1E1,1.1E2,7.1E1,1E2,2.009E3,1.82E2,3.1E1,9.2E1,1E0,3E0,2.1E1,6E1,1.177E3,4.6E1,1E1,9E0,1.4E1,9E0,5.7E1,1E1,9.1E1,2.1E1,3.8E1,1.39E2,3.28E2,1.37E2,6.4E1,1E0,7E0,2.7E1,1E3,1.12E2,4.1E1,1.555E3,5.31E2,2.96E2,2E0,2E0,4.2E1,1.44E2,1.535E3,1.05E2,8E1,8.5E1,8E0,1.8E1,6.5E1,8.3E1,6E0,4E0,7.5E1,3.5E1,3E1,4.1E1,8.9E1,1.1E1,1.056E3,9.53E2,1E0,1.81E2,6E0,2.5E1,1.7E1,7.5E1,1E0,2E1,1E0,5.9E1],"tree_param":{"num_deleted":"0","num_feature":"16","num_nodes":"117","size_leaf_vector":"1"}},{"base_weights":[8.470894E-2,7.747988E-2,1.0725901E-1,9.289126E-2,6.877293E-2,1.7860346E-1,1.0459358E-1,1.0119515E-1,6.821602E-2,7.274247E-2,3.6599822E-2,2.0179185E-1,1.1287125E-1,8.774289E-2,1.1491951E-1,1.4001498E-1,9.424719E-2,4.0754475E-2,1.0201941E-1,6.76091E-2,1.5473902E-1,1.6312897E-2,6.979794E-2,2.0570825E-1,1.5293376E-2,1.2816666E-1,4.0525433E-2,1.043999E-1,7.908795E-2,2.0800933E-1,1.1348808E-1,1.229719E-1,1.9353124E-1,1.1147592E-1,8.05971E-2,5.385271E-2,-2.9876024E-2,1.344888E-1,5.2412592E-2,7.204006E-2,6.393924E-3,2.5715125E-1,1.0820702E-1,-1.46271875E-2,2.988521E-2,9.718253E-2,6.2167984E-2,3.2132342E-2,2.1049649E-1,2.8083446E-3,1.3363887E-1,5.3128125E-3,1.723151E-2,7.8400806E-2,1.2343528E-1,6.4530976E-2,8.743765E-2,3.1391855E-2,6.5647066E-2,1.02288455E-1,1.19938344E-1,1.1253045E-2,4.3244936E-2,7.04777E-2,6.3096527E-3,3.4521203E-2,-2.2164162E-2,2.9583689E-2,1.694688E-2,2.2475295E-2,-1.2609847E-3,-2.6406137E-2,6.1499953E-2,2.2287497E-2,6.0715374E-2,3.9937243E-2,-4.6724947E-3,2.0016883E-2,7.44486E-2,-9.546662E-3,9.793309E-3,8.3632015E-2,1.4518337E-2,3.64019E-2,-1.1673342E-2,-1.8636229E-2,-2.9046324E-3,4.1684274E-2,7.2493665E-3,7.263656E-2,1.7242681E-2,2.649411E-2,6.395611E-2,3.8594129E-3,4.17955E-2,4.0070247E-2,1.9684538E-2,4.248886E-2,2.8025618E-2,4.8707366E-2,1.8892322E-2,7.452755E-2,2.4912141E-2,3.621497E-2,2.8417941E-2,4.7979787E-2,3.5320092E-2],"categories":[],"categories_nodes":[],"categories_segments":[],"categories_sizes":[],"default_left":[0,0,0,0,0,0,0,0,0,0,0,0,0,0,0,0,0,0,0,0,0,0,0,0,0,0,0,0,0,0,0,0,0,0,0,0,0,0,0,0,0,0,0,0,0,0,0,0,0,0,0,0,0,0,0,0,0,0,0,0,0,0,0,0,0,0,0,0,0,0,0,0,0,0,0,0,0,0,0,0,0,0,0,0,0,0,0,0,0,0,0,0,0,0,0,0,0,0,0,0,0,0,0,0,0,0,0],"id":14,"left_children":[1,3,5,7,9,11,13,15,17,19,21,23,25,27,29,31,33,35,37,39,41,43,45,47,-1,49,51,53,55,57,59,61,63,65,67,69,71,73,75,77,79,81,83,85,87,-1,89,-1,91,-1,93,-1,-1,95,97,99,101,-1,-1,103,105,-1,-1,-1,-1,-1,-1,-1,-1,-1,-1,-1,-1,-1,-1,-1,-1,-1,-1,-1,-1,-1,-1,-1,-1,-1,-1,-1,-1,-1,-1,-1,-1,-1,-1,-1,-1,-1,-1,-1,-1,-1,-1,-1,-1,-1,-1],"loss_changes":[1.7165604E0,1.0692444E0,4.6927834E-1,5.854645E-1,6.519928E-1,1.15927935E-1,4.2074013E-1,5.696659E-1,6.744244E-1,1.9097672E0,3.7938195E-1,2.8496265E-2,2.3576498E-2,1.2797976E-1,1.8053436E-1,2.7353954E-1,4.2279434E-1,3.7628865E-1,5.196514E-1,1.1645241E0,1.2493138E0,1.4825198E-1,3.9482975E-1,7.670164E-3,0E0,1.240173E-2,1.2981212E-3,1.4869142E-1,7.044554E-2,1.6953945E-3,9.688568E-2,4.4706774E-1,5.448775E-1,5.4754734E-1,4.4089127E-1,4.1856235E-1,8.920744E-1,7.9012966E-1,7.2092044E-1,3.7339745E0,2.9296714E-1,3.611517E-1,3.6408305E-1,2.4763366E-2,1.4949994E-1,0E0,1.6256595E-1,0E0,8.966923E-4,0E0,1.1926323E-2,0E0,0E0,8.8573396E-2,8.671069E-2,2.510333E-2,2.5898814E-1,0E0,0E0,6.646347E-2,6.520176E-2,0E0,0E0,0E0,0E0,0E0,0E0,0E0,0E0,0E0,0E0,0E0,0E0,0E0,0E0,0E0,0E0,0E0,0E0,0E0,0E0,0E0,0E0,0E0,0E0,0E0,0E0,0E0,0E0,0E0,0E0,0E0,0E0,0E0,0E0,0E0,0E0,0E0,0E0,0E0,0E0,0E0,0E0,0E0,0E0,0E0,0E0],"parents":[2147483647,0,0,1,1,2,2,3,3,4,4,5,5,6,6,7,7,8,8,9,9,10,10,11,11,12,12,13,13,14,14,15,15,16,16,17,17,18,18,19,19,20,20,21,21,22,22,23,23,25,25,26,26,27,27,28,28,29,29,30,30,31,31,32,32,33,33,34,34,35,35,36,36,37,37,38,38,39,39,40,40,41,41,42,42,43,43,44,44,46,46,48,48,50,50,53,53,54,54,55,55,56,56,59,59,60,60],"right_children":[2,4,6,8,10,12,14,16,18,20,22,24,26,28,30,32,34,36,38,40,42,44,46,48,-1,50,52,54,56,58,60,62,64,66,68,70,72,74,76,78,80,82,84,86,88,-1,90,-1,92,-1,94,-1,-1,96,98,100,102,-1,-1,104,106,-1,-1,-1,-1,-1,-1,-1,-1,-1,-1,-1,-1,-1,-1,-1,-1,-1,-1,-1,-1,-1,-1,-1,-1,-1,-1,-1,-1,-1,-1,-1,-1,-1,-1,-1,-1,-1,-1,-1,-1,-1,-1,-1,-1,-1,-1],"split_conditions":[6.442753E-6,2.1629337E-8,1.5552524E-6,5.9844316E-9,4.2773945E-7,3.4380166E-6,1.2346538E-5,9.724572E-9,2.703445E-8,2.4675874E-6,3.5264763E-6,7.24213E-7,1.1438324E-6,2.6110038E-6,1.8289084E-5,5.640838E-9,6.9230035E-9,6.8529755E-9,3.092631E-8,2.1352398E-6,1.5508067E-7,3.7695343E-6,5.4632815E-6,3.0088609E-6,1.5293376E-2,3.6650735E-7,4.256964E-6,8.662538E-6,1.3465186E-5,2.1185224E-6,2.7136197E-5,9.39784E-9,1.1071154E-8,1.04347855E-8,5.0907576E-9,2.1754442E-8,9.867376E-9,3.0158407E-8,9.010521E-9,8.1244315E-7,1.9377417E-6,4.904864E-6,1.4089619E-6,1.7382766E-6,4.1058693E-6,9.718253E-2,1.543622E-6,3.2132342E-2,7.0678952E-6,2.8083446E-3,7.672613E-6,5.3128125E-3,1.723151E-2,2.7538558E-6,1.2186105E-6,5.0274946E-7,1.5276799E-5,3.1391855E-2,6.5647066E-2,3.977187E-6,3.1625957E-5,1.1253045E-2,4.3244936E-2,7.04777E-2,6.3096527E-3,3.4521203E-2,-2.2164162E-2,2.9583689E-2,1.694688E-2,2.2475295E-2,-1.2609847E-3,-2.6406137E-2,6.1499953E-2,2.2287497E-2,6.0715374E-2,3.9937243E-2,-4.6724947E-3,2.0016883E-2,7.44486E-2,-9.546662E-3,9.793309E-3,8.3632015E-2,1.4518337E-2,3.64019E-2,-1.1673342E-2,-1.8636229E-2,-2.9046324E-3,4.1684274E-2,7.2493665E-3,7.263656E-2,1.7242681E-2,2.649411E-2,6.395611E-2,3.8594129E-3,4.17955E-2,4.0070247E-2,1.9684538E-2,4.248886E-2,2.8025618E-2,4.8707366E-2,1.8892322E-2,7.452755E-2,2.4912141E-2,3.621497E-2,2.8417941E-2,4.7979787E-2,3.5320092E-2],"split_indices":[8,10,4,3,3,5,7,4,6,8,7,2,3,4,13,3,5,3,11,13,2,9,12,6,0,3,5,8,9,4,8,7,7,2,3,9,2,11,2,7,9,14,4,8,13,0,5,0,9,0,9,0,0,5,3,3,11,0,0,4,13,0,0,0,0,0,0,0,0,0,0,0,0,0,0,0,0,0,0,0,0,0,0,0,0,0,0,0,0,0,0,0,0,0,0,0,0,0,0,0,0,0,0,0,0,0,0],"split_type":[0,0,0,0,0,0,0,0,0,0,0,0,0,0,0,0,0,0,0,0,0,0,0,0,0,0,0,0,0,0,0,0,0,0,0,0,0,0,0,0,0,0,0,0,0,0,0,0,0,0,0,0,0,0,0,0,0,0,0,0,0,0,0,0,0,0,0,0,0,0,0,0,0,0,0,0,0,0,0,0,0,0,0,0,0,0,0,0,0,0,0,0,0,0,0,0,0,0,0,0,0,0,0,0,0,0,0],"sum_hessian":[1.058E4,8.015E3,2.565E3,2.89E3,5.125E3,9E1,2.475E3,2.16E3,7.3E2,4.561E3,5.64E2,6.5E1,2.5E1,9.44E2,1.531E3,3.25E2,1.835E3,4.04E2,3.26E2,4.294E3,2.67E2,3.51E2,2.13E2,6.3E1,2E0,2E1,5E0,3.19E2,6.25E2,2.1E1,1.51E3,2.49E2,7.6E1,8.08E2,1.027E3,3.41E2,6.3E1,1.96E2,1.3E2,4.004E3,2.9E2,8.2E1,1.85E2,1.07E2,2.44E2,5E0,2.08E2,4E0,5.9E1,1E0,1.9E1,3E0,2E0,1.37E2,1.82E2,2.31E2,3.94E2,3E0,1.8E1,5.58E2,9.52E2,5E1,1.99E2,6.1E1,1.5E1,7.93E2,1.5E1,5.86E2,4.41E2,2.5E2,9.1E1,5.1E1,1.2E1,1.05E2,9.1E1,5.9E1,7.1E1,3.888E3,1.16E2,1.18E2,1.72E2,7.4E1,8E0,1.7E2,1.5E1,9E0,9.8E1,1.1E1,2.33E2,4E0,2.04E2,2E0,5.7E1,1E0,1.8E1,2.4E1,1.13E2,1.11E2,7.1E1,2E0,2.29E2,9E0,3.85E2,1.58E2,4E2,4.6E1,9.06E2],"tree_param":{"num_deleted":"0","num_feature":"16","num_nodes":"107","size_leaf_vector":"1"}},{"base_weights":[-8.5701995E-2,1.7201746E-2,-1.852981E-1,-2.7929056E-2,4.9760677E-2,-1.0766623E-1,-2.1273142E-1,-1.6625218E-2,-1.9920559E-1,5.1450994E-2,-3.7178737E-1,-1.3150427E-1,1.8895082E-1,-4.35712E-1,-2.0638628E-1,-3.3333126E-2,1.8344618E-1,2.0149893E-1,-3.7004432E-1,4.188489E-2,1.6900963E-1,-1.15806155E-1,-4.1913646E-1,-2.2876658E-1,2.0543218E-1,-1.6377178E-1,-5.322432E-1,7.128949E-2,-2.1190146E-1,-2.0786772E-2,-2.677073E-1,-1.9686715E-1,2.778287E-1,2.7775693E-1,-4.2732322E-1,-5.683933E-1,1.5055281E-1,5.602162E-2,-3.4110907E-2,1.8295054E-1,-4.4724542E-1,-1.3267162E-1,6.904368E-2,-7.131753E-1,-2.7883962E-1,2.9023698E-1,1.4178305E-2,-4.4557196E-1,7.793261E-2,2.029422E-1,-5.635224E-1,-3.004896E-1,2.2831966E-1,-1.918865E-1,-2.712619E-1,-1.3088578E-2,1.0245252E-2,-6.599097E-2,-3.9320242E-1,-1.6044089E-1,5.234815E-2,1.3235153E-1,2.8159363E-2,1.2745386E-1,-1.0911176E-1,-1.02080114E-1,-3.330868E-1,-9.588992E-2,1.8299547E-1,1.1298649E-2,4.4988707E-2,-9.538249E-2,6.178184E-3,7.439044E-3,1.04851626E-1,-2.9717833E-2,-7.820747E-2,4.7702473E-2,-1.2021497E-1,-7.8342624E-2,-2.7616167E-1,9.2793435E-2,-1.1173642E-1,9.263038E-2,-1.5381896E-1,-7.2618075E-2,1.1376619E-1,-1.806608E-1,9.8842435E-2,-1.0446081E-1,5.8235686E-2,7.411793E-2,1.0588432E-2,-2.2742148E-1,-1.2478001E-1,4.4651274E-3,-1.7724666E-1,7.973167E-2,-1.4908934E-1,-9.377829E-2,-5.302198E-2,-9.1045775E-2,-5.195379E-2],"categories":[],"categories_nodes":[],"categories_segments":[],"categories_sizes":[],"default_left":[0,0,0,0,0,0,0,0,0,0,0,0,0,0,0,0,0,0,0,0,0,0,0,0,0,0,0,0,0,0,0,0,0,0,0,0,0,0,0,0,0,0,0,0,0,0,0,0,0,0,0,0,0,0,0,0,0,0,0,0,0,0,0,0,0,0,0,0,0,0,0,0,0,0,0,0,0,0,0,0,0,0,0,0,0,0,0,0,0,0,0,0,0,0,0,0,0,0,0,0,0,0,0],"id":15,"left_children":[1,3,5,7,9,11,13,15,17,19,-1,21,23,25,27,29,31,33,35,37,39,41,43,-1,45,47,49,51,53,55,57,59,61,63,-1,65,67,69,71,73,-1,75,77,79,81,83,85,87,89,91,93,95,97,99,101,-1,-1,-1,-1,-1,-1,-1,-1,-1,-1,-1,-1,-1,-1,-1,-1,-1,-1,-1,-1,-1,-1,-1,-1,-1,-1,-1,-1,-1,-1,-1,-1,-1,-1,-1,-1,-1,-1,-1,-1,-1,-1,-1,-1,-1,-1,-1,-1],"loss_changes":[1.0844588E2,7.6496725E0,1.1428482E1,4.22122E0,6.6527734E0,9.966347E0,5.529846E0,6.8521166E0,9.316103E0,3.3902712E0,0E0,5.8303566E0,1.8032756E0,2.7741604E0,5.932541E0,5.5549994E0,5.7260942E0,5.4791737E0,9.895264E0,3.0046692E0,5.525415E0,3.8624897E0,2.565071E0,0E0,1.6826859E0,2.078095E0,1.9540443E0,4.5055285E0,4.4496307E0,2.2552454E0,4.49139E0,4.1091976E0,3.774848E0,3.9286103E0,0E0,8.152035E0,6.0274696E0,4.0594716E0,6.8228636E0,5.944461E0,0E0,4.8495083E0,4.458941E0,1.7280493E0,2.7030153E0,1.2296553E0,3.1785457E0,1.8979559E0,9.0928143E-1,2.086486E-2,1.8956184E0,2.114746E0,1.5989213E0,5.131668E0,2.9595108E0,0E0,0E0,0E0,0E0,0E0,0E0,0E0,0E0,0E0,0E0,0E0,0E0,0E0,0E0,0E0,0E0,0E0,0E0,0E0,0E0,0E0,0E0,0E0,0E0,0E0,0E0,0E0,0E0,0E0,0E0,0E0,0E0,0E0,0E0,0E0,0E0,0E0,0E0,0E0,0E0,0E0,0E0,0E0,0E0,0E0,0E0,0E0,0E0],"parents":[2147483647,0,0,1,1,2,2,3,3,4,4,5,5,6,6,7,7,8,8,9,9,11,11,12,12,13,13,14,14,15,15,16,16,17,17,18,18,19,19,20,20,21,21,22,22,24,24,25,25,26,26,27,27,28,28,29,29,30,30,31,31,32,32,33,33,35,35,36,36,37,37,38,38,39,39,41,41,42,42,43,43,44,44,45,45,46,46,47,47,48,48,49,49,50,50,51,51,52,52,53,53,54,54],"right_children":[2,4,6,8,10,12,14,16,18,20,-1,22,24,26,28,30,32,34,36,38,40,42,44,-1,46,48,50,52,54,56,58,60,62,64,-1,66,68,70,72,74,-1,76,78,80,82,84,86,88,90,92,94,96,98,100,102,-1,-1,-1,-1,-1,-1,-1,-1,-1,-1,-1,-1,-1,-1,-1,-1,-1,-1,-1,-1,-1,-1,-1,-1,-1,-1,-1,-1,-1,-1,-1,-1,-1,-1,-1,-1,-1,-1,-1,-1,-1,-1,-1,-1,-1,-1,-1,-1],"split_conditions":[3.1144324E-8,6.875453E-8,1.2056295E-6,2.2372843E-7,9.633449E-9,8.703183E-7,1.5328162E-6,2.2147566E-7,6.3813657E-9,1.023755E-8,-3.7178737E-1,7.4035256E-8,4.078351E-7,3.4818996E-7,1.679384E-6,2.2024771E-7,2.0323553E-8,2.3291E-7,7.309553E-9,9.820793E-9,8.26213E-9,5.481697E-7,4.6563537E-7,-2.2876658E-1,1.4069557E-6,3.7613688E-8,1.8669351E-7,9.599219E-7,2.4121045E-6,6.727473E-8,1.877107E-8,5.9385408E-9,6.8678356E-9,2.7003654E-8,-4.2732322E-1,9.494584E-9,2.5318766E-8,9.5675246E-9,9.218378E-9,5.8796132E-9,-4.4724542E-1,4.1496193E-7,1.0550011E-6,2.618113E-7,2.8605461E-7,1.538007E-7,1.0566197E-6,8.782969E-8,9.708408E-7,4.8436345E-8,1.3487398E-6,2.6396611E-7,2.6034863E-6,2.4210879E-6,1.1186944E-5,-1.3088578E-2,1.0245252E-2,-6.599097E-2,-3.9320242E-1,-1.6044089E-1,5.234815E-2,1.3235153E-1,2.8159363E-2,1.2745386E-1,-1.0911176E-1,-1.02080114E-1,-3.330868E-1,-9.588992E-2,1.8299547E-1,1.1298649E-2,4.4988707E-2,-9.538249E-2,6.178184E-3,7.439044E-3,1.04851626E-1,-2.9717833E-2,-7.820747E-2,4.7702473E-2,-1.2021497E-1,-7.8342624E-2,-2.7616167E-1,9.2793435E-2,-1.1173642E-1,9.263038E-2,-1.5381896E-1,-7.2618075E-2,1.1376619E-1,-1.806608E-1,9.8842435E-2,-1.0446081E-1,5.8235686E-2,7.411793E-2,1.0588432E-2,-2.2742148E-1,-1.2478001E-1,4.4651274E-3,-1.7724666E-1,7.973167E-2,-1.4908934E-1,-9.377829E-2,-5.302198E-2,-9.1045775E-2,-5.195379E-2],"split_indices":[6,14,13,13,5,9,11,13,5,2,0,3,7,6,13,13,9,13,5,2,5,9,8,0,11,2,5,8,3,14,12,3,5,8,0,2,8,2,7,3,0,13,12,6,6,3,8,3,14,2,12,4,11,9,4,0,0,0,0,0,0,0,0,0,0,0,0,0,0,0,0,0,0,0,0,0,0,0,0,0,0,0,0,0,0,0,0,0,0,0,0,0,0,0,0,0,0,0,0,0,0,0,0],"split_type":[0,0,0,0,0,0,0,0,0,0,0,0,0,0,0,0,0,0,0,0,0,0,0,0,0,0,0,0,0,0,0,0,0,0,0,0,0,0,0,0,0,0,0,0,0,0,0,0,0,0,0,0,0,0,0,0,0,0,0,0,0,0,0,0,0,0,0,0,0,0,0,0,0,0,0,0,0,0,0,0,0,0,0,0,0,0,0,0,0,0,0,0,0,0,0,0,0,0,0,0,0,0,0],"sum_hessian":[1.058E4,5.204E3,5.376E3,2.181E3,3.023E3,1.405E3,3.971E3,2.047E3,1.34E2,3.02E3,3E0,1.301E3,1.04E2,1.08E2,3.863E3,1.89E3,1.57E2,4E1,9.4E1,2.794E3,2.26E2,1.235E3,6.6E1,1E0,1.03E2,2.9E1,7.9E1,7.5E1,3.788E3,1.795E3,9.5E1,3.1E1,1.26E2,3.9E1,1E0,6.8E1,2.6E1,2.356E3,4.38E2,2.25E2,1E0,1.132E3,1.03E2,2E1,4.6E1,7.1E1,3.2E1,1.3E1,1.6E1,3E0,7.6E1,2.2E1,5.3E1,2.836E3,9.52E2,1.268E3,5.27E2,9.2E1,3E0,1.6E1,1.5E1,6.6E1,6E1,3.2E1,7E0,4.9E1,1.9E1,1.3E1,1.3E1,1.972E3,3.84E2,7E1,3.68E2,1.16E2,1.09E2,8.98E2,2.34E2,8.7E1,1.6E1,7E0,1.3E1,6E0,4E1,7E1,1E0,1.9E1,1.3E1,1.1E1,2E0,3E0,1.3E1,2E0,1E0,3.1E1,4.5E1,1.1E1,1.1E1,5.1E1,2E0,3.14E2,2.522E3,7.15E2,2.37E2],"tree_param":{"num_deleted":"0","num_feature":"16","num_nodes":"103","size_leaf_vector":"1"}},{"base_weights":[5.9442554E-2,5.4366797E-2,7.562361E-2,8.113085E-2,5.0952382E-2,1.289257E-1,7.3758386E-2,6.5577485E-2,1.1333337E-1,-6.622547E-2,5.223758E-2,1.3747059E-1,5.9721325E-2,6.110293E-2,8.020508E-2,8.1171304E-2,9.415999E-3,1.4179929E-1,8.33113E-2,-7.8710146E-2,3.823601E-2,9.368964E-2,4.9579736E-2,5.7670318E-2,1.2591009E-1,7.06891E-2,2.07327E-3,8.92336E-2,5.5494163E-2,1.33039E-1,7.901814E-2,7.531333E-2,1.5614359E-1,6.4066164E-2,-1.0352221E-2,-1.8884515E-3,1.5318385E-1,2.0421276E-2,1.1486995E-1,-1.01494685E-1,-4.494761E-2,7.297462E-2,-1.7796671E-2,3.9648503E-2,1.1243528E-1,6.8941355E-2,4.4918787E-2,5.338186E-2,1.3249263E-1,9.7337905E-3,2.53209E-2,1.0014787E-1,3.412748E-2,4.160138E-2,6.15309E-2,2.0124884E-3,1.3666391E-1,7.342044E-2,8.852635E-2,3.6168892E-2,1.941672E-2,5.546686E-2,2.0599324E-2,3.987389E-2,4.263921E-3,5.371789E-2,-4.8134723E-3,3.2489415E-2,-2.881927E-2,4.8677877E-2,5.9643057E-3,4.779843E-2,-2.9492069E-3,2.0670475E-2,4.1248742E-2,-2.0202894E-2,-4.1248325E-2,1.0244991E-3,-2.8061366E-2,-1.4544726E-2,7.5029046E-3,-2.3635952E-2,2.595807E-2,2.0161537E-2,4.1538868E-2,6.8535E-2,1.979671E-2,-6.2404885E-3,1.4197327E-2,1.68297E-3,1.8122662E-2,4.4171907E-2,2.9849492E-2,7.4518966E-3,3.1927828E-2,3.2999723E-3,2.661691E-2,5.0539565E-3,1.3441092E-2,5.9740443E-2,1.7366007E-2,6.660542E-3,4.1864116E-2,2.7665988E-2,2.0364625E-2,2.4647793E-2,2.9023314E-2],"categories":[],"categories_nodes":[],"categories_segments":[],"categories_sizes":[],"default_left":[0,0,0,0,0,0,0,0,0,0,0,0,0,0,0,0,0,0,0,0,0,0,0,0,0,0,0,0,0,0,0,0,0,0,0,0,0,0,0,0,0,0,0,0,0,0,0,0,0,0,0,0,0,0,0,0,0,0,0,0,0,0,0,0,0,0,0,0,0,0,0,0,0,0,0,0,0,0,0,0,0,0,0,0,0,0,0,0,0,0,0,0,0,0,0,0,0,0,0,0,0,0,0,0,0,0,0],"id":16,"left_children":[1,3,5,7,9,11,13,15,17,19,21,23,25,27,29,31,33,35,37,39,41,43,45,-1,47,49,-1,51,53,55,57,59,61,63,65,67,69,71,73,75,77,-1,79,81,83,85,87,89,91,-1,-1,93,95,97,99,-1,101,103,105,-1,-1,-1,-1,-1,-1,-1,-1,-1,-1,-1,-1,-1,-1,-1,-1,-1,-1,-1,-1,-1,-1,-1,-1,-1,-1,-1,-1,-1,-1,-1,-1,-1,-1,-1,-1,-1,-1,-1,-1,-1,-1,-1,-1,-1,-1,-1,-1],"loss_changes":[8.6491776E-1,7.3223686E-1,2.4142647E-1,4.4834852E-1,1.0800724E0,4.14629E-2,1.9425106E-1,5.387113E-1,2.4029517E-1,1.0473469E-1,7.744999E-1,2.2644997E-2,5.882811E-3,1.2568831E-1,9.070301E-2,1.999278E-1,1.4650866E-1,2.4566245E-1,2.8742385E-1,4.9286515E-2,1.07715726E-1,4.2608237E-1,5.968437E-1,0E0,2.3482203E-2,1.9816272E-3,0E0,7.837856E-2,5.5560112E-2,1.4653146E-2,7.764721E-2,2.0737386E-1,7.280344E-2,1.2167105E-1,1.1069923E-1,1.3492635E-1,1.6493893E-1,2.1167651E-1,9.14135E-2,4.1148305E-2,7.081801E-2,0E0,1.1720889E-2,6.2309396E-1,3.615229E-1,5.914707E-1,8.4855556E-1,2.0109694E-3,1.3570905E-2,0E0,0E0,5.07828E-2,2.9327959E-2,1.613003E-2,2.2967374E-1,0E0,7.792175E-3,9.796286E-2,2.2451878E-2,0E0,0E0,0E0,0E0,0E0,0E0,0E0,0E0,0E0,0E0,0E0,0E0,0E0,0E0,0E0,0E0,0E0,0E0,0E0,0E0,0E0,0E0,0E0,0E0,0E0,0E0,0E0,0E0,0E0,0E0,0E0,0E0,0E0,0E0,0E0,0E0,0E0,0E0,0E0,0E0,0E0,0E0,0E0,0E0,0E0,0E0,0E0,0E0],"parents":[2147483647,0,0,1,1,2,2,3,3,4,4,5,5,6,6,7,7,8,8,9,9,10,10,11,11,12,12,13,13,14,14,15,15,16,16,17,17,18,18,19,19,20,20,21,21,22,22,24,24,25,25,27,27,28,28,29,29,30,30,31,31,32,32,33,33,34,34,35,35,36,36,37,37,38,38,39,39,40,40,42,42,43,43,44,44,45,45,46,46,47,47,48,48,51,51,52,52,53,53,54,54,56,56,57,57,58,58],"right_children":[2,4,6,8,10,12,14,16,18,20,22,24,26,28,30,32,34,36,38,40,42,44,46,-1,48,50,-1,52,54,56,58,60,62,64,66,68,70,72,74,76,78,-1,80,82,84,86,88,90,92,-1,-1,94,96,98,100,-1,102,104,106,-1,-1,-1,-1,-1,-1,-1,-1,-1,-1,-1,-1,-1,-1,-1,-1,-1,-1,-1,-1,-1,-1,-1,-1,-1,-1,-1,-1,-1,-1,-1,-1,-1,-1,-1,-1,-1,-1,-1,-1,-1,-1,-1,-1,-1,-1,-1,-1],"split_conditions":[7.96905E-6,1.84934E-7,2.8795569E-6,5.9207345E-8,6.1746626E-8,6.576729E-7,1.569325E-5,1.622885E-7,9.795888E-9,2.7080295E-8,8.669861E-9,9.224042E-6,1.3914686E-5,2.1185224E-6,1.8289084E-5,5.7504757E-8,4.094184E-9,2.7498547E-8,6.762144E-8,2.137241E-8,5.9347167E-9,2.3646798E-8,6.4010734E-9,5.7670318E-2,2.3073572E-7,4.696199E-6,2.07327E-3,7.648927E-7,7.2487383E-6,1.0106523E-5,4.328249E-5,2.4221654E-8,1.3235577E-8,2.9602225E-8,6.617474E-9,4.276278E-9,6.9626536E-9,1.0333493E-7,6.748856E-8,1.166759E-8,4.873143E-9,7.297462E-2,5.3059686E-9,1.04371125E-8,2.1193415E-8,2.8887403E-8,6.4778916E-9,1.4375522E-7,1.8613423E-6,9.7337905E-3,2.53209E-2,7.027266E-6,1.2498493E-5,8.797678E-7,1.10145875E-5,2.0124884E-3,7.0253764E-6,1.6166597E-6,1.9641059E-6,3.6168892E-2,1.941672E-2,5.546686E-2,2.0599324E-2,3.987389E-2,4.263921E-3,5.371789E-2,-4.8134723E-3,3.2489415E-2,-2.881927E-2,4.8677877E-2,5.9643057E-3,4.779843E-2,-2.9492069E-3,2.0670475E-2,4.1248742E-2,-2.0202894E-2,-4.1248325E-2,1.0244991E-3,-2.8061366E-2,-1.4544726E-2,7.5029046E-3,-2.3635952E-2,2.595807E-2,2.0161537E-2,4.1538868E-2,6.8535E-2,1.979671E-2,-6.2404885E-3,1.4197327E-2,1.68297E-3,1.8122662E-2,4.4171907E-2,2.9849492E-2,7.4518966E-3,3.1927828E-2,3.2999723E-3,2.661691E-2,5.0539565E-3,1.3441092E-2,5.9740443E-2,1.7366007E-2,6.660542E-3,4.1864116E-2,2.7665988E-2,2.0364625E-2,2.4647793E-2,2.9023314E-2],"split_indices":[9,13,5,14,14,2,8,13,7,8,7,11,12,4,13,14,3,11,14,10,2,8,5,0,2,7,0,2,7,7,8,11,5,6,5,3,2,13,12,4,3,0,3,4,10,11,5,2,4,0,0,8,9,3,13,0,6,3,2,0,0,0,0,0,0,0,0,0,0,0,0,0,0,0,0,0,0,0,0,0,0,0,0,0,0,0,0,0,0,0,0,0,0,0,0,0,0,0,0,0,0,0,0,0,0,0,0],"split_type":[0,0,0,0,0,0,0,0,0,0,0,0,0,0,0,0,0,0,0,0,0,0,0,0,0,0,0,0,0,0,0,0,0,0,0,0,0,0,0,0,0,0,0,0,0,0,0,0,0,0,0,0,0,0,0,0,0,0,0,0,0,0,0,0,0,0,0,0,0,0,0,0,0,0,0,0,0,0,0,0,0,0,0,0,0,0,0,0,0,0,0,0,0,0,0,0,0,0,0,0,0,0,0,0,0,0,0],"sum_hessian":[1.058E4,8.057E3,2.523E3,9.09E2,7.148E3,8.3E1,2.44E3,6.15E2,2.94E2,7.7E1,7.071E3,7.3E1,1E1,8.27E2,1.613E3,4.81E2,1.34E2,1.49E2,1.45E2,6.9E1,8E0,4.24E2,6.647E3,1E1,6.3E1,8E0,2E0,1.35E2,6.92E2,3.3E1,1.58E3,4.48E2,3.3E1,3.5E1,9.9E1,1.1E1,1.38E2,4.9E1,9.6E1,4E1,2.9E1,1E0,7E0,1.1E2,3.14E2,1.287E3,5.36E3,6E0,5.7E1,3E0,5E0,1.12E2,2.3E1,2.12E2,4.8E2,1E0,3.2E1,1E3,5.8E2,8.3E1,3.65E2,2.4E1,9E0,1.4E1,2.1E1,2E0,9.7E1,5E0,6E0,1.29E2,9E0,8E0,4.1E1,3.3E1,6.3E1,2.2E1,1.8E1,1.5E1,1.4E1,4E0,3E0,3.1E1,7.9E1,1.16E2,1.98E2,2.2E1,1.265E3,1.89E2,5.171E3,1E0,5E0,3.7E1,2E1,9E0,1.03E2,1.7E1,6E0,2.5E1,1.87E2,1.1E1,4.69E2,1E0,3.1E1,2.24E2,7.76E2,3.33E2,2.47E2],"tree_param":{"num_deleted":"0","num_feature":"16","num_nodes":"107","size_leaf_vector":"1"}},{"base_weights":[-6.0335085E-2,9.705336E-3,-1.3262372E-1,-2.6711725E-2,4.0194776E-2,-9.495182E-2,-1.6274665E-1,-2.1508073E-2,-2.3015463E-1,1.9009821E-2,1.1815888E-1,-1.1553354E-1,-1.4512869E-2,-4.224701E-1,-1.5812163E-1,-7.7642123E-3,-8.92532E-2,-5.6859696E-1,5.5331804E-2,3.9620247E-2,-5.8085147E-2,-6.012479E-2,1.9153981E-1,-9.488816E-2,-3.4309202E-1,1.7146057E-1,-8.549831E-2,-2.4146013E-1,-5.802693E-1,-1.3265993E-1,-1.9505627E-1,-2.7706372E-2,8.662423E-2,-1.23894E-2,-2.1881421E-1,-7.096089E-1,4.5487696E-1,