{"learner":{"attributes":{"scikit_learn":"{\"_estimator_type\": \"regressor\"}"},"feature_names":[],"feature_types":[],"gradient_booster":{"model":{"gbtree_model_param":{"num_parallel_tree":"1","num_trees":"200"},"iteration_indptr":[0,2,4,6,8,10,12,14,16,18,20,22,24,26,28,30,32,34,36,38,40,42,44,46,48,50,52,54,56,58,60,62,64,66,68,70,72,74,76,78,80,82,84,86,88,90,92,94,96,98,100,102,104,106,108,110,112,114,116,118,120,122,124,126,128,130,132,134,136,138,140,142,144,146,148,150,152,154,156,158,160,162,164,166,168,170,172,174,176,178,180,182,184,186,188,190,192,194,196,198,200],"tree_info":[0,1,0,1,0,1,0,1,0,1,0,1,0,1,0,1,0,1,0,1,0,1,0,1,0,1,0,1,0,1,0,1,0,1,0,1,0,1,0,1,0,1,0,1,0,1,0,1,0,1,0,1,0,1,0,1,0,1,0,1,0,1,0,1,0,1,0,1,0,1,0,1,0,1,0,1,0,1,0,1,0,1,0,1,0,1,0,1,0,1,0,1,0,1,0,1,0,1,0,1,0,1,0,1,0,1,0,1,0,1,0,1,0,1,0,1,0,1,0,1,0,1,0,1,0,1,0,1,0,1,0,1,0,1,0,1,0,1,0,1,0,1,0,1,0,1,0,1,0,1,0,1,0,1,0,1,0,1,0,1,0,1,0,1,0,1,0,1,0,1,0,1,0,1,0,1,0,1,0,1,0,1,0,1,0,1,0,1,0,1,0,1,0,1,0,1,0,1,0,1],"trees":[{"base_weights":[1.017499E0,9.513347E-1,1.310971E0,9.3917185E-1,1.0438188E0,1.2130402E0,1.430221E0,9.5578974E-1,8.3284754E-1,1.2805053E0,9.845259E-1,3.9332947E-1,1.1784796E0,4.1551858E-1,4.4587734E-1,9.4894123E-1,1.2607632E0,7.504643E-1,8.9728725E-1,4.0060282E-1,3.381021E-1,9.397718E-1,1.0563722E0,3.3448815E-1,3.721422E-1,9.579991E-1,7.754866E-1,3.8282552E-1,1.7571828E-1,2.0096077E-1,7.745711E-1,1.1121502E0,8.3869094E-1,3.0632824E-1,2.712627E-1,3.6290807E-1,3.0733392E-1,2.7534336E-1,3.068775E-1,2.0418526E-1,2.6993898E-1,2.7368444E-1,2.1850364E-1,3.47291E-1,2.67353E-1,2.7807355E-1,2.4475965E-1],"categories":[],"categories_nodes":[],"categories_segments":[],"categories_sizes":[],"default_left":[0,0,0,0,0,0,0,0,0,0,0,0,0,0,0,0,0,0,0,0,0,0,0,0,0,0,0,0,0,0,0,0,0,0,0,0,0,0,0,0,0,0,0,0,0,0,0],"id":0,"left_children":[1,3,5,7,9,11,13,15,17,19,21,-1,23,-1,-1,25,27,29,31,-1,-1,33,35,-1,-1,37,39,-1,-1,-1,41,43,45,-1,-1,-1,-1,-1,-1,-1,-1,-1,-1,-1,-1,-1,-1],"loss_changes":[2.0420801E2,8.736816E0,2.096753E1,1.2710449E1,1.2702881E1,2.0947266E0,1.4550781E-1,1.259668E1,4.8530273E0,1.4486694E-1,1.5795898E0,0E0,1.782959E0,0E0,0E0,9.411133E0,7.212372E-1,3.8067627E-1,6.3569336E0,0E0,0E0,5.285034E-1,2.243042E-1,0E0,0E0,1.507666E1,3.2321625E0,0E0,0E0,0E0,1.5635529E0,1.8455505E-1,1.680603E-1,0E0,0E0,0E0,0E0,0E0,0E0,0E0,0E0,0E0,0E0,0E0,0E0,0E0,0E0],"parents":[2147483647,0,0,1,1,2,2,3,3,4,4,5,5,6,6,7,7,8,8,9,9,10,10,12,12,15,15,16,16,17,17,18,18,21,21,22,22,25,25,26,26,30,30,31,31,32,32],"right_children":[2,4,6,8,10,12,14,16,18,20,22,-1,24,-1,-1,26,28,30,32,-1,-1,34,36,-1,-1,38,40,-1,-1,-1,42,44,46,-1,-1,-1,-1,-1,-1,-1,-1,-1,-1,-1,-1,-1,-1],"split_conditions":[1.4945968E-5,5.9828003E-6,2.5018117E-5,1.4340205E-7,4.5918375E-7,8.553229E-7,3.057667E-5,1.9214183E-6,3.4193547E-6,8.7593014E-7,1.3579958E-5,3.9332947E-1,2.8524048E-5,4.1551858E-1,4.4587734E-1,1.279576E-7,5.9163443E-7,1.6186146E-6,1.0551882E-6,4.0060282E-1,3.381021E-1,2.5022252E-6,6.6780365E-7,3.3448815E-1,3.721422E-1,8.3557815E-8,1.1342032E-6,3.8282552E-1,1.7571828E-1,2.0096077E-1,6.708772E-7,6.875952E-7,3.3822758E-7,3.0632824E-1,2.712627E-1,3.6290807E-1,3.0733392E-1,2.7534336E-1,3.068775E-1,2.0418526E-1,2.6993898E-1,2.7368444E-1,2.1850364E-1,3.47291E-1,2.67353E-1,2.7807355E-1,2.4475965E-1],"split_indices":[8,8,7,2,2,2,6,9,9,3,9,0,9,0,0,3,3,9,4,0,0,4,2,0,0,6,9,0,0,0,4,3,2,0,0,0,0,0,0,0,0,0,0,0,0,0,0],"split_type":[0,0,0,0,0,0,0,0,0,0,0,0,0,0,0,0,0,0,0,0,0,0,0,0,0,0,0,0,0,0,0,0,0,0,0,0,0,0,0,0,0,0,0,0,0,0,0],"sum_hessian":[1.058E4,8.637E3,1.943E3,7.643E3,9.94E2,1.073E3,8.7E2,6.603E3,1.04E3,1.95E2,7.99E2,2.7E2,8.03E2,4.96E2,3.74E2,6.462E3,1.41E2,4.62E2,5.78E2,1.38E2,5.7E1,5.01E2,2.98E2,4.06E2,3.97E2,6.137E3,3.25E2,1.37E2,4E0,1.13E2,3.49E2,1.2E2,4.58E2,1.44E2,3.57E2,4.5E1,2.53E2,3.8E3,2.337E3,1.88E2,1.37E2,8.3E1,2.66E2,9.6E1,2.4E1,8.6E1,3.72E2],"tree_param":{"num_deleted":"0","num_feature":"16","num_nodes":"47","size_leaf_vector":"1"}},{"base_weights":[-1.017499E0,1.2463778E-1,-2.290445E0,3.3498886E-1,-5.833784E-1,-1.8418335E0,-2.6756663E0,4.3975E-1,1.3705382E-1,-3.2778108E-1,-8.2072E-1,-1.4142872E0,-2.0114808E0,-2.4669206E0,-8.412939E-1,4.9487147E-1,3.2286206E-1,2.6202142E-1,4.44441E-2,-1.789182E-1,-4.9832404E-1,-6.582889E-1,-9.2816544E-1,-1.58421E0,-1.2260239E0,-2.1189122E0,-1.731992E0,-2.6705806E0,-2.37885E0,5.0405353E-1,-9.703392E-2,3.556224E-1,7.122516E-3,5.306162E-1,2.2283296E-1,1.1839325E-1,-5.4611705E-2,3.354728E-1,-2.3509206E-1,-1.3931093E-1,-5.558998E-1,4.454047E-1,-6.7251796E-1,-7.523678E-1,-9.6756625E-1,-1.3746431E0,-1.9949622E0,-9.8996496E-1,-1.4362106E0,-1.925385E0,-2.4581718E0,-1.5260586E0,-2.0438223E0,-7.062534E-1,-8.225743E-1,-2.2247598E0,-8.083835E-1,1.7346144E-1,1.355258E-1,6.642726E-2,-2.5941166E-1,1.09627865E-1,-2.5014699E-1,1.5008183E-1,-6.4474136E-2,2.0429476E-1,3.0972721E-2,-9.022896E-2,7.442951E-2,-2.3274499E-1,4.044313E-2,4.15347E-2,-4.832825E-2,5.008182E-2,2.8128165E-1,-3.0667735E-2,-1.3056217E-1,2.5089166E-1,-1.0943111E-1,7.392168E-2,-1.7513587E-1,-1.0919059E-2,1.8544127E-1,1.05441265E-1,-2.0450287E-1,-4.3455872E-1,-2.1434696E-1,-2.6495486E-1,-3.099885E-1,-3.8337496E-1,-5.072923E-1,-4.462315E-1,-6.6029584E-1,-2.728753E-1,-3.223912E-1,-5.054043E-1,-3.6069387E-1,-6.5812826E-1,-4.7710976E-1,-7.038796E-1,-8.0386853E-1,-4.0500772E-1,-4.898507E-1,-6.9966245E-1,-5.701701E-1,-6.1511546E-1,-7.2694016E-1],"categories":[],"categories_nodes":[],"categories_segments":[],"categories_sizes":[],"default_left":[0,0,0,0,0,0,0,0,0,0,0,0,0,0,0,0,0,0,0,0,0,0,0,0,0,0,0,0,0,0,0,0,0,0,0,0,0,0,0,0,0,0,0,0,0,0,0,0,0,0,0,0,0,0,0,0,0,0,0,0,0,0,0,0,0,0,0,0,0,0,0,0,0,0,0,0,0,0,0,0,0,0,0,0,0,0,0,0,0,0,0,0,0,0,0,0,0,0,0,0,0,0,0,0,0,0,0],"id":1,"left_children":[1,3,5,7,9,11,13,15,17,19,21,23,25,27,-1,29,31,33,35,37,39,41,43,45,47,49,51,53,55,57,59,61,63,65,67,69,71,73,75,77,79,81,83,85,87,89,91,93,95,97,99,101,103,-1,-1,105,-1,-1,-1,-1,-1,-1,-1,-1,-1,-1,-1,-1,-1,-1,-1,-1,-1,-1,-1,-1,-1,-1,-1,-1,-1,-1,-1,-1,-1,-1,-1,-1,-1,-1,-1,-1,-1,-1,-1,-1,-1,-1,-1,-1,-1,-1,-1,-1,-1,-1,-1],"loss_changes":[1.5383773E4,8.309379E2,8.5983594E2,8.912482E1,7.725946E1,1.6506738E2,6.532031E1,1.7958069E1,1.7232447E1,1.5574936E1,1.0942535E1,1.9203247E1,4.602295E1,1.2193848E1,0E0,1.0424133E1,9.348213E0,6.555134E0,6.28407E0,9.643222E0,5.854973E0,4.4926605E0,2.0149841E0,2.6869202E1,1.4356232E1,7.346289E1,2.6741577E1,4.0649414E-1,2.9572266E1,7.0298157E0,7.5256042E0,9.855133E0,9.52428E0,5.0706997E0,7.416643E0,7.3126645E0,7.5669336E0,3.1922987E0,7.905487E0,9.323499E0,5.670082E0,3.5539E-1,2.7153625E0,9.9546814E-1,8.6227417E-1,4.9071045E0,8.646271E0,6.385803E-2,7.6218567E0,6.5113525E1,4.3415527E0,3.133728E0,3.0864258E0,0E0,0E0,1.2223633E1,0E0,0E0,0E0,0E0,0E0,0E0,0E0,0E0,0E0,0E0,0E0,0E0,0E0,0E0,0E0,0E0,0E0,0E0,0E0,0E0,0E0,0E0,0E0,0E0,0E0,0E0,0E0,0E0,0E0,0E0,0E0,0E0,0E0,0E0,0E0,0E0,0E0,0E0,0E0,0E0,0E0,0E0,0E0,0E0,0E0,0E0,0E0,0E0,0E0,0E0,0E0],"parents":[2147483647,0,0,1,1,2,2,3,3,4,4,5,5,6,6,7,7,8,8,9,9,10,10,11,11,12,12,13,13,15,15,16,16,17,17,18,18,19,19,20,20,21,21,22,22,23,23,24,24,25,25,26,26,27,27,28,28,29,29,30,30,31,31,32,32,33,33,34,34,35,35,36,36,37,37,38,38,39,39,40,40,41,41,42,42,43,43,44,44,45,45,46,46,47,47,48,48,49,49,50,50,51,51,52,52,55,55],"right_children":[2,4,6,8,10,12,14,16,18,20,22,24,26,28,-1,30,32,34,36,38,40,42,44,46,48,50,52,54,56,58,60,62,64,66,68,70,72,74,76,78,80,82,84,86,88,90,92,94,96,98,100,102,104,-1,-1,106,-1,-1,-1,-1,-1,-1,-1,-1,-1,-1,-1,-1,-1,-1,-1,-1,-1,-1,-1,-1,-1,-1,-1,-1,-1,-1,-1,-1,-1,-1,-1,-1,-1,-1,-1,-1,-1,-1,-1,-1,-1,-1,-1,-1,-1,-1,-1,-1,-1,-1,-1],"split_conditions":[1.5038758E-7,4.607689E-8,5.9515014E-7,3.343446E-8,6.3236335E-8,1.4458317E-7,1.077971E-6,1.6755955E-8,7.578021E-8,5.3168893E-8,8.9831495E-8,4.3738837E-7,6.6851844E-6,9.817439E-6,-8.412939E-1,4.6790316E-8,4.0058936E-8,2.1744539E-8,3.4262634E-8,3.082878E-8,7.907503E-9,1.954254E-8,1.2980402E-8,2.4707816E-7,5.5642108E-8,1.0099031E-6,1.1359292E-6,8.7593014E-7,5.3265207E-6,2.4787811E-8,2.110483E-8,5.5493185E-8,4.6460897E-8,2.944749E-8,3.5839996E-8,2.1809232E-8,3.4954255E-8,2.6675664E-8,6.931692E-8,3.9350212E-8,4.884693E-8,6.279217E-9,4.1582247E-8,2.7166852E-8,1.1288746E-7,1.5709452E-7,4.0739426E-8,4.0739426E-8,9.4161203E-7,1.9214183E-6,8.7593014E-7,3.1146905E-7,1.1132513E-5,-7.062534E-1,-8.225743E-1,1.867559E-6,-8.083835E-1,1.7346144E-1,1.355258E-1,6.642726E-2,-2.5941166E-1,1.09627865E-1,-2.5014699E-1,1.5008183E-1,-6.4474136E-2,2.0429476E-1,3.0972721E-2,-9.022896E-2,7.442951E-2,-2.3274499E-1,4.044313E-2,4.15347E-2,-4.832825E-2,5.008182E-2,2.8128165E-1,-3.0667735E-2,-1.3056217E-1,2.5089166E-1,-1.0943111E-1,7.392168E-2,-1.7513587E-1,-1.0919059E-2,1.8544127E-1,1.05441265E-1,-2.0450287E-1,-4.3455872E-1,-2.1434696E-1,-2.6495486E-1,-3.099885E-1,-3.8337496E-1,-5.072923E-1,-4.462315E-1,-6.6029584E-1,-2.728753E-1,-3.223912E-1,-5.054043E-1,-3.6069387E-1,-6.5812826E-1,-4.7710976E-1,-7.038796E-1,-8.0386853E-1,-4.0500772E-1,-4.898507E-1,-6.9966245E-1,-5.701701E-1,-6.1511546E-1,-7.2694016E-1],"split_indices":[5,7,2,7,7,3,2,3,6,7,5,8,9,9,0,4,4,4,8,9,2,12,2,5,2,4,3,3,4,7,10,14,5,8,5,8,4,3,5,8,5,2,8,12,5,4,2,2,9,9,3,2,9,0,0,3,0,0,0,0,0,0,0,0,0,0,0,0,0,0,0,0,0,0,0,0,0,0,0,0,0,0,0,0,0,0,0,0,0,0,0,0,0,0,0,0,0,0,0,0,0,0,0,0,0,0,0],"split_type":[0,0,0,0,0,0,0,0,0,0,0,0,0,0,0,0,0,0,0,0,0,0,0,0,0,0,0,0,0,0,0,0,0,0,0,0,0,0,0,0,0,0,0,0,0,0,0,0,0,0,0,0,0,0,0,0,0,0,0,0,0,0,0,0,0,0,0,0,0,0,0,0,0,0,0,0,0,0,0,0,0,0,0,0,0,0,0,0,0,0,0,0,0,0,0,0,0,0,0,0,0,0,0,0,0,0,0],"sum_hessian":[1.058E4,5.577E3,5.003E3,4.3E3,1.277E3,2.314E3,2.689E3,2.811E3,1.489E3,6.16E2,6.61E2,6.6E2,1.654E3,1.033E3,1.656E3,1.908E3,9.03E2,6.33E2,8.56E2,3.3E2,2.86E2,2.66E2,3.95E2,3.43E2,3.17E2,1.19E3,4.64E2,3.03E2,7.3E2,1.879E3,2.9E1,8.18E2,8.5E1,7.9E1,5.54E2,4.9E2,3.66E2,3.2E1,2.98E2,4E1,2.46E2,3E0,2.63E2,7.6E1,3.19E2,2.3E2,1.13E2,1.52E2,1.65E2,7.62E2,4.28E2,2.83E2,1.81E2,6.2E1,2.41E2,4.96E2,2.34E2,7.73E2,1.106E3,2.1E1,8E0,8.12E2,6E0,2.6E1,5.9E1,5.8E1,2.1E1,2.5E1,5.29E2,8E0,4.82E2,1.3E2,2.36E2,2.6E1,6E0,1.8E2,1.18E2,7E0,3.3E1,8E0,2.38E2,1E0,2E0,2E0,2.61E2,2E0,7.4E1,1.46E2,1.73E2,1.8E2,5E1,3.5E1,7.8E1,8.4E1,6.8E1,7.7E1,8.8E1,4.2E2,3.42E2,2.92E2,1.36E2,1.12E2,1.71E2,5.5E1,1.26E2,2.7E2,2.26E2],"tree_param":{"num_deleted":"0","num_feature":"16","num_nodes":"107","size_leaf_vector":"1"}},{"base_weights":[7.12948E-1,6.652047E-1,9.1397536E-1,6.3636464E-1,6.825474E-1,8.403728E-1,9.961185E-1,6.043104E-1,6.45037E-1,7.218969E-1,6.4694995E-1,2.8061098E-1,8.1907654E-1,2.8580898E-1,3.1016344E-1,6.086541E-1,4.1590133E-1,6.4558417E-1,7.204804E-2,6.979989E-1,8.1786346E-1,4.555915E-1,6.6856277E-1,2.3263377E-1,2.585506E-1,6.0968447E-1,8.424451E-2,4.3469036E-1,5.1238935E-2,6.465431E-1,4.852787E-1,7.03372E-1,4.399792E-1,9.372808E-1,7.529147E-1,5.195457E-1,3.9158386E-1,8.065493E-1,6.510238E-1,1.8465844E-1,1.5465263E-1,5.5815797E-2,1.3663156E-1,1.9399804E-1,5.308095E-2,6.51747E-2,1.5658687E-1,2.0392205E-1,2.2612505E-1,1.4217569E-1,8.8522926E-2,4.929297E-2,2.8225833E-1,1.9729263E-1,2.7482617E-1,1.3306846E-1,1.9120175E-1,1.0182821E-1,1.3174607E-1,2.1537042E-1,2.7717435E-1,1.7469129E-1,2.1440263E-1],"categories":[],"categories_nodes":[],"categories_segments":[],"categories_sizes":[],"default_left":[0,0,0,0,0,0,0,0,0,0,0,0,0,0,0,0,0,0,0,0,0,0,0,0,0,0,0,0,0,0,0,0,0,0,0,0,0,0,0,0,0,0,0,0,0,0,0,0,0,0,0,0,0,0,0,0,0,0,0,0,0,0,0],"id":2,"left_children":[1,3,5,7,9,11,13,15,17,19,21,-1,23,-1,-1,25,27,29,-1,31,33,35,37,-1,-1,39,-1,41,-1,43,45,47,49,51,53,55,57,59,61,-1,-1,-1,-1,-1,-1,-1,-1,-1,-1,-1,-1,-1,-1,-1,-1,-1,-1,-1,-1,-1,-1,-1,-1],"loss_changes":[1.009458E2,3.8439941E0,1.1424072E1,5.073242E-1,6.9958496E0,1.4107666E0,5.775757E-1,3.222046E-1,4.041748E-1,5.213135E0,1.13046875E1,0E0,9.864502E-1,0E0,0E0,6.0180664E-2,1.325655E-2,7.385254E-2,0E0,2.4992676E0,3.1490479E0,9.754944E-1,5.5734863E0,0E0,0E0,5.7998657E-2,0E0,2.963543E-3,0E0,2.3071289E-2,7.33881E-2,1.8484497E0,7.654858E-2,3.186493E-1,4.481018E0,9.793129E-1,2.1813583E-1,2.2498932E0,9.3862915E0,0E0,0E0,0E0,0E0,0E0,0E0,0E0,0E0,0E0,0E0,0E0,0E0,0E0,0E0,0E0,0E0,0E0,0E0,0E0,0E0,0E0,0E0,0E0,0E0],"parents":[2147483647,0,0,1,1,2,2,3,3,4,4,5,5,6,6,7,7,8,8,9,9,10,10,12,12,15,15,16,16,17,17,19,19,20,20,21,21,22,22,25,25,27,27,29,29,30,30,31,31,32,32,33,33,34,34,35,35,36,36,37,37,38,38],"right_children":[2,4,6,8,10,12,14,16,18,20,22,-1,24,-1,-1,26,28,30,-1,32,34,36,38,-1,-1,40,-1,42,-1,44,46,48,50,52,54,56,58,60,62,-1,-1,-1,-1,-1,-1,-1,-1,-1,-1,-1,-1,-1,-1,-1,-1,-1,-1,-1,-1,-1,-1,-1,-1],"split_conditions":[1.6965436E-5,2.9005086E-8,2.32139E-5,1.7792301E-8,3.289999E-8,7.2589677E-7,3.907232E-5,5.5363664E-8,3.815661E-8,9.745239E-8,4.8156966E-7,2.8061098E-1,2.647102E-5,2.8580898E-1,3.1016344E-1,2.7075265E-8,1.0085292E-8,3.3406355E-8,7.204804E-2,1.17460985E-7,1.1288746E-7,2.4707816E-7,8.3047844E-8,2.3263377E-1,2.585506E-1,3.330906E-8,8.424451E-2,3.900907E-9,5.1238935E-2,5.3612215E-8,3.0743706E-8,4.6868234E-8,8.968529E-8,2.759493E-8,3.193779E-7,2.850533E-7,3.6039498E-7,9.43469E-7,5.5190458E-6,1.8465844E-1,1.5465263E-1,5.5815797E-2,1.3663156E-1,1.9399804E-1,5.308095E-2,6.51747E-2,1.5658687E-1,2.0392205E-1,2.2612505E-1,1.4217569E-1,8.8522926E-2,4.929297E-2,2.8225833E-1,1.9729263E-1,2.7482617E-1,1.3306846E-1,1.9120175E-1,1.0182821E-1,1.3174607E-1,2.1537042E-1,2.7717435E-1,1.7469129E-1,2.1440263E-1],"split_indices":[9,8,7,8,2,2,7,5,10,8,8,0,9,0,0,3,2,3,0,5,5,5,2,0,0,4,0,2,0,12,7,8,11,14,9,8,8,8,9,0,0,0,0,0,0,0,0,0,0,0,0,0,0,0,0,0,0,0,0,0,0,0,0],"split_type":[0,0,0,0,0,0,0,0,0,0,0,0,0,0,0,0,0,0,0,0,0,0,0,0,0,0,0,0,0,0,0,0,0,0,0,0,0,0,0,0,0,0,0,0,0,0,0,0,0,0,0,0,0,0,0,0,0,0,0,0,0,0,0],"sum_hessian":[1.058E4,8.553E3,2.027E3,3.226E3,5.327E3,1.075E3,9.52E2,7.02E2,2.524E3,2.521E3,2.806E3,1.89E2,8.86E2,4.55E2,4.97E2,6.84E2,1.8E1,2.52E3,4E0,2.025E3,4.96E2,2.87E2,2.519E3,4.48E2,4.38E2,6.81E2,3E0,1.6E1,2E0,2.502E3,1.8E1,1.982E3,4.3E1,1.7E2,3.26E2,1.4E2,1.47E2,2.79E2,2.24E3,6.36E2,4.5E1,2E0,1.4E1,2.501E3,1E0,3E0,1.5E1,1.359E3,6.23E2,3.3E1,1E1,1E0,1.69E2,2.09E2,1.17E2,8.8E1,5.2E1,7.4E1,7.3E1,1.63E2,1.16E2,1.082E3,1.158E3],"tree_param":{"num_deleted":"0","num_feature":"16","num_nodes":"63","size_leaf_vector":"1"}},{"base_weights":[-7.135387E-1,9.928039E-2,-1.5930727E0,2.3451114E-1,-3.854919E-1,-1.3091795E0,-1.9097778E0,3.1307897E-1,9.3161374E-2,-1.6033527E-1,-5.142378E-1,-1.028937E0,-1.4837291E0,-1.79689E0,-1.9879004E0,3.2491568E-1,5.8450986E-2,1.7765199E-1,7.3323445E-3,-1.4830482E-1,-5.5659485E-1,-3.4681675E-1,-5.899378E-1,-8.731511E-1,-1.1481575E0,-1.708628E0,-1.3685946E0,-1.9335527E0,-1.7073966E0,-2.0209825E0,-1.8240848E0,3.2718572E-1,-9.372799E-1,-5.1498574E-1,1.4208893E-1,-1.4280165E0,1.857414E-1,1.727107E-2,-6.169337E-1,2.2515605E-1,-1.9617237E-1,5.8863394E-2,-3.8196057E-1,-1.4899784E0,-5.7663625E-1,-1.0093868E0,-7.695863E-1,-1.3814867E0,-8.789993E-1,-1.3813734E0,-1.8792876E0,-1.0664585E0,-1.5311236E0,-1.8194513E0,-6.2528753E-1,-1.4619083E0,-1.841844E0,-1.966436E0,-6.323248E-1,-2.5471425E-1,-1.9062508E0,1.7681496E-1,9.5498376E-2,-3.729872E-1,4.301448E-2,-4.785729E-1,3.6318716E-2,5.8276873E-2,-1.6224155E-1,1.5263678E-1,-6.7296445E-1,-3.2246672E-3,6.594004E-2,-2.1361773E-1,7.817577E-3,-3.60464E-1,-8.311043E-3,2.7744538E-1,2.6925068E-2,-4.9019396E-2,-1.9926287E-1,-5.518434E-2,2.4722596E-1,-6.442652E-2,-1.3330965E-1,-6.0357964E-1,-1.7865907E-1,2.2556752E-2,-1.7688465E-1,-2.700869E-1,-4.0994522E-1,-1.680744E-1,-2.5042525E-1,-3.3302307E-1,-4.76173E-1,-2.1872133E-1,-3.1149364E-1,-4.9435648E-1,-3.2227498E-1,-6.104242E-1,-5.178668E-1,-2.6950252E-1,-3.7299097E-1,-5.257412E-1,-4.05188E-1,-5.595277E-1,-3.8487655E-1,-3.8450113E-1,-4.697693E-1,-5.202641E-1,-6.150688E-1,-5.903985E-1,-1.2472498E-1,-5.1853836E-1,-6.532936E-1],"categories":[],"categories_nodes":[],"categories_segments":[],"categories_sizes":[],"default_left":[0,0,0,0,0,0,0,0,0,0,0,0,0,0,0,0,0,0,0,0,0,0,0,0,0,0,0,0,0,0,0,0,0,0,0,0,0,0,0,0,0,0,0,0,0,0,0,0,0,0,0,0,0,0,0,0,0,0,0,0,0,0,0,0,0,0,0,0,0,0,0,0,0,0,0,0,0,0,0,0,0,0,0,0,0,0,0,0,0,0,0,0,0,0,0,0,0,0,0,0,0,0,0,0,0,0,0,0,0,0,0,0,0,0,0],"id":3,"left_children":[1,3,5,7,9,11,13,15,17,19,21,23,25,27,29,31,33,35,37,39,-1,41,43,45,47,49,51,53,55,57,59,61,63,65,67,69,71,73,75,77,79,81,83,85,87,89,91,93,95,97,99,101,103,105,-1,107,109,111,-1,-1,113,-1,-1,-1,-1,-1,-1,-1,-1,-1,-1,-1,-1,-1,-1,-1,-1,-1,-1,-1,-1,-1,-1,-1,-1,-1,-1,-1,-1,-1,-1,-1,-1,-1,-1,-1,-1,-1,-1,-1,-1,-1,-1,-1,-1,-1,-1,-1,-1,-1,-1,-1,-1,-1,-1],"loss_changes":[7.5645356E3,3.6064908E2,4.544248E2,4.7735764E1,3.470314E1,1.2971484E2,1.759375E1,8.311584E0,1.1151882E1,8.656278E0,9.4655E0,1.8183228E1,4.0412354E1,8.831055E0,3.949707E0,7.8737183E0,6.020346E0,1.0331646E1,4.750823E0,7.8383904E0,0E0,3.4442005E0,5.414139E0,5.600586E0,3.533673E1,2.8400269E1,5.223633E1,2.8295898E0,1.7374634E1,1.359375E0,1.816986E1,5.936798E0,1.8317351E0,1.1186652E1,3.9881508E0,7.456847E0,5.168747E0,4.8445334E0,4.100372E0,4.653911E0,5.8279057E0,3.867683E0,2.2105827E0,2.0698566E0,4.426712E0,6.249756E0,3.092743E0,1.5549805E1,5.763733E0,1.4107269E1,5.1015625E0,1.0388763E1,2.6039185E1,3.1660156E0,0E0,2.1164856E0,5.1691895E0,9.4433594E-1,0E0,0E0,7.189087E0,0E0,0E0,0E0,0E0,0E0,0E0,0E0,0E0,0E0,0E0,0E0,0E0,0E0,0E0,0E0,0E0,0E0,0E0,0E0,0E0,0E0,0E0,0E0,0E0,0E0,0E0,0E0,0E0,0E0,0E0,0E0,0E0,0E0,0E0,0E0,0E0,0E0,0E0,0E0,0E0,0E0,0E0,0E0,0E0,0E0,0E0,0E0,0E0,0E0,0E0,0E0,0E0,0E0,0E0],"parents":[2147483647,0,0,1,1,2,2,3,3,4,4,5,5,6,6,7,7,8,8,9,9,10,10,11,11,12,12,13,13,14,14,15,15,16,16,17,17,18,18,19,19,21,21,22,22,23,23,24,24,25,25,26,26,27,27,28,28,29,29,30,30,31,31,32,32,33,33,34,34,35,35,36,36,37,37,38,38,39,39,40,40,41,41,42,42,43,43,44,44,45,45,46,46,47,47,48,48,49,49,50,50,51,51,52,52,53,53,55,55,56,56,57,57,60,60],"right_children":[2,4,6,8,10,12,14,16,18,20,22,24,26,28,30,32,34,36,38,40,-1,42,44,46,48,50,52,54,56,58,60,62,64,66,68,70,72,74,76,78,80,82,84,86,88,90,92,94,96,98,100,102,104,106,-1,108,110,112,-1,-1,114,-1,-1,-1,-1,-1,-1,-1,-1,-1,-1,-1,-1,-1,-1,-1,-1,-1,-1,-1,-1,-1,-1,-1,-1,-1,-1,-1,-1,-1,-1,-1,-1,-1,-1,-1,-1,-1,-1,-1,-1,-1,-1,-1,-1,-1,-1,-1,-1,-1,-1,-1,-1,-1,-1],"split_conditions":[1.3093025E-7,4.607689E-8,7.2589677E-7,2.6542613E-8,1.04271955E-7,2.3538423E-7,1.2051573E-6,3.6800156E-8,7.861058E-8,9.045357E-8,7.679513E-8,4.706189E-8,3.7243449E-6,1.5149441E-5,1.2449155E-5,3.3406355E-8,6.1454295E-9,4.326288E-8,2.0736985E-8,7.394828E-8,-5.5659485E-1,4.0044398E-8,3.9951004E-8,2.8637731E-7,8.9015253E-7,6.382985E-7,7.4785163E-7,4.7095764E-6,4.4783324E-6,1.7212017E-6,5.690058E-5,1.6823277E-8,4.122579E-8,6.801401E-8,2.8703944E-8,5.91213E-9,1.9235225E-8,8.063805E-9,9.3270366E-8,4.215892E-8,6.358623E-8,3.4280177E-8,4.086752E-8,4.6790316E-8,1.4014382E-8,2.6141456E-7,1.8754595E-7,3.3640788E-7,4.2906612E-7,1.4842033E-6,2.232543E-6,3.2449395E-7,9.040523E-6,1.2909482E-5,-6.2528753E-1,3.3900067E-6,3.1013085E-6,7.6005263E-6,-6.323248E-1,-2.5471425E-1,9.542475E-5,1.7681496E-1,9.5498376E-2,-3.729872E-1,4.301448E-2,-4.785729E-1,3.6318716E-2,5.8276873E-2,-1.6224155E-1,1.5263678E-1,-6.7296445E-1,-3.2246672E-3,6.594004E-2,-2.1361773E-1,7.817577E-3,-3.60464E-1,-8.311043E-3,2.7744538E-1,2.6925068E-2,-4.9019396E-2,-1.9926287E-1,-5.518434E-2,2.4722596E-1,-6.442652E-2,-1.3330965E-1,-6.0357964E-1,-1.7865907E-1,2.2556752E-2,-1.7688465E-1,-2.700869E-1,-4.0994522E-1,-1.680744E-1,-2.5042525E-1,-3.3302307E-1,-4.76173E-1,-2.1872133E-1,-3.1149364E-1,-4.9435648E-1,-3.2227498E-1,-6.104242E-1,-5.178668E-1,-2.6950252E-1,-3.7299097E-1,-5.257412E-1,-4.05188E-1,-5.595277E-1,-3.8487655E-1,-3.8450113E-1,-4.697693E-1,-5.202641E-1,-6.150688E-1,-5.903985E-1,-1.2472498E-1,-5.1853836E-1,-6.532936E-1],"split_indices":[5,7,2,8,6,3,2,7,6,12,5,2,9,9,4,3,2,6,2,6,0,9,8,9,8,4,3,5,4,2,13,7,4,6,12,2,10,14,6,5,14,11,4,4,14,6,5,5,4,9,14,2,9,13,0,4,3,3,0,0,13,0,0,0,0,0,0,0,0,0,0,0,0,0,0,0,0,0,0,0,0,0,0,0,0,0,0,0,0,0,0,0,0,0,0,0,0,0,0,0,0,0,0,0,0,0,0,0,0,0,0,0,0,0,0],"split_type":[0,0,0,0,0,0,0,0,0,0,0,0,0,0,0,0,0,0,0,0,0,0,0,0,0,0,0,0,0,0,0,0,0,0,0,0,0,0,0,0,0,0,0,0,0,0,0,0,0,0,0,0,0,0,0,0,0,0,0,0,0,0,0,0,0,0,0,0,0,0,0,0,0,0,0,0,0,0,0,0,0,0,0,0,0,0,0,0,0,0,0,0,0,0,0,0,0,0,0,0,0,0,0,0,0,0,0,0,0,0,0,0,0,0,0],"sum_hessian":[1.058E4,5.499E3,5.081E3,4.3E3,1.199E3,2.682E3,2.399E3,2.763E3,1.537E3,4.37E2,7.62E2,1.032E3,1.65E3,9.91E2,1.408E3,2.64E3,1.23E2,7.74E2,7.63E2,4.35E2,2E0,2.39E2,5.23E2,4.51E2,5.81E2,5.54E2,1.096E3,3.84E2,6.07E2,1.162E3,2.46E2,2.636E3,4E0,1.5E1,1.08E2,3E0,7.71E2,7.52E2,1.1E1,4.9E1,3.86E2,1.9E1,2.2E2,6E0,5.17E2,1.91E2,2.6E2,3.09E2,2.72E2,1.93E2,3.61E2,3.86E2,7.1E2,2.26E2,1.58E2,2.19E2,3.88E2,7.28E2,4.34E2,2E1,2.26E2,8.4E1,2.552E3,3E0,1E0,5E0,1E1,1.01E2,7E0,1E0,2E0,1.14E2,6.57E2,8E0,7.44E2,5E0,6E0,7E0,4.2E1,3.62E2,2.4E1,1.5E1,4E0,6.1E1,1.59E2,3E0,3E0,1E1,5.07E2,1.49E2,4.2E1,6.4E1,1.96E2,1.36E2,1.73E2,1.43E2,1.29E2,1.01E2,9.2E1,1.73E2,1.88E2,2.01E2,1.85E2,3.15E2,3.95E2,2.06E2,2E1,8.5E1,1.34E2,2.62E2,1.26E2,7.27E2,1E0,1.41E2,8.5E1],"tree_param":{"num_deleted":"0","num_feature":"16","num_nodes":"115","size_leaf_vector":"1"}},{"base_weights":[4.9958152E-1,4.6889532E-1,6.55444E-1,4.603673E-1,5.227833E-1,6.11941E-1,7.1247226E-1,4.7060385E-1,3.882619E-1,6.5186524E-1,4.743518E-1,6.422351E-1,5.765849E-1,2.0766804E-1,2.2835356E-1,4.6449637E-1,6.70559E-1,3.0885237E-1,4.228896E-1,6.9905245E-1,5.2284485E-1,4.2060262E-1,5.0992846E-1,2.0893955E-1,6.166251E-1,1.6256177E-1,1.821097E-1,4.72405E-1,3.6165535E-1,7.2707593E-1,5.270014E-1,2.76517E-1,3.4061483E-1,6.342621E-1,3.9766672E-1,7.534571E-1,6.539089E-1,1.1460711E-1,5.596337E-1,1.163444E-1,4.4641837E-1,5.7241803E-1,4.8990077E-1,1.728566E-1,1.9643153E-1,1.3976078E-1,1.9995424E-1,8.300106E-2,1.2688594E-1,1.9102763E-1,2.3963182E-1,1.2390627E-1,1.8920104E-1,1.3307177E-2,8.3330706E-2,1.3086972E-1,9.70479E-2,1.9472171E-1,9.446273E-2,1.3927338E-1,1.1050922E-1,2.2728227E-1,5.1385343E-2,1.5839505E-1,2.0673838E-1,1.7520496E-1,1.1793458E-1,1.5434071E-1,1.2771289E-1,1.7986697E-1,1.4228645E-1,1.3761282E-1,1.5327412E-1],"categories":[],"categories_nodes":[],"categories_segments":[],"categories_sizes":[],"default_left":[0,0,0,0,0,0,0,0,0,0,0,0,0,0,0,0,0,0,0,0,0,0,0,0,0,0,0,0,0,0,0,0,0,0,0,0,0,0,0,0,0,0,0,0,0,0,0,0,0,0,0,0,0,0,0,0,0,0,0,0,0,0,0,0,0,0,0,0,0,0,0,0,0],"id":4,"left_children":[1,3,5,7,9,11,13,15,17,19,21,23,25,-1,-1,27,29,31,33,35,37,39,41,-1,43,-1,-1,45,47,49,51,53,55,57,59,61,63,-1,65,-1,67,69,71,-1,-1,-1,-1,-1,-1,-1,-1,-1,-1,-1,-1,-1,-1,-1,-1,-1,-1,-1,-1,-1,-1,-1,-1,-1,-1,-1,-1,-1,-1],"loss_changes":[5.0299805E1,3.8237305E0,3.8757935E0,5.4593506E0,7.1989746E0,6.932678E-1,2.0870972E-1,7.8573E0,2.4981537E0,1.6131439E0,1.4625397E0,3.010559E-1,1.6569519E-1,0E0,0E0,5.11084E0,1.2070541E0,2.0776749E-1,3.2825012E0,8.4472656E-2,2.5764465E-1,1.273613E-1,3.74115E-1,0E0,1.8730164E-1,0E0,0E0,7.3355713E0,2.32098E0,3.8498688E-1,4.3667793E-1,3.156948E-2,9.4631195E-2,1.2200546E-1,9.8978424E-1,1.1185837E-1,2.393074E-1,0E0,5.4626465E-2,0E0,5.155945E-2,3.7872314E-2,2.9777527E-2,0E0,0E0,0E0,0E0,0E0,0E0,0E0,0E0,0E0,0E0,0E0,0E0,0E0,0E0,0E0,0E0,0E0,0E0,0E0,0E0,0E0,0E0,0E0,0E0,0E0,0E0,0E0,0E0,0E0,0E0],"parents":[2147483647,0,0,1,1,2,2,3,3,4,4,5,5,6,6,7,7,8,8,9,9,10,10,11,11,12,12,15,15,16,16,17,17,18,18,19,19,20,20,21,21,22,22,24,24,27,27,28,28,29,29,30,30,31,31,32,32,33,33,34,34,35,35,36,36,38,38,40,40,41,41,42,42],"right_children":[2,4,6,8,10,12,14,16,18,20,22,24,26,-1,-1,28,30,32,34,36,38,40,42,-1,44,-1,-1,46,48,50,52,54,56,58,60,62,64,-1,66,-1,68,70,72,-1,-1,-1,-1,-1,-1,-1,-1,-1,-1,-1,-1,-1,-1,-1,-1,-1,-1,-1,-1,-1,-1,-1,-1,-1,-1,-1,-1,-1,-1],"split_conditions":[1.2772618E-5,7.223213E-6,2.0225843E-5,2.957368E-7,5.7967964E-7,1.2787568E-6,1.4117011E-5,1.5219439E-6,2.37217E-6,1.1359292E-6,1.5540438E-5,1.7155074E-6,2.5392796E-5,2.0766804E-1,2.2835356E-1,5.5642108E-8,1.8236774E-7,1.9214183E-6,2.0579E-7,3.1146905E-7,1.1294853E-5,9.456286E-6,3.1363218E-6,2.0893955E-1,2.6264488E-5,1.6256177E-1,1.821097E-1,3.9910762E-7,8.003814E-7,1.5726303E-6,3.0313408E-6,5.0741612E-8,6.00239E-7,7.4785163E-7,1.3297582E-6,3.3900067E-6,7.2554117E-6,1.1460711E-1,3.804521E-6,1.163444E-1,3.931537E-6,1.1455386E-6,1.3302531E-5,1.728566E-1,1.9643153E-1,1.3976078E-1,1.9995424E-1,8.300106E-2,1.2688594E-1,1.9102763E-1,2.3963182E-1,1.2390627E-1,1.8920104E-1,1.3307177E-2,8.3330706E-2,1.3086972E-1,9.70479E-2,1.9472171E-1,9.446273E-2,1.3927338E-1,1.1050922E-1,2.2728227E-1,5.1385343E-2,1.5839505E-1,2.0673838E-1,1.7520496E-1,1.1793458E-1,1.5434071E-1,1.2771289E-1,1.7986697E-1,1.4228645E-1,1.3761282E-1,1.5327412E-1],"split_indices":[7,9,6,3,2,2,4,8,8,3,11,3,8,0,0,2,2,9,2,2,11,9,4,0,8,0,0,8,9,7,9,2,4,3,4,4,8,0,4,0,5,2,8,0,0,0,0,0,0,0,0,0,0,0,0,0,0,0,0,0,0,0,0,0,0,0,0,0,0,0,0,0,0],"split_type":[0,0,0,0,0,0,0,0,0,0,0,0,0,0,0,0,0,0,0,0,0,0,0,0,0,0,0,0,0,0,0,0,0,0,0,0,0,0,0,0,0,0,0,0,0,0,0,0,0,0,0,0,0,0,0,0,0,0,0,0,0,0,0,0,0,0,0,0,0,0,0,0,0],"sum_hessian":[1.058E4,8.843E3,1.737E3,7.643E3,1.2E3,9.92E2,7.45E2,6.688E3,9.55E2,3.24E2,8.76E2,5.25E2,4.67E2,5.37E2,2.08E2,6.493E3,1.95E2,2.93E2,6.62E2,2.34E2,9E1,3.54E2,5.22E2,1.6E2,3.65E2,2.27E2,2.4E2,6.026E3,4.67E2,1.37E2,5.8E1,1.5E2,1.43E2,6.8E1,5.94E2,9.9E1,1.35E2,2.1E1,6.9E1,1.63E2,1.91E2,1.2E2,4.02E2,1.85E2,1.8E2,5.833E3,1.93E2,1.98E2,2.69E2,6.5E1,7.2E1,3E1,2.8E1,1E0,1.49E2,1.8E1,1.25E2,6.4E1,4E0,1.77E2,4.17E2,9.8E1,1E0,3.3E1,1.02E2,5.8E1,1.1E1,3.9E1,1.52E2,9E1,3E1,1.71E2,2.31E2],"tree_param":{"num_deleted":"0","num_feature":"16","num_nodes":"73","size_leaf_vector":"1"}},{"base_weights":[-5.0092953E-1,6.078731E-2,-1.1269798E0,1.8994522E-1,-2.2588444E-1,-8.7074524E-1,-1.2955885E0,2.3514892E-1,1.0918036E-1,-6.279693E-2,-3.6372116E-1,-7.289209E-1,-1.000766E0,-1.1689593E0,-1.3762238E0,3.2327697E-1,2.1250358E-1,2.8085983E-1,8.913918E-2,-1.3255921E-1,1.1452333E-1,-2.6802233E-1,-4.482903E-1,-7.953875E-1,-4.5169201E-1,-1.2245709E0,-8.519907E-1,-1.2673727E0,-1.023814E0,-1.2537857E0,-1.3942788E0,2.9189122E-1,7.604902E-1,-2.4636866E-1,2.1999009E-1,-4.61139E-1,3.043222E-1,7.896896E-2,5.261809E-1,2.614456E-1,-1.5183549E-1,2.1053804E-1,-2.0104404E-1,2.199253E-1,-2.9161307E-1,-1.0564945E0,-4.323505E-1,-6.7035705E-1,-1.0872918E0,-4.3452328E-1,-3.385593E-1,-1.0226142E0,-1.4264644E0,-7.1909696E-1,-9.991633E-1,-1.1659137E0,-1.415035E0,-7.9559684E-1,-1.1856148E0,-1.2107725E0,-1.6012083E0,-1.4490159E0,-1.3288118E0,1.0400736E-1,-9.482579E-3,2.7507833E-1,1.4480615E-1,-6.445572E-1,-1.4382258E-2,-7.52645E-2,6.751323E-2,-2.726249E-1,1.0104231E-1,5.572254E-2,1.1239329E-2,-1.822794E-2,2.1741635E-1,-3.2700486E-2,1.8396546E-1,-4.445446E-1,-4.3262374E-2,7.548179E-2,-1.6973001E-1,-2.0651044E-1,-1.2486945E-2,1.5032783E-1,-4.184045E-2,-4.8437822E-1,-8.2538925E-2,-5.2335326E-2,-3.9933768E-1,-8.906288E-2,-1.4094436E-1,-2.4754916E-1,-1.5628049E-1,-3.7559342E-1,-2.7568287E-1,-1.2001798E-1,-1.6457693E-1,-4.0816364E-1,-2.4455415E-1,-5.1625633E-1,-4.0240076E-1,-1.8168889E-1,-2.5118673E-1,-3.728316E-1,-2.3360156E-1,-3.9821967E-1,-2.8296775E-1,-4.1229436E-1,-5.09334E-1,-1.9828188E-1,-2.608002E-1,-2.3813505E-1,-3.7428382E-1,-4.197104E-1,-3.299556E-1,-1.4162189E-1,-4.8893288E-1,-4.1400108E-1,-4.5601162E-1,-5.577507E-2,-4.0617493E-1],"categories":[],"categories_nodes":[],"categories_segments":[],"categories_sizes":[],"default_left":[0,0,0,0,0,0,0,0,0,0,0,0,0,0,0,0,0,0,0,0,0,0,0,0,0,0,0,0,0,0,0,0,0,0,0,0,0,0,0,0,0,0,0,0,0,0,0,0,0,0,0,0,0,0,0,0,0,0,0,0,0,0,0,0,0,0,0,0,0,0,0,0,0,0,0,0,0,0,0,0,0,0,0,0,0,0,0,0,0,0,0,0,0,0,0,0,0,0,0,0,0,0,0,0,0,0,0,0,0,0,0,0,0,0,0,0,0,0,0,0,0,0,0],"id":5,"left_children":[1,3,5,7,9,11,13,15,17,19,21,23,25,27,29,31,33,35,37,39,41,43,45,47,49,51,53,55,57,59,61,63,65,67,69,-1,71,73,75,77,79,81,83,85,87,89,91,93,95,97,-1,99,101,103,105,107,109,111,113,115,117,119,121,-1,-1,-1,-1,-1,-1,-1,-1,-1,-1,-1,-1,-1,-1,-1,-1,-1,-1,-1,-1,-1,-1,-1,-1,-1,-1,-1,-1,-1,-1,-1,-1,-1,-1,-1,-1,-1,-1,-1,-1,-1,-1,-1,-1,-1,-1,-1,-1,-1,-1,-1,-1,-1,-1,-1,-1,-1,-1,-1,-1],"loss_changes":[3.7210151E3,2.0657352E2,2.1506152E2,1.4015564E1,3.8934036E1,3.5947876E1,2.9186523E1,4.8506927E0,4.7299557E0,9.849543E0,7.479332E0,1.7238037E1,3.34187E1,1.5557861E1,2.3129883E0,6.6665955E0,6.8012238E0,6.610012E0,5.4655685E0,4.3764124E0,6.859628E0,5.163521E0,4.3614655E0,2.733725E1,1.6826553E0,1.5299255E1,1.1505493E1,8.822388E0,1.6854889E1,1.7374268E0,3.7792969E0,8.343021E0,9.9155235E-1,1.1975093E1,4.6565857E0,0E0,5.941304E0,5.364087E0,3.306911E0,3.5852976E0,5.315078E0,5.6577992E0,4.0888987E0,2.1919312E0,8.780201E0,2.6746225E0,2.327179E0,1.2084335E1,5.1984863E0,5.0385666E-1,0E0,1.3541473E1,2.7791443E0,3.945343E0,1.4824097E1,1.3851501E1,8.905029E-1,1.4410706E0,5.811615E0,3.1180115E0,4.7950745E-3,2.0979004E0,2.0894165E1,0E0,0E0,0E0,0E0,0E0,0E0,0E0,0E0,0E0,0E0,0E0,0E0,0E0,0E0,0E0,0E0,0E0,0E0,0E0,0E0,0E0,0E0,0E0,0E0,0E0,0E0,0E0,0E0,0E0,0E0,0E0,0E0,0E0,0E0,0E0,0E0,0E0,0E0,0E0,0E0,0E0,0E0,0E0,0E0,0E0,0E0,0E0,0E0,0E0,0E0,0E0,0E0,0E0,0E0,0E0,0E0,0E0,0E0,0E0,0E0],"parents":[2147483647,0,0,1,1,2,2,3,3,4,4,5,5,6,6,7,7,8,8,9,9,10,10,11,11,12,12,13,13,14,14,15,15,16,16,17,17,18,18,19,19,20,20,21,21,22,22,23,23,24,24,25,25,26,26,27,27,28,28,29,29,30,30,31,31,32,32,33,33,34,34,36,36,37,37,38,38,39,39,40,40,41,41,42,42,43,43,44,44,45,45,46,46,47,47,48,48,49,49,51,51,52,52,53,53,54,54,55,55,56,56,57,57,58,58,59,59,60,60,61,61,62,62],"right_children":[2,4,6,8,10,12,14,16,18,20,22,24,26,28,30,32,34,36,38,40,42,44,46,48,50,52,54,56,58,60,62,64,66,68,70,-1,72,74,76,78,80,82,84,86,88,90,92,94,96,98,-1,100,102,104,106,108,110,112,114,116,118,120,122,-1,-1,-1,-1,-1,-1,-1,-1,-1,-1,-1,-1,-1,-1,-1,-1,-1,-1,-1,-1,-1,-1,-1,-1,-1,-1,-1,-1,-1,-1,-1,-1,-1,-1,-1,-1,-1,-1,-1,-1,-1,-1,-1,-1,-1,-1,-1,-1,-1,-1,-1,-1,-1,-1,-1,-1,-1,-1,-1,-1],"split_conditions":[1.5038758E-7,3.4262634E-8,4.5918375E-7,3.191477E-8,5.3168893E-8,1.2693953E-7,1.867559E-6,3.385047E-8,5.7650182E-9,3.8531248E-8,2.7432549E-8,1.3933942E-6,2.8574455E-6,1.4549913E-5,8.553229E-7,2.3536078E-8,3.417359E-8,1.527506E-8,5.4720687E-8,1.5065325E-8,9.969451E-8,8.0239964E-8,8.429444E-8,1.279576E-7,5.9163443E-7,1.0645243E-6,6.875952E-7,2.669371E-6,8.717625E-7,6.380258E-5,2.5018117E-5,2.8759802E-8,3.1788943E-8,1.4240719E-8,3.871021E-8,-4.61139E-1,6.662892E-9,2.7668259E-8,8.497801E-9,1.1004958E-8,1.524994E-8,6.0126695E-8,4.2211862E-8,3.6190258E-8,1.8569102E-8,2.3109182E-8,5.0629957E-8,3.6039498E-7,6.909145E-7,2.957368E-7,-3.385593E-1,1.1299331E-6,2.047525E-6,2.6966097E-7,6.3648245E-6,5.72393E-6,4.5833963E-6,1.2593148E-6,3.3900067E-6,1.386138E-5,1.0966037E-5,5.2250352E-6,4.4206005E-5,1.0400736E-1,-9.482579E-3,2.7507833E-1,1.4480615E-1,-6.445572E-1,-1.4382258E-2,-7.52645E-2,6.751323E-2,-2.726249E-1,1.0104231E-1,5.572254E-2,1.1239329E-2,-1.822794E-2,2.1741635E-1,-3.2700486E-2,1.8396546E-1,-4.445446E-1,-4.3262374E-2,7.548179E-2,-1.6973001E-1,-2.0651044E-1,-1.2486945E-2,1.5032783E-1,-4.184045E-2,-4.8437822E-1,-8.2538925E-2,-5.2335326E-2,-3.9933768E-1,-8.906288E-2,-1.4094436E-1,-2.4754916E-1,-1.5628049E-1,-3.7559342E-1,-2.7568287E-1,-1.2001798E-1,-1.6457693E-1,-4.0816364E-1,-2.4455415E-1,-5.1625633E-1,-4.0240076E-1,-1.8168889E-1,-2.5118673E-1,-3.728316E-1,-2.3360156E-1,-3.9821967E-1,-2.8296775E-1,-4.1229436E-1,-5.09334E-1,-1.9828188E-1,-2.608002E-1,-2.3813505E-1,-3.7428382E-1,-4.197104E-1,-3.299556E-1,-1.4162189E-1,-4.8893288E-1,-4.1400108E-1,-4.5601162E-1,-5.577507E-2,-4.0617493E-1],"split_indices":[5,8,2,7,7,2,3,5,2,11,3,9,9,9,2,8,5,4,4,12,6,6,6,3,3,5,3,4,2,12,7,4,5,9,6,0,14,4,2,13,12,8,8,4,12,14,4,8,8,3,0,14,11,2,9,8,4,3,4,8,5,4,11,0,0,0,0,0,0,0,0,0,0,0,0,0,0,0,0,0,0,0,0,0,0,0,0,0,0,0,0,0,0,0,0,0,0,0,0,0,0,0,0,0,0,0,0,0,0,0,0,0,0,0,0,0,0,0,0,0,0,0,0],"split_type":[0,0,0,0,0,0,0,0,0,0,0,0,0,0,0,0,0,0,0,0,0,0,0,0,0,0,0,0,0,0,0,0,0,0,0,0,0,0,0,0,0,0,0,0,0,0,0,0,0,0,0,0,0,0,0,0,0,0,0,0,0,0,0,0,0,0,0,0,0,0,0,0,0,0,0,0,0,0,0,0,0,0,0,0,0,0,0,0,0,0,0,0,0,0,0,0,0,0,0,0,0,0,0,0,0,0,0,0,0,0,0,0,0,0,0,0,0,0,0,0,0,0,0],"sum_hessian":[1.058E4,5.577E3,5.003E3,3.845E3,1.732E3,1.988E3,3.015E3,2.464E3,1.381E3,7.94E2,9.38E2,9.54E2,1.034E3,1.179E3,1.836E3,5.01E2,1.963E3,1.43E2,1.238E3,5.7E2,2.24E2,4.42E2,4.96E2,7.68E2,1.86E2,4.1E2,6.24E2,6.98E2,4.81E2,2.45E2,1.591E3,4.69E2,3.2E1,3.1E1,1.932E3,1E0,1.42E2,1.211E3,2.7E1,2.6E1,5.44E2,1.72E2,5.2E1,2E1,4.22E2,1.1E1,4.85E2,5.4E2,2.28E2,1.83E2,3E0,2.08E2,2.02E2,3.31E2,2.93E2,4.19E2,2.79E2,2.02E2,2.79E2,2.22E2,2.3E1,8.55E2,7.36E2,4.01E2,6.8E1,1.9E1,1.3E1,2E0,2.9E1,2E1,1.912E3,3E0,1.39E2,3.38E2,8.73E2,7E0,2E1,1.3E1,1.3E1,2E0,5.42E2,1.64E2,8E0,1.2E1,4E1,1.1E1,9E0,4E0,4.18E2,3E0,8E0,1.07E2,3.78E2,2.63E2,2.77E2,1.12E2,1.16E2,1.44E2,3.9E1,7.7E1,1.31E2,4.1E1,1.61E2,1.72E2,1.59E2,1.37E2,1.56E2,2.4E2,1.79E2,2.49E2,3E1,7.5E1,1.27E2,4E1,2.39E2,7.8E1,1.44E2,1E0,2.2E1,4.44E2,4.11E2,1.6E1,7.2E2],"tree_param":{"num_deleted":"0","num_feature":"16","num_nodes":"123","size_leaf_vector":"1"}},{"base_weights":[3.502343E-1,3.2593033E-1,4.4765276E-1,3.064784E-1,3.3963507E-1,4.056786E-1,4.8453352E-1,3.0732843E-1,7.2138935E-2,3.7566563E-1,3.127712E-1,4.576501E-1,3.821931E-1,1.4114274E-1,1.59438E-1,3.0486962E-1,3.9507082E-1,2.0254587E-1,1.816015E-2,3.610275E-1,4.7776014E-1,2.0172077E-1,3.2814872E-1,1.4418009E-1,1.1689674E-1,3.5612974E-1,1.2009274E-1,3.055178E-1,5.4077704E-2,5.3431643E-3,4.271032E-1,2.8981888E-1,-8.89097E-3,-1.6154071E-2,3.451483E-2,3.710584E-1,2.4296196E-1,5.2961403E-1,3.3625332E-1,2.76312E-1,1.5618119E-1,4.4748685E-1,3.138586E-1,4.6298835E-1,1.04601525E-1,8.208694E-2,9.310253E-2,4.5675483E-2,-2.2363955E-2,6.7091435E-2,-1.733704E-2,1.3772236E-1,3.1834364E-2,1.05314374E-1,2.5104122E-2,-1.4297156E-2,1.0541734E-2,1.0603844E-1,1.3694151E-1,7.899337E-2,8.814695E-3,1.7672089E-1,1.3270006E-1,7.8179866E-2,1.8342237E-1,5.6425165E-2,1.2330634E-1,3.376326E-2,6.489719E-2,1.6461305E-1,1.1899156E-1,5.820095E-2,9.887985E-2,8.491162E-2,1.8226744E-1],"categories":[],"categories_nodes":[],"categories_segments":[],"categories_sizes":[],"default_left":[0,0,0,0,0,0,0,0,0,0,0,0,0,0,0,0,0,0,0,0,0,0,0,0,0,0,0,0,0,0,0,0,0,0,0,0,0,0,0,0,0,0,0,0,0,0,0,0,0,0,0,0,0,0,0,0,0,0,0,0,0,0,0,0,0,0,0,0,0,0,0,0,0,0,0],"id":6,"left_children":[1,3,5,7,9,11,13,15,17,19,21,23,25,-1,-1,27,29,31,33,35,37,39,41,-1,-1,43,-1,45,47,49,51,53,-1,55,-1,57,59,61,63,65,67,69,71,73,-1,-1,-1,-1,-1,-1,-1,-1,-1,-1,-1,-1,-1,-1,-1,-1,-1,-1,-1,-1,-1,-1,-1,-1,-1,-1,-1,-1,-1,-1,-1],"loss_changes":[2.4906128E1,2.154358E0,3.0697937E0,6.773987E-1,4.684387E0,1.0371246E0,4.874878E-1,6.3442993E-1,9.487066E-2,2.9868164E0,4.7973022E0,2.87117E-1,1.832428E-1,0E0,0E0,5.3744507E-1,1.1462355E0,8.964224E-2,3.843E-2,2.1043549E0,1.7443886E0,1.1423483E0,4.1229553E0,0E0,0E0,7.127762E-2,0E0,4.3804932E-1,1.3762525E-1,1.2317751E-1,8.235922E-1,8.489162E-3,0E0,1.6217686E-2,0E0,2.4028015E0,6.3549995E-1,7.2540283E-1,1.3602705E0,1.4796457E0,5.504079E-1,1.1463203E0,4.1545563E0,2.44282E-1,0E0,0E0,0E0,0E0,0E0,0E0,0E0,0E0,0E0,0E0,0E0,0E0,0E0,0E0,0E0,0E0,0E0,0E0,0E0,0E0,0E0,0E0,0E0,0E0,0E0,0E0,0E0,0E0,0E0,0E0,0E0],"parents":[2147483647,0,0,1,1,2,2,3,3,4,4,5,5,6,6,7,7,8,8,9,9,10,10,11,11,12,12,15,15,16,16,17,17,18,18,19,19,20,20,21,21,22,22,25,25,27,27,28,28,29,29,30,30,31,31,33,33,35,35,36,36,37,37,38,38,39,39,40,40,41,41,42,42,43,43],"right_children":[2,4,6,8,10,12,14,16,18,20,22,24,26,-1,-1,28,30,32,34,36,38,40,42,-1,-1,44,-1,46,48,50,52,54,-1,56,-1,58,60,62,64,66,68,70,72,74,-1,-1,-1,-1,-1,-1,-1,-1,-1,-1,-1,-1,-1,-1,-1,-1,-1,-1,-1,-1,-1,-1,-1,-1,-1,-1,-1,-1,-1,-1,-1],"split_conditions":[1.57106E-5,7.957415E-8,2.0544716E-5,6.26857E-8,4.929588E-8,3.804521E-6,2.3427283E-5,4.0044398E-8,2.6880736E-8,1.38554E-7,4.3738837E-7,2.1148269E-6,2.3382396E-5,1.4114274E-1,1.59438E-1,5.431795E-8,9.269667E-9,2.2676511E-8,4.4944745E-8,1.0408219E-7,3.0227852E-8,1.8754595E-7,1.3774324E-7,1.4418009E-1,1.1689674E-1,1.4392004E-5,1.2009274E-1,1.4405838E-8,3.8617323E-8,5.2688904E-8,5.1484065E-8,7.656104E-9,-8.89097E-3,4.937332E-8,3.451483E-2,6.342611E-8,1.4403976E-7,8.9845045E-8,3.9910762E-7,2.1771685E-7,3.308636E-7,4.3295838E-8,1.3933942E-6,8.57108E-6,1.04601525E-1,8.208694E-2,9.310253E-2,4.5675483E-2,-2.2363955E-2,6.7091435E-2,-1.733704E-2,1.3772236E-1,3.1834364E-2,1.05314374E-1,2.5104122E-2,-1.4297156E-2,1.0541734E-2,1.0603844E-1,1.3694151E-1,7.899337E-2,8.814695E-3,1.7672089E-1,1.3270006E-1,7.8179866E-2,1.8342237E-1,5.6425165E-2,1.2330634E-1,3.376326E-2,6.489719E-2,1.6461305E-1,1.1899156E-1,5.820095E-2,9.887985E-2,8.491162E-2,1.8226744E-1],"split_indices":[9,6,7,11,3,4,5,9,4,8,8,3,9,0,0,7,3,3,4,5,2,5,3,0,0,13,0,11,4,6,4,2,0,9,0,9,12,4,8,8,8,2,9,6,0,0,0,0,0,0,0,0,0,0,0,0,0,0,0,0,0,0,0,0,0,0,0,0,0,0,0,0,0,0,0],"split_type":[0,0,0,0,0,0,0,0,0,0,0,0,0,0,0,0,0,0,0,0,0,0,0,0,0,0,0,0,0,0,0,0,0,0,0,0,0,0,0,0,0,0,0,0,0,0,0,0,0,0,0,0,0,0,0,0,0,0,0,0,0,0,0,0,0,0,0,0,0,0,0,0,0,0,0],"sum_hessian":[1.058E4,8.471E3,2.109E3,3.511E3,4.96E3,9.92E2,1.117E3,3.498E3,1.3E1,2.113E3,2.847E3,3.03E2,6.89E2,8.68E2,2.49E2,3.407E3,9.1E1,3E0,1E1,1.852E3,2.61E2,3.48E2,2.499E3,2.22E2,8.1E1,2.91E2,3.98E2,3.398E3,9E0,7E0,8.4E1,2E0,1E0,8E0,2E0,1.705E3,1.47E2,1.89E2,7.2E1,1.3E2,2.18E2,2.64E2,2.235E3,1.5E1,2.76E2,4.54E2,2.944E3,5E0,4E0,1E0,6E0,7.6E1,8E0,1E0,1E0,5E0,3E0,1.418E3,2.87E2,1.34E2,1.3E1,1.09E2,8E1,5.8E1,1.4E1,8E1,5E1,1.28E2,9E1,8.5E1,1.79E2,2.61E2,1.974E3,8E0,7E0],"tree_param":{"num_deleted":"0","num_feature":"16","num_nodes":"75","size_leaf_vector":"1"}},{"base_weights":[-3.517833E-1,4.0170353E-2,-7.963165E-1,1.1484221E-1,-2.1282502E-1,-6.4265865E-1,-9.347511E-1,1.427289E-1,-1.2725684E-2,-3.2294556E-2,-2.7847302E-1,-4.9707887E-1,-7.0425767E-1,-8.393104E-1,-9.6701735E-1,1.4420743E-1,-4.9810976E-1,6.003343E-1,-2.5531217E-2,9.457408E-2,-1.797059E-1,-1.3217614E0,-2.6922888E-1,-6.1705923E-1,-3.664301E-1,-7.9733574E-1,-5.833894E-1,-1.0513982E0,-7.499112E-1,-1.0190175E0,-9.292717E-1,2.0477112E-1,1.20717935E-1,1.1732201E-2,6.835823E-1,-4.8898166E-1,-2.129778E-2,3.996734E-1,4.216996E-2,-9.0779567E-1,-1.4522006E-1,-3.8849324E-1,-5.412071E-1,-1.0588684E-1,-3.0418402E-1,-4.5622048E-1,-8.664313E-1,-2.5218022E-1,-4.7986385E-1,-6.6417E-1,-9.5745564E-1,-4.498451E-1,-7.469632E-1,-9.5561475E-1,-1.1951034E0,-6.4722395E-1,-9.4798595E-1,-9.848096E-1,-1.1393837E0,-8.626928E-1,-1.0326267E0,5.4640897E-2,1.5456715E-1,-1.384272E-1,3.7295286E-2,-7.713084E-2,8.241033E-2,-1.1832539E-2,2.2267006E-1,2.1038462E-1,-8.671768E-3,6.7593336E-2,2.5969923E-1,-2.721345E-3,8.466874E-2,3.2195203E-2,-5.08788E-1,5.051931E-2,-5.2663367E-2,-3.3145042E-3,-1.5318763E-1,2.3164952E-2,-5.70255E-2,-8.9834265E-2,-4.2365125E-1,-1.5818745E-1,-9.059623E-2,-1.6278262E-1,-2.763831E-1,-3.6308013E-2,-8.7003976E-2,-2.263801E-1,-9.408553E-2,-2.5163627E-1,-1.2881581E-1,-2.4831429E-1,-3.121996E-1,-1.1337172E-1,-1.637821E-1,-2.961803E-1,-1.8494597E-1,-2.9820612E-1,-1.7650232E-1,-3.6627126E-1,-1.7846148E-1,-2.4057682E-1,-1.7231323E-1,-2.1243995E-1,-3.1007943E-1,-3.1754383E-1,-2.780076E-1,-3.4313846E-1,-5.7763446E-2,-2.647877E-1,-5.370421E-2,-3.4088722E-1,-2.6859584E-1],"categories":[],"categories_nodes":[],"categories_segments":[],"categories_sizes":[],"default_left":[0,0,0,0,0,0,0,0,0,0,0,0,0,0,0,0,0,0,0,0,0,0,0,0,0,0,0,0,0,0,0,0,0,0,0,0,0,0,0,0,0,0,0,0,0,0,0,0,0,0,0,0,0,0,0,0,0,0,0,0,0,0,0,0,0,0,0,0,0,0,0,0,0,0,0,0,0,0,0,0,0,0,0,0,0,0,0,0,0,0,0,0,0,0,0,0,0,0,0,0,0,0,0,0,0,0,0,0,0,0,0,0,0,0,0,0,0],"id":7,"left_children":[1,3,5,7,9,11,13,15,17,19,21,23,25,27,29,31,-1,33,35,37,39,41,43,45,47,49,51,53,55,57,59,61,63,65,67,-1,69,71,73,75,77,79,-1,81,83,85,87,89,91,93,95,97,99,101,103,105,107,109,111,113,115,-1,-1,-1,-1,-1,-1,-1,-1,-1,-1,-1,-1,-1,-1,-1,-1,-1,-1,-1,-1,-1,-1,-1,-1,-1,-1,-1,-1,-1,-1,-1,-1,-1,-1,-1,-1,-1,-1,-1,-1,-1,-1,-1,-1,-1,-1,-1,-1,-1,-1,-1,-1,-1,-1,-1,-1],"loss_changes":[1.8436277E3,1.06270996E2,1.04863525E2,1.5451794E1,1.5184578E1,2.075061E1,7.213623E0,9.740868E0,6.138765E0,6.4317384E0,8.709793E0,1.079361E1,1.8108887E1,1.1839203E1,2.862915E0,5.0426254E0,0E0,7.759795E-1,5.1612883E0,2.9410114E0,3.860468E0,2.8997889E0,5.2948914E0,1.42444E1,4.272354E0,1.919397E1,1.5435593E1,1.542038E0,8.986816E0,2.1965942E0,6.9262695E0,6.891033E0,5.4407463E0,2.827121E-1,6.22962E-1,0E0,4.2203364E0,1.9987383E0,1.9584026E0,5.7825356E0,1.4846365E0,1.7875105E-1,0E0,2.5738938E0,3.6075592E0,2.2961426E0,2.0220718E0,8.1339264E-1,7.482197E0,2.0589508E1,3.672821E0,2.558899E0,9.518723E0,1.1360321E0,4.197235E-1,3.077942E0,2.53302E0,1.737854E0,4.9813843E-1,9.340515E0,5.2455444E0,0E0,0E0,0E0,0E0,0E0,0E0,0E0,0E0,0E0,0E0,0E0,0E0,0E0,0E0,0E0,0E0,0E0,0E0,0E0,0E0,0E0,0E0,0E0,0E0,0E0,0E0,0E0,0E0,0E0,0E0,0E0,0E0,0E0,0E0,0E0,0E0,0E0,0E0,0E0,0E0,0E0,0E0,0E0,0E0,0E0,0E0,0E0,0E0,0E0,0E0,0E0,0E0,0E0,0E0,0E0,0E0],"parents":[2147483647,0,0,1,1,2,2,3,3,4,4,5,5,6,6,7,7,8,8,9,9,10,10,11,11,12,12,13,13,14,14,15,15,17,17,18,18,19,19,20,20,21,21,22,22,23,23,24,24,25,25,26,26,27,27,28,28,29,29,30,30,31,31,32,32,33,33,34,34,36,36,37,37,38,38,39,39,40,40,41,41,43,43,44,44,45,45,46,46,47,47,48,48,49,49,50,50,51,51,52,52,53,53,54,54,55,55,56,56,57,57,58,58,59,59,60,60],"right_children":[2,4,6,8,10,12,14,16,18,20,22,24,26,28,30,32,-1,34,36,38,40,42,44,46,48,50,52,54,56,58,60,62,64,66,68,-1,70,72,74,76,78,80,-1,82,84,86,88,90,92,94,96,98,100,102,104,106,108,110,112,114,116,-1,-1,-1,-1,-1,-1,-1,-1,-1,-1,-1,-1,-1,-1,-1,-1,-1,-1,-1,-1,-1,-1,-1,-1,-1,-1,-1,-1,-1,-1,-1,-1,-1,-1,-1,-1,-1,-1,-1,-1,-1,-1,-1,-1,-1,-1,-1,-1,-1,-1,-1,-1,-1,-1,-1,-1],"split_conditions":[2.6629584E-8,9.426519E-8,1.200393E-6,3.909607E-8,6.864141E-8,9.057714E-8,8.717625E-7,6.2161675E-8,4.3366146E-9,2.820413E-8,1.1485056E-8,4.8156966E-7,4.751924E-6,6.1445285E-6,2.3620305E-5,2.4985937E-8,-4.9810976E-1,2.8621525E-8,1.4689145E-8,2.989941E-8,4.011021E-8,1.02570645E-8,4.2151143E-8,2.4707816E-7,2.572388E-7,7.952935E-7,2.1080662E-6,3.931537E-6,2.2891106E-6,5.6833296E-6,4.9270795E-5,2.1846441E-8,1.3921955E-8,3.4384E-9,2.5224658E-8,-4.8898166E-1,8.291354E-9,2.7862276E-8,6.601711E-8,2.1698021E-8,9.611097E-8,5.7650182E-9,-5.412071E-1,9.93594E-9,2.2631045E-7,2.850533E-7,6.3762364E-8,3.9015063E-7,8.9015253E-7,1.8290227E-6,1.6117718E-6,2.75114E-6,9.040523E-6,8.439805E-6,2.5062063E-6,1.2882645E-5,3.953226E-6,1.2374505E-5,3.37574E-5,2.3427283E-5,1.4117011E-5,5.4640897E-2,1.5456715E-1,-1.384272E-1,3.7295286E-2,-7.713084E-2,8.241033E-2,-1.1832539E-2,2.2267006E-1,2.1038462E-1,-8.671768E-3,6.7593336E-2,2.5969923E-1,-2.721345E-3,8.466874E-2,3.2195203E-2,-5.08788E-1,5.051931E-2,-5.2663367E-2,-3.3145042E-3,-1.5318763E-1,2.3164952E-2,-5.70255E-2,-8.9834265E-2,-4.2365125E-1,-1.5818745E-1,-9.059623E-2,-1.6278262E-1,-2.763831E-1,-3.6308013E-2,-8.7003976E-2,-2.263801E-1,-9.408553E-2,-2.5163627E-1,-1.2881581E-1,-2.4831429E-1,-3.121996E-1,-1.1337172E-1,-1.637821E-1,-2.961803E-1,-1.8494597E-1,-2.9820612E-1,-1.7650232E-1,-3.6627126E-1,-1.7846148E-1,-2.4057682E-1,-1.7231323E-1,-2.1243995E-1,-3.1007943E-1,-3.1754383E-1,-2.780076E-1,-3.4313846E-1,-5.7763446E-2,-2.647877E-1,-5.370421E-2,-3.4088722E-1,-2.6859584E-1],"split_indices":[2,6,3,7,5,2,2,10,2,12,13,8,9,7,8,7,0,8,10,4,7,2,4,5,4,4,4,5,3,4,14,11,9,2,4,0,3,4,5,3,6,2,0,2,4,8,3,6,8,9,5,5,9,9,3,8,4,8,9,5,4,0,0,0,0,0,0,0,0,0,0,0,0,0,0,0,0,0,0,0,0,0,0,0,0,0,0,0,0,0,0,0,0,0,0,0,0,0,0,0,0,0,0,0,0,0,0,0,0,0,0,0,0,0,0,0,0],"split_type":[0,0,0,0,0,0,0,0,0,0,0,0,0,0,0,0,0,0,0,0,0,0,0,0,0,0,0,0,0,0,0,0,0,0,0,0,0,0,0,0,0,0,0,0,0,0,0,0,0,0,0,0,0,0,0,0,0,0,0,0,0,0,0,0,0,0,0,0,0,0,0,0,0,0,0,0,0,0,0,0,0,0,0,0,0,0,0,0,0,0,0,0,0,0,0,0,0,0,0,0,0,0,0,0,0,0,0,0,0,0,0,0,0,0,0,0,0],"sum_hessian":[1.058E4,5.623E3,4.957E3,4.342E3,1.281E3,2.352E3,2.605E3,3.563E3,7.79E2,3.42E2,9.39E2,7.02E2,1.65E3,6.65E2,1.94E3,3.561E3,2E0,1.5E1,7.64E2,1.84E2,1.58E2,7E0,9.32E2,3.64E2,3.38E2,9.29E2,7.21E2,1.94E2,4.71E2,8.05E2,1.135E3,9.93E2,2.568E3,2E0,1.3E1,1E0,7.63E2,2.6E1,1.58E2,6E0,1.52E2,3E0,4E0,1.65E2,7.67E2,2.23E2,1.41E2,1.7E2,1.68E2,5.1E2,4.19E2,3.99E2,3.22E2,1.21E2,7.3E1,3.13E2,1.58E2,6.34E2,1.71E2,6.96E2,4.39E2,9.27E2,6.6E1,1.5E1,2.553E3,1E0,1E0,1E0,1.2E1,7E0,7.56E2,2E1,6E0,1.31E2,2.7E1,3E0,3E0,1.3E1,1.39E2,1E0,2E0,5.2E1,1.13E2,7.65E2,2E0,1.51E2,7.2E1,2.2E1,1.19E2,3.9E1,1.31E2,6.2E1,1.06E2,2.91E2,2.19E2,1.68E2,2.51E2,2.31E2,1.68E2,1.11E2,2.11E2,1.08E2,1.3E1,6.9E1,4E0,9.7E1,2.16E2,4.4E1,1.14E2,2.72E2,3.62E2,1.7E2,1E0,6.76E2,2E1,2.46E2,1.93E2],"tree_param":{"num_deleted":"0","num_feature":"16","num_nodes":"117","size_leaf_vector":"1"}},{"base_weights":[2.4547064E-1,2.2956042E-1,3.1984854E-1,2.1526429E-1,2.4190105E-1,2.9832816E-1,3.547432E-1,2.1632688E-1,2.8045543E-2,2.8070316E-1,2.2293536E-1,3.268571E-1,2.7864414E-1,1.0323376E-1,1.13801055E-1,2.0226812E-1,2.2758155E-1,9.171905E-2,-5.3478453E-2,2.6243877E-1,3.685003E-1,6.84464E-2,2.3130798E-1,4.631759E-1,3.2004184E-1,2.6081085E-1,2.9719588E-1,2.1677697E-1,1.7714114E-1,3.0615282E-1,2.2485335E-1,6.426731E-2,8.787757E-2,2.7998328E-1,1.362795E-1,4.4669464E-1,3.146983E-1,-1.9997705E-2,7.956358E-2,3.262117E-1,2.2498433E-1,1.4228033E-1,3.7864663E-2,3.4435433E-1,2.959218E-1,2.998956E-2,7.8428544E-2,3.7478536E-2,8.9358404E-2,6.597778E-2,2.2164373E-2,5.5968616E-2,3.296134E-2,9.96485E-2,1.6968621E-2,5.3906683E-2,6.922006E-2,-2.1655874E-3,3.0183548E-2,8.705952E-2,5.949298E-2,5.0074644E-2,4.8313276E-3,1.3634732E-1,9.815518E-3,-2.5905475E-2,9.6118055E-2,-8.988831E-3,2.3906017E-2,3.5956267E-2,8.856282E-3,7.4604735E-2,1.1981989E-1,3.4600817E-2,6.9959834E-2,6.11197E-2,1.04012966E-1,6.609712E-2,9.403008E-2],"categories":[],"categories_nodes":[],"categories_segments":[],"categories_sizes":[],"default_left":[0,0,0,0,0,0,0,0,0,0,0,0,0,0,0,0,0,0,0,0,0,0,0,0,0,0,0,0,0,0,0,0,0,0,0,0,0,0,0,0,0,0,0,0,0,0,0,0,0,0,0,0,0,0,0,0,0,0,0,0,0,0,0,0,0,0,0,0,0,0,0,0,0,0,0,0,0,0,0],"id":8,"left_children":[1,3,5,7,9,11,13,15,17,19,21,23,25,-1,-1,27,29,31,-1,33,35,37,39,41,43,45,47,49,51,53,55,57,-1,59,61,63,65,67,69,71,73,-1,-1,75,77,-1,-1,-1,-1,-1,-1,-1,-1,-1,-1,-1,-1,-1,-1,-1,-1,-1,-1,-1,-1,-1,-1,-1,-1,-1,-1,-1,-1,-1,-1,-1,-1,-1,-1],"loss_changes":[1.2447815E1,1.4863281E0,1.2924347E0,7.994385E-1,3.3755798E0,5.5921173E-1,5.3779602E-2,5.9098816E-1,3.3162102E-1,2.3567352E0,4.049576E0,2.856331E-1,1.5142822E-1,0E0,0E0,6.174469E-1,4.087448E-1,8.612023E-2,0E0,2.7728653E0,9.574585E-1,1.6186076E-1,1.715622E0,1.4890671E-2,1.6081238E-1,9.727478E-3,8.506775E-4,4.9491882E-1,4.003067E-1,4.4860458E-1,5.313797E-1,4.7492474E-2,0E0,8.718567E-1,5.75336E-1,3.2079124E-1,3.88546E-1,2.1261506E-2,2.8881806E-1,9.4473076E-1,2.493454E0,0E0,0E0,1.2454987E-3,2.3807716E-1,0E0,0E0,0E0,0E0,0E0,0E0,0E0,0E0,0E0,0E0,0E0,0E0,0E0,0E0,0E0,0E0,0E0,0E0,0E0,0E0,0E0,0E0,0E0,0E0,0E0,0E0,0E0,0E0,0E0,0E0,0E0,0E0,0E0,0E0],"parents":[2147483647,0,0,1,1,2,2,3,3,4,4,5,5,6,6,7,7,8,8,9,9,10,10,11,11,12,12,15,15,16,16,17,17,19,19,20,20,21,21,22,22,23,23,24,24,25,25,26,26,27,27,28,28,29,29,30,30,31,31,33,33,34,34,35,35,36,36,37,37,38,38,39,39,40,40,43,43,44,44],"right_children":[2,4,6,8,10,12,14,16,18,20,22,24,26,-1,-1,28,30,32,-1,34,36,38,40,42,44,46,48,50,52,54,56,58,-1,60,62,64,66,68,70,72,74,-1,-1,76,78,-1,-1,-1,-1,-1,-1,-1,-1,-1,-1,-1,-1,-1,-1,-1,-1,-1,-1,-1,-1,-1,-1,-1,-1,-1,-1,-1,-1,-1,-1,-1,-1,-1,-1],"split_conditions":[1.1671792E-5,4.3168107E-8,3.0518193E-5,4.604625E-8,1.5038758E-7,1.094936E-6,5.9171048E-6,1.455314E-8,2.5202166E-8,1.13972405E-7,2.5838224E-7,2.141268E-5,1.3804675E-5,1.0323376E-1,1.13801055E-1,1.2325851E-8,1.4810546E-8,7.749629E-8,-5.3478453E-2,6.53982E-8,1.7038891E-8,1.3249208E-7,7.3811435E-8,8.717625E-7,1.94425E-6,1.8125038E-5,2.0001044E-5,4.4944745E-8,2.045616E-8,7.5329595E-8,5.522611E-9,5.098455E-8,8.787757E-2,9.4601035E-8,6.9855375E-8,2.370573E-7,9.7102244E-8,1.279576E-7,1.9992666E-7,3.9910762E-7,6.6253756E-7,1.4228033E-1,3.7864663E-2,1.867366E-5,2.7425065E-5,2.998956E-2,7.8428544E-2,3.7478536E-2,8.9358404E-2,6.597778E-2,2.2164373E-2,5.5968616E-2,3.296134E-2,9.96485E-2,1.6968621E-2,5.3906683E-2,6.922006E-2,-2.1655874E-3,3.0183548E-2,8.705952E-2,5.949298E-2,5.0074644E-2,4.8313276E-3,1.3634732E-1,9.815518E-3,-2.5905475E-2,9.6118055E-2,-8.988831E-3,2.3906017E-2,3.5956267E-2,8.856282E-3,7.4604735E-2,1.1981989E-1,3.4600817E-2,6.9959834E-2,6.11197E-2,1.04012966E-1,6.609712E-2,9.403008E-2],"split_indices":[7,7,7,10,5,2,3,3,3,8,8,11,6,0,0,3,3,5,0,4,2,9,3,2,3,10,14,4,14,6,2,10,0,5,13,13,10,3,12,8,9,0,0,9,10,0,0,0,0,0,0,0,0,0,0,0,0,0,0,0,0,0,0,0,0,0,0,0,0,0,0,0,0,0,0,0,0,0,0],"split_type":[0,0,0,0,0,0,0,0,0,0,0,0,0,0,0,0,0,0,0,0,0,0,0,0,0,0,0,0,0,0,0,0,0,0,0,0,0,0,0,0,0,0,0,0,0,0,0,0,0,0,0,0,0,0,0,0,0,0,0,0,0,0,0,0,0,0,0,0,0,0,0,0,0,0,0,0,0,0,0],"sum_hessian":[1.058E4,8.719E3,1.861E3,4.048E3,4.671E3,1.157E3,7.04E2,4.025E3,2.3E1,1.529E3,3.142E3,4.66E2,6.91E2,5.02E2,2.02E2,1.798E3,2.227E3,1.8E1,5E0,1.269E3,2.6E2,1.62E2,2.98E3,1.9E1,4.47E2,3.6E2,3.31E2,1.135E3,6.63E2,7.1E1,2.156E3,1.7E1,1E0,1.113E3,1.56E2,1.03E2,1.57E2,1.8E1,1.44E2,1.83E2,2.797E3,1.8E1,1E0,2.16E2,2.31E2,2E0,3.58E2,2E0,3.29E2,1.11E3,2.5E1,5.8E2,8.3E1,6.4E1,7E0,2.52E2,1.904E3,6E0,1.1E1,9.87E2,1.26E2,1.24E2,3.2E1,1.01E2,2E0,2E0,1.55E2,1.7E1,1E0,7.9E1,6.5E1,9.1E1,9.2E1,1.96E2,2.601E3,5E0,2.11E2,4.6E1,1.85E2],"tree_param":{"num_deleted":"0","num_feature":"16","num_nodes":"79","size_leaf_vector":"1"}},{"base_weights":[-2.4705032E-1,2.874329E-2,-5.5984104E-1,9.4659075E-2,-1.1365835E-1,-4.678765E-1,-6.75674E-1,1.2717487E-1,4.674402E-2,-7.052116E-2,-2.3729002E-1,-3.674773E-1,-5.232533E-1,-7.9936683E-1,-6.510931E-1,1.5521003E-1,5.9156682E-2,-6.432775E-1,4.983009E-2,-2.8843874E-2,-1.6404499E-1,-6.4323837E-1,-2.1543135E-1,-4.644999E-1,-2.511389E-1,-7.7115864E-1,-4.78251E-1,-7.188669E-1,-8.543506E-1,-5.720381E-1,-7.038035E-1,1.0540936E-1,2.814388E-1,6.521574E-2,-3.929135E-1,-1.2252383E0,1.623249E-1,1.7145407E-1,3.168472E-2,-2.180042E-2,-1.092294E0,3.73321E-1,-1.7575489E-1,-7.387563E-2,-6.9394547E-1,6.204545E-1,-2.2068875E-1,-3.5375738E-1,-7.2093105E-1,-1.661948E-1,-3.8541088E-1,-2.1141902E-1,-7.984374E-1,-1.9160531E-1,-5.0557005E-1,-7.6436496E-1,-4.3044892E-1,-9.483816E-1,-7.918409E-1,-4.919296E-1,-7.5519544E-1,-7.273118E-1,-5.9932905E-1,6.765843E-2,2.082106E-2,1.2767366E-1,6.538454E-2,7.0071616E-3,1.0225084E-1,-4.90446E-1,6.1963234E-2,6.1058056E-2,-1.2030978E-1,-4.495814E-3,3.309098E-2,-3.0257907E-2,1.8311618E-2,-1.1995988E-2,-3.8842744E-1,-9.559012E-2,2.317212E-1,-1.3289475E-1,-4.6083834E-2,-6.191701E-3,-2.7052332E-2,-2.5184304E-1,-1.2198858E-1,-2.361417E-2,3.028187E-1,-8.8194534E-2,-4.6492286E-2,-1.3440168E-1,-6.385349E-2,-1.5413055E-1,-2.5167334E-1,-3.199491E-2,-7.210927E-2,-1.999174E-1,-8.192457E-2,-7.2104074E-2,2.469653E-2,-2.92743E-1,-2.0995128E-1,-8.469019E-2,-4.0601693E-2,-1.8545936E-1,-1.2419357E-1,-1.921798E-1,-2.5481063E-1,-3.4247395E-2,-1.6060977E-1,-6.695495E-2,-2.8647038E-1,-4.2081952E-2,-2.4025661E-1,5.2590862E-2,-1.5163073E-1,-2.3036334E-1,-9.55118E-2,-2.0868309E-1,-2.521337E-1,-8.051244E-2,-2.4298662E-1],"categories":[],"categories_nodes":[],"categories_segments":[],"categories_sizes":[],"default_left":[0,0,0,0,0,0,0,0,0,0,0,0,0,0,0,0,0,0,0,0,0,0,0,0,0,0,0,0,0,0,0,0,0,0,0,0,0,0,0,0,0,0,0,0,0,0,0,0,0,0,0,0,0,0,0,0,0,0,0,0,0,0,0,0,0,0,0,0,0,0,0,0,0,0,0,0,0,0,0,0,0,0,0,0,0,0,0,0,0,0,0,0,0,0,0,0,0,0,0,0,0,0,0,0,0,0,0,0,0,0,0,0,0,0,0,0,0,0,0,0,0,0,0],"id":9,"left_children":[1,3,5,7,9,11,13,15,17,19,21,23,25,27,29,31,33,35,37,39,41,43,45,47,49,51,53,55,57,59,61,63,65,67,-1,69,-1,71,73,75,77,79,81,83,85,87,89,91,93,95,97,99,101,103,105,107,109,111,113,115,117,119,121,-1,-1,-1,-1,-1,-1,-1,-1,-1,-1,-1,-1,-1,-1,-1,-1,-1,-1,-1,-1,-1,-1,-1,-1,-1,-1,-1,-1,-1,-1,-1,-1,-1,-1,-1,-1,-1,-1,-1,-1,-1,-1,-1,-1,-1,-1,-1,-1,-1,-1,-1,-1,-1,-1,-1,-1,-1,-1,-1,-1],"loss_changes":[9.127931E2,5.280052E1,5.2499023E1,5.9845467E0,9.476223E0,1.519165E1,6.144287E0,4.3576202E0,3.3454845E0,5.1442885E0,3.9432354E0,1.1024063E1,1.950061E1,9.7483826E-1,7.239746E0,1.0160389E1,5.6424246E0,5.4877157E0,3.4152815E0,6.8298697E0,2.6266603E0,6.127615E-1,2.0617561E0,1.4994591E1,5.0798798E0,3.9843597E0,1.1727783E1,1.6655884E0,4.7161865E-1,1.0471451E1,2.2558594E0,5.0186176E0,4.098633E0,7.698798E0,0E0,3.2698207E0,0E0,3.7722282E0,4.955056E0,5.96593E0,1.2265534E0,2.73144E0,2.2928286E0,7.419698E-4,5.367298E-1,8.952596E-1,2.0543957E0,4.911484E0,3.5040054E0,1.2021313E0,5.309849E0,1.3874793E-1,3.8467102E0,6.405053E-1,1.39591675E1,8.2357025E-1,7.021222E-1,1.556778E-1,6.5709686E-1,4.747673E0,9.90921E-1,2.6073914E0,1.421212E1,0E0,0E0,0E0,0E0,0E0,0E0,0E0,0E0,0E0,0E0,0E0,0E0,0E0,0E0,0E0,0E0,0E0,0E0,0E0,0E0,0E0,0E0,0E0,0E0,0E0,0E0,0E0,0E0,0E0,0E0,0E0,0E0,0E0,0E0,0E0,0E0,0E0,0E0,0E0,0E0,0E0,0E0,0E0,0E0,0E0,0E0,0E0,0E0,0E0,0E0,0E0,0E0,0E0,0E0,0E0,0E0,0E0,0E0,0E0,0E0],"parents":[2147483647,0,0,1,1,2,2,3,3,4,4,5,5,6,6,7,7,8,8,9,9,10,10,11,11,12,12,13,13,14,14,15,15,16,16,17,17,18,18,19,19,20,20,21,21,22,22,23,23,24,24,25,25,26,26,27,27,28,28,29,29,30,30,31,31,32,32,33,33,35,35,37,37,38,38,39,39,40,40,41,41,42,42,43,43,44,44,45,45,46,46,47,47,48,48,49,49,50,50,51,51,52,52,53,53,54,54,55,55,56,56,57,57,58,58,59,59,60,60,61,61,62,62],"right_children":[2,4,6,8,10,12,14,16,18,20,22,24,26,28,30,32,34,36,38,40,42,44,46,48,50,52,54,56,58,60,62,64,66,68,-1,70,-1,72,74,76,78,80,82,84,86,88,90,92,94,96,98,100,102,104,106,108,110,112,114,116,118,120,122,-1,-1,-1,-1,-1,-1,-1,-1,-1,-1,-1,-1,-1,-1,-1,-1,-1,-1,-1,-1,-1,-1,-1,-1,-1,-1,-1,-1,-1,-1,-1,-1,-1,-1,-1,-1,-1,-1,-1,-1,-1,-1,-1,-1,-1,-1,-1,-1,-1,-1,-1,-1,-1,-1,-1,-1,-1,-1,-1,-1],"split_conditions":[4.929588E-8,3.4262634E-8,3.3900067E-6,6.757915E-8,9.4601035E-8,5.5907736E-7,1.6965436E-5,1.6755955E-8,2.6430973E-8,1.09266374E-7,4.8101093E-8,6.909145E-7,2.5261465E-6,5.272372E-6,2.5762502E-6,1.3808563E-8,5.4289114E-8,1.3016668E-8,5.833792E-9,8.3578385E-8,4.0567286E-8,3.6868954E-8,4.907715E-8,3.3640788E-7,7.0730823E-7,6.639398E-7,1.4711252E-6,1.1959173E-5,7.930657E-6,1.5055859E-6,1.4117011E-5,8.80404E-9,1.8315312E-8,2.079713E-8,-3.929135E-1,1.0729213E-8,1.623249E-1,4.744576E-8,1.9817918E-8,3.47724E-8,5.18471E-9,3.6003694E-8,4.8309253E-8,1.0167588E-8,4.5622556E-8,1.0649106E-8,1.4087445E-7,3.308636E-7,2.3984853E-7,7.559741E-7,1.3933942E-6,1.2568408E-6,1.3701947E-6,2.7186186E-6,7.223213E-6,3.804521E-6,6.347106E-6,7.773401E-6,1.016297E-5,1.4392004E-5,2.6035354E-6,7.0986745E-5,1.175385E-4,6.765843E-2,2.082106E-2,1.2767366E-1,6.538454E-2,7.0071616E-3,1.0225084E-1,-4.90446E-1,6.1963234E-2,6.1058056E-2,-1.2030978E-1,-4.495814E-3,3.309098E-2,-3.0257907E-2,1.8311618E-2,-1.1995988E-2,-3.8842744E-1,-9.559012E-2,2.317212E-1,-1.3289475E-1,-4.6083834E-2,-6.191701E-3,-2.7052332E-2,-2.5184304E-1,-1.2198858E-1,-2.361417E-2,3.028187E-1,-8.8194534E-2,-4.6492286E-2,-1.3440168E-1,-6.385349E-2,-1.5413055E-1,-2.5167334E-1,-3.199491E-2,-7.210927E-2,-1.999174E-1,-8.192457E-2,-7.2104074E-2,2.469653E-2,-2.92743E-1,-2.0995128E-1,-8.469019E-2,-4.0601693E-2,-1.8545936E-1,-1.2419357E-1,-1.921798E-1,-2.5481063E-1,-3.4247395E-2,-1.6060977E-1,-6.695495E-2,-2.8647038E-1,-4.2081952E-2,-2.4025661E-1,5.2590862E-2,-1.5163073E-1,-2.3036334E-1,-9.55118E-2,-2.0868309E-1,-2.521337E-1,-8.051244E-2,-2.4298662E-1],"split_indices":[3,8,4,6,5,4,9,3,5,6,8,8,9,5,3,3,13,12,2,12,7,8,8,5,5,5,5,8,7,2,4,3,8,12,0,2,0,4,3,11,2,7,7,2,8,2,9,8,4,6,9,6,8,8,9,4,6,9,9,13,2,12,10,0,0,0,0,0,0,0,0,0,0,0,0,0,0,0,0,0,0,0,0,0,0,0,0,0,0,0,0,0,0,0,0,0,0,0,0,0,0,0,0,0,0,0,0,0,0,0,0,0,0,0,0,0,0,0,0,0,0,0,0],"split_type":[0,0,0,0,0,0,0,0,0,0,0,0,0,0,0,0,0,0,0,0,0,0,0,0,0,0,0,0,0,0,0,0,0,0,0,0,0,0,0,0,0,0,0,0,0,0,0,0,0,0,0,0,0,0,0,0,0,0,0,0,0,0,0,0,0,0,0,0,0,0,0,0,0,0,0,0,0,0,0,0,0,0,0,0,0,0,0,0,0,0,0,0,0,0,0,0,0,0,0,0,0,0,0,0,0,0,0,0,0,0,0,0,0,0,0,0,0,0,0,0,0,0,0],"sum_hessian":[1.058E4,5.623E3,4.957E3,3.844E3,1.779E3,2.766E3,2.191E3,2.289E3,1.555E3,1.32E3,4.59E2,9.86E2,1.78E3,3.58E2,1.833E3,1.62E3,6.69E2,6E0,1.549E3,9.14E2,4.06E2,2.2E1,4.37E2,5.36E2,4.5E2,2.71E2,1.509E3,1.51E2,2.07E2,7.38E2,1.095E3,1.163E3,4.57E2,6.67E2,2E0,4E0,2E0,2E2,1.349E3,9.09E2,5E0,8E0,3.98E2,2E0,2E1,2E0,4.35E2,3.76E2,1.6E2,2.77E2,1.73E2,1.3E1,2.58E2,1.32E2,1.377E3,1.29E2,2.2E1,7.7E1,1.3E2,5.16E2,2.22E2,8.89E2,2.06E2,2.67E2,8.96E2,1.38E2,3.19E2,5.8E2,8.7E1,3E0,1E0,1.9E2,1E1,8.47E2,5.02E2,4.65E2,4.44E2,1E0,4E0,3E0,5E0,2.9E1,3.69E2,1E0,1E0,1.2E1,8E0,1E0,1E0,2.04E2,2.31E2,2.24E2,1.52E2,6E1,1E2,1.55E2,1.22E2,4.8E1,1.25E2,1.2E1,1E0,8.9E1,1.69E2,4.9E1,8.3E1,6.15E2,7.62E2,5.6E1,7.3E1,6E0,1.6E1,1E0,7.6E1,2E0,1.28E2,1E1,5.06E2,2.15E2,7E0,7E2,1.89E2,8.1E1,1.25E2],"tree_param":{"num_deleted":"0","num_feature":"16","num_nodes":"123","size_leaf_vector":"1"}},{"base_weights":[1.7203864E-1,1.5792795E-1,2.1801952E-1,1.6318059E-1,1.03779316E-1,3.6159545E-1,2.1461685E-1,1.5769048E-1,2.720539E-1,7.9074204E-2,1.3399316E-1,3.1411387E-2,1.0930875E-1,1.9315797E-1,2.3956901E-1,1.6316731E-1,7.345666E-2,3.4914E-1,1.8410686E-1,5.232513E-2,9.215147E-2,2.262301E-1,1.1200672E-1,2.604611E-1,1.8316427E-1,3.1309325E-1,2.365504E-1,1.5896851E-1,2.7097297E-1,3.1200137E-2,1.0480888E-1,3.5223132E-1,1.2638117E-2,1.2172964E-1,2.1794707E-1,2.013808E-2,5.8523122E-2,1.3918446E-1,7.497146E-2,3.3394718E-1,1.900995E-1,8.87269E-2,1.3075897E-1,2.756097E-1,1.754159E-1,1.5173899E-1,1.9014971E-1,4.89196E-2,9.7471595E-2,2.1870393E-1,2.5149667E-1,4.895257E-2,1.718459E-2,1.0717719E-1,6.59354E-2,1.8237613E-2,6.0274047E-3,7.61318E-2,2.3206333E-2,1.20324604E-1,9.854355E-2,-2.6169168E-3,3.9311178E-2,7.4881464E-2,3.7257433E-2,1.5065913E-2,1.9700802E-3,2.9361311E-2,1.5964843E-2,3.0046051E-2,5.029231E-2,2.692554E-2,1.8430792E-2,1.0511077E-1,1.8069077E-2,6.209259E-2,1.8506287E-2,3.5548399E-3,2.7382711E-2,4.704019E-2,3.3180337E-2,8.3143935E-2,9.3006315E-3,5.587964E-2,1.9125657E-2,5.409741E-2,4.0758938E-2,6.821477E-2,5.4917153E-2,6.8091206E-2,5.804793E-2,7.28282E-2,8.0249935E-2],"categories":[],"categories_nodes":[],"categories_segments":[],"categories_sizes":[],"default_left":[0,0,0,0,0,0,0,0,0,0,0,0,0,0,0,0,0,0,0,0,0,0,0,0,0,0,0,0,0,0,0,0,0,0,0,0,0,0,0,0,0,0,0,0,0,0,0,0,0,0,0,0,0,0,0,0,0,0,0,0,0,0,0,0,0,0,0,0,0,0,0,0,0,0,0,0,0,0,0,0,0,0,0,0,0,0,0,0,0,0,0,0,0],"id":10,"left_children":[1,3,5,7,9,11,13,15,17,19,21,-1,-1,23,25,27,29,31,33,35,37,39,41,43,45,47,49,51,53,55,57,59,-1,61,63,65,67,69,71,73,75,77,79,81,83,85,87,-1,-1,89,91,-1,-1,-1,-1,-1,-1,-1,-1,-1,-1,-1,-1,-1,-1,-1,-1,-1,-1,-1,-1,-1,-1,-1,-1,-1,-1,-1,-1,-1,-1,-1,-1,-1,-1,-1,-1,-1,-1,-1,-1,-1,-1],"loss_changes":[6.83078E0,2.2868652E0,1.1349564E0,4.3695374E0,5.260925E-1,1.6555786E-3,1.2532578E0,3.231186E0,2.3288822E0,1.344006E-1,6.276641E-1,0E0,0E0,8.3340454E-1,1.7406464E-1,2.9444427E0,5.6773424E-1,1.6263771E-1,3.2598305E-1,2.5354296E-2,2.0450044E-1,1.7392159E-1,1.02773905E-1,1.668024E-1,2.222786E-1,1.9676685E-2,2.3254013E-1,2.7091217E0,1.0079994E0,5.9593707E-2,9.9053E-1,8.291817E-2,0E0,7.520944E-2,2.8658772E-1,9.059781E-3,1.7970562E-2,6.0958266E-2,3.389764E-2,4.1827083E-2,9.125066E-2,2.243185E-2,5.7724476E-2,4.403305E-2,2.2047162E-2,7.2164536E-2,2.0449448E-1,0E0,0E0,6.0079575E-2,1.6147614E-2,0E0,0E0,0E0,0E0,0E0,0E0,0E0,0E0,0E0,0E0,0E0,0E0,0E0,0E0,0E0,0E0,0E0,0E0,0E0,0E0,0E0,0E0,0E0,0E0,0E0,0E0,0E0,0E0,0E0,0E0,0E0,0E0,0E0,0E0,0E0,0E0,0E0,0E0,0E0,0E0,0E0,0E0],"parents":[2147483647,0,0,1,1,2,2,3,3,4,4,5,5,6,6,7,7,8,8,9,9,10,10,13,13,14,14,15,15,16,16,17,17,18,18,19,19,20,20,21,21,22,22,23,23,24,24,25,25,26,26,27,27,28,28,29,29,30,30,31,31,33,33,34,34,35,35,36,36,37,37,38,38,39,39,40,40,41,41,42,42,43,43,44,44,45,45,46,46,49,49,50,50],"right_children":[2,4,6,8,10,12,14,16,18,20,22,-1,-1,24,26,28,30,32,34,36,38,40,42,44,46,48,50,52,54,56,58,60,-1,62,64,66,68,70,72,74,76,78,80,82,84,86,88,-1,-1,90,92,-1,-1,-1,-1,-1,-1,-1,-1,-1,-1,-1,-1,-1,-1,-1,-1,-1,-1,-1,-1,-1,-1,-1,-1,-1,-1,-1,-1,-1,-1,-1,-1,-1,-1,-1,-1,-1,-1,-1,-1,-1,-1],"split_conditions":[1.1132513E-5,7.4785163E-7,1.8761623E-6,3.881833E-6,9.205368E-6,8.216314E-6,2.8239314E-5,5.5907736E-7,3.2449395E-7,4.2068814E-6,2.0240402E-6,3.1411387E-2,1.0930875E-1,5.9515014E-7,3.097646E-5,1.1079234E-6,2.0744717E-6,2.1587125E-6,5.271955E-6,2.6359235E-6,2.651417E-6,3.3822758E-7,9.040523E-6,2.028236E-6,1.4549913E-5,3.178255E-5,4.9983737E-5,2.3984853E-7,1.7149239E-7,6.382985E-7,1.0110856E-6,1.4711252E-6,1.2638117E-2,4.12928E-6,2.0240402E-6,1.6186146E-6,1.0551882E-6,6.2560366E-6,1.200393E-6,4.7958374E-6,1.5163444E-6,6.3648245E-6,1.4425233E-6,5.112633E-6,9.681228E-6,4.8673287E-6,3.3900067E-6,4.89196E-2,9.7471595E-2,3.3454742E-6,2.6035354E-6,4.895257E-2,1.718459E-2,1.0717719E-1,6.59354E-2,1.8237613E-2,6.0274047E-3,7.61318E-2,2.3206333E-2,1.20324604E-1,9.854355E-2,-2.6169168E-3,3.9311178E-2,7.4881464E-2,3.7257433E-2,1.5065913E-2,1.9700802E-3,2.9361311E-2,1.5964843E-2,3.0046051E-2,5.029231E-2,2.692554E-2,1.8430792E-2,1.0511077E-1,1.8069077E-2,6.209259E-2,1.8506287E-2,3.5548399E-3,2.7382711E-2,4.704019E-2,3.3180337E-2,8.3143935E-2,9.3006315E-3,5.587964E-2,1.9125657E-2,5.409741E-2,4.0758938E-2,6.821477E-2,5.4917153E-2,6.8091206E-2,5.804793E-2,7.28282E-2,8.0249935E-2],"split_indices":[9,3,4,9,11,8,8,4,2,14,4,0,0,2,13,8,9,4,9,9,5,2,9,3,9,9,8,4,3,4,5,5,0,12,4,9,4,11,3,6,3,9,3,4,5,5,4,0,0,3,2,0,0,0,0,0,0,0,0,0,0,0,0,0,0,0,0,0,0,0,0,0,0,0,0,0,0,0,0,0,0,0,0,0,0,0,0,0,0,0,0,0,0],"split_type":[0,0,0,0,0,0,0,0,0,0,0,0,0,0,0,0,0,0,0,0,0,0,0,0,0,0,0,0,0,0,0,0,0,0,0,0,0,0,0,0,0,0,0,0,0,0,0,0,0,0,0,0,0,0,0,0,0,0,0,0,0,0,0,0,0,0,0,0,0,0,0,0,0,0,0,0,0,0,0,0,0,0,0,0,0,0,0,0,0,0,0,0,0],"sum_hessian":[1.058E4,8.099E3,2.481E3,7.381E3,7.18E2,5.5E1,2.426E3,7.029E3,3.52E2,3.97E2,3.21E2,1E0,5.4E1,1.309E3,1.117E3,6.599E3,4.3E2,1.86E2,1.66E2,1.32E2,2.65E2,6E1,2.61E2,1.66E2,1.143E3,4E1,1.077E3,6.354E3,2.45E2,1.84E2,2.46E2,1.84E2,2E0,6E1,1.06E2,2.2E1,1.1E2,6.9E1,1.96E2,1.3E1,4.7E1,1.19E2,1.42E2,1.39E2,2.7E1,2.12E2,9.31E2,4E0,3.6E1,4.98E2,5.79E2,6.101E3,2.53E2,8.9E1,1.56E2,4.9E1,1.35E2,3.7E1,2.09E2,5.5E1,1.29E2,4E0,5.6E1,7.8E1,2.8E1,6E0,1.6E1,1.1E1,9.9E1,3.1E1,3.8E1,9.1E1,1.05E2,1.2E1,1E0,4.1E1,6E0,4E0,1.15E2,5.9E1,8.3E1,1.38E2,1E0,2.4E1,3E0,7.2E1,1.4E2,1.44E2,7.87E2,3.69E2,1.29E2,3.85E2,1.94E2],"tree_param":{"num_deleted":"0","num_feature":"16","num_nodes":"93","size_leaf_vector":"1"}},{"base_weights":[-1.73453E-1,1.4924004E-2,-4.008524E-1,5.242902E-2,-1.3507657E-1,-3.1045622E-1,-4.601965E-1,7.721914E-2,-1.6255451E-2,-4.1551864E-1,-1.317158E-1,-3.4641066E-1,-1.7319222E-1,-5.5778027E-1,-4.387693E-1,8.143225E-2,-2.53885E-1,-3.745886E-1,-1.423509E-2,2.4924873E-1,-1.4001298E-1,-2.8503546E-1,-4.661895E-1,-1.5507086E-1,-5.0702626E-1,-4.3251696E-1,-5.9253836E-1,-3.0716595E-1,-4.7123232E-1,7.441551E-2,3.1187868E-1,-5.784797E-3,-9.7510517E-1,3.223946E-1,-2.0927936E-2,-4.1278195E-1,3.950061E-1,-4.5899788E-1,-1.3619886E-1,-4.3971458E-1,-2.1642329E-1,-5.864738E-1,-3.7479162E-1,-1.3001685E-1,-2.7153808E-1,-6.498751E-1,-2.602249E-1,-7.2759897E-1,-3.0129272E-1,-7.213777E-1,-5.4976076E-1,-2.6045594E-1,-4.8554233E-1,-4.1053525E-1,-4.9837407E-1,2.068621E-2,9.169363E-2,1.1212299E-1,2.3509275E-2,-1.0235204E-1,6.878295E-2,-4.2747155E-1,-4.5109276E-2,2.5236866E-1,3.081449E-2,-5.649698E-1,-4.879917E-3,1.0031953E-2,-1.5980922E-1,2.0129819E-1,3.9629724E-2,3.3888582E-2,-4.3491825E-2,-1.0939285E-1,-1.9634406E-1,-4.193566E-2,-9.3106225E-2,-1.5224022E-1,-2.1653229E-1,-7.780303E-2,-1.791713E-1,-1.609571E-2,-4.5906246E-2,-5.2053284E-2,-1.341787E-1,-6.905015E-2,-2.2926109E-1,-4.3180656E-2,-1.1088083E-1,-2.3680735E-1,-5.975235E-2,-6.970447E-2,-1.7812647E-1,-7.608877E-2,-2.2990005E-1,-9.2692465E-2,-1.7606917E-1,-5.6874108E-2,-9.305208E-2,1.5997225E-2,-1.5278782E-1,-1.19226225E-1,-1.9843255E-1,-1.7488042E-1,-1.3765039E-1],"categories":[],"categories_nodes":[],"categories_segments":[],"categories_sizes":[],"default_left":[0,0,0,0,0,0,0,0,0,0,0,0,0,0,0,0,0,0,0,0,0,0,0,0,0,0,0,0,0,0,0,0,0,0,0,0,0,0,0,0,0,0,0,0,0,0,0,0,0,0,0,0,0,0,0,0,0,0,0,0,0,0,0,0,0,0,0,0,0,0,0,0,0,0,0,0,0,0,0,0,0,0,0,0,0,0,0,0,0,0,0,0,0,0,0,0,0,0,0,0,0,0,0,0,0],"id":11,"left_children":[1,3,5,7,9,11,13,15,17,-1,19,21,23,25,27,29,31,-1,33,35,37,39,41,43,45,47,49,51,53,55,57,59,61,63,65,67,69,-1,71,73,75,77,79,81,83,85,87,89,91,93,95,97,99,101,103,-1,-1,-1,-1,-1,-1,-1,-1,-1,-1,-1,-1,-1,-1,-1,-1,-1,-1,-1,-1,-1,-1,-1,-1,-1,-1,-1,-1,-1,-1,-1,-1,-1,-1,-1,-1,-1,-1,-1,-1,-1,-1,-1,-1,-1,-1,-1,-1,-1,-1],"loss_changes":[4.5326233E2,3.2569057E1,2.5574463E1,7.886443E0,4.6822033E0,9.331787E0,5.802246E0,4.767784E0,3.0422354E0,0E0,3.6889305E0,1.0945755E1,2.3230362E0,1.99469E0,1.0006134E1,5.4114723E0,7.688558E0,0E0,2.773444E0,2.575448E0,5.792967E0,1.0507095E1,5.3759995E0,1.067689E0,5.3599167E-1,4.27252E0,1.8190155E0,3.8145561E0,2.9320984E0,4.0996304E0,1.4008942E0,2.67984E0,3.8663979E0,2.649049E0,1.0430237E1,2.8535777E-1,1.4351039E0,0E0,2.4866772E0,4.694931E0,4.9524765E0,1.9640579E0,7.34396E0,5.416331E-1,1.0592942E0,3.9992046E-1,6.1276376E-2,9.850025E-1,1.515461E0,1.8453522E0,2.5549011E0,1.269659E0,1.2685947E0,1.6916885E0,4.1158447E0,0E0,0E0,0E0,0E0,0E0,0E0,0E0,0E0,0E0,0E0,0E0,0E0,0E0,0E0,0E0,0E0,0E0,0E0,0E0,0E0,0E0,0E0,0E0,0E0,0E0,0E0,0E0,0E0,0E0,0E0,0E0,0E0,0E0,0E0,0E0,0E0,0E0,0E0,0E0,0E0,0E0,0E0,0E0,0E0,0E0,0E0,0E0,0E0,0E0,0E0],"parents":[2147483647,0,0,1,1,2,2,3,3,4,4,5,5,6,6,7,7,8,8,10,10,11,11,12,12,13,13,14,14,15,15,16,16,18,18,19,19,20,20,21,21,22,22,23,23,24,24,25,25,26,26,27,27,28,28,29,29,30,30,31,31,32,32,33,33,34,34,35,35,36,36,38,38,39,39,40,40,41,41,42,42,43,43,44,44,45,45,46,46,47,47,48,48,49,49,50,50,51,51,52,52,53,53,54,54],"right_children":[2,4,6,8,10,12,14,16,18,-1,20,22,24,26,28,30,32,-1,34,36,38,40,42,44,46,48,50,52,54,56,58,60,62,64,66,68,70,-1,72,74,76,78,80,82,84,86,88,90,92,94,96,98,100,102,104,-1,-1,-1,-1,-1,-1,-1,-1,-1,-1,-1,-1,-1,-1,-1,-1,-1,-1,-1,-1,-1,-1,-1,-1,-1,-1,-1,-1,-1,-1,-1,-1,-1,-1,-1,-1,-1,-1,-1,-1,-1,-1,-1,-1,-1,-1,-1,-1,-1,-1],"split_conditions":[1.3496708E-7,5.3168893E-8,2.0240402E-6,7.861058E-8,2.2957114E-8,5.271955E-6,1.1529717E-5,7.749629E-8,2.853467E-8,-4.1551864E-1,1.4014382E-8,3.6067019E-7,1.551105E-6,3.099586E-6,3.804521E-6,6.864141E-8,4.2571646E-8,-3.745886E-1,1.5517331E-8,1.1405721E-8,1.8569102E-8,6.6253756E-7,2.8574455E-6,6.340906E-7,5.0039357E-6,5.5137757E-6,6.9137704E-6,1.2265729E-6,2.2424408E-6,7.760011E-8,3.4717708E-8,3.0390996E-8,7.718901E-8,2.704831E-8,9.5469455E-9,6.162287E-8,5.6461083E-8,-4.5899788E-1,3.39996E-8,7.200946E-8,7.4731884E-7,1.7585032E-6,2.7567144E-6,5.3587664E-6,4.648931E-6,3.9888123E-6,8.915605E-7,4.7934845E-6,1.551105E-6,3.1278219E-6,4.3890113E-6,6.881078E-7,9.713302E-7,6.8718786E-5,1.9705309E-5,2.068621E-2,9.169363E-2,1.1212299E-1,2.3509275E-2,-1.0235204E-1,6.878295E-2,-4.2747155E-1,-4.5109276E-2,2.5236866E-1,3.081449E-2,-5.649698E-1,-4.879917E-3,1.0031953E-2,-1.5980922E-1,2.0129819E-1,3.9629724E-2,3.3888582E-2,-4.3491825E-2,-1.0939285E-1,-1.9634406E-1,-4.193566E-2,-9.3106225E-2,-1.5224022E-1,-2.1653229E-1,-7.780303E-2,-1.791713E-1,-1.609571E-2,-4.5906246E-2,-5.2053284E-2,-1.341787E-1,-6.905015E-2,-2.2926109E-1,-4.3180656E-2,-1.1088083E-1,-2.3680735E-1,-5.975235E-2,-6.970447E-2,-1.7812647E-1,-7.608877E-2,-2.2990005E-1,-9.2692465E-2,-1.7606917E-1,-5.6874108E-2,-9.305208E-2,1.5997225E-2,-1.5278782E-1,-1.19226225E-1,-1.9843255E-1,-1.7488042E-1,-1.3765039E-1],"split_indices":[4,7,4,6,10,9,9,5,5,0,14,3,3,5,4,5,4,0,10,14,12,9,9,2,7,12,9,2,3,6,9,8,6,4,12,5,7,0,10,2,5,6,6,14,6,6,2,13,3,6,6,2,3,12,7,0,0,0,0,0,0,0,0,0,0,0,0,0,0,0,0,0,0,0,0,0,0,0,0,0,0,0,0,0,0,0,0,0,0,0,0,0,0,0,0,0,0,0,0,0,0,0,0,0,0],"split_type":[0,0,0,0,0,0,0,0,0,0,0,0,0,0,0,0,0,0,0,0,0,0,0,0,0,0,0,0,0,0,0,0,0,0,0,0,0,0,0,0,0,0,0,0,0,0,0,0,0,0,0,0,0,0,0,0,0,0,0,0,0,0,0,0,0,0,0,0,0,0,0,0,0,0,0,0,0,0,0,0,0,0,0,0,0,0,0,0,0,0,0,0,0,0,0,0,0,0,0,0,0,0,0,0,0],"sum_hessian":[1.058E4,5.787E3,4.793E3,4.63E3,1.157E3,1.902E3,2.891E3,3.402E3,1.228E3,2E0,1.155E3,1.506E3,3.96E2,5.16E2,2.375E3,3.36E3,4.2E1,1E0,1.227E3,2.4E1,1.131E3,9.98E2,5.08E2,3.77E2,1.9E1,1.15E2,4.01E2,4.72E2,1.903E3,3.262E3,9.8E1,3.2E1,1E1,2.3E1,1.204E3,4E0,2E1,2E0,1.129E3,3.05E2,6.93E2,2.17E2,2.91E2,3.12E2,6.5E1,1.1E1,8E0,3.4E1,8.1E1,9.6E1,3.05E2,3.76E2,9.6E1,5.93E2,1.31E3,3.188E3,7.4E1,7.7E1,2.1E1,1.3E1,1.9E1,6E0,4E0,6E0,1.7E1,2E0,1.202E3,1E0,3E0,9E0,1.1E1,3.8E1,1.091E3,2.28E2,7.7E1,3.83E2,3.1E2,1.4E2,7.7E1,1.93E2,9.8E1,7.3E1,2.39E2,4.3E1,2.2E1,3E0,8E0,5E0,3E0,3E1,4E0,6.7E1,1.4E1,9E0,8.7E1,4.2E1,2.63E2,1.57E2,2.19E2,4E0,9.2E1,5.66E2,2.7E1,4.13E2,8.97E2],"tree_param":{"num_deleted":"0","num_feature":"16","num_nodes":"105","size_leaf_vector":"1"}},{"base_weights":[1.20634764E-1,1.10313416E-1,1.521783E-1,1.1491146E-1,7.3806524E-2,2.2994497E-1,1.4810154E-1,1.1084266E-1,2.1637358E-1,3.113661E-2,9.248457E-2,2.4990086E-1,1.0230848E-1,1.2610286E-1,1.6474533E-1,1.1416893E-1,4.599707E-2,2.727929E-1,1.5709773E-1,-8.799472E-3,3.6830883E-2,1.9045965E-1,7.468132E-2,1.04312055E-1,2.3774284E-1,1.4007974E-1,4.477602E-2,1.6979817E-1,1.1709507E-1,1.5276031E-1,1.7400828E-1,1.1082424E-1,2.0578495E-1,3.134202E-2,1.23105116E-1,3.1980225E-1,2.3971882E-1,1.0285432E-1,2.2733718E-1,-2.4691695E-2,2.3718264E-2,1.0100546E-1,3.1172562E-2,8.9347206E-2,2.1794634E-1,1.17540784E-1,6.3637145E-2,1.7115264E-1,2.4826391E-1,1.2117971E-2,4.732325E-2,5.3973738E-2,2.5168003E-3,1.9841398E-1,1.365993E-1,9.108982E-2,1.2615141E-1,1.6426735E-1,3.8669128E-2,7.438736E-2,1.7225024E-1,3.418971E-2,8.197204E-3,7.63749E-2,3.6380515E-2,-1.6865861E-3,1.2934157E-2,8.299291E-2,2.2891821E-2,2.7733734E-2,9.670433E-2,5.6608945E-2,8.6238965E-2,5.625583E-2,2.112791E-2,7.428525E-2,2.0889942E-2,-1.867737E-3,-1.4976417E-2,1.3065017E-2,9.99379E-4,1.9305669E-2,5.7229213E-2,6.7756306E-3,1.4965878E-2,3.8098004E-2,2.2776844E-3,7.260199E-2,2.9263379E-2,3.0616617E-2,5.8055717E-2,1.5367771E-2,2.1666944E-2,1.0786746E-2,5.3206563E-2,8.766947E-2,6.718058E-2,1.8858254E-3,1.82622E-2,3.0719208E-2,6.2181477E-2,4.9224876E-2,3.2190494E-2,2.3011671E-2,2.9503534E-2,4.5735195E-2,3.507444E-2,6.0883828E-2,4.671574E-2,4.9546063E-2,5.5896867E-2],"categories":[],"categories_nodes":[],"categories_segments":[],"categories_sizes":[],"default_left":[0,0,0,0,0,0,0,0,0,0,0,0,0,0,0,0,0,0,0,0,0,0,0,0,0,0,0,0,0,0,0,0,0,0,0,0,0,0,0,0,0,0,0,0,0,0,0,0,0,0,0,0,0,0,0,0,0,0,0,0,0,0,0,0,0,0,0,0,0,0,0,0,0,0,0,0,0,0,0,0,0,0,0,0,0,0,0,0,0,0,0,0,0,0,0,0,0,0,0,0,0,0,0,0,0,0,0,0,0,0,0],"id":12,"left_children":[1,3,5,7,9,11,13,15,17,19,21,23,25,27,29,31,33,35,37,39,41,43,45,-1,47,49,51,53,55,57,59,61,63,65,67,69,71,73,75,77,79,81,83,85,87,89,91,93,95,-1,-1,97,-1,99,101,103,105,107,-1,-1,109,-1,-1,-1,-1,-1,-1,-1,-1,-1,-1,-1,-1,-1,-1,-1,-1,-1,-1,-1,-1,-1,-1,-1,-1,-1,-1,-1,-1,-1,-1,-1,-1,-1,-1,-1,-1,-1,-1,-1,-1,-1,-1,-1,-1,-1,-1,-1,-1,-1,-1],"loss_changes":[3.4281006E0,1.330368E0,7.9214096E-1,2.8996735E0,7.104273E-1,3.0046177E-1,8.868904E-1,1.4638519E0,8.667946E-1,6.263363E-2,1.070715E0,4.8139572E-2,3.501618E-2,4.0205383E-1,1.2972641E-1,1.9622269E0,3.7356907E-1,1.378994E-1,4.909711E-1,1.8672917E-2,8.400029E-2,2.4455547E-1,2.4244785E-1,0E0,2.826929E-2,1.2998149E-2,2.559267E-3,1.4484882E-1,1.9858646E-1,1.4962292E-1,5.9604645E-2,1.6368637E0,9.0533066E-1,1.2295008E-1,3.5971808E-1,1.4514923E-3,1.5281963E-1,2.0094389E-1,1.6825843E-1,1.0870536E-2,4.706653E-3,5.0232813E-2,3.4548E-2,6.67465E-2,1.9076443E-1,1.0614157E-1,4.12699E-2,7.878721E-3,2.54817E-2,0E0,0E0,1.9207429E-3,0E0,5.9571266E-2,5.2446485E-2,1.6877174E-2,1.4225769E-1,1.0594177E-1,0E0,0E0,4.632759E-2,0E0,0E0,0E0,0E0,0E0,0E0,0E0,0E0,0E0,0E0,0E0,0E0,0E0,0E0,0E0,0E0,0E0,0E0,0E0,0E0,0E0,0E0,0E0,0E0,0E0,0E0,0E0,0E0,0E0,0E0,0E0,0E0,0E0,0E0,0E0,0E0,0E0,0E0,0E0,0E0,0E0,0E0,0E0,0E0,0E0,0E0,0E0,0E0,0E0,0E0],"parents":[2147483647,0,0,1,1,2,2,3,3,4,4,5,5,6,6,7,7,8,8,9,9,10,10,11,11,12,12,13,13,14,14,15,15,16,16,17,17,18,18,19,19,20,20,21,21,22,22,24,24,25,25,26,26,27,27,28,28,29,29,30,30,31,31,32,32,33,33,34,34,35,35,36,36,37,37,38,38,39,39,40,40,41,41,42,42,43,43,44,44,45,45,46,46,47,47,48,48,51,51,53,53,54,54,55,55,56,56,57,57,60,60],"right_children":[2,4,6,8,10,12,14,16,18,20,22,24,26,28,30,32,34,36,38,40,42,44,46,-1,48,50,52,54,56,58,60,62,64,66,68,70,72,74,76,78,80,82,84,86,88,90,92,94,96,-1,-1,98,-1,100,102,104,106,108,-1,-1,110,-1,-1,-1,-1,-1,-1,-1,-1,-1,-1,-1,-1,-1,-1,-1,-1,-1,-1,-1,-1,-1,-1,-1,-1,-1,-1,-1,-1,-1,-1,-1,-1,-1,-1,-1,-1,-1,-1,-1,-1,-1,-1,-1,-1,-1,-1,-1,-1,-1,-1],"split_conditions":[9.817439E-6,5.1263476E-7,3.7939622E-6,2.37217E-6,5.1803204E-6,8.553229E-7,2.2298698E-5,7.4731884E-7,2.28773E-7,1.4233653E-6,3.3822758E-7,7.826101E-6,3.318705E-6,1.2289237E-6,2.811426E-5,8.9015253E-7,2.5261465E-6,2.6142794E-7,4.4377384E-6,1.9493862E-6,1.3175687E-6,5.826627E-6,2.651417E-6,1.04312055E-1,6.1445285E-6,9.218051E-6,4.3616537E-6,7.4984075E-7,8.887224E-6,1.5055859E-6,4.3566237E-5,3.3640788E-7,4.0578453E-7,1.1299331E-6,5.334087E-7,1.4803205E-6,2.6560133E-6,1.3894182E-6,3.338988E-6,1.5219439E-6,2.1875569E-7,2.8977297E-6,3.4665543E-6,8.7593014E-7,1.8195557E-6,4.6988416E-6,6.9137704E-6,1.1023889E-6,1.6484227E-6,1.2117971E-2,4.732325E-2,1.2678964E-5,2.5168003E-3,1.1808254E-5,3.3900067E-6,1.0521458E-5,6.034236E-6,2.725635E-5,3.8669128E-2,7.438736E-2,1.2449155E-5,3.418971E-2,8.197204E-3,7.63749E-2,3.6380515E-2,-1.6865861E-3,1.2934157E-2,8.299291E-2,2.2891821E-2,2.7733734E-2,9.670433E-2,5.6608945E-2,8.6238965E-2,5.625583E-2,2.112791E-2,7.428525E-2,2.0889942E-2,-1.867737E-3,-1.4976417E-2,1.3065017E-2,9.99379E-4,1.9305669E-2,5.7229213E-2,6.7756306E-3,1.4965878E-2,3.8098004E-2,2.2776844E-3,7.260199E-2,2.9263379E-2,3.0616617E-2,5.8055717E-2,1.5367771E-2,2.1666944E-2,1.0786746E-2,5.3206563E-2,8.766947E-2,6.718058E-2,1.8858254E-3,1.82622E-2,3.0719208E-2,6.2181477E-2,4.9224876E-2,3.2190494E-2,2.3011671E-2,2.9503534E-2,4.5735195E-2,3.507444E-2,6.0883828E-2,4.671574E-2,4.9546063E-2,5.5896867E-2],"split_indices":[9,3,5,8,12,2,8,5,2,7,2,14,4,3,7,8,9,3,8,14,5,9,5,0,7,14,4,2,7,2,12,5,4,14,4,7,7,5,5,8,2,8,8,3,4,7,9,4,4,0,0,11,0,10,4,14,5,13,0,0,4,0,0,0,0,0,0,0,0,0,0,0,0,0,0,0,0,0,0,0,0,0,0,0,0,0,0,0,0,0,0,0,0,0,0,0,0,0,0,0,0,0,0,0,0,0,0,0,0,0,0],"split_type":[0,0,0,0,0,0,0,0,0,0,0,0,0,0,0,0,0,0,0,0,0,0,0,0,0,0,0,0,0,0,0,0,0,0,0,0,0,0,0,0,0,0,0,0,0,0,0,0,0,0,0,0,0,0,0,0,0,0,0,0,0,0,0,0,0,0,0,0,0,0,0,0,0,0,0,0,0,0,0,0,0,0,0,0,0,0,0,0,0,0,0,0,0,0,0,0,0,0,0,0,0,0,0,0,0,0,0,0,0,0,0],"sum_hessian":[1.058E4,7.975E3,2.605E3,7.081E3,8.94E2,1.27E2,2.478E3,6.81E3,2.71E2,2.73E2,6.21E2,1.09E2,1.8E1,1.071E3,1.407E3,6.477E3,3.33E2,1.37E2,1.34E2,3.4E1,2.39E2,9.4E1,5.27E2,9E0,1E2,1E1,8E0,1.8E2,8.91E2,6.21E2,7.86E2,6.251E3,2.26E2,2.81E2,5.2E1,5.3E1,8.4E1,7.7E1,5.7E1,2.3E1,1.1E1,1.8E1,2.21E2,2.1E1,7.3E1,1.06E2,4.21E2,1.6E1,8.4E1,2E0,8E0,6E0,2E0,9.4E1,8.6E1,2.33E2,6.58E2,4.15E2,2.06E2,1.5E1,7.71E2,6.024E3,2.27E2,1.42E2,8.4E1,6.8E1,2.13E2,1.1E1,4.1E1,1E0,5.2E1,4.3E1,4.1E1,2E1,5.7E1,5E1,7E0,1.4E1,9E0,5E0,6E0,1.4E1,4E0,1.53E2,6.8E1,1.4E1,7E0,6E1,1.3E1,9E1,1.6E1,1.75E2,2.46E2,1E0,1.5E1,2.6E1,5.8E1,1E0,5E0,9E0,8.5E1,4.2E1,4.4E1,8.2E1,1.51E2,1.67E2,4.91E2,7.1E1,3.44E2,5.21E2,2.5E2],"tree_param":{"num_deleted":"0","num_feature":"16","num_nodes":"111","size_leaf_vector":"1"}},{"base_weights":[-1.2193835E-1,1.2892497E-2,-2.7945548E-1,5.7877738E-2,-4.5784373E-2,-2.1623181E-1,-3.228415E-1,4.3910976E-2,1.5323329E-1,-1.2920345E0,-4.2232513E-2,-6.89592E-1,-2.0961085E-1,-3.9948365E-1,-3.0618593E-1,6.464242E-2,-4.910295E-2,2.7612373E-1,8.032762E-2,-7.3543143E-1,-3.379855E-1,1.4398004E-1,-6.440364E-2,-3.8184404E-1,-9.1033405E-1,-2.3838344E-1,-1.3745998E-1,-3.292325E-1,-4.865435E-1,-2.0176032E-1,-3.317086E-1,6.67251E-2,-1.1495789E0,2.1003163E-1,-1.1774529E-1,-4.3185607E-2,3.820102E-1,-5.240108E-1,1.14256404E-1,-1.1668276E-1,-1.8347946E-1,2.111525E-1,-1.5369461E-1,-8.548414E-1,-6.113927E-2,-2.963818E-1,-1.8183222E-1,-1.1128677E0,-7.514948E-2,-1.7245665E-1,-3.4987378E-1,-6.67297E-2,-2.2358221E-1,-3.8187337E-1,-1.1012241E-1,-4.5873716E-1,-7.514024E-1,-1.0175033E-1,-2.421783E-1,-3.2602108E-1,-5.7120436E-1,1.7810628E-2,1.0817268E-1,-5.0380725E-1,6.596349E-2,2.2721745E-2,1.3970432E-1,1.8178348E-1,-4.1250173E-2,5.1245075E-2,-2.3265211E-1,1.3908081E-1,-3.4685154E-2,-3.40736E-1,-1.7381016E-2,1.2888047E-1,2.3042828E-2,9.434257E-3,-5.2962612E-2,-5.2162766E-2,9.597112E-2,-1.5589459E-1,4.1798934E-2,6.4774916E-2,-6.741803E-1,8.913506E-2,-2.1553475E-2,-2.6470462E-2,-1.2060407E-1,-3.4670883E-1,-9.626347E-2,-1.3545274E-3,-4.3057896E-2,-7.889246E-2,-3.3841595E-2,-2.0991355E-1,-9.184319E-2,-1.798986E-2,-1.7074378E-1,-1.2831508E-1,-3.363545E-2,-1.5154114E-1,-9.616713E-2,-1.3057199E-2,-1.2563476E-1,-2.1047781E-1,-1.2875089E-1,-2.4897215E-1,-1.2897204E-1,-2.6543437E-2,-6.978881E-2,-1.8633287E-2,-7.811882E-2,-1.12093344E-1,-8.808749E-2,-5.7949502E-2,-1.7841846E-1],"categories":[],"categories_nodes":[],"categories_segments":[],"categories_sizes":[],"default_left":[0,0,0,0,0,0,0,0,0,0,0,0,0,0,0,0,0,0,0,0,0,0,0,0,0,0,0,0,0,0,0,0,0,0,0,0,0,0,0,0,0,0,0,0,0,0,0,0,0,0,0,0,0,0,0,0,0,0,0,0,0,0,0,0,0,0,0,0,0,0,0,0,0,0,0,0,0,0,0,0,0,0,0,0,0,0,0,0,0,0,0,0,0,0,0,0,0,0,0,0,0,0,0,0,0,0,0,0,0,0,0,0,0,0,0,0,0],"id":13,"left_children":[1,3,5,7,9,11,13,15,17,19,21,23,25,27,29,31,33,35,37,-1,39,41,43,45,47,49,51,53,55,57,59,61,63,65,67,69,71,73,75,77,-1,79,81,83,85,-1,87,89,91,93,95,97,99,101,103,105,107,109,111,113,115,-1,-1,-1,-1,-1,-1,-1,-1,-1,-1,-1,-1,-1,-1,-1,-1,-1,-1,-1,-1,-1,-1,-1,-1,-1,-1,-1,-1,-1,-1,-1,-1,-1,-1,-1,-1,-1,-1,-1,-1,-1,-1,-1,-1,-1,-1,-1,-1,-1,-1,-1,-1,-1,-1,-1,-1],"loss_changes":[2.2472462E2,1.5053611E1,1.3316162E1,4.292348E0,1.0901028E1,6.08918E0,3.5693665E0,5.435232E0,3.669096E0,6.9143457E0,1.0202642E1,1.4865828E0,4.0423584E0,2.9773483E0,6.2763214E0,5.9031363E0,9.167559E0,5.1895084E0,5.3910327E0,0E0,2.3139322E-1,5.29128E0,5.642411E0,1.3963015E0,2.4536638E0,1.0244644E1,3.408475E0,3.2682495E0,1.3271027E0,1.8751945E0,2.4168243E0,4.952585E0,3.2712893E0,3.6725636E0,5.9020753E0,6.2444963E0,4.722906E0,3.9260566E0,2.8837578E0,4.1019686E-2,0E0,9.058172E0,5.326842E0,1.3903784E1,8.455307E0,0E0,1.9122061E-1,3.6197662E-2,1.867099E-2,4.738123E0,7.740925E0,1.0192789E0,5.708726E0,1.583992E0,1.1534805E0,1.1924744E0,1.479969E-1,2.1739376E-1,1.0794868E0,2.7738037E0,2.6751614E-1,0E0,0E0,0E0,0E0,0E0,0E0,0E0,0E0,0E0,0E0,0E0,0E0,0E0,0E0,0E0,0E0,0E0,0E0,0E0,0E0,0E0,0E0,0E0,0E0,0E0,0E0,0E0,0E0,0E0,0E0,0E0,0E0,0E0,0E0,0E0,0E0,0E0,0E0,0E0,0E0,0E0,0E0,0E0,0E0,0E0,0E0,0E0,0E0,0E0,0E0,0E0,0E0,0E0,0E0,0E0,0E0],"parents":[2147483647,0,0,1,1,2,2,3,3,4,4,5,5,6,6,7,7,8,8,9,9,10,10,11,11,12,12,13,13,14,14,15,15,16,16,17,17,18,18,20,20,21,21,22,22,23,23,24,24,25,25,26,26,27,27,28,28,29,29,30,30,31,31,32,32,33,33,34,34,35,35,36,36,37,37,38,38,39,39,41,41,42,42,43,43,44,44,46,46,47,47,48,48,49,49,50,50,51,51,52,52,53,53,54,54,55,55,56,56,57,57,58,58,59,59,60,60],"right_children":[2,4,6,8,10,12,14,16,18,20,22,24,26,28,30,32,34,36,38,-1,40,42,44,46,48,50,52,54,56,58,60,62,64,66,68,70,72,74,76,78,-1,80,82,84,86,-1,88,90,92,94,96,98,100,102,104,106,108,110,112,114,116,-1,-1,-1,-1,-1,-1,-1,-1,-1,-1,-1,-1,-1,-1,-1,-1,-1,-1,-1,-1,-1,-1,-1,-1,-1,-1,-1,-1,-1,-1,-1,-1,-1,-1,-1,-1,-1,-1,-1,-1,-1,-1,-1,-1,-1,-1,-1,-1,-1,-1,-1,-1,-1,-1,-1,-1],"split_conditions":[1.8754595E-7,5.5363664E-8,2.0240402E-6,2.3398933E-8,6.662892E-9,1.4403976E-7,7.072052E-6,1.46195E-8,2.9476064E-8,5.602329E-9,1.3542198E-8,1.3496708E-7,3.4665543E-6,4.069115E-6,3.804521E-6,4.2875563E-8,1.9488576E-8,2.7048593E-8,3.049999E-8,-7.3543143E-1,1.8667233E-8,7.861058E-8,1.779442E-8,1.13972405E-7,2.888607E-7,8.922451E-7,2.651417E-6,9.040523E-6,6.3430634E-6,1.2964761E-6,1.5149378E-4,1.5195578E-8,1.5551604E-8,7.907503E-9,7.2795165E-9,2.6151426E-8,7.8180996E-8,2.6558602E-8,1.536264E-8,8.29383E-9,-1.8347946E-1,5.7398744E-8,1.80555E-8,1.7117992E-8,2.9502582E-8,-2.963818E-1,1.2518102E-7,1.279576E-7,1.027703E-7,5.8810116E-7,1.2117185E-6,9.1025265E-7,5.72393E-6,4.632349E-6,6.113741E-6,9.4488576E-7,3.953226E-6,7.5322423E-6,4.3493183E-6,1.9027713E-5,9.542475E-5,1.7810628E-2,1.0817268E-1,-5.0380725E-1,6.596349E-2,2.2721745E-2,1.3970432E-1,1.8178348E-1,-4.1250173E-2,5.1245075E-2,-2.3265211E-1,1.3908081E-1,-3.4685154E-2,-3.40736E-1,-1.7381016E-2,1.2888047E-1,2.3042828E-2,9.434257E-3,-5.2962612E-2,-5.2162766E-2,9.597112E-2,-1.5589459E-1,4.1798934E-2,6.4774916E-2,-6.741803E-1,8.913506E-2,-2.1553475E-2,-2.6470462E-2,-1.2060407E-1,-3.4670883E-1,-9.626347E-2,-1.3545274E-3,-4.3057896E-2,-7.889246E-2,-3.3841595E-2,-2.0991355E-1,-9.184319E-2,-1.798986E-2,-1.7074378E-1,-1.2831508E-1,-3.363545E-2,-1.5154114E-1,-9.616713E-2,-1.3057199E-2,-1.2563476E-1,-2.1047781E-1,-1.2875089E-1,-2.4897215E-1,-1.2897204E-1,-2.6543437E-2,-6.978881E-2,-1.8633287E-2,-7.811882E-2,-1.12093344E-1,-8.808749E-2,-5.7949502E-2,-1.7841846E-1],"split_indices":[5,5,4,12,14,12,7,13,9,2,12,4,8,5,4,10,9,7,9,0,3,6,11,8,5,5,5,9,5,3,9,2,3,2,3,7,6,12,14,2,0,5,3,11,7,0,4,3,3,8,14,2,8,8,6,3,4,5,5,7,13,0,0,0,0,0,0,0,0,0,0,0,0,0,0,0,0,0,0,0,0,0,0,0,0,0,0,0,0,0,0,0,0,0,0,0,0,0,0,0,0,0,0,0,0,0,0,0,0,0,0,0,0,0,0,0,0],"split_type":[0,0,0,0,0,0,0,0,0,0,0,0,0,0,0,0,0,0,0,0,0,0,0,0,0,0,0,0,0,0,0,0,0,0,0,0,0,0,0,0,0,0,0,0,0,0,0,0,0,0,0,0,0,0,0,0,0,0,0,0,0,0,0,0,0,0,0,0,0,0,0,0,0,0,0,0,0,0,0,0,0,0,0,0,0,0,0,0,0,0,0,0,0,0,0,0,0,0,0,0,0,0,0,0,0,0,0,0,0,0,0,0,0,0,0,0,0],"sum_hessian":[1.058E4,5.701E3,4.879E3,3.227E3,2.474E3,1.988E3,2.891E3,2.816E3,4.11E2,6E0,2.468E3,2.6E1,1.962E3,5.12E2,2.379E3,2.303E3,5.13E2,1.52E2,2.59E2,2E0,4E0,2.62E2,2.206E3,1.2E1,1.4E1,1.401E3,5.61E2,2.86E2,2.26E2,4.69E2,1.91E3,2.3E3,3E0,1.07E2,4.06E2,3.8E1,1.14E2,1.3E1,2.46E2,3E0,1E0,2.14E2,4.8E1,8E0,2.198E3,2E0,1E1,1.1E1,3E0,8.82E2,5.19E2,3.09E2,2.52E2,2.3E2,5.6E1,2.07E2,1.9E1,1.36E2,3.33E2,1.868E3,4.2E1,2.245E3,5.5E1,2E0,1E0,7.1E1,3.6E1,1E1,3.96E2,3E1,8E0,9.8E1,1.6E1,5E0,8E0,2.5E1,2.21E2,1E0,2E0,4.7E1,1.67E2,2.1E1,2.7E1,5E0,3E0,6.3E1,2.135E3,8E0,2E0,1E1,1E0,2E0,1E0,3.49E2,5.33E2,5.6E1,4.63E2,3.06E2,3E0,8.8E1,1.64E2,7.4E1,1.56E2,4.7E1,9E0,2E1,1.87E2,1.4E1,5E0,1.25E2,1.1E1,3.1E1,3.02E2,7.52E2,1.116E3,3E0,3.9E1],"tree_param":{"num_deleted":"0","num_feature":"16","num_nodes":"117","size_leaf_vector":"1"}},{"base_weights":[8.464418E-2,6.688241E-2,9.529597E-2,4.2084493E-2,7.27787E-2,1.4786342E-1,9.05211E-2,4.6516985E-2,-1.0972727E-1,7.07479E-2,1.4741476E-1,1.2378107E-1,2.1601647E-1,7.638292E-2,1.0512706E-1,3.9394323E-2,1.405456E-1,4.8140094E-2,-1.3023496E-1,7.188824E-2,-5.7867963E-2,1.9819325E-1,1.9649811E-2,1.6547447E-1,5.944742E-2,-1.8397206E-1,2.3195745E-1,8.771567E-2,4.2315084E-2,1.8772279E-1,1.0059049E-1,3.739206E-2,1.1248073E-1,1.7899832E-1,-6.3061655E-2,2.7849168E-2,-1.4602976E-1,7.0131175E-2,1.4576127E-1,-8.399221E-2,2.5887534E-3,2.4536851E-1,8.347986E-2,-2.0914811E-1,1.614204E-1,1.7229158E-1,-1.989313E-1,1.2671858E-1,1.066967E-2,-1.7328054E-2,-6.9791384E-2,1.2019023E-2,2.4370784E-1,7.985272E-2,1.5861367E-1,2.3263203E-2,6.2318496E-2,1.0020591E-1,1.7524369E-1,7.961663E-2,1.1215152E-1,3.4168012E-2,8.571336E-3,6.509985E-2,-1.5859472E-2,-4.6433233E-2,5.158872E-2,-5.4308124E-2,-1.4497214E-3,2.2500599E-2,1.0121122E-2,-2.6770635E-3,5.727682E-2,4.3522865E-2,-2.9811878E-2,4.48806E-2,9.7688675E-2,5.0034713E-2,-2.4945145E-2,-6.8836495E-2,-3.9579794E-3,7.075662E-2,-3.625452E-2,1.9293094E-2,5.9357077E-2,-1.1457868E-2,-6.8870306E-2,8.8556744E-2,2.6708389E-2,7.691523E-3,-5.435142E-2,8.180611E-2,-5.9675757E-2,8.369887E-2,4.1986126E-2,2.6300082E-2,4.064372E-3,5.271286E-2,7.071121E-3,5.002853E-4,8.822402E-3,3.043466E-2,9.76331E-3,6.0473345E-2,4.7161043E-2,3.3287197E-2,2.0022605E-2,8.437756E-2,3.3290327E-2],"categories":[],"categories_nodes":[],"categories_segments":[],"categories_sizes":[],"default_left":[0,0,0,0,0,0,0,0,0,0,0,0,0,0,0,0,0,0,0,0,0,0,0,0,0,0,0,0,0,0,0,0,0,0,0,0,0,0,0,0,0,0,0,0,0,0,0,0,0,0,0,0,0,0,0,0,0,0,0,0,0,0,0,0,0,0,0,0,0,0,0,0,0,0,0,0,0,0,0,0,0,0,0,0,0,0,0,0,0,0,0,0,0,0,0,0,0,0,0,0,0,0,0,0,0,0,0,0,0],"id":14,"left_children":[1,3,5,7,9,11,13,15,17,19,21,23,25,27,29,31,33,-1,35,37,39,41,43,45,47,49,51,53,55,57,59,61,-1,63,65,-1,67,69,71,-1,73,75,77,79,81,83,85,87,89,-1,-1,91,93,95,97,99,101,-1,103,105,107,-1,-1,-1,-1,-1,-1,-1,-1,-1,-1,-1,-1,-1,-1,-1,-1,-1,-1,-1,-1,-1,-1,-1,-1,-1,-1,-1,-1,-1,-1,-1,-1,-1,-1,-1,-1,-1,-1,-1,-1,-1,-1,-1,-1,-1,-1,-1,-1],"loss_changes":[1.9954987E0,5.7741356E-1,1.646244E0,5.19876E-1,4.7550964E-1,8.743267E-1,1.244194E0,4.9274552E-1,1.4280164E-1,4.621973E-1,5.410733E-1,1.084537E0,9.480958E-1,1.1873512E0,1.0977287E0,4.5156646E-1,4.18409E-1,0E0,8.754483E-2,3.916378E-1,3.7670332E-1,3.0421448E-1,8.446812E-1,6.478691E-1,5.302244E-1,2.3416087E-2,3.511281E-1,1.2773151E0,2.9276145E-1,2.2261572E-1,6.7656136E-1,4.6236742E-1,0E0,3.9915895E-1,2.2061464E-1,0E0,9.795573E-2,5.3388596E-1,4.976951E-1,0E0,3.4856665E-1,2.741084E-1,2.7760178E-1,3.676501E-2,3.6467347E-1,6.580968E-1,1.5854359E-2,4.0550363E-1,2.774487E-1,0E0,0E0,4.941214E-1,4.369254E-1,1.079093E0,5.268545E-1,5.2633107E-2,4.347657E-1,0E0,3.6721706E-2,3.9932203E-1,3.3312225E-1,0E0,0E0,0E0,0E0,0E0,0E0,0E0,0E0,0E0,0E0,0E0,0E0,0E0,0E0,0E0,0E0,0E0,0E0,0E0,0E0,0E0,0E0,0E0,0E0,0E0,0E0,0E0,0E0,0E0,0E0,0E0,0E0,0E0,0E0,0E0,0E0,0E0,0E0,0E0,0E0,0E0,0E0,0E0,0E0,0E0,0E0,0E0,0E0],"parents":[2147483647,0,0,1,1,2,2,3,3,4,4,5,5,6,6,7,7,8,8,9,9,10,10,11,11,12,12,13,13,14,14,15,15,16,16,18,18,19,19,20,20,21,21,22,22,23,23,24,24,25,25,26,26,27,27,28,28,29,29,30,30,31,31,33,33,34,34,36,36,37,37,38,38,40,40,41,41,42,42,43,43,44,44,45,45,46,46,47,47,48,48,51,51,52,52,53,53,54,54,55,55,56,56,58,58,59,59,60,60],"right_children":[2,4,6,8,10,12,14,16,18,20,22,24,26,28,30,32,34,-1,36,38,40,42,44,46,48,50,52,54,56,58,60,62,-1,64,66,-1,68,70,72,-1,74,76,78,80,82,84,86,88,90,-1,-1,92,94,96,98,100,102,-1,104,106,108,-1,-1,-1,-1,-1,-1,-1,-1,-1,-1,-1,-1,-1,-1,-1,-1,-1,-1,-1,-1,-1,-1,-1,-1,-1,-1,-1,-1,-1,-1,-1,-1,-1,-1,-1,-1,-1,-1,-1,-1,-1,-1,-1,-1,-1,-1,-1,-1],"split_conditions":[3.4717708E-8,2.1457149E-8,1.0447975E-8,8.133957E-8,9.72294E-8,5.1886676E-8,6.9137704E-6,2.178612E-8,6.6825097E-9,3.9951004E-8,6.864141E-8,4.086752E-8,4.675408E-8,3.7978646E-7,1.6484227E-6,7.906484E-8,4.2730257E-8,4.8140094E-2,4.186578E-8,3.5152063E-8,6.8651055E-8,2.3138103E-8,1.9652123E-8,7.0226605E-8,2.0696259E-8,2.3138103E-8,1.3566142E-8,1.7570185E-6,3.6558802E-6,6.0707216E-6,1.2022597E-5,2.6430973E-8,1.1248073E-1,3.833104E-8,9.240963E-9,2.7849168E-2,2.052213E-8,2.0784482E-8,6.803048E-9,-8.399221E-2,9.7914015E-9,2.9847104E-8,1.0608409E-7,1.09266374E-7,2.1815138E-8,6.2177805E-9,5.18471E-9,3.3602472E-8,8.9831495E-8,-1.7328054E-2,-6.9791384E-2,5.6218724E-8,2.9287088E-8,6.639398E-7,1.0551882E-6,1.9214183E-6,3.1278219E-6,1.0020591E-1,2.816249E-7,1.2289237E-6,1.5559983E-5,3.4168012E-2,8.571336E-3,6.509985E-2,-1.5859472E-2,-4.6433233E-2,5.158872E-2,-5.4308124E-2,-1.4497214E-3,2.2500599E-2,1.0121122E-2,-2.6770635E-3,5.727682E-2,4.3522865E-2,-2.9811878E-2,4.48806E-2,9.7688675E-2,5.0034713E-2,-2.4945145E-2,-6.8836495E-2,-3.9579794E-3,7.075662E-2,-3.625452E-2,1.9293094E-2,5.9357077E-2,-1.1457868E-2,-6.8870306E-2,8.8556744E-2,2.6708389E-2,7.691523E-3,-5.435142E-2,8.180611E-2,-5.9675757E-2,8.369887E-2,4.1986126E-2,2.6300082E-2,4.064372E-3,5.271286E-2,7.071121E-3,5.002853E-4,8.822402E-3,3.043466E-2,9.76331E-3,6.0473345E-2,4.7161043E-2,3.3287197E-2,2.0022605E-2,8.437756E-2,3.3290327E-2],"split_indices":[9,4,2,6,6,8,9,12,3,8,5,4,7,3,4,6,14,0,5,13,6,3,3,11,13,3,3,8,8,13,7,5,0,7,2,0,4,14,2,0,2,9,6,6,13,2,2,8,5,0,0,9,3,5,4,9,6,0,2,3,13,0,0,0,0,0,0,0,0,0,0,0,0,0,0,0,0,0,0,0,0,0,0,0,0,0,0,0,0,0,0,0,0,0,0,0,0,0,0,0,0,0,0,0,0,0,0,0,0],"split_type":[0,0,0,0,0,0,0,0,0,0,0,0,0,0,0,0,0,0,0,0,0,0,0,0,0,0,0,0,0,0,0,0,0,0,0,0,0,0,0,0,0,0,0,0,0,0,0,0,0,0,0,0,0,0,0,0,0,0,0,0,0,0,0,0,0,0,0,0,0,0,0,0,0,0,0,0,0,0,0,0,0,0,0,0,0,0,0,0,0,0,0,0,0,0,0,0,0,0,0,0,0,0,0,0,0,0,0,0,0],"sum_hessian":[1.058E4,3.969E3,6.611E3,7.64E2,3.205E3,5.48E2,6.063E3,7.43E2,2.1E1,3.122E3,8.3E1,4.07E2,1.41E2,3.084E3,2.979E3,6.92E2,5.1E1,1E0,2E1,3.095E3,2.7E1,5.9E1,2.4E1,2.46E2,1.61E2,5E0,1.36E2,2.313E3,7.71E2,1.53E2,2.826E3,6.89E2,3E0,4.3E1,8E0,1E0,1.9E1,3.025E3,7E1,5E0,2.2E1,4.1E1,1.8E1,9E0,1.5E1,2.42E2,4E0,6.7E1,9.4E1,2E0,3E0,7E0,1.29E2,2.084E3,2.29E2,3.96E2,3.75E2,1E1,1.43E2,1.007E3,1.819E3,7E1,6.19E2,3.7E1,6E0,6E0,2E0,1.5E1,4E0,2.667E3,3.58E2,1.6E1,5.4E1,9E0,1.3E1,2E1,2.1E1,1.2E1,6E0,8E0,1E0,1.2E1,3E0,4.7E1,1.95E2,1E0,3E0,1.1E1,5.6E1,8.8E1,6E0,3E0,4E0,9.5E1,3.4E1,1.864E3,2.2E2,2.03E2,2.6E1,8.8E1,3.08E2,1.61E2,2.14E2,5.4E1,8.9E1,2.91E2,7.16E2,1.1E1,1.808E3],"tree_param":{"num_deleted":"0","num_feature":"16","num_nodes":"109","size_leaf_vector":"1"}},{"base_weights":[-8.585734E-2,1.9079195E-2,-1.8742119E-1,5.3396314E-2,-9.940798E-3,-1.263143E-1,-2.198352E-1,7.73911E-2,-6.842305E-2,-2.577111E-1,-6.1939303E-3,-1.4536865E-1,-3.415117E-2,-3.6212316E-1,-2.098926E-1,3.669935E-2,1.4252436E-1,2.3823664E-2,-2.1964467E-1,-2.5949292E-2,-1.1046212E0,5.156303E-3,-9.5030375E-2,-1.2338048E-1,-3.2030106E-1,3.8336128E-2,-1.08247265E-1,-3.0133203E-1,-4.6872768E-1,-8.822468E-2,-2.2573015E-1,4.0140986E-1,2.5032097E-2,1.4712387E-1,-3.22898E-1,2.1577483E-1,-8.514116E-2,-5.738237E-1,-6.3077416E-3,3.456282E-1,-2.7243194E-1,-1.9819526E-1,-1.5248015E0,-2.0794371E-2,6.873732E-2,-3.6723387E-1,-8.3904885E-2,2.5442618E-1,-1.2857941E-1,-5.7709324E-1,-2.6850465E-1,6.2482174E-2,-9.1298126E-2,-7.166904E-1,-9.1952264E-2,-3.6740535E-1,-5.0334834E-2,-3.211447E-1,-5.326552E-1,-5.3059125E-1,-7.7285096E-2,-3.4852472E-1,-2.16428E-1,1.6630416E-1,-7.3130704E-3,1.2729806E-1,5.4590506E-3,6.4449124E-2,2.6256025E-2,-4.0430877E-2,8.32529E-2,-5.3939406E-2,1.0165634E-1,-3.1947285E-1,-6.742244E-2,3.1142848E-2,-1.11423016E-1,-3.8402498E-2,1.4593169E-1,-2.9307002E-1,-1.4763012E-2,5.570451E-2,-1.1641445E-1,-5.5757666E-1,2.162015E-2,-1.8578755E-2,1.8097576E-2,6.334553E-2,-6.5431576E-3,-1.765646E-1,-2.2140525E-2,-4.518924E-2,1.3588877E-1,-2.7415308E-1,-3.714923E-2,-1.8291593E-2,-1.8433495E-1,-4.7155384E-2,-1.376321E-1,-2.2964314E-2,2.4794377E-2,-3.350679E-2,-1.4138103E-3,9.033895E-3,-2.9269877E-1,-2.0221367E-2,-1.0083648E-1,-1.4287342E-1,-8.931754E-2,5.3259893E-3,-1.5941703E-1,-2.0848821E-1,-6.137922E-2,-2.4450877E-1,-1.4443368E-1,-1.8427205E-1,2.0790054E-2,-4.445499E-3,-4.4484846E-2,-6.5952025E-2,-1.3070989E-1,-5.420489E-2,-7.686907E-2],"categories":[],"categories_nodes":[],"categories_segments":[],"categories_sizes":[],"default_left":[0,0,0,0,0,0,0,0,0,0,0,0,0,0,0,0,0,0,0,0,0,0,0,0,0,0,0,0,0,0,0,0,0,0,0,0,0,0,0,0,0,0,0,0,0,0,0,0,0,0,0,0,0,0,0,0,0,0,0,0,0,0,0,0,0,0,0,0,0,0,0,0,0,0,0,0,0,0,0,0,0,0,0,0,0,0,0,0,0,0,0,0,0,0,0,0,0,0,0,0,0,0,0,0,0,0,0,0,0,0,0,0,0,0,0,0,0,0,0,0,0,0,0],"id":15,"left_children":[1,3,5,7,9,11,13,15,17,19,21,23,25,27,29,31,33,35,37,39,41,43,45,47,49,51,53,55,57,59,61,63,65,67,-1,69,71,73,75,77,79,81,83,85,87,-1,89,91,93,95,97,99,101,103,105,107,109,111,113,115,117,119,121,-1,-1,-1,-1,-1,-1,-1,-1,-1,-1,-1,-1,-1,-1,-1,-1,-1,-1,-1,-1,-1,-1,-1,-1,-1,-1,-1,-1,-1,-1,-1,-1,-1,-1,-1,-1,-1,-1,-1,-1,-1,-1,-1,-1,-1,-1,-1,-1,-1,-1,-1,-1,-1,-1,-1,-1,-1,-1,-1,-1],"loss_changes":[1.1277332E2,5.184099E0,1.0622559E1,6.976721E0,2.6173148E0,3.2719364E0,4.892456E0,5.27699E0,5.487464E0,8.215155E0,2.8036036E0,5.9070816E0,1.728249E0,1.3363361E0,6.310013E0,5.2153015E0,4.4526434E0,5.142773E0,1.1254742E1,3.2081323E0,3.1255531E0,4.070256E0,3.8541932E0,2.7334766E0,2.1328068E0,5.159197E-1,1.5105171E0,2.4359703E0,5.931454E-1,1.7979288E0,3.2439728E0,2.4880223E0,3.242856E0,3.0643692E0,0E0,1.9634309E0,6.3619766E0,9.360714E0,3.817737E0,9.9597144E-1,3.2542338E0,3.6357406E-1,3.3320284E0,5.84988E0,9.224759E0,0E0,1.5523906E0,1.5961822E0,4.947027E0,5.023899E-1,2.9990978E0,3.9322907E-1,4.537864E-2,8.029852E-1,9.123763E-1,7.4553204E-1,1.0575668E0,1.034128E0,4.0292358E-1,4.941895E-1,1.6476216E0,2.1814861E0,3.8007736E0,0E0,0E0,0E0,0E0,0E0,0E0,0E0,0E0,0E0,0E0,0E0,0E0,0E0,0E0,0E0,0E0,0E0,0E0,0E0,0E0,0E0,0E0,0E0,0E0,0E0,0E0,0E0,0E0,0E0,0E0,0E0,0E0,0E0,0E0,0E0,0E0,0E0,0E0,0E0,0E0,0E0,0E0,0E0,0E0,0E0,0E0,0E0,0E0,0E0,0E0,0E0,0E0,0E0,0E0,0E0,0E0,0E0,0E0,0E0,0E0],"parents":[2147483647,0,0,1,1,2,2,3,3,4,4,5,5,6,6,7,7,8,8,9,9,10,10,11,11,12,12,13,13,14,14,15,15,16,16,17,17,18,18,19,19,20,20,21,21,22,22,23,23,24,24,25,25,26,26,27,27,28,28,29,29,30,30,31,31,32,32,33,33,35,35,36,36,37,37,38,38,39,39,40,40,41,41,42,42,43,43,44,44,46,46,47,47,48,48,49,49,50,50,51,51,52,52,53,53,54,54,55,55,56,56,57,57,58,58,59,59,60,60,61,61,62,62],"right_children":[2,4,6,8,10,12,14,16,18,20,22,24,26,28,30,32,34,36,38,40,42,44,46,48,50,52,54,56,58,60,62,64,66,68,-1,70,72,74,76,78,80,82,84,86,88,-1,90,92,94,96,98,100,102,104,106,108,110,112,114,116,118,120,122,-1,-1,-1,-1,-1,-1,-1,-1,-1,-1,-1,-1,-1,-1,-1,-1,-1,-1,-1,-1,-1,-1,-1,-1,-1,-1,-1,-1,-1,-1,-1,-1,-1,-1,-1,-1,-1,-1,-1,-1,-1,-1,-1,-1,-1,-1,-1,-1,-1,-1,-1,-1,-1,-1,-1,-1,-1,-1,-1,-1],"split_conditions":[6.32199E-8,1.596203E-8,4.9489364E-7,1.1031123E-8,2.853467E-8,2.100113E-6,4.7167373E-6,7.774263E-9,5.660338E-8,2.7748847E-8,6.284321E-8,6.00239E-7,1.5310939E-6,2.447428E-6,3.099586E-6,5.9076997E-9,1.1342078E-7,2.6530515E-8,2.9040589E-8,1.5461069E-8,1.439421E-8,1.1357191E-8,4.0044398E-8,4.4598984E-8,9.416847E-7,4.0062673E-6,2.1951926E-7,3.6055756E-6,3.3822758E-7,4.205679E-6,5.0039357E-6,4.2433758E-8,1.292014E-8,2.7862276E-8,-3.22898E-1,1.32043265E-8,1.4957903E-8,6.1101254E-8,4.621012E-8,9.715979E-9,1.7253791E-8,1.6482412E-8,2.2093253E-8,2.079713E-8,3.0183294E-8,-3.6723387E-1,8.5597954E-8,6.5013126E-8,4.7496467E-8,5.901249E-8,1.3175687E-6,2.2195477E-6,5.507931E-6,1.9357115E-7,5.9515014E-7,1.4233653E-6,2.2659153E-6,1.1023889E-6,5.6922465E-7,8.4630483E-7,3.4016728E-6,3.9888123E-6,1.2787568E-6,1.6630416E-1,-7.3130704E-3,1.2729806E-1,5.4590506E-3,6.4449124E-2,2.6256025E-2,-4.0430877E-2,8.32529E-2,-5.3939406E-2,1.0165634E-1,-3.1947285E-1,-6.742244E-2,3.1142848E-2,-1.11423016E-1,-3.8402498E-2,1.4593169E-1,-2.9307002E-1,-1.4763012E-2,5.570451E-2,-1.1641445E-1,-5.5757666E-1,2.162015E-2,-1.8578755E-2,1.8097576E-2,6.334553E-2,-6.5431576E-3,-1.765646E-1,-2.2140525E-2,-4.518924E-2,1.3588877E-1,-2.7415308E-1,-3.714923E-2,-1.8291593E-2,-1.8433495E-1,-4.7155384E-2,-1.376321E-1,-2.2964314E-2,2.4794377E-2,-3.350679E-2,-1.4138103E-3,9.033895E-3,-2.9269877E-1,-2.0221367E-2,-1.0083648E-1,-1.4287342E-1,-8.931754E-2,5.3259893E-3,-1.5941703E-1,-2.0848821E-1,-6.137922E-2,-2.4450877E-1,-1.4443368E-1,-1.8427205E-1,2.0790054E-2,-4.445499E-3,-4.4484846E-2,-6.5952025E-2,-1.3070989E-1,-5.420489E-2,-7.686907E-2],"split_indices":[4,3,3,2,5,8,12,2,5,5,8,4,5,6,5,3,14,4,9,9,4,2,9,7,14,14,3,12,2,10,7,5,4,4,0,10,3,5,12,10,8,3,8,12,9,0,6,5,7,2,5,8,13,2,2,7,5,4,3,3,6,6,2,0,0,0,0,0,0,0,0,0,0,0,0,0,0,0,0,0,0,0,0,0,0,0,0,0,0,0,0,0,0,0,0,0,0,0,0,0,0,0,0,0,0,0,0,0,0,0,0,0,0,0,0,0,0,0,0,0,0,0,0],"split_type":[0,0,0,0,0,0,0,0,0,0,0,0,0,0,0,0,0,0,0,0,0,0,0,0,0,0,0,0,0,0,0,0,0,0,0,0,0,0,0,0,0,0,0,0,0,0,0,0,0,0,0,0,0,0,0,0,0,0,0,0,0,0,0,0,0,0,0,0,0,0,0,0,0,0,0,0,0,0,0,0,0,0,0,0,0,0,0,0,0,0,0,0,0,0,0,0,0,0,0,0,0,0,0,0,0,0,0,0,0,0,0,0,0,0,0,0,0,0,0,0,0,0,0],"sum_hessian":[1.058E4,5.204E3,5.376E3,2.384E3,2.82E3,1.865E3,3.511E3,1.992E3,3.92E2,4.1E1,2.779E3,1.545E3,3.2E2,2.27E2,3.284E3,1.227E3,7.65E2,2.44E2,1.48E2,3.3E1,8E0,2.465E3,3.14E2,1.374E3,1.71E2,1.62E2,1.58E2,1.47E2,8E1,3.79E2,2.905E3,3.7E1,1.19E3,7.63E2,2E0,8.8E1,1.56E2,5.5E1,9.3E1,1.3E1,2E1,3E0,5E0,1.751E3,7.14E2,2E0,3.12E2,1.8E1,1.356E3,2.7E1,1.44E2,1.37E2,2.5E1,3E0,1.55E2,1.16E2,3.1E1,2.6E1,5.4E1,8E0,3.71E2,2.02E2,2.703E3,2.7E1,1E1,1.9E1,1.171E3,3.56E2,4.07E2,1.3E1,7.5E1,1.28E2,2.8E1,2.2E1,3.3E1,7.2E1,2.1E1,3E0,1E1,4E0,1.6E1,1E0,2E0,4E0,1E0,1.162E3,5.89E2,2.77E2,4.37E2,5E0,3.07E2,6E0,1.2E1,7E0,1.349E3,2E0,2.5E1,9.2E1,5.2E1,1.7E1,1.2E2,2E1,5E0,1E0,2E0,1.42E2,1.3E1,4.3E1,7.3E1,2.8E1,3E0,5E0,2.1E1,6E0,4.8E1,7E0,1E0,1.98E2,1.73E2,8.3E1,1.19E2,1.427E3,1.276E3],"tree_param":{"num_deleted":"0","num_feature":"16","num_nodes":"123","size_leaf_vector":"1"}},{"base_weights":[5.934754E-2,4.6708312E-2,6.783823E-2,1.5231057E-1,4.564471E-2,1.1236874E-1,6.356235E-2,2.5243902E-1,-2.6175622E-2,-1.654818E-2,4.8103373E-2,6.1736163E-2,1.6756222E-1,5.398235E-2,7.661564E-2,5.2643638E-2,3.8650814E-1,-9.790267E-2,8.003097E-2,-5.0072923E-2,8.279431E-2,4.8877608E-2,-1.0291356E-1,9.491603E-2,-2.8084962E-2,1.22698404E-1,2.1356156E-1,6.0854913E-3,5.7183746E-2,1.298797E-1,7.402354E-2,2.0141554E-1,-1.9326497E-2,4.1036856E-1,4.290256E-3,5.6158114E-2,-1.7195131E-1,1.3923036E-1,-4.127481E-2,-2.4636349E-2,-1.5185255E-1,-6.533791E-2,1.3059236E-1,5.0569072E-2,-3.9860485E-3,6.828283E-2,-2.135177E-1,1.108007E-1,-1.21089295E-1,8.93818E-2,-6.421256E-2,1.9116874E-1,2.7321603E-2,2.4507095E-1,7.931013E-2,3.891826E-2,-9.442404E-2,1.09372266E-1,5.0391965E-2,1.8383376E-1,1.1307594E-1,6.176109E-2,8.3974496E-2,7.711522E-2,5.176494E-3,-5.511288E-2,2.8044995E-2,1.3905472E-1,6.341133E-2,4.0979184E-2,-4.8562093E-3,-1.906838E-2,-6.077853E-2,5.2716818E-2,-6.48471E-3,2.08183E-2,-1.5830653E-2,-5.5419404E-2,-6.7282976E-3,9.759766E-2,2.1710902E-2,1.4529852E-2,2.9443823E-2,5.7953233E-3,-3.8538616E-2,-2.5899438E-2,8.494006E-2,8.936159E-3,-7.088262E-2,-4.778199E-3,4.0872853E-2,-4.9628913E-3,-5.6684624E-2,7.137858E-2,-5.9777908E-2,-6.1054625E-2,-5.5163926E-3,7.064113E-2,1.1662639E-2,-3.94925E-2,1.7761651E-2,1.7138423E-2,7.933714E-2,4.93921E-2,-3.0048752E-2,5.5561725E-2,5.6789247E-3,6.4440355E-2,-3.3326723E-2,2.4360634E-2,5.9767287E-2,-3.4548305E-2,1.5692953E-2,1.542058E-2,5.793441E-2,1.8773329E-2,3.7550166E-2,2.353413E-2,1.5750354E-2,4.106665E-2,2.4635702E-2],"categories":[],"categories_nodes":[],"categories_segments":[],"categories_sizes":[],"default_left":[0,0,0,0,0,0,0,0,0,0,0,0,0,0,0,0,0,0,0,0,0,0,0,0,0,0,0,0,0,0,0,0,0,0,0,0,0,0,0,0,0,0,0,0,0,0,0,0,0,0,0,0,0,0,0,0,0,0,0,0,0,0,0,0,0,0,0,0,0,0,0,0,0,0,0,0,0,0,0,0,0,0,0,0,0,0,0,0,0,0,0,0,0,0,0,0,0,0,0,0,0,0,0,0,0,0,0,0,0,0,0,0,0,0,0,0,0,0,0,0,0],"id":16,"left_children":[1,3,5,7,9,11,13,15,17,19,21,23,25,27,29,31,33,35,37,39,41,43,45,47,49,51,53,55,57,59,61,63,65,67,-1,69,71,73,-1,75,77,-1,79,81,83,85,87,89,91,93,95,97,99,101,103,105,107,109,111,113,115,117,119,-1,-1,-1,-1,-1,-1,-1,-1,-1,-1,-1,-1,-1,-1,-1,-1,-1,-1,-1,-1,-1,-1,-1,-1,-1,-1,-1,-1,-1,-1,-1,-1,-1,-1,-1,-1,-1,-1,-1,-1,-1,-1,-1,-1,-1,-1,-1,-1,-1,-1,-1,-1,-1,-1,-1,-1,-1,-1],"loss_changes":[1.1323395E0,4.7096252E-1,1.1975632E0,7.572129E-1,6.4516354E-1,1.5350618E0,7.180309E-1,7.0288527E-1,1.2972142E-1,5.403452E-1,4.7903252E-1,8.669392E-1,5.1861477E-1,5.108776E-1,3.275423E-1,1.3237827E-1,1.3622785E-1,1.2373638E-1,1.0933386E-1,3.095188E-1,6.175091E-1,3.6091042E-1,4.1221523E-1,7.408254E-1,3.40999E-1,8.829224E-1,5.2625656E-1,6.9667614E-1,1.1021538E0,8.075559E-2,2.792492E-1,3.654781E-2,1.8406999E-1,6.066823E-2,0E0,2.5488786E-2,1.0373145E-2,3.9016284E-2,0E0,2.6290298E-1,9.798497E-2,0E0,3.846202E-1,3.9253998E-1,3.679777E-1,3.234142E-1,7.9019666E-2,6.405678E-1,1.03291065E-1,8.620683E-1,3.85651E-1,5.238471E-1,3.017593E-1,3.638153E-1,4.1466606E-1,4.6142113E-1,2.918309E-1,8.925042E-1,8.8457394E-1,2.0800829E-2,4.5898914E-2,1.5780902E-1,1.1482525E-1,0E0,0E0,0E0,0E0,0E0,0E0,0E0,0E0,0E0,0E0,0E0,0E0,0E0,0E0,0E0,0E0,0E0,0E0,0E0,0E0,0E0,0E0,0E0,0E0,0E0,0E0,0E0,0E0,0E0,0E0,0E0,0E0,0E0,0E0,0E0,0E0,0E0,0E0,0E0,0E0,0E0,0E0,0E0,0E0,0E0,0E0,0E0,0E0,0E0,0E0,0E0,0E0,0E0,0E0,0E0,0E0,0E0,0E0],"parents":[2147483647,0,0,1,1,2,2,3,3,4,4,5,5,6,6,7,7,8,8,9,9,10,10,11,11,12,12,13,13,14,14,15,15,16,16,17,17,18,18,19,19,20,20,21,21,22,22,23,23,24,24,25,25,26,26,27,27,28,28,29,29,30,30,31,31,32,32,33,33,35,35,36,36,37,37,39,39,40,40,42,42,43,43,44,44,45,45,46,46,47,47,48,48,49,49,50,50,51,51,52,52,53,53,54,54,55,55,56,56,57,57,58,58,59,59,60,60,61,61,62,62],"right_children":[2,4,6,8,10,12,14,16,18,20,22,24,26,28,30,32,34,36,38,40,42,44,46,48,50,52,54,56,58,60,62,64,66,68,-1,70,72,74,-1,76,78,-1,80,82,84,86,88,90,92,94,96,98,100,102,104,106,108,110,112,114,116,118,120,-1,-1,-1,-1,-1,-1,-1,-1,-1,-1,-1,-1,-1,-1,-1,-1,-1,-1,-1,-1,-1,-1,-1,-1,-1,-1,-1,-1,-1,-1,-1,-1,-1,-1,-1,-1,-1,-1,-1,-1,-1,-1,-1,-1,-1,-1,-1,-1,-1,-1,-1,-1,-1,-1,-1,-1,-1,-1],"split_conditions":[3.9350212E-8,3.1082446E-9,7.454355E-8,1.1195176E-8,4.0265156E-9,9.969451E-8,1.1529717E-5,1.3942871E-8,1.6942376E-8,4.6782706E-8,5.3612215E-8,4.6973827E-8,5.5318978E-8,2.759493E-8,4.212987E-6,1.559824E-8,1.8834927E-8,1.3892662E-8,2.9847104E-8,4.2958586E-8,8.592842E-9,7.749629E-8,9.240963E-9,5.5938827E-8,4.604625E-8,3.009521E-8,3.2733915E-8,3.1739308E-8,1.7952484E-8,3.099586E-6,2.44713E-5,1.0052389E-8,9.715979E-9,3.88438E-8,4.290256E-3,1.6823277E-8,3.8375394E-8,2.0593035E-8,-4.127481E-2,8.592842E-9,1.536264E-8,-6.533791E-2,4.7977526E-8,1.4965002E-8,5.1484065E-8,2.5019512E-8,3.239341E-8,2.7612938E-8,8.438538E-9,5.1886676E-8,1.6228341E-8,5.0629957E-8,4.427985E-8,5.6461083E-8,6.8075465E-8,7.2687976E-9,3.7793047E-8,1.5301086E-7,7.920317E-8,6.1445285E-6,1.1971413E-5,9.3097736E-7,2.725635E-5,7.711522E-2,5.176494E-3,-5.511288E-2,2.8044995E-2,1.3905472E-1,6.341133E-2,4.0979184E-2,-4.8562093E-3,-1.906838E-2,-6.077853E-2,5.2716818E-2,-6.48471E-3,2.08183E-2,-1.5830653E-2,-5.5419404E-2,-6.7282976E-3,9.759766E-2,2.1710902E-2,1.4529852E-2,2.9443823E-2,5.7953233E-3,-3.8538616E-2,-2.5899438E-2,8.494006E-2,8.936159E-3,-7.088262E-2,-4.778199E-3,4.0872853E-2,-4.9628913E-3,-5.6684624E-2,7.137858E-2,-5.9777908E-2,-6.1054625E-2,-5.5163926E-3,7.064113E-2,1.1662639E-2,-3.94925E-2,1.7761651E-2,1.7138423E-2,7.933714E-2,4.93921E-2,-3.0048752E-2,5.5561725E-2,5.6789247E-3,6.4440355E-2,-3.3326723E-2,2.4360634E-2,5.9767287E-2,-3.4548305E-2,1.5692953E-2,1.542058E-2,5.793441E-2,1.8773329E-2,3.7550166E-2,2.353413E-2,1.5750354E-2,4.106665E-2,2.4635702E-2],"split_indices":[8,2,5,12,2,6,9,8,10,5,12,11,8,14,5,7,3,10,9,5,3,5,2,4,10,12,3,3,2,5,8,3,10,5,0,7,5,3,0,3,14,0,5,2,4,4,5,10,2,8,3,4,8,7,5,2,9,8,8,7,9,2,13,0,0,0,0,0,0,0,0,0,0,0,0,0,0,0,0,0,0,0,0,0,0,0,0,0,0,0,0,0,0,0,0,0,0,0,0,0,0,0,0,0,0,0,0,0,0,0,0,0,0,0,0,0,0,0,0,0,0],"split_type":[0,0,0,0,0,0,0,0,0,0,0,0,0,0,0,0,0,0,0,0,0,0,0,0,0,0,0,0,0,0,0,0,0,0,0,0,0,0,0,0,0,0,0,0,0,0,0,0,0,0,0,0,0,0,0,0,0,0,0,0,0,0,0,0,0,0,0,0,0,0,0,0,0,0,0,0,0,0,0,0,0,0,0,0,0,0,0,0,0,0,0,0,0,0,0,0,0,0,0,0,0,0,0,0,0,0,0,0,0,0,0,0,0,0,0,0,0,0,0,0,0],