{"learner":{"attributes":{"scikit_learn":"{\"_estimator_type\": \"regressor\"}"},"feature_names":[],"feature_types":[],"gradient_booster":{"model":{"gbtree_model_param":{"num_parallel_tree":"1","num_trees":"200"},"iteration_indptr":[0,2,4,6,8,10,12,14,16,18,20,22,24,26,28,30,32,34,36,38,40,42,44,46,48,50,52,54,56,58,60,62,64,66,68,70,72,74,76,78,80,82,84,86,88,90,92,94,96,98,100,102,104,106,108,110,112,114,116,118,120,122,124,126,128,130,132,134,136,138,140,142,144,146,148,150,152,154,156,158,160,162,164,166,168,170,172,174,176,178,180,182,184,186,188,190,192,194,196,198,200],"tree_info":[0,1,0,1,0,1,0,1,0,1,0,1,0,1,0,1,0,1,0,1,0,1,0,1,0,1,0,1,0,1,0,1,0,1,0,1,0,1,0,1,0,1,0,1,0,1,0,1,0,1,0,1,0,1,0,1,0,1,0,1,0,1,0,1,0,1,0,1,0,1,0,1,0,1,0,1,0,1,0,1,0,1,0,1,0,1,0,1,0,1,0,1,0,1,0,1,0,1,0,1,0,1,0,1,0,1,0,1,0,1,0,1,0,1,0,1,0,1,0,1,0,1,0,1,0,1,0,1,0,1,0,1,0,1,0,1,0,1,0,1,0,1,0,1,0,1,0,1,0,1,0,1,0,1,0,1,0,1,0,1,0,1,0,1,0,1,0,1,0,1,0,1,0,1,0,1,0,1,0,1,0,1,0,1,0,1,0,1,0,1,0,1,0,1,0,1,0,1,0,1],"trees":[{"base_weights":[1.0174086E0,9.501554E-1,1.3079879E0,9.378394E-1,1.0535291E0,1.2179036E0,4.2967373E-1,9.628403E-1,8.3745426E-1,1.3135788E0,9.781068E-1,4.0343925E-1,1.1762885E0,9.4512516E-1,1.3003978E0,7.3026156E-1,8.8267463E-1,4.1735145E-1,3.536492E-1,2.7846387E-1,3.1036493E-1,3.3382067E-1,3.730669E-1,9.554552E-1,7.110127E-1,1.3151631E0,2.3626277E-1,1.8563986E-1,7.498744E-1,1.0981951E0,8.414426E-1,2.8297687E-1,3.4119138E-1,1.9887964E-1,2.6596966E-1,3.3160704E-1,4.043003E-1,2.69128E-1,2.1191628E-1,2.955577E-1,3.6223552E-1,2.3578948E-1,2.69675E-1],"categories":[],"categories_nodes":[],"categories_segments":[],"categories_sizes":[],"default_left":[0,0,0,0,0,0,0,0,0,0,0,0,0,0,0,0,0,0,0,0,0,0,0,0,0,0,0,0,0,0,0,0,0,0,0,0,0,0,0,0,0,0,0],"id":0,"left_children":[1,3,5,7,9,11,-1,13,15,17,19,-1,21,23,25,27,29,-1,-1,-1,-1,-1,-1,31,33,35,-1,-1,37,39,41,-1,-1,-1,-1,-1,-1,-1,-1,-1,-1,-1,-1],"loss_changes":[2.0553516E2,9.956055E0,2.0486328E1,1.8493652E1,1.6504639E1,4.533325E0,0E0,3.5546387E1,6.8250732E0,4.6157837E-1,1.0307007E0,0E0,2.378296E0,1.3461426E1,1.2662964E0,5.481415E-1,8.664307E0,0E0,0E0,0E0,0E0,0E0,0E0,1.1342773E1,1.5308762E0,5.1535034E-1,0E0,0E0,1.8567047E0,9.0927124E-1,2.1950684E0,0E0,0E0,0E0,0E0,0E0,0E0,0E0,0E0,0E0,0E0,0E0,0E0],"parents":[2147483647,0,0,1,1,2,2,3,3,4,4,5,5,7,7,8,8,9,9,10,10,12,12,13,13,14,14,15,15,16,16,23,23,24,24,25,25,28,28,29,29,30,30],"right_children":[2,4,6,8,10,12,-1,14,16,18,20,-1,22,24,26,28,30,-1,-1,-1,-1,-1,-1,32,34,36,-1,-1,38,40,42,-1,-1,-1,-1,-1,-1,-1,-1,-1,-1,-1,-1],"split_conditions":[3.179315E-5,1.6407845E-5,4.263111E-5,2.80237E-7,4.2529327E-6,1.6031196E-6,4.2967373E-1,6.0533607E-6,2.4911727E-5,8.498216E-7,4.3289656E-5,4.0343925E-1,4.8001722E-5,1.3392718E-6,8.466092E-7,5.417426E-6,1.8631297E-6,4.1735145E-1,3.536492E-1,2.7846387E-1,3.1036493E-1,3.3382067E-1,3.730669E-1,4.4774574E-6,5.669541E-6,4.4872086E-6,2.3626277E-1,1.8563986E-1,2.3517E-6,7.759234E-6,2.2079248E-5,2.8297687E-1,3.4119138E-1,1.9887964E-1,2.6596966E-1,3.3160704E-1,4.043003E-1,2.69128E-1,2.1191628E-1,2.955577E-1,3.6223552E-1,2.3578948E-1,2.69675E-1],"split_indices":[9,9,7,2,4,2,0,10,13,2,13,0,9,6,3,10,4,0,0,0,0,0,0,10,10,9,0,0,6,9,12,0,0,0,0,0,0,0,0,0,0,0,0],"split_type":[0,0,0,0,0,0,0,0,0,0,0,0,0,0,0,0,0,0,0,0,0,0,0,0,0,0,0,0,0,0,0,0,0,0,0,0,0,0,0,0,0,0,0],"sum_hessian":[1.058E4,8.595E3,1.985E3,7.689E3,9.06E2,1.157E3,8.28E2,6.149E3,1.54E3,2E2,7.06E2,2.78E2,8.79E2,5.846E3,3.03E2,4.62E2,1.078E3,1.21E2,7.9E1,3.84E2,3.22E2,4.61E2,4.18E2,5.596E3,2.5E2,2.93E2,1E1,7.4E1,3.88E2,1.69E2,9.09E2,5.25E3,3.46E2,2E2,5E1,4.4E1,2.49E2,8.4E1,3.04E2,8.8E1,8.1E1,4.7E2,4.39E2],"tree_param":{"num_deleted":"0","num_feature":"16","num_nodes":"43","size_leaf_vector":"1"}},{"base_weights":[-1.0174086E0,1.640434E-1,-2.2539659E0,3.6228842E-1,-7.710425E-1,-1.6751374E0,-2.6013892E0,4.3179077E-1,-1.05047435E-1,-4.0914404E-4,-8.450728E-1,-1.240939E0,-1.8268628E0,-2.2904637E0,-2.765648E0,5.082046E-1,2.2010675E-1,1.2359957E-1,-4.7599417E-1,3.1715643E-1,-5.008031E-1,1.1470963E-2,-8.7166184E-1,-1.403835E0,-1.0838761E0,-1.9962164E0,-1.5746402E0,-2.1653078E0,-2.5262992E0,-2.5102432E0,-2.8185763E0,5.318663E-1,2.1507679E-1,2.9280302E-1,-3.354307E-1,2.5774297E-1,-3.118479E-1,-1.4772552E-1,-7.5612587E-1,3.7185958E-1,-3.709055E-1,-1.3194599E0,-2.700105E-1,3.2093194E-1,-7.6361537E-1,-1.1671442E0,-8.1174225E-1,-1.1079816E0,-1.7452683E0,-2.8760955E-1,-1.2355493E0,-1.7893013E0,-2.408842E0,-1.3887972E0,-2.035899E0,-2.397525E0,-1.8742868E0,-2.4378548E0,-8.623414E-1,-2.6281285E0,-2.3290083E0,-2.7049472E0,-2.874029E0,1.675387E-1,8.1516206E-2,1.1379791E-1,-7.40599E-2,1.11534424E-1,8.857951E-3,-7.246039E-2,-2.791978E-1,1.0076917E-1,-8.633065E-2,1.524132E-1,-1.5279922E-1,9.8849975E-2,-1.10236175E-1,-1.2768292E-1,-3.255091E-1,1.3467371E-1,-5.2980833E-2,1.0909452E-1,-4.9817583E-1,5.8370132E-2,-1.5393259E-1,3.955222E-2,2.5855124E-1,-5.545407E-1,-2.8175808E-2,-7.840218E-2,-4.033471E-1,-2.2002444E-1,-2.8736362E-1,-2.8177476E-1,-3.5826027E-1,-5.7795054E-1,-4.112657E-1,-4.2984942E-1,-3.0720404E-1,-6.477201E-1,-4.55716E-1,-8.0865604E-1,-6.7048234E-1,-3.6846948E-1,-4.688069E-1,-6.98869E-1,-5.616145E-1,-6.823863E-1,-7.895587E-1,-5.128937E-1,-6.526723E-1,-7.912711E-1,-6.830231E-1,-5.603569E-1,-8.01408E-1,-6.0828096E-1,-7.7799064E-1,-7.701247E-1,-8.422349E-1,-8.7599635E-1,-8.011779E-1],"categories":[],"categories_nodes":[],"categories_segments":[],"categories_sizes":[],"default_left":[0,0,0,0,0,0,0,0,0,0,0,0,0,0,0,0,0,0,0,0,0,0,0,0,0,0,0,0,0,0,0,0,0,0,0,0,0,0,0,0,0,0,0,0,0,0,0,0,0,0,0,0,0,0,0,0,0,0,0,0,0,0,0,0,0,0,0,0,0,0,0,0,0,0,0,0,0,0,0,0,0,0,0,0,0,0,0,0,0,0,0,0,0,0,0,0,0,0,0,0,0,0,0,0,0,0,0,0,0,0,0,0,0,0,0,0,0,0,0,0,0],"id":1,"left_children":[1,3,5,7,9,11,13,15,17,19,21,23,25,27,29,31,33,35,37,39,41,43,45,47,49,51,53,55,57,59,61,63,65,67,69,71,73,75,77,79,-1,81,83,85,87,89,91,93,95,-1,97,99,101,103,105,107,109,111,-1,113,115,117,119,-1,-1,-1,-1,-1,-1,-1,-1,-1,-1,-1,-1,-1,-1,-1,-1,-1,-1,-1,-1,-1,-1,-1,-1,-1,-1,-1,-1,-1,-1,-1,-1,-1,-1,-1,-1,-1,-1,-1,-1,-1,-1,-1,-1,-1,-1,-1,-1,-1,-1,-1,-1,-1,-1,-1,-1,-1,-1],"loss_changes":[1.5458502E4,1.0035349E3,1.0353223E3,1.4510529E2,5.4026184E1,1.2566992E2,1.5857422E2,6.277881E1,4.9167213E1,1.3507096E1,1.9687317E1,1.1424438E1,5.8237793E1,2.764746E1,2.1421875E1,1.969458E1,4.181643E1,2.1050428E1,2.021112E1,4.878801E0,5.87875E0,6.7212605E0,1.3889526E1,2.2814758E1,3.789795E0,6.8773926E1,4.7062622E1,4.551538E1,4.786377E0,1.8051758E0,3.1777344E0,1.8127747E1,1.6406544E1,1.8993965E1,6.481969E0,1.1821028E1,1.40215E1,1.0921652E1,1.247448E1,2.234568E0,0E0,4.6229343E0,3.149158E0,1.9319842E0,5.6385694E0,2.1977692E1,7.310028E0,8.277893E-1,4.958252E0,0E0,3.3319702E0,5.40791E1,8.0842285E0,9.751709E0,3.578308E0,5.7646484E0,1.2798706E1,4.0339355E0,0E0,2.142456E0,7.0889893E0,1.0883789E0,2.9726562E0,0E0,0E0,0E0,0E0,0E0,0E0,0E0,0E0,0E0,0E0,0E0,0E0,0E0,0E0,0E0,0E0,0E0,0E0,0E0,0E0,0E0,0E0,0E0,0E0,0E0,0E0,0E0,0E0,0E0,0E0,0E0,0E0,0E0,0E0,0E0,0E0,0E0,0E0,0E0,0E0,0E0,0E0,0E0,0E0,0E0,0E0,0E0,0E0,0E0,0E0,0E0,0E0,0E0,0E0,0E0,0E0,0E0,0E0],"parents":[2147483647,0,0,1,1,2,2,3,3,4,4,5,5,6,6,7,7,8,8,9,9,10,10,11,11,12,12,13,13,14,14,15,15,16,16,17,17,18,18,19,19,20,20,21,21,22,22,23,23,24,24,25,25,26,26,27,27,28,28,29,29,30,30,31,31,32,32,33,33,34,34,35,35,36,36,37,37,38,38,39,39,41,41,42,42,43,43,44,44,45,45,46,46,47,47,48,48,50,50,51,51,52,52,53,53,54,54,55,55,56,56,57,57,59,59,60,60,61,61,62,62],"right_children":[2,4,6,8,10,12,14,16,18,20,22,24,26,28,30,32,34,36,38,40,42,44,46,48,50,52,54,56,58,60,62,64,66,68,70,72,74,76,78,80,-1,82,84,86,88,90,92,94,96,-1,98,100,102,104,106,108,110,112,-1,114,116,118,120,-1,-1,-1,-1,-1,-1,-1,-1,-1,-1,-1,-1,-1,-1,-1,-1,-1,-1,-1,-1,-1,-1,-1,-1,-1,-1,-1,-1,-1,-1,-1,-1,-1,-1,-1,-1,-1,-1,-1,-1,-1,-1,-1,-1,-1,-1,-1,-1,-1,-1,-1,-1,-1,-1,-1,-1,-1,-1],"split_conditions":[1.0273174E-7,4.722286E-7,1.735786E-6,2.5864642E-7,1.1132182E-7,3.8199116E-7,1.7447182E-6,7.068385E-7,1.3393768E-7,7.068385E-7,2.0537813E-7,3.6730537E-5,1.8598848E-5,3.411171E-6,7.02244E-6,1.5390154E-7,1.3004051E-6,4.247756E-8,3.9903307E-7,2.3167938E-6,3.7172067E-6,7.295999E-7,6.7097576E-6,1.129802E-6,6.903963E-7,3.8920407E-6,1.0446611E-6,3.7219146E-5,1.0507898E-4,4.3289656E-5,2.427361E-6,9.294022E-8,1.2451168E-6,4.0573798E-7,4.4468584E-7,7.5611786E-7,1.135387E-6,3.693873E-6,8.1830095E-8,8.5068535E-8,-3.709055E-1,8.0584364E-8,3.036012E-8,1.2030546E-5,1.7922599E-7,3.2030094E-8,1.4843003E-7,1.7711862E-7,4.938573E-6,-2.8760955E-1,6.5143163E-6,1.39602025E-5,3.868746E-5,5.6275195E-7,4.4584976E-5,9.18841E-6,7.1613977E-6,4.591379E-5,-8.623414E-1,8.067871E-6,3.8591006E-6,9.549851E-6,1.7757384E-5,1.675387E-1,8.1516206E-2,1.1379791E-1,-7.40599E-2,1.11534424E-1,8.857951E-3,-7.246039E-2,-2.791978E-1,1.0076917E-1,-8.633065E-2,1.524132E-1,-1.5279922E-1,9.8849975E-2,-1.10236175E-1,-1.2768292E-1,-3.255091E-1,1.3467371E-1,-5.2980833E-2,1.0909452E-1,-4.9817583E-1,5.8370132E-2,-1.5393259E-1,3.955222E-2,2.5855124E-1,-5.545407E-1,-2.8175808E-2,-7.840218E-2,-4.033471E-1,-2.2002444E-1,-2.8736362E-1,-2.8177476E-1,-3.5826027E-1,-5.7795054E-1,-4.112657E-1,-4.2984942E-1,-3.0720404E-1,-6.477201E-1,-4.55716E-1,-8.0865604E-1,-6.7048234E-1,-3.6846948E-1,-4.688069E-1,-6.98869E-1,-5.616145E-1,-6.823863E-1,-7.895587E-1,-5.128937E-1,-6.526723E-1,-7.912711E-1,-6.830231E-1,-5.603569E-1,-8.01408E-1,-6.0828096E-1,-7.7799064E-1,-7.701247E-1,-8.422349E-1,-8.7599635E-1,-8.011779E-1],"split_indices":[2,6,3,5,4,3,2,7,4,7,5,14,12,3,4,4,8,2,6,9,10,7,11,6,4,6,2,13,14,13,2,3,8,6,6,7,8,10,3,3,0,4,2,12,5,2,3,3,10,0,10,12,14,2,14,6,4,13,0,6,3,4,4,0,0,0,0,0,0,0,0,0,0,0,0,0,0,0,0,0,0,0,0,0,0,0,0,0,0,0,0,0,0,0,0,0,0,0,0,0,0,0,0,0,0,0,0,0,0,0,0,0,0,0,0,0,0,0,0,0,0],"split_type":[0,0,0,0,0,0,0,0,0,0,0,0,0,0,0,0,0,0,0,0,0,0,0,0,0,0,0,0,0,0,0,0,0,0,0,0,0,0,0,0,0,0,0,0,0,0,0,0,0,0,0,0,0,0,0,0,0,0,0,0,0,0,0,0,0,0,0,0,0,0,0,0,0,0,0,0,0,0,0,0,0,0,0,0,0,0,0,0,0,0,0,0,0,0,0,0,0,0,0,0,0,0,0,0,0,0,0,0,0,0,0,0,0,0,0,0,0,0,0,0,0],"sum_hessian":[1.058E4,5.411E3,5.169E3,4.465E3,9.46E2,1.941E3,3.228E3,3.887E3,5.78E2,8.3E1,8.63E2,5.05E2,1.436E3,1.121E3,2.107E3,2.855E3,1.032E3,3.58E2,2.2E2,5.1E1,3.2E1,2.6E1,8.37E2,2.44E2,2.61E2,8.55E2,5.81E2,7.39E2,3.82E2,3.7E2,1.737E3,2.641E3,2.14E2,9.13E2,1.19E2,2.74E2,8.4E1,1.02E2,1.18E2,5E1,1E0,6E0,2.6E1,1.9E1,7E0,1.38E2,6.99E2,1.33E2,1.11E2,1.47E2,1.14E2,5.73E2,2.82E2,4.17E2,1.64E2,4.07E2,3.32E2,3.11E2,7.1E1,2.16E2,1.54E2,5.86E2,1.151E3,2.395E3,2.46E2,1.58E2,5.6E1,7.02E2,2.11E2,1.04E2,1.5E1,2.4E2,3.4E1,1.6E1,6.8E1,3.2E1,7E1,6E1,5.8E1,4.4E1,6E0,1E0,5E0,9E0,1.7E1,1.5E1,4E0,2E0,5E0,2.3E1,1.15E2,4.59E2,2.4E2,4.9E1,8.4E1,7.2E1,3.9E1,5.6E1,5.8E1,2.39E2,3.34E2,1.01E2,1.81E2,2.21E2,1.96E2,5.4E1,1.1E2,2.74E2,1.33E2,2.19E2,1.13E2,1.32E2,1.79E2,1.4E1,2.02E2,7.6E1,7.8E1,2.61E2,3.25E2,9.28E2,2.23E2],"tree_param":{"num_deleted":"0","num_feature":"16","num_nodes":"121","size_leaf_vector":"1"}},{"base_weights":[7.128278E-1,6.6684645E-1,9.22026E-1,6.5728056E-1,7.4768156E-1,8.651702E-1,1.0177103E0,6.733372E-1,5.7947385E-1,9.2333424E-1,6.920944E-1,9.316883E-1,8.232052E-1,2.9625764E-1,3.2548267E-1,6.615398E-1,9.1147697E-1,4.9742773E-1,6.203064E-1,2.8672877E-1,2.096938E-1,6.597483E-1,7.3669595E-1,2.902859E-1,2.5302547E-1,2.28274E-1,2.572866E-1,6.759743E-1,5.4440695E-1,2.8967234E-1,2.3632519E-1,1.2881072E-1,5.156985E-1,7.886531E-1,5.8639127E-1,2.1409853E-1,1.9088651E-1,2.4543513E-1,2.1233597E-1,1.9800203E-1,2.6791513E-1,1.4430276E-1,1.8984137E-1,1.8288723E-1,1.4480017E-1,2.0462745E-1,2.7123597E-1,1.6028932E-1,1.8305545E-1],"categories":[],"categories_nodes":[],"categories_segments":[],"categories_sizes":[],"default_left":[0,0,0,0,0,0,0,0,0,0,0,0,0,0,0,0,0,0,0,0,0,0,0,0,0,0,0,0,0,0,0,0,0,0,0,0,0,0,0,0,0,0,0,0,0,0,0,0,0],"id":2,"left_children":[1,3,5,7,9,11,13,15,17,19,21,23,25,-1,-1,27,29,31,33,-1,-1,35,37,-1,-1,-1,-1,39,41,-1,-1,-1,43,45,47,-1,-1,-1,-1,-1,-1,-1,-1,-1,-1,-1,-1,-1,-1],"loss_changes":[1.01166016E2,6.21875E0,9.477661E0,9.314453E0,8.256012E0,2.5854492E0,3.572998E-1,1.746997E1,4.167206E0,9.034271E-1,5.180969E-1,6.333313E-1,9.446411E-1,0E0,0E0,1.0001465E1,1.2540436E0,3.3690643E-1,4.607605E0,0E0,0E0,6.826782E-2,8.943176E-2,0E0,0E0,0E0,0E0,1.8322021E1,3.4953003E0,0E0,0E0,0E0,7.885208E-1,1.1797409E0,5.949402E-1,0E0,0E0,0E0,0E0,0E0,0E0,0E0,0E0,0E0,0E0,0E0,0E0,0E0,0E0],"parents":[2147483647,0,0,1,1,2,2,3,3,4,4,5,5,6,6,7,7,8,8,9,9,10,10,11,11,12,12,15,15,16,16,17,17,18,18,21,21,22,22,27,27,28,28,32,32,33,33,34,34],"right_children":[2,4,6,8,10,12,14,16,18,20,22,24,26,-1,-1,28,30,32,34,-1,-1,36,38,-1,-1,-1,-1,40,42,-1,-1,-1,44,46,48,-1,-1,-1,-1,-1,-1,-1,-1,-1,-1,-1,-1,-1,-1],"split_conditions":[2.763495E-5,1.7309207E-5,6.613702E-5,7.38823E-7,1.2411319E-6,2.0268244E-6,2.0023741E-5,1.5575633E-5,1.788364E-5,2.989223E-6,3.9924777E-5,4.206891E-6,6.106195E-5,2.9625764E-1,3.2548267E-1,1.160674E-7,3.4047096E-7,2.3472832E-5,2.4984663E-6,2.8672877E-1,2.096938E-1,1.0351473E-5,1.2149341E-5,2.902859E-1,2.5302547E-1,2.28274E-1,2.572866E-1,2.5511056E-6,5.417426E-6,2.8967234E-1,2.3632519E-1,1.2881072E-1,3.5275023E-6,1.0125572E-5,4.3531152E-5,2.1409853E-1,1.9088651E-1,2.4543513E-1,2.1233597E-1,1.9800203E-1,2.6791513E-1,1.4430276E-1,1.8984137E-1,1.8288723E-1,1.4480017E-1,2.0462745E-1,2.7123597E-1,1.6028932E-1,1.8305545E-1],"split_indices":[8,9,8,3,2,2,4,12,12,3,12,3,12,0,0,2,2,13,4,0,0,5,5,0,0,0,0,9,10,0,0,0,6,9,14,0,0,0,0,0,0,0,0,0,0,0,0,0,0],"split_type":[0,0,0,0,0,0,0,0,0,0,0,0,0,0,0,0,0,0,0,0,0,0,0,0,0,0,0,0,0,0,0,0,0,0,0,0,0,0,0,0,0,0,0,0,0,0,0,0,0],"sum_hessian":[1.058E4,8.677E3,1.903E3,7.767E3,9.1E2,1.2E3,7.03E2,6.432E3,1.335E3,2.15E2,6.95E2,4.56E2,7.44E2,4.96E2,2.07E2,6.132E3,3E2,4.48E2,8.87E2,1.85E2,3E1,4.12E2,2.83E2,3.17E2,1.39E2,2.73E2,4.71E2,5.455E3,6.77E2,2.04E2,9.6E1,1E2,3.48E2,1.45E2,7.42E2,1.16E2,2.96E2,6.7E1,2.16E2,5.085E3,3.7E2,3.98E2,2.79E2,8.6E1,2.62E2,7.9E1,6.6E1,2.4E2,5.02E2],"tree_param":{"num_deleted":"0","num_feature":"16","num_nodes":"49","size_leaf_vector":"1"}},{"base_weights":[-7.141505E-1,1.1467581E-1,-1.5816348E0,2.535139E-1,-5.4019815E-1,-1.2063339E0,-1.8492714E0,3.313388E-1,3.2201026E-2,-1.2324358E-1,-6.142047E-1,-9.7447735E-1,-1.3883165E0,-1.681416E0,-1.9810421E0,3.8176012E-1,1.8485701E-1,2.4832729E-1,-1.6823424E-1,1.2896517E-1,-4.4955903E-1,-9.4275326E-1,-5.645852E-1,-1.213635E0,-8.0164844E-1,-1.5466205E0,-1.0445241E0,-1.5704148E0,-1.844049E0,-1.8165108E0,-2.018755E0,3.9196965E-1,-3.264431E-2,3.8001555E-1,6.880643E-2,2.6964658E-1,-1.2564098E0,4.7276504E-2,-3.9714593E-1,3.1728068E-1,-2.080244E-1,-6.106961E-1,-4.4257708E-2,-7.09154E-1,-1.5514814E0,-4.2009103E-1,-6.5038854E-1,-8.486233E-1,-1.5186746E0,-5.915592E-1,-8.968433E-1,-1.3743696E0,-1.7201532E0,-9.712087E-1,-1.3018014E0,-1.876581E0,-1.4501046E0,-1.7589409E0,-1.9299325E0,-1.5793604E-1,-1.8228886E0,-2.0475883E0,-1.8481197E0,1.333929E-1,1.008359E-1,2.3369517E-2,-3.7925813E-1,1.2481303E-1,-1.11203946E-1,5.9015904E-2,-5.1265515E-2,9.0756275E-2,-5.5154394E-2,-1.4471215E-1,-5.7295567E-1,1.2402899E-1,-3.0907914E-2,-1.43999E-2,-1.5320334E-1,5.6626085E-2,2.0946875E-1,3.295144E-2,-1.5996286E-1,-1.0404094E-1,-2.961806E-1,1.7760843E-1,-6.0168914E-2,-1.8258963E-2,-2.595051E-1,-5.509967E-1,-2.563506E-1,-2.4892978E-1,-1.1269986E-1,-2.6690197E-1,-1.6559556E-1,-3.2541287E-1,-2.3050894E-1,-4.0167594E-1,-5.1706266E-1,-1.6387266E-1,-1.9713926E-1,-3.8741562E-1,-2.5159165E-1,-4.8450434E-1,-2.8795713E-1,-5.85212E-1,-4.6772587E-1,-2.744191E-1,-3.1884593E-1,-4.5819172E-1,-3.330751E-1,-5.0702417E-1,-6.1062336E-1,-3.872771E-1,-4.880723E-1,-5.9023297E-1,-4.973898E-1,-5.8077127E-1,-2.3430505E-1,-5.798446E-1,-5.1396954E-1,-6.1480397E-1,-2.0682321E-1,-4.2739075E-1,-6.327159E-1],"categories":[],"categories_nodes":[],"categories_segments":[],"categories_sizes":[],"default_left":[0,0,0,0,0,0,0,0,0,0,0,0,0,0,0,0,0,0,0,0,0,0,0,0,0,0,0,0,0,0,0,0,0,0,0,0,0,0,0,0,0,0,0,0,0,0,0,0,0,0,0,0,0,0,0,0,0,0,0,0,0,0,0,0,0,0,0,0,0,0,0,0,0,0,0,0,0,0,0,0,0,0,0,0,0,0,0,0,0,0,0,0,0,0,0,0,0,0,0,0,0,0,0,0,0,0,0,0,0,0,0,0,0,0,0,0,0,0,0,0,0,0,0,0,0],"id":3,"left_children":[1,3,5,7,9,11,13,15,17,19,21,23,25,27,29,31,33,35,37,39,41,43,45,47,49,51,53,55,57,59,61,63,65,67,69,71,73,75,77,79,81,83,85,87,89,91,93,95,97,99,101,103,105,107,109,111,113,115,117,-1,119,121,123,-1,-1,-1,-1,-1,-1,-1,-1,-1,-1,-1,-1,-1,-1,-1,-1,-1,-1,-1,-1,-1,-1,-1,-1,-1,-1,-1,-1,-1,-1,-1,-1,-1,-1,-1,-1,-1,-1,-1,-1,-1,-1,-1,-1,-1,-1,-1,-1,-1,-1,-1,-1,-1,-1,-1,-1,-1,-1,-1,-1,-1,-1],"loss_changes":[7.6078545E3,4.9220386E2,5.170664E2,7.691016E1,2.914627E1,8.957495E1,6.337793E1,2.4332123E1,5.0422153E1,1.19091215E1,1.257486E1,3.8335083E1,6.3965088E1,2.1167969E1,6.7817383E0,1.0408081E1,1.9179577E1,1.8303547E1,2.9815863E1,5.269752E0,4.0874424E0,1.3688393E1,8.417816E0,4.2914368E1,1.0569153E1,2.2236328E1,5.9599915E0,2.6709839E1,5.159912E-1,1.7060547E0,2.9121094E0,6.904999E0,8.266807E0,8.700741E0,1.6375242E1,8.299923E0,3.125041E0,1.7213175E1,1.1589779E1,2.4632034E0,3.1594915E0,4.1294823E0,2.0083814E0,7.7277756E0,3.9958725E0,4.493019E0,9.82225E0,2.6340942E0,5.6099243E0,1.640358E-1,7.6433716E0,4.0145386E1,1.2035278E1,5.9036255E-1,1.846344E0,3.1360474E0,1.416687E1,2.6329956E0,2.444458E-1,0E0,5.7006836E-1,1.3447266E0,1.986908E1,0E0,0E0,0E0,0E0,0E0,0E0,0E0,0E0,0E0,0E0,0E0,0E0,0E0,0E0,0E0,0E0,0E0,0E0,0E0,0E0,0E0,0E0,0E0,0E0,0E0,0E0,0E0,0E0,0E0,0E0,0E0,0E0,0E0,0E0,0E0,0E0,0E0,0E0,0E0,0E0,0E0,0E0,0E0,0E0,0E0,0E0,0E0,0E0,0E0,0E0,0E0,0E0,0E0,0E0,0E0,0E0,0E0,0E0,0E0,0E0,0E0,0E0],"parents":[2147483647,0,0,1,1,2,2,3,3,4,4,5,5,6,6,7,7,8,8,9,9,10,10,11,11,12,12,13,13,14,14,15,15,16,16,17,17,18,18,19,19,20,20,21,21,22,22,23,23,24,24,25,25,26,26,27,27,28,28,29,29,30,30,31,31,32,32,33,33,34,34,35,35,36,36,37,37,38,38,39,39,40,40,41,41,42,42,43,43,44,44,45,45,46,46,47,47,48,48,49,49,50,50,51,51,52,52,53,53,54,54,55,55,56,56,57,57,58,58,60,60,61,61,62,62],"right_children":[2,4,6,8,10,12,14,16,18,20,22,24,26,28,30,32,34,36,38,40,42,44,46,48,50,52,54,56,58,60,62,64,66,68,70,72,74,76,78,80,82,84,86,88,90,92,94,96,98,100,102,104,106,108,110,112,114,116,118,-1,120,122,124,-1,-1,-1,-1,-1,-1,-1,-1,-1,-1,-1,-1,-1,-1,-1,-1,-1,-1,-1,-1,-1,-1,-1,-1,-1,-1,-1,-1,-1,-1,-1,-1,-1,-1,-1,-1,-1,-1,-1,-1,-1,-1,-1,-1,-1,-1,-1,-1,-1,-1,-1,-1,-1,-1,-1,-1,-1,-1,-1,-1,-1,-1],"split_conditions":[3.847862E-7,4.722286E-7,4.2529327E-6,2.3790902E-7,1.2497718E-7,6.726898E-7,3.8591006E-6,1.3033831E-7,6.7838135E-7,7.211405E-8,2.1587157E-6,5.417426E-6,2.284293E-5,1.9626548E-6,7.645888E-6,1.3584923E-6,3.5532778E-7,3.3026376E-7,3.6582637E-8,7.11803E-7,2.1126894E-5,7.9460307E-7,1.0349928E-7,1.3392718E-6,1.7454863E-7,4.7334747E-6,1.3148504E-6,2.6634036E-5,2.635484E-6,8.2267866E-7,2.0023741E-5,1.0500346E-7,3.6376612E-5,1.3383441E-6,1.2275582E-6,3.9644938E-6,6.487611E-8,1.1473845E-6,5.667998E-8,6.62274E-8,5.8456912E-8,1.2524924E-6,2.0537813E-7,5.8456912E-8,6.8393974E-6,3.7172067E-6,4.1108046E-6,2.1399332E-5,2.3044994E-7,2.0448595E-6,3.70647E-5,2.4911727E-5,4.0545274E-5,7.1290447E-6,2.774636E-5,7.330539E-6,7.1613977E-6,3.934777E-5,2.0023741E-5,-1.5793604E-1,4.591379E-5,5.1613097E-5,1.328103E-4,1.333929E-1,1.008359E-1,2.3369517E-2,-3.7925813E-1,1.2481303E-1,-1.11203946E-1,5.9015904E-2,-5.1265515E-2,9.0756275E-2,-5.5154394E-2,-1.4471215E-1,-5.7295567E-1,1.2402899E-1,-3.0907914E-2,-1.43999E-2,-1.5320334E-1,5.6626085E-2,2.0946875E-1,3.295144E-2,-1.5996286E-1,-1.0404094E-1,-2.961806E-1,1.7760843E-1,-6.0168914E-2,-1.8258963E-2,-2.595051E-1,-5.509967E-1,-2.563506E-1,-2.4892978E-1,-1.1269986E-1,-2.6690197E-1,-1.6559556E-1,-3.2541287E-1,-2.3050894E-1,-4.0167594E-1,-5.1706266E-1,-1.6387266E-1,-1.9713926E-1,-3.8741562E-1,-2.5159165E-1,-4.8450434E-1,-2.8795713E-1,-5.85212E-1,-4.6772587E-1,-2.744191E-1,-3.1884593E-1,-4.5819172E-1,-3.330751E-1,-5.0702417E-1,-6.1062336E-1,-3.872771E-1,-4.880723E-1,-5.9023297E-1,-4.973898E-1,-5.8077127E-1,-2.3430505E-1,-5.798446E-1,-5.1396954E-1,-6.1480397E-1,-2.0682321E-1,-4.2739075E-1,-6.327159E-1],"split_indices":[4,6,4,5,4,3,3,4,7,3,9,10,12,2,4,8,6,5,2,7,13,7,3,6,2,6,2,12,2,2,4,4,14,8,8,10,3,8,3,3,3,8,5,3,11,10,10,13,2,6,14,13,14,5,12,5,4,13,4,0,13,5,7,0,0,0,0,0,0,0,0,0,0,0,0,0,0,0,0,0,0,0,0,0,0,0,0,0,0,0,0,0,0,0,0,0,0,0,0,0,0,0,0,0,0,0,0,0,0,0,0,0,0,0,0,0,0,0,0,0,0,0,0,0,0],"split_type":[0,0,0,0,0,0,0,0,0,0,0,0,0,0,0,0,0,0,0,0,0,0,0,0,0,0,0,0,0,0,0,0,0,0,0,0,0,0,0,0,0,0,0,0,0,0,0,0,0,0,0,0,0,0,0,0,0,0,0,0,0,0,0,0,0,0,0,0,0,0,0,0,0,0,0,0,0,0,0,0,0,0,0,0,0,0,0,0,0,0,0,0,0,0,0,0,0,0,0,0,0,0,0,0,0,0,0,0,0,0,0,0,0,0,0,0,0,0,0,0,0,0,0,0,0],"sum_hessian":[1.058E4,5.411E3,5.169E3,4.465E3,9.46E2,2.154E3,3.015E3,3.303E3,1.162E3,1.43E2,8.03E2,9.5E2,1.204E3,1.332E3,1.683E3,2.456E3,8.47E2,5.59E2,6.03E2,8.1E1,6.2E1,1.03E2,7E2,3.96E2,5.54E2,8.22E2,3.82E2,7.98E2,5.34E2,3.23E2,1.36E3,2.397E3,5.9E1,3.15E2,5.32E2,5.52E2,7E0,3.11E2,2.92E2,5.2E1,2.9E1,4.4E1,1.8E1,7.6E1,2.7E1,2.63E2,4.37E2,1.82E2,2.14E2,1.75E2,3.79E2,4.17E2,4.05E2,3.01E2,8.1E1,2.21E2,5.77E2,2.79E2,2.55E2,2E0,3.21E2,1.154E3,2.06E2,1.23E3,1.167E3,5.5E1,4E0,3.01E2,1.4E1,3.47E2,1.85E2,5.15E2,3.7E1,4E0,3E0,9E1,2.21E2,7.2E1,2.2E2,4E1,1.2E1,1.5E1,1.4E1,2.7E1,1.7E1,3E0,1.5E1,1.5E1,6.1E1,1.8E1,9E0,2.4E1,2.39E2,1.25E2,3.12E2,4.3E1,1.39E2,1.18E2,9.6E1,1.09E2,6.6E1,4.6E1,3.33E2,2.62E2,1.55E2,1.62E2,2.43E2,1.93E2,1.08E2,3.4E1,4.7E1,1.07E2,1.14E2,3.08E2,2.69E2,8.5E1,1.94E2,2.53E2,2E0,1.52E2,1.69E2,1.152E3,2E0,8.1E1,1.25E2],"tree_param":{"num_deleted":"0","num_feature":"16","num_nodes":"125","size_leaf_vector":"1"}},{"base_weights":[4.9950978E-1,4.6537486E-1,6.398024E-1,4.601353E-1,5.136497E-1,5.8493066E-1,6.985019E-1,4.7447845E-1,4.093561E-1,6.5540576E-1,4.6843573E-1,2.0933656E-1,5.638478E-1,2.0077994E-1,2.2349253E-1,4.6238458E-1,6.569247E-1,3.2374102E-1,4.412087E-1,2.1546923E-1,1.7909491E-1,1.2687066E-1,4.8411193E-1,5.4415965E-1,1.811775E-1,4.715457E-1,3.3033353E-1,7.2795045E-1,5.51431E-1,2.817819E-1,3.5839227E-1,5.8568764E-1,4.1194138E-1,5.8230907E-1,1.403901E-1,1.7917433E-1,1.5946889E-1,1.3770418E-1,1.7601451E-1,7.80051E-2,1.2268499E-1,4.4117153E-2,2.1898492E-1,1.4208902E-1,2.1206811E-1,8.4953204E-2,-2.5267343E-3,1.4787953E-1,9.699487E-2,1.335137E-1,1.950832E-1,1.1449156E-1,1.3238205E-1,4.7366623E-2,1.7602539E-1],"categories":[],"categories_nodes":[],"categories_segments":[],"categories_sizes":[],"default_left":[0,0,0,0,0,0,0,0,0,0,0,0,0,0,0,0,0,0,0,0,0,0,0,0,0,0,0,0,0,0,0,0,0,0,0,0,0,0,0,0,0,0,0,0,0,0,0,0,0,0,0,0,0,0,0],"id":4,"left_children":[1,3,5,7,9,11,13,15,17,19,21,-1,23,-1,-1,25,27,29,31,-1,-1,-1,33,35,-1,37,39,41,43,45,47,49,51,53,-1,-1,-1,-1,-1,-1,-1,-1,-1,-1,-1,-1,-1,-1,-1,-1,-1,-1,-1,-1,-1],"loss_changes":[5.037329E1,1.9171143E0,6.2523804E0,5.406616E0,4.9806976E0,2.1643982E0,8.519287E-1,1.2913208E1,4.4959106E0,2.9429626E-1,2.442627E-1,0E0,3.9016724E-1,0E0,0E0,6.644165E0,2.3708954E0,5.750885E-1,4.9894104E0,0E0,0E0,0E0,4.5835876E-1,9.780884E-2,0E0,7.3135986E0,1.9279823E0,1.4582825E-1,1.5157547E0,8.945465E-2,1.0251236E0,1.5819092E0,7.4887085E-1,2.236557E-2,0E0,0E0,0E0,0E0,0E0,0E0,0E0,0E0,0E0,0E0,0E0,0E0,0E0,0E0,0E0,0E0,0E0,0E0,0E0,0E0,0E0],"parents":[2147483647,0,0,1,1,2,2,3,3,4,4,5,5,6,6,7,7,8,8,9,9,10,10,12,12,15,15,16,16,17,17,18,18,22,22,23,23,25,25,26,26,27,27,28,28,29,29,30,30,31,31,32,32,33,33],"right_children":[2,4,6,8,10,12,14,16,18,20,22,-1,24,-1,-1,26,28,30,32,-1,-1,-1,34,36,-1,38,40,42,44,46,48,50,52,54,-1,-1,-1,-1,-1,-1,-1,-1,-1,-1,-1,-1,-1,-1,-1,-1,-1,-1,-1,-1,-1],"split_conditions":[2.9815435E-5,1.6407845E-5,3.7469035E-5,4.236394E-7,4.2529327E-6,1.2693517E-6,6.850112E-5,3.4309717E-6,3.8576305E-5,6.3327155E-7,3.191834E-5,2.0933656E-1,3.9970055E-5,2.0077994E-1,2.2349253E-1,3.2174543E-7,1.7454863E-7,1.39602025E-5,4.564404E-7,2.1546923E-1,1.7909491E-1,1.2687066E-1,9.687919E-6,7.02244E-6,1.811775E-1,1.3781292E-6,1.2693533E-5,7.723152E-6,8.331371E-6,9.950175E-6,2.1474889E-6,8.667826E-6,4.3148848E-5,1.7309207E-5,1.403901E-1,1.7917433E-1,1.5946889E-1,1.3770418E-1,1.7601451E-1,7.80051E-2,1.2268499E-1,4.4117153E-2,2.1898492E-1,1.4208902E-1,2.1206811E-1,8.4953204E-2,-2.5267343E-3,1.4787953E-1,9.699487E-2,1.335137E-1,1.950832E-1,1.1449156E-1,1.3238205E-1,4.7366623E-2,1.7602539E-1],"split_indices":[9,9,7,3,4,2,7,9,14,2,12,0,8,0,0,4,2,12,2,0,0,0,5,4,0,8,12,11,10,11,6,10,14,9,0,0,0,0,0,0,0,0,0,0,0,0,0,0,0,0,0,0,0,0,0],"split_type":[0,0,0,0,0,0,0,0,0,0,0,0,0,0,0,0,0,0,0,0,0,0,0,0,0,0,0,0,0,0,0,0,0,0,0,0,0,0,0,0,0,0,0,0,0,0,0,0,0,0,0,0,0,0,0],"sum_hessian":[1.058E4,8.513E3,2.067E3,7.689E3,8.24E2,1.074E3,9.93E2,5.989E3,1.7E3,1.96E2,6.28E2,1.64E2,9.1E2,6.19E2,3.74E2,5.62E3,3.69E2,4.64E2,1.236E3,8.9E1,1.07E2,1.68E2,4.6E2,6.2E2,2.9E2,5.253E3,3.67E2,2.17E2,1.52E2,2.14E2,2.5E2,2.05E2,1.031E3,6E1,4E2,1.1E2,5.1E2,4.742E3,5.11E2,1.96E2,1.71E2,1E0,2.16E2,1.04E2,4.8E1,2.13E2,1E0,4.9E1,2.01E2,6.7E1,1.38E2,5.14E2,5.17E2,1E0,5.9E1],"tree_param":{"num_deleted":"0","num_feature":"16","num_nodes":"55","size_leaf_vector":"1"}},{"base_weights":[-5.013791E-1,9.4878934E-2,-1.0968666E0,1.8941446E-1,-3.1420413E-1,-7.8273684E-1,-1.2733567E0,2.1200034E-1,-2.0895624E-1,-6.256587E-2,-4.1342854E-1,-6.765838E-1,-9.5525396E-1,-1.1321628E0,-1.3737997E0,2.4278882E-1,2.578407E-2,-8.374857E-3,-4.5381644E-1,3.3294582E-1,-2.1812434E-1,-5.895462E-1,-3.2762244E-1,-7.713205E-1,-5.116893E-1,-1.1825824E0,-8.0150574E-1,-1.0897983E0,-1.394532E0,-1.2335863E0,-1.4156786E0,2.8311783E-1,1.5388681E-1,9.897096E-2,-2.198335E-1,2.572927E-1,-1.7099155E-1,-1.11833E0,-3.202875E-1,3.624484E-1,-2.996635E-1,-1.6902538E-2,-5.209905E-1,7.178256E-2,-6.522743E-1,-1.2799369E0,-3.189679E-1,-6.1733973E-1,-1.0823934E0,-4.501006E-1,-6.8116194E-1,-9.372895E-1,-1.3526601E0,-6.7261684E-1,-9.468448E-1,-1.2214384E0,-9.457826E-1,-1.3988665E0,-8.4343426E-2,-1.3199533E0,-9.676328E-1,-1.3218188E0,-1.4388446E0,1.493855E-1,8.066201E-2,6.0502056E-2,-4.0145937E-2,4.3714006E-2,-6.874751E-2,-2.7156051E-2,-2.6044902E-1,4.2195655E-2,2.280201E-1,1.8732159E-1,-6.970303E-2,-1.4202166E-1,-5.9160644E-1,2.0421085E-1,-1.0544445E-1,1.2883532E-1,-2.7237244E-2,1.471079E-2,-2.0782027E-1,-3.540875E-1,-1.1676712E-1,-2.1623619E-2,1.1094063E-1,-2.8598642E-1,-1.5645002E-1,-7.912553E-3,-5.0669974E-1,-4.9364824E-2,-1.0675248E-1,-2.238219E-1,-1.4506875E-1,-2.705646E-1,-4.0161794E-1,-2.0347448E-1,-1.3054812E-1,-3.1339324E-1,-1.7635576E-1,-3.5516948E-1,-1.9342725E-1,-4.7130743E-1,-3.726545E-1,-1.7596091E-1,-2.2526251E-1,-3.567323E-1,-2.3832396E-1,-3.4605342E-1,-4.3537286E-1,-2.3221792E-1,-3.113224E-1,-3.9003748E-1,-4.6361363E-1,-3.6028057E-1,-4.261806E-1,-2.598978E-1,-3.4663385E-1,-4.8983473E-1,-3.8635212E-1,-4.4042453E-1,-3.9304477E-1],"categories":[],"categories_nodes":[],"categories_segments":[],"categories_sizes":[],"default_left":[0,0,0,0,0,0,0,0,0,0,0,0,0,0,0,0,0,0,0,0,0,0,0,0,0,0,0,0,0,0,0,0,0,0,0,0,0,0,0,0,0,0,0,0,0,0,0,0,0,0,0,0,0,0,0,0,0,0,0,0,0,0,0,0,0,0,0,0,0,0,0,0,0,0,0,0,0,0,0,0,0,0,0,0,0,0,0,0,0,0,0,0,0,0,0,0,0,0,0,0,0,0,0,0,0,0,0,0,0,0,0,0,0,0,0,0,0,0,0,0,0,0,0],"id":5,"left_children":[1,3,5,7,9,11,13,15,17,19,21,23,25,27,29,31,33,35,37,39,41,43,45,47,49,51,53,55,57,59,61,63,65,67,69,71,73,75,77,79,-1,81,83,85,87,89,91,93,95,97,99,101,103,105,107,109,111,113,-1,115,117,119,121,-1,-1,-1,-1,-1,-1,-1,-1,-1,-1,-1,-1,-1,-1,-1,-1,-1,-1,-1,-1,-1,-1,-1,-1,-1,-1,-1,-1,-1,-1,-1,-1,-1,-1,-1,-1,-1,-1,-1,-1,-1,-1,-1,-1,-1,-1,-1,-1,-1,-1,-1,-1,-1,-1,-1,-1,-1,-1,-1,-1],"loss_changes":[3.7570378E3,2.045617E2,2.9250732E2,3.86978E1,2.4768013E1,3.4276978E1,4.6492676E1,2.3305405E1,1.1341625E1,1.742273E1,1.0566566E1,1.8101257E1,2.4356873E1,1.4197144E1,9.851074E0,1.2465637E1,1.0411876E1,5.5738482E0,8.869917E0,3.5054197E0,1.2362679E1,9.671082E0,3.556076E0,3.5256256E1,4.2337646E0,1.0830627E1,7.5118103E0,2.2011719E1,5.381775E-1,9.334717E0,1.3901367E0,7.2075195E0,1.5026653E1,6.873938E0,1.1071829E1,2.7666435E0,4.049002E0,8.426065E0,2.9870443E0,2.4380798E0,0E0,5.515258E0,6.5773964E0,9.2699766E-1,7.848213E0,2.0065913E0,2.6631699E0,8.318893E0,1.0221558E1,8.0241394E-1,3.2523613E0,8.037872E0,2.1255798E0,1.1359406E0,6.514923E0,8.238342E0,8.482056E0,7.684326E-1,0E0,2.4386597E0,1.2251434E0,1.1938477E0,2.6030273E0,0E0,0E0,0E0,0E0,0E0,0E0,0E0,0E0,0E0,0E0,0E0,0E0,0E0,0E0,0E0,0E0,0E0,0E0,0E0,0E0,0E0,0E0,0E0,0E0,0E0,0E0,0E0,0E0,0E0,0E0,0E0,0E0,0E0,0E0,0E0,0E0,0E0,0E0,0E0,0E0,0E0,0E0,0E0,0E0,0E0,0E0,0E0,0E0,0E0,0E0,0E0,0E0,0E0,0E0,0E0,0E0,0E0,0E0,0E0,0E0],"parents":[2147483647,0,0,1,1,2,2,3,3,4,4,5,5,6,6,7,7,8,8,9,9,10,10,11,11,12,12,13,13,14,14,15,15,16,16,17,17,18,18,19,19,20,20,21,21,22,22,23,23,24,24,25,25,26,26,27,27,28,28,29,29,30,30,31,31,32,32,33,33,34,34,35,35,36,36,37,37,38,38,39,39,41,41,42,42,43,43,44,44,45,45,46,46,47,47,48,48,49,49,50,50,51,51,52,52,53,53,54,54,55,55,56,56,57,57,59,59,60,60,61,61,62,62],"right_children":[2,4,6,8,10,12,14,16,18,20,22,24,26,28,30,32,34,36,38,40,42,44,46,48,50,52,54,56,58,60,62,64,66,68,70,72,74,76,78,80,-1,82,84,86,88,90,92,94,96,98,100,102,104,106,108,110,112,114,-1,116,118,120,122,-1,-1,-1,-1,-1,-1,-1,-1,-1,-1,-1,-1,-1,-1,-1,-1,-1,-1,-1,-1,-1,-1,-1,-1,-1,-1,-1,-1,-1,-1,-1,-1,-1,-1,-1,-1,-1,-1,-1,-1,-1,-1,-1,-1,-1,-1,-1,-1,-1,-1,-1,-1,-1,-1,-1,-1,-1,-1,-1,-1],"split_conditions":[8.6079716E-8,4.5433526E-7,1.5310067E-6,2.8205284E-7,7.2128927E-7,4.140676E-7,1.8724883E-6,7.3678956E-7,1.3544307E-7,2.0618413E-7,3.9439255E-6,1.4412632E-5,1.7086395E-5,1.0301032E-5,1.3749446E-5,1.2206103E-6,4.2898957E-8,1.165344E-6,3.5170615E-5,2.2924025E-6,1.4189658E-7,4.9963617E-8,1.9562067E-6,1.2571456E-6,1.589256E-6,3.5275023E-6,7.8744927E-7,3.761459E-5,5.1613097E-5,2.6462316E-5,3.740047E-6,1.6120451E-7,4.157706E-7,6.879956E-6,9.0909026E-8,2.1237121E-5,1.9484646E-6,3.5063284E-5,3.1538744E-7,8.660309E-8,-2.996635E-1,5.66606E-8,1.462592E-7,1.4881768E-7,3.555007E-5,4.2898957E-8,3.8285595E-8,1.2693533E-5,2.259038E-6,4.170657E-6,1.0774767E-5,6.89013E-6,1.5135628E-5,1.010284E-6,4.3148848E-5,1.0537988E-5,5.5793057E-6,5.0031285E-6,-8.4343426E-2,1.2493425E-5,9.314155E-6,5.6703473E-5,1.7757384E-5,1.493855E-1,8.066201E-2,6.0502056E-2,-4.0145937E-2,4.3714006E-2,-6.874751E-2,-2.7156051E-2,-2.6044902E-1,4.2195655E-2,2.280201E-1,1.8732159E-1,-6.970303E-2,-1.4202166E-1,-5.9160644E-1,2.0421085E-1,-1.0544445E-1,1.2883532E-1,-2.7237244E-2,1.471079E-2,-2.0782027E-1,-3.540875E-1,-1.1676712E-1,-2.1623619E-2,1.1094063E-1,-2.8598642E-1,-1.5645002E-1,-7.912553E-3,-5.0669974E-1,-4.9364824E-2,-1.0675248E-1,-2.238219E-1,-1.4506875E-1,-2.705646E-1,-4.0161794E-1,-2.0347448E-1,-1.3054812E-1,-3.1339324E-1,-1.7635576E-1,-3.5516948E-1,-1.9342725E-1,-4.7130743E-1,-3.726545E-1,-1.7596091E-1,-2.2526251E-1,-3.567323E-1,-2.3832396E-1,-3.4605342E-1,-4.3537286E-1,-2.3221792E-1,-3.113224E-1,-3.9003748E-1,-4.6361363E-1,-3.6028057E-1,-4.261806E-1,-2.598978E-1,-3.4663385E-1,-4.8983473E-1,-3.8635212E-1,-4.4042453E-1,-3.9304477E-1],"split_indices":[2,6,3,5,7,2,2,7,4,5,10,12,12,4,5,8,2,8,14,9,4,3,9,5,4,6,2,13,5,9,3,5,6,11,3,13,9,14,6,3,0,2,4,4,14,2,2,12,7,9,11,10,12,3,14,6,4,3,0,6,4,14,4,0,0,0,0,0,0,0,0,0,0,0,0,0,0,0,0,0,0,0,0,0,0,0,0,0,0,0,0,0,0,0,0,0,0,0,0,0,0,0,0,0,0,0,0,0,0,0,0,0,0,0,0,0,0,0,0,0,0,0,0],"split_type":[0,0,0,0,0,0,0,0,0,0,0,0,0,0,0,0,0,0,0,0,0,0,0,0,0,0,0,0,0,0,0,0,0,0,0,0,0,0,0,0,0,0,0,0,0,0,0,0,0,0,0,0,0,0,0,0,0,0,0,0,0,0,0,0,0,0,0,0,0,0,0,0,0,0,0,0,0,0,0,0,0,0,0,0,0,0,0,0,0,0,0,0,0,0,0,0,0,0,0,0,0,0,0,0,0,0,0,0,0,0,0,0,0,0,0,0,0,0,0,0,0,0,0],"sum_hessian":[1.058E4,5.287E3,5.293E3,4.295E3,9.92E2,1.906E3,3.387E3,4.065E3,2.3E2,2.81E2,7.11E2,1.183E3,7.23E2,1.413E3,1.974E3,3.488E3,5.77E2,1.27E2,1.03E2,7.9E1,2.02E2,2.31E2,4.8E2,7.49E2,4.34E2,2.89E2,4.34E2,1.221E3,1.92E2,4.61E2,1.513E3,2.398E3,1.09E3,4.45E2,1.32E2,4.8E1,7.9E1,1.6E1,8.7E1,7.8E1,1E0,1.22E2,8E1,2E1,2.11E2,3E0,4.77E2,5.03E2,2.46E2,3.21E2,1.13E2,1.21E2,1.68E2,2.33E2,2.01E2,6.34E2,5.87E2,1.91E2,1E0,3.45E2,1.16E2,3.11E2,1.202E3,1.47E2,2.251E3,9.35E2,1.55E2,3.9E2,5.5E1,1.11E2,2.1E1,4E1,8E0,5E0,7.4E1,1E1,6E0,2E0,8.5E1,6.8E1,1E1,1.12E2,1E1,1.2E1,6.8E1,1.4E1,6E0,6.2E1,1.49E2,1E0,2E0,9.3E1,3.84E2,2.54E2,2.49E2,1.47E2,9.9E1,1.7E1,3.04E2,2.1E1,9.2E1,6.4E1,5.7E1,5.2E1,1.16E2,1.15E2,1.18E2,7.5E1,1.26E2,4.94E2,1.4E2,2.08E2,3.79E2,1.2E2,7.1E1,1.64E2,1.81E2,7.9E1,3.7E1,2.6E1,2.85E2,9.71E2,2.31E2],"tree_param":{"num_deleted":"0","num_feature":"16","num_nodes":"123","size_leaf_vector":"1"}},{"base_weights":[3.5004178E-1,3.2610533E-1,4.4841942E-1,3.4394142E-1,3.1687877E-1,4.0645266E-1,4.867322E-1,3.3811182E-1,6.180312E-1,2.9278043E-1,3.3506817E-1,4.8169512E-1,3.8839802E-1,4.654296E-1,1.5759382E-1,3.3341068E-1,4.0475643E-1,3.2792058E-2,6.249177E-1,3.1163234E-1,1.7412432E-1,4.9843195E-1,3.200773E-1,1.4833088E-1,3.8329127E-1,3.6763567E-1,4.0578675E-1,1.4749946E-1,1.3537844E-1,3.395123E-1,2.8293353E-1,2.4425933E-1,4.741499E-1,4.0292062E-2,6.3116866E-1,2.974801E-1,4.0036836E-1,1.2718818E-1,2.265284E-1,3.7228905E-2,5.053049E-1,2.7948338E-1,3.449781E-1,1.7115414E-2,1.18217655E-1,1.2482631E-1,1.0461306E-1,1.2815459E-1,1.1629568E-1,1.0202107E-1,1.9153427E-2,4.9243294E-2,9.741396E-2,5.5268046E-2,1.6318895E-1,8.616538E-2,1.5887229E-1,1.9316845E-1,9.047211E-2,9.273447E-2,5.883528E-2,1.1257035E-1,1.6347979E-1,7.395887E-2,3.3942875E-2,1.2173432E-1,5.4823898E-2,2.5722746E-2,-7.1082907E-3,1.3225117E-1,1.6442162E-1,1.09211974E-1,7.509689E-2,1.4172506E-1,9.418525E-2],"categories":[],"categories_nodes":[],"categories_segments":[],"categories_sizes":[],"default_left":[0,0,0,0,0,0,0,0,0,0,0,0,0,0,0,0,0,0,0,0,0,0,0,0,0,0,0,0,0,0,0,0,0,0,0,0,0,0,0,0,0,0,0,0,0,0,0,0,0,0,0,0,0,0,0,0,0,0,0,0,0,0,0,0,0,0,0,0,0,0,0,0,0,0,0],"id":6,"left_children":[1,3,5,7,9,11,13,15,17,19,21,23,25,27,-1,29,31,-1,33,35,37,39,41,-1,43,45,47,-1,-1,49,51,53,55,-1,57,59,61,63,65,67,69,71,73,-1,-1,-1,-1,-1,-1,-1,-1,-1,-1,-1,-1,-1,-1,-1,-1,-1,-1,-1,-1,-1,-1,-1,-1,-1,-1,-1,-1,-1,-1,-1,-1],"loss_changes":[2.4769897E1,1.2921143E0,3.1272583E0,4.41037E0,2.3671265E0,1.1618805E0,6.398163E-1,7.52655E-1,1.3838959E-1,5.3746643E0,7.672241E0,4.619217E-2,1.4180756E-1,3.90625E-2,0E0,7.2073364E-1,1.9112015E0,0E0,9.310341E-2,2.5093231E0,7.951708E-1,8.275299E-1,2.8673096E0,0E0,6.885147E-2,2.0152283E-1,8.544922E-4,0E0,0E0,3.4140015E-1,1.3958874E0,9.253299E-1,1.1533318E0,0E0,4.49028E-2,2.0727844E0,8.310547E-1,2.7214336E-1,1.1579895E0,1.680962E-2,4.8350525E-1,2.6704636E0,7.020447E0,0E0,0E0,0E0,0E0,0E0,0E0,0E0,0E0,0E0,0E0,0E0,0E0,0E0,0E0,0E0,0E0,0E0,0E0,0E0,0E0,0E0,0E0,0E0,0E0,0E0,0E0,0E0,0E0,0E0,0E0,0E0,0E0],"parents":[2147483647,0,0,1,1,2,2,3,3,4,4,5,5,6,6,7,7,8,8,9,9,10,10,11,11,12,12,13,13,15,15,16,16,18,18,19,19,20,20,21,21,22,22,24,24,25,25,26,26,29,29,30,30,31,31,32,32,34,34,35,35,36,36,37,37,38,38,39,39,40,40,41,41,42,42],"right_children":[2,4,6,8,10,12,14,16,18,20,22,24,26,28,-1,30,32,-1,34,36,38,40,42,-1,44,46,48,-1,-1,50,52,54,56,-1,58,60,62,64,66,68,70,72,74,-1,-1,-1,-1,-1,-1,-1,-1,-1,-1,-1,-1,-1,-1,-1,-1,-1,-1,-1,-1,-1,-1,-1,-1,-1,-1,-1,-1,-1,-1,-1,-1],"split_conditions":[2.9815435E-5,3.5096225E-8,4.7878588E-5,8.5215567E-7,1.2528077E-5,2.6111888E-6,4.7359597E-5,1.3241499E-6,3.4968045E-6,2.3940646E-7,1.0273174E-7,9.188477E-6,5.722128E-5,1.8122424E-6,1.5759382E-1,9.0909026E-8,1.1734889E-5,3.2792058E-2,9.173315E-8,3.992469E-6,7.1874906E-6,2.2493066E-6,4.032463E-5,1.4833088E-1,4.4721415E-5,1.3749446E-5,9.549851E-6,1.4749946E-1,1.3537844E-1,2.0732045E-7,9.546005E-8,3.31566E-8,3.6531517E-6,4.0292062E-2,1.650745E-7,4.7730606E-7,2.5098484E-6,7.606048E-8,4.6593294E-7,1.8359458E-7,2.994195E-6,6.903963E-7,6.3327155E-7,1.7115414E-2,1.18217655E-1,1.2482631E-1,1.0461306E-1,1.2815459E-1,1.1629568E-1,1.0202107E-1,1.9153427E-2,4.9243294E-2,9.741396E-2,5.5268046E-2,1.6318895E-1,8.616538E-2,1.5887229E-1,1.9316845E-1,9.047211E-2,9.273447E-2,5.883528E-2,1.1257035E-1,1.6347979E-1,7.395887E-2,3.3942875E-2,1.2173432E-1,5.4823898E-2,2.5722746E-2,-7.1082907E-3,1.3225117E-1,1.6442162E-1,1.09211974E-1,7.509689E-2,1.4172506E-1,9.418525E-2],"split_indices":[9,2,8,7,12,3,6,8,10,4,2,4,12,2,0,3,12,0,4,10,11,9,14,0,12,5,4,0,0,4,3,2,10,0,3,6,9,3,5,5,9,4,2,0,0,0,0,0,0,0,0,0,0,0,0,0,0,0,0,0,0,0,0,0,0,0,0,0,0,0,0,0,0,0,0],"split_type":[0,0,0,0,0,0,0,0,0,0,0,0,0,0,0,0,0,0,0,0,0,0,0,0,0,0,0,0,0,0,0,0,0,0,0,0,0,0,0,0,0,0,0,0,0,0,0,0,0,0,0,0,0,0,0,0,0,0,0,0,0,0,0,0,0,0,0,0,0,0,0,0,0,0,0],"sum_hessian":[1.058E4,8.513E3,2.067E3,2.89E3,5.623E3,9.92E2,1.075E3,2.832E3,5.8E1,2.426E3,3.197E3,1.87E2,8.05E2,7.01E2,3.74E2,2.651E3,1.81E2,1E0,5.7E1,2.092E3,3.34E2,2.66E2,2.931E3,1.62E2,2.5E1,3.77E2,4.28E2,2.34E2,4.67E2,2.36E3,2.91E2,5.6E1,1.25E2,1E0,5.6E1,1.808E3,2.84E2,1.78E2,1.56E2,4E0,2.62E2,1.119E3,1.812E3,1E0,2.4E1,1E2,2.77E2,1.86E2,2.42E2,2.355E3,5E0,7.7E1,2.14E2,4.8E1,8E0,3E1,9.5E1,5.3E1,3E0,1.62E3,1.88E2,2.45E2,3.9E1,1.7E1,1.61E2,2.9E1,1.27E2,2E0,2E0,1.09E2,1.53E2,2.84E2,8.35E2,3.52E2,1.46E3],"tree_param":{"num_deleted":"0","num_feature":"16","num_nodes":"75","size_leaf_vector":"1"}},{"base_weights":[-3.5208192E-1,4.4784967E-2,-7.9440236E-1,1.3240165E-1,-2.4892305E-1,-6.317275E-1,-9.3410414E-1,1.4980626E-1,-1.7886679E-1,-2.734139E-2,-3.0581233E-1,-5.184317E-1,-6.998325E-1,-8.758668E-1,-1.0139719E0,1.9257346E-1,4.502474E-2,-4.5857854E-2,-4.911546E-1,9.568771E-2,-2.1338221E-1,-5.0126195E-1,-2.7440622E-1,-8.167929E-1,-4.1295037E-1,-8.191014E-1,-5.85104E-1,-9.368245E-1,-8.003511E-1,-1.0862882E0,-9.6718293E-1,1.9698228E-1,-3.911305E-1,1.9107513E-1,-5.7023406E-2,1.3322806E-2,-4.203776E-1,-1.263572E0,-3.671061E-1,4.284005E-1,1.17619615E-2,-1.16052754E-1,-6.47818E-1,2.7358344E-1,-5.895272E-1,-8.4245855E-1,-2.6691714E-1,-5.602039E-1,-1.0039386E0,-6.103022E-1,-3.7871927E-1,-7.4796003E-1,-1.1851872E0,-4.7647426E-1,-7.322464E-1,-8.2151574E-1,-1.0640558E0,-6.7687434E-1,-9.279622E-1,-7.919466E-1,-1.1100633E0,-1.468139E-1,-9.8140234E-1,8.831573E-2,5.1683914E-2,-2.9371387E-1,5.411591E-2,6.401092E-2,-1.4314912E-1,4.4770997E-2,-4.715197E-2,4.5262657E-2,-6.670806E-2,-2.561259E-1,-7.2808065E-2,-5.2502915E-2,-5.3360546E-1,-3.44433E-1,-5.638293E-2,-1.8172229E-2,1.4432184E-1,-2.5868335E-1,1.6290726E-2,-2.8907865E-1,-2.543225E-2,-3.5899115E-1,-9.074035E-2,1.4785461E-1,-7.905505E-2,8.217572E-2,-1.974862E-1,9.351833E-2,-3.4007424E-1,-5.4895658E-2,-9.438382E-2,-2.4098751E-1,-1.0417699E-1,-3.995541E-1,-2.5620648E-1,-1.2655485E-1,-3.0544493E-1,-1.0123139E-1,-1.7164518E-1,-2.8544015E-1,-1.9329531E-1,-1.1917938E-1,-3.609194E-1,-3.0090302E-1,-1.368738E-1,-2.0750684E-1,-3.63534E-1,-2.8468746E-1,-1.8307494E-1,-3.021306E-1,-3.554996E-1,-1.4568707E-1,-2.1352966E-1,-1.7645918E-1,-2.8792018E-1,-1.7811039E-1,-3.08973E-1,-3.3411878E-1,5.289749E-2,-1.8063167E-1,3.673157E-2,-2.5368538E-1,-3.118837E-1],"categories":[],"categories_nodes":[],"categories_segments":[],"categories_sizes":[],"default_left":[0,0,0,0,0,0,0,0,0,0,0,0,0,0,0,0,0,0,0,0,0,0,0,0,0,0,0,0,0,0,0,0,0,0,0,0,0,0,0,0,0,0,0,0,0,0,0,0,0,0,0,0,0,0,0,0,0,0,0,0,0,0,0,0,0,0,0,0,0,0,0,0,0,0,0,0,0,0,0,0,0,0,0,0,0,0,0,0,0,0,0,0,0,0,0,0,0,0,0,0,0,0,0,0,0,0,0,0,0,0,0,0,0,0,0,0,0,0,0,0,0,0,0,0,0,0,0],"id":7,"left_children":[1,3,5,7,9,11,13,15,17,19,21,23,25,27,29,31,33,35,37,39,41,43,45,47,49,51,53,55,57,59,61,63,65,67,69,71,73,75,77,79,81,83,85,87,89,91,93,95,97,99,101,103,105,107,109,111,113,115,117,119,121,123,125,-1,-1,-1,-1,-1,-1,-1,-1,-1,-1,-1,-1,-1,-1,-1,-1,-1,-1,-1,-1,-1,-1,-1,-1,-1,-1,-1,-1,-1,-1,-1,-1,-1,-1,-1,-1,-1,-1,-1,-1,-1,-1,-1,-1,-1,-1,-1,-1,-1,-1,-1,-1,-1,-1,-1,-1,-1,-1,-1,-1,-1,-1,-1,-1],"loss_changes":[1.8574489E3,1.4357565E2,1.13130615E2,2.3305832E1,1.6152046E1,1.7499695E1,1.1623779E1,1.8229858E1,9.447927E0,6.0400767E0,6.1235275E0,2.713736E1,1.9266113E1,6.4451904E0,2.7661133E0,7.5143127E0,1.7612722E1,3.5740576E0,6.0517063E0,4.434745E0,4.364576E0,9.736153E0,3.523079E0,1.0338013E1,4.139717E0,1.7474426E1,1.1463318E1,1.1728149E1,1.048056E1,2.164978E0,7.951538E0,6.8524323E0,7.5686884E0,7.342291E0,1.4400664E1,4.572186E0,1.4868855E0,4.735303E0,8.179843E0,8.533149E-1,4.806127E0,2.224678E0,3.2392163E0,1.8963853E0,7.661022E0,4.049472E0,3.4291878E0,4.79401E0,5.2532654E0,6.79533E0,4.2306824E0,1.189447E1,1.1137695E0,4.100975E0,5.2297363E0,1.1671448E1,1.596283E0,2.0699615E0,3.1489258E0,1.0868473E0,2.0827332E0,1.6673701E0,4.5114136E0,0E0,0E0,0E0,0E0,0E0,0E0,0E0,0E0,0E0,0E0,0E0,0E0,0E0,0E0,0E0,0E0,0E0,0E0,0E0,0E0,0E0,0E0,0E0,0E0,0E0,0E0,0E0,0E0,0E0,0E0,0E0,0E0,0E0,0E0,0E0,0E0,0E0,0E0,0E0,0E0,0E0,0E0,0E0,0E0,0E0,0E0,0E0,0E0,0E0,0E0,0E0,0E0,0E0,0E0,0E0,0E0,0E0,0E0,0E0,0E0,0E0,0E0,0E0,0E0],"parents":[2147483647,0,0,1,1,2,2,3,3,4,4,5,5,6,6,7,7,8,8,9,9,10,10,11,11,12,12,13,13,14,14,15,15,16,16,17,17,18,18,19,19,20,20,21,21,22,22,23,23,24,24,25,25,26,26,27,27,28,28,29,29,30,30,31,31,32,32,33,33,34,34,35,35,36,36,37,37,38,38,39,39,40,40,41,41,42,42,43,43,44,44,45,45,46,46,47,47,48,48,49,49,50,50,51,51,52,52,53,53,54,54,55,55,56,56,57,57,58,58,59,59,60,60,61,61,62,62],"right_children":[2,4,6,8,10,12,14,16,18,20,22,24,26,28,30,32,34,36,38,40,42,44,46,48,50,52,54,56,58,60,62,64,66,68,70,72,74,76,78,80,82,84,86,88,90,92,94,96,98,100,102,104,106,108,110,112,114,116,118,120,122,124,126,-1,-1,-1,-1,-1,-1,-1,-1,-1,-1,-1,-1,-1,-1,-1,-1,-1,-1,-1,-1,-1,-1,-1,-1,-1,-1,-1,-1,-1,-1,-1,-1,-1,-1,-1,-1,-1,-1,-1,-1,-1,-1,-1,-1,-1,-1,-1,-1,-1,-1,-1,-1,-1,-1,-1,-1,-1,-1,-1,-1,-1,-1,-1,-1],"split_conditions":[4.943283E-7,4.5433526E-7,1.3695674E-6,7.8127385E-7,1.3127018E-7,3.9501586E-7,1.8723289E-5,2.316083E-7,8.409139E-8,7.211405E-8,6.6906905E-6,2.2230022E-5,4.3531152E-5,4.839685E-5,4.474056E-5,1.8730603E-7,3.6222855E-7,6.8947047E-6,2.0255351E-7,1.9025131E-7,5.266095E-8,4.9067847E-8,1.1105652E-6,1.609413E-6,8.369558E-6,6.9341204E-6,2.4049523E-6,1.0582077E-5,2.5026507E-6,2.870097E-6,8.719664E-5,3.28685E-7,2.1196668E-6,4.0261384E-6,1.1520117E-6,2.401946E-7,1.1995857E-6,9.8546344E-8,3.5106666E-5,4.5902624E-7,1.955833E-7,9.865879E-7,2.0779585E-6,1.1884179E-5,6.430658E-7,2.0603698E-6,4.0311468E-7,1.26419645E-5,3.6007747E-5,2.085701E-6,8.466092E-7,3.8576305E-5,5.0063604E-6,7.536692E-6,1.09984096E-4,1.5729838E-5,1.6578137E-5,1.2149341E-5,1.2726361E-5,2.4705942E-6,4.3736138E-5,8.533694E-6,1.132708E-4,8.831573E-2,5.1683914E-2,-2.9371387E-1,5.411591E-2,6.401092E-2,-1.4314912E-1,4.4770997E-2,-4.715197E-2,4.5262657E-2,-6.670806E-2,-2.561259E-1,-7.2808065E-2,-5.2502915E-2,-5.3360546E-1,-3.44433E-1,-5.638293E-2,-1.8172229E-2,1.4432184E-1,-2.5868335E-1,1.6290726E-2,-2.8907865E-1,-2.543225E-2,-3.5899115E-1,-9.074035E-2,1.4785461E-1,-7.905505E-2,8.217572E-2,-1.974862E-1,9.351833E-2,-3.4007424E-1,-5.4895658E-2,-9.438382E-2,-2.4098751E-1,-1.0417699E-1,-3.995541E-1,-2.5620648E-1,-1.2655485E-1,-3.0544493E-1,-1.0123139E-1,-1.7164518E-1,-2.8544015E-1,-1.9329531E-1,-1.1917938E-1,-3.609194E-1,-3.0090302E-1,-1.368738E-1,-2.0750684E-1,-3.63534E-1,-2.8468746E-1,-1.8307494E-1,-3.021306E-1,-3.554996E-1,-1.4568707E-1,-2.1352966E-1,-1.7645918E-1,-2.8792018E-1,-1.7811039E-1,-3.08973E-1,-3.3411878E-1,5.289749E-2,-1.8063167E-1,3.673157E-2,-2.5368538E-1,-3.118837E-1],"split_indices":[4,6,2,7,4,2,5,5,3,3,11,13,14,13,7,4,6,11,5,5,2,3,8,7,11,6,3,5,2,3,14,6,9,10,8,5,8,4,14,6,5,8,9,12,7,9,5,12,14,7,3,14,7,8,13,9,6,5,5,2,6,4,12,0,0,0,0,0,0,0,0,0,0,0,0,0,0,0,0,0,0,0,0,0,0,0,0,0,0,0,0,0,0,0,0,0,0,0,0,0,0,0,0,0,0,0,0,0,0,0,0,0,0,0,0,0,0,0,0,0,0,0,0,0,0,0,0],"split_type":[0,0,0,0,0,0,0,0,0,0,0,0,0,0,0,0,0,0,0,0,0,0,0,0,0,0,0,0,0,0,0,0,0,0,0,0,0,0,0,0,0,0,0,0,0,0,0,0,0,0,0,0,0,0,0,0,0,0,0,0,0,0,0,0,0,0,0,0,0,0,0,0,0,0,0,0,0,0,0,0,0,0,0,0,0,0,0,0,0,0,0,0,0,0,0,0,0,0,0,0,0,0,0,0,0,0,0,0,0,0,0,0,0,0,0,0,0,0,0,0,0,0,0,0,0,0,0],"sum_hessian":[1.058E4,5.577E3,5.003E3,4.296E3,1.281E3,2.314E3,2.689E3,4.069E3,2.27E2,2.62E2,1.019E3,8.72E2,1.442E3,1.562E3,1.127E3,2.889E3,1.18E3,1.6E2,6.7E1,1.58E2,1.04E2,1.39E2,8.8E2,2.26E2,6.46E2,7.04E2,7.38E2,8.58E2,7.04E2,4.34E2,6.93E2,2.868E3,2.1E1,4.85E2,6.95E2,1.39E2,2.1E1,8E0,5.9E1,3.1E1,1.27E2,8.6E1,1.8E1,1.4E1,1.25E2,1E1,8.7E2,9.7E1,1.29E2,9.3E1,5.53E2,5.92E2,1.12E2,4.27E2,3.11E2,4.54E2,4.04E2,3.61E2,3.43E2,3.5E1,3.99E2,1.2E1,6.81E2,5.78E2,2.29E3,1E1,1.1E1,4.7E2,1.5E1,2.27E2,4.68E2,8.8E1,5.1E1,5E0,1.6E1,3E0,5E0,1E1,4.9E1,3E0,2.8E1,5E0,1.22E2,2E0,8.4E1,6E0,1.2E1,1E1,4E0,9E0,1.16E2,2E0,8E0,3.17E2,5.53E2,4.4E1,5.3E1,3.8E1,9.1E1,6.5E1,2.8E1,4.58E2,9.5E1,1.97E2,3.95E2,3E0,1.09E2,1.4E1,4.13E2,2.89E2,2.2E1,2.81E2,1.73E2,2.81E2,1.23E2,5.8E1,3.03E2,3.1E1,3.12E2,2.1E1,1.4E1,3.98E2,1E0,4E0,8E0,2.09E2,4.72E2],"tree_param":{"num_deleted":"0","num_feature":"16","num_nodes":"127","size_leaf_vector":"1"}},{"base_weights":[2.4538212E-1,2.2744371E-1,3.123044E-1,2.3256221E-1,1.9751993E-1,2.8568158E-1,3.428145E-1,2.2679321E-1,3.5100532E-1,1.5462586E-1,2.2519585E-1,3.471661E-1,2.7135533E-1,3.313111E-1,1.1602425E-1,2.374595E-1,1.995279E-1,3.829573E-1,2.6053974E-1,1.6724047E-1,1.3296337E-1,3.0563033E-1,2.0827466E-1,1.0653049E-1,6.903541E-2,1.0284769E-1,2.6785845E-1,4.0685603E-1,3.2874432E-1,2.2984368E-1,4.0485656E-1,1.5055265E-1,2.3670617E-1,1.15583844E-1,4.4714868E-2,1.9375177E-1,3.2748148E-1,1.3414712E-1,2.0884444E-1,7.2759455E-3,1.340306E-1,1.0764951E-1,2.5718305E-1,1.8254328E-1,2.2816457E-1,2.5202325E-1,2.846177E-1,7.704832E-2,1.3340992E-1,3.158691E-1,1.038252E-1,6.674401E-2,8.04991E-2,4.8280675E-2,1.2803154E-1,5.5453066E-2,3.709006E-2,8.900716E-2,5.527148E-2,8.014299E-2,4.5300383E-2,1.0990581E-1,7.772979E-2,4.1572332E-2,7.985663E-3,1.0711015E-1,5.8921363E-2,4.1968368E-2,3.5294633E-2,4.7914017E-2,9.136943E-2,4.623124E-2,5.7409126E-2,8.221158E-2,6.263267E-2,8.640919E-2,7.2436474E-2,8.784625E-2,7.818865E-2,1.01260506E-1,8.83773E-2],"categories":[],"categories_nodes":[],"categories_segments":[],"categories_sizes":[],"default_left":[0,0,0,0,0,0,0,0,0,0,0,0,0,0,0,0,0,0,0,0,0,0,0,0,0,0,0,0,0,0,0,0,0,0,0,0,0,0,0,0,0,0,0,0,0,0,0,0,0,0,0,0,0,0,0,0,0,0,0,0,0,0,0,0,0,0,0,0,0,0,0,0,0,0,0,0,0,0,0,0,0],"id":8,"left_children":[1,3,5,7,9,11,13,15,17,19,21,23,25,27,-1,29,31,33,35,37,39,41,43,-1,-1,-1,45,47,49,51,53,55,57,-1,-1,59,61,63,65,-1,67,-1,69,71,73,75,77,-1,-1,79,-1,-1,-1,-1,-1,-1,-1,-1,-1,-1,-1,-1,-1,-1,-1,-1,-1,-1,-1,-1,-1,-1,-1,-1,-1,-1,-1,-1,-1,-1,-1],"loss_changes":[1.2631226E1,1.2326965E0,1.7166748E0,4.7875366E0,1.4206009E0,9.619217E-1,3.9543915E-1,1.9287415E0,8.5121536E-1,1.10022545E-1,9.4760513E-1,1.254139E-1,1.5235138E-1,2.6802063E-2,0E0,6.1270447E0,3.4548645E0,7.348251E-2,3.3446026E-1,3.877821E-1,1.7980814E-2,2.3505211E-1,2.7412605E-1,0E0,0E0,0E0,1.7666626E-1,1.6374111E-2,7.0632935E-2,1.263504E0,1.0592346E0,7.433052E-1,3.3695526E0,0E0,0E0,1.0712457E-1,1.9376278E-2,7.771778E-2,1.7321396E-1,0E0,9.288788E-4,0E0,2.7463675E-1,3.924179E-2,2.4875832E-1,1.16918564E-1,1.1642456E-2,0E0,0E0,1.1907959E-1,0E0,0E0,0E0,0E0,0E0,0E0,0E0,0E0,0E0,0E0,0E0,0E0,0E0,0E0,0E0,0E0,0E0,0E0,0E0,0E0,0E0,0E0,0E0,0E0,0E0,0E0,0E0,0E0,0E0,0E0,0E0],"parents":[2147483647,0,0,1,1,2,2,3,3,4,4,5,5,6,6,7,7,8,8,9,9,10,10,11,11,12,12,13,13,15,15,16,16,17,17,18,18,19,19,20,20,21,21,22,22,26,26,27,27,28,28,29,29,30,30,31,31,32,32,35,35,36,36,37,37,38,38,40,40,42,42,43,43,44,44,45,45,46,46,49,49],"right_children":[2,4,6,8,10,12,14,16,18,20,22,24,26,28,-1,30,32,34,36,38,40,42,44,-1,-1,-1,46,48,50,52,54,56,58,-1,-1,60,62,64,66,-1,68,-1,70,72,74,76,78,-1,-1,80,-1,-1,-1,-1,-1,-1,-1,-1,-1,-1,-1,-1,-1,-1,-1,-1,-1,-1,-1,-1,-1,-1,-1,-1,-1,-1,-1,-1,-1,-1,-1],"split_conditions":[2.6462316E-5,1.5310067E-6,3.640269E-5,9.273851E-6,2.4944346E-5,5.9929907E-6,3.9540715E-5,5.8017033E-8,8.9223585E-7,8.3451805E-6,4.509268E-6,2.7663277E-6,1.121398E-6,6.669259E-5,1.1602425E-1,1.4411049E-6,3.6819674E-5,4.1393373E-6,2.3829758E-5,2.003046E-5,5.8552234E-7,9.508397E-6,3.1334454E-5,1.0653049E-1,6.903541E-2,1.0284769E-1,4.1606618E-5,4.505113E-5,5.822113E-5,3.911682E-6,6.7404444E-6,1.5757847E-7,1.1193187E-6,1.15583844E-1,4.4714868E-2,6.7225546E-6,7.330539E-6,4.3531152E-5,4.1808253E-6,7.2759455E-3,3.1434065E-5,1.0764951E-1,2.251922E-5,2.6634036E-5,1.2856798E-5,1.3199653E-5,3.378037E-6,7.704832E-2,1.3340992E-1,4.345537E-6,1.038252E-1,6.674401E-2,8.04991E-2,4.8280675E-2,1.2803154E-1,5.5453066E-2,3.709006E-2,8.900716E-2,5.527148E-2,8.014299E-2,4.5300383E-2,1.0990581E-1,7.772979E-2,4.1572332E-2,7.985663E-3,1.0711015E-1,5.8921363E-2,4.1968368E-2,3.5294633E-2,4.7914017E-2,9.136943E-2,4.623124E-2,5.7409126E-2,8.221158E-2,6.263267E-2,8.640919E-2,7.2436474E-2,8.784625E-2,7.818865E-2,1.01260506E-1,8.83773E-2],"split_indices":[9,3,7,9,12,4,5,2,2,6,4,2,2,11,0,8,14,4,12,12,2,6,12,0,0,0,9,8,7,10,11,3,4,0,0,6,5,14,5,0,13,0,10,12,6,5,2,0,0,3,0,0,0,0,0,0,0,0,0,0,0,0,0,0,0,0,0,0,0,0,0,0,0,0,0,0,0,0,0,0,0],"split_type":[0,0,0,0,0,0,0,0,0,0,0,0,0,0,0,0,0,0,0,0,0,0,0,0,0,0,0,0,0,0,0,0,0,0,0,0,0,0,0,0,0,0,0,0,0,0,0,0,0,0,0,0,0,0,0,0,0,0,0,0,0,0,0,0,0,0,0,0,0,0,0,0,0,0,0,0,0,0,0,0,0],"sum_hessian":[1.058E4,8.347E3,2.233E3,7.122E3,1.225E3,1.198E3,1.035E3,6.794E3,3.28E2,4.83E2,7.42E2,2.22E2,9.76E2,8.27E2,2.08E2,4.878E3,1.916E3,2.4E2,8.8E1,3.01E2,1.82E2,1.26E2,6.16E2,2.06E2,1.6E1,4.1E1,9.35E2,2.2E1,8.05E2,4.668E3,2.1E2,8.29E2,1.087E3,2.37E2,3E0,4.6E1,4.2E1,1.7E2,1.31E2,2E0,1.8E2,5.7E1,6.9E1,2.73E2,3.43E2,4.89E2,4.46E2,6E0,1.6E1,4.73E2,3.32E2,3.924E3,7.44E2,1.8E1,1.92E2,3.62E2,4.67E2,5.05E2,5.82E2,1.5E1,3.1E1,2.4E1,1.8E1,1.63E2,7E0,8E0,1.23E2,1.27E2,5.3E1,2.4E1,4.5E1,6.9E1,2.04E2,9.8E1,2.45E2,1.05E2,3.84E2,3.24E2,1.22E2,2.27E2,2.46E2],"tree_param":{"num_deleted":"0","num_feature":"16","num_nodes":"81","size_leaf_vector":"1"}},{"base_weights":[-2.4739689E-1,3.8050726E-2,-5.509429E-1,9.363161E-2,-1.7759538E-1,-4.3240082E-1,-6.54992E-1,1.20028324E-1,-4.1383773E-2,2.0318447E-1,-2.1397033E-1,-3.6106578E-1,-5.0847137E-1,-6.0719955E-1,-7.08147E-1,1.2698188E-1,-4.2420262E-1,9.612537E-2,-1.3114816E-1,3.7298837E-1,-6.3262165E-2,3.9573437E-1,-2.277934E-1,-4.6874368E-1,-2.7480626E-1,-6.814415E-1,-4.103447E-1,-7.079125E-1,-5.4889464E-1,-6.941603E-1,-8.952387E-1,2.0902173E-1,9.6447E-2,-9.39082E-1,-1.18297525E-1,2.1327022E-1,-9.636504E-2,-8.620332E-3,-2.3568216E-1,4.2059228E-1,-3.6534634E-1,-4.4667947E-1,1.3437857E-2,2.3626609E-1,8.0818343E-1,-3.268397E-1,-1.5567748E-1,-4.017657E-1,-9.087533E-1,-2.0116091E-1,-3.4744743E-1,-6.127662E-1,-9.054067E-1,-2.815442E-1,-4.918939E-1,-5.668591E-1,-7.6639086E-1,-3.1387055E-1,-5.932401E-1,-7.2877496E-1,-3.8763782E-1,-1.4034344E-1,-9.271903E-1,6.679934E-2,-1.3524725E-1,4.1423786E-2,4.583901E-3,-4.5261838E-2,-4.4272235E-1,-8.1285626E-2,5.1003158E-2,1.0669167E-1,-1.6090058E-3,-2.7322042E-1,1.3893573E-2,6.295916E-3,-3.484675E-1,-2.3924537E-1,-5.7112537E-2,5.2370496E-2,1.655877E-1,-1.8868557E-1,4.60622E-2,1.2944514E-1,-6.7824975E-2,1.638794E-3,2.9029053E-1,-4.406572E-2,-1.1478488E-1,1.4173572E-1,-4.925265E-2,-1.3784385E-1,-5.4194093E-2,1.4135373E-2,-2.8102112E-1,-1.1878409E-1,-5.4424673E-2,-1.4618884E-1,-6.670538E-2,-2.2226837E-1,-1.407335E-1,-8.323136E-2,-2.7890822E-1,-1.5019429E-1,-7.485237E-2,-2.2027285E-1,-1.3090494E-1,-2.2234112E-1,-1.02860644E-1,-3.0338123E-1,-2.1495676E-1,-6.420269E-2,-1.132999E-1,-1.6082063E-1,-2.1624464E-1,-2.1099468E-1,-2.545956E-1,1.3091715E-2,-1.3421647E-1,-5.0082136E-2,-2.8043908E-1],"categories":[],"categories_nodes":[],"categories_segments":[],"categories_sizes":[],"default_left":[0,0,0,0,0,0,0,0,0,0,0,0,0,0,0,0,0,0,0,0,0,0,0,0,0,0,0,0,0,0,0,0,0,0,0,0,0,0,0,0,0,0,0,0,0,0,0,0,0,0,0,0,0,0,0,0,0,0,0,0,0,0,0,0,0,0,0,0,0,0,0,0,0,0,0,0,0,0,0,0,0,0,0,0,0,0,0,0,0,0,0,0,0,0,0,0,0,0,0,0,0,0,0,0,0,0,0,0,0,0,0,0,0,0,0,0,0,0,0,0,0],"id":9,"left_children":[1,3,5,7,9,11,13,15,17,19,21,23,25,27,29,31,33,35,37,39,41,43,45,47,49,51,53,55,57,59,61,63,65,67,69,71,73,75,77,79,-1,-1,81,83,85,87,89,91,93,95,97,99,101,103,105,107,109,111,113,115,117,-1,119,-1,-1,-1,-1,-1,-1,-1,-1,-1,-1,-1,-1,-1,-1,-1,-1,-1,-1,-1,-1,-1,-1,-1,-1,-1,-1,-1,-1,-1,-1,-1,-1,-1,-1,-1,-1,-1,-1,-1,-1,-1,-1,-1,-1,-1,-1,-1,-1,-1,-1,-1,-1,-1,-1,-1,-1,-1,-1],"loss_changes":[9.1682733E2,6.5387184E1,6.2966553E1,1.5461876E1,1.55287285E1,1.2840027E1,6.5028076E0,1.3783455E1,8.776438E0,4.4574766E0,8.695118E0,1.1407181E1,1.939206E1,8.090698E0,2.7437744E0,8.955532E0,7.134104E0,6.3568945E0,5.505547E0,5.055931E0,4.2846136E0,1.3218226E0,7.0847855E0,1.5873398E1,3.6320915E0,5.874405E0,7.655182E0,3.9042969E0,9.391815E0,1.2460327E1,7.407532E-1,8.841431E0,8.827692E0,6.9683447E0,1.3664107E0,5.4490576E0,1.2474698E1,6.8171844E0,5.753416E0,1.8104877E0,0E0,0E0,3.5165925E0,1.7222091E0,7.626846E-1,4.1594353E0,3.173521E0,6.042557E0,1.9700508E0,1.2589254E0,5.9622498E0,5.5976486E0,1.2062302E0,1.9106712E0,5.777458E0,5.913666E0,3.78154E0,8.6204624E-1,5.2443237E0,2.6931763E0,3.2148743E0,0E0,3.007965E-1,0E0,0E0,0E0,0E0,0E0,0E0,0E0,0E0,0E0,0E0,0E0,0E0,0E0,0E0,0E0,0E0,0E0,0E0,0E0,0E0,0E0,0E0,0E0,0E0,0E0,0E0,0E0,0E0,0E0,0E0,0E0,0E0,0E0,0E0,0E0,0E0,0E0,0E0,0E0,0E0,0E0,0E0,0E0,0E0,0E0,0E0,0E0,0E0,0E0,0E0,0E0,0E0,0E0,0E0,0E0,0E0,0E0,0E0],"parents":[2147483647,0,0,1,1,2,2,3,3,4,4,5,5,6,6,7,7,8,8,9,9,10,10,11,11,12,12,13,13,14,14,15,15,16,16,17,17,18,18,19,19,20,20,21,21,22,22,23,23,24,24,25,25,26,26,27,27,28,28,29,29,30,30,31,31,32,32,33,33,34,34,35,35,36,36,37,37,38,38,39,39,42,42,43,43,44,44,45,45,46,46,47,47,48,48,49,49,50,50,51,51,52,52,53,53,54,54,55,55,56,56,57,57,58,58,59,59,60,60,62,62],"right_children":[2,4,6,8,10,12,14,16,18,20,22,24,26,28,30,32,34,36,38,40,42,44,46,48,50,52,54,56,58,60,62,64,66,68,70,72,74,76,78,80,-1,-1,82,84,86,88,90,92,94,96,98,100,102,104,106,108,110,112,114,116,118,-1,120,-1,-1,-1,-1,-1,-1,-1,-1,-1,-1,-1,-1,-1,-1,-1,-1,-1,-1,-1,-1,-1,-1,-1,-1,-1,-1,-1,-1,-1,-1,-1,-1,-1,-1,-1,-1,-1,-1,-1,-1,-1,-1,-1,-1,-1,-1,-1,-1,-1,-1,-1,-1,-1,-1,-1,-1,-1,-1],"split_conditions":[2.0724879E-7,1.5544283E-7,2.4049523E-6,7.3678956E-7,6.3883664E-7,1.9548033E-6,9.549851E-6,3.1223004E-7,3.1273256E-8,3.9903307E-7,3.1751892E-7,3.7399914E-5,2.0427564E-5,2.1842101E-5,1.7498042E-4,2.0312136E-6,2.0952941E-6,1.2330074E-7,3.9014043E-7,3.6528414E-5,3.8087922E-8,7.134806E-7,2.1228534E-5,2.5431907E-6,1.2502118E-6,5.4104426E-6,7.1290447E-6,7.970144E-6,1.1864898E-5,2.0023741E-5,7.0856244E-5,1.17330686E-7,7.268925E-8,1.038755E-7,1.19649385E-5,2.1400274E-6,6.467343E-6,3.6652673E-5,1.972091E-6,2.0766072E-5,-3.6534634E-1,-4.4667947E-1,6.467343E-6,3.250082E-8,4.4705775E-8,2.2947218E-7,3.5805228E-6,5.417426E-6,3.0226448E-7,1.335546E-5,8.667826E-6,1.2200284E-5,4.7334747E-6,1.2931682E-5,2.544469E-5,1.9103787E-5,2.0818878E-5,1.4118136E-5,2.8168042E-6,6.659568E-6,1.11909256E-4,-1.4034344E-1,1.5219708E-4,6.679934E-2,-1.3524725E-1,4.1423786E-2,4.583901E-3,-4.5261838E-2,-4.4272235E-1,-8.1285626E-2,5.1003158E-2,1.0669167E-1,-1.6090058E-3,-2.7322042E-1,1.3893573E-2,6.295916E-3,-3.484675E-1,-2.3924537E-1,-5.7112537E-2,5.2370496E-2,1.655877E-1,-1.8868557E-1,4.60622E-2,1.2944514E-1,-6.7824975E-2,1.638794E-3,2.9029053E-1,-4.406572E-2,-1.1478488E-1,1.4173572E-1,-4.925265E-2,-1.3784385E-1,-5.4194093E-2,1.4135373E-2,-2.8102112E-1,-1.1878409E-1,-5.4424673E-2,-1.4618884E-1,-6.670538E-2,-2.2226837E-1,-1.407335E-1,-8.323136E-2,-2.7890822E-1,-1.5019429E-1,-7.485237E-2,-2.2027285E-1,-1.3090494E-1,-2.2234112E-1,-1.02860644E-1,-3.0338123E-1,-2.1495676E-1,-6.420269E-2,-1.132999E-1,-1.6082063E-1,-2.1624464E-1,-2.1099468E-1,-2.545956E-1,1.3091715E-2,-1.3421647E-1,-5.0082136E-2,-2.8043908E-1],"split_indices":[3,4,3,7,7,4,4,5,2,6,6,14,12,9,13,9,9,4,6,14,3,7,13,7,4,5,5,5,5,4,5,3,3,4,12,9,11,14,9,13,0,0,11,2,3,5,10,10,3,12,10,11,6,10,12,11,11,6,2,3,11,0,14,0,0,0,0,0,0,0,0,0,0,0,0,0,0,0,0,0,0,0,0,0,0,0,0,0,0,0,0,0,0,0,0,0,0,0,0,0,0,0,0,0,0,0,0,0,0,0,0,0,0,0,0,0,0,0,0,0,0],"split_type":[0,0,0,0,0,0,0,0,0,0,0,0,0,0,0,0,0,0,0,0,0,0,0,0,0,0,0,0,0,0,0,0,0,0,0,0,0,0,0,0,0,0,0,0,0,0,0,0,0,0,0,0,0,0,0,0,0,0,0,0,0,0,0,0,0,0,0,0,0,0,0,0,0,0,0,0,0,0,0,0,0,0,0,0,0,0,0,0,0,0,0,0,0,0,0,0,0,0,0,0,0,0,0,0,0,0,0,0,0,0,0,0,0,0,0,0,0,0,0,0,0],"sum_hessian":[1.058E4,5.453E3,5.127E3,4.336E3,1.117E3,2.399E3,2.728E3,3.627E3,7.09E2,9.7E1,1.02E3,1.241E3,1.158E3,1.443E3,1.285E3,3.582E3,4.5E1,2.8E2,4.29E2,5.9E1,3.8E1,2.2E1,9.98E2,5.5E2,6.91E2,4.17E2,7.41E2,5.25E2,9.18E2,1.2E3,8.5E1,9.7E2,2.612E3,1.6E1,2.9E1,1.74E2,1.06E2,1.98E2,2.31E2,5.8E1,1E0,1E0,3.7E1,1.7E1,5E0,4.19E2,5.79E2,4.79E2,7.1E1,3.45E2,3.46E2,3.22E2,9.5E1,2.89E2,4.52E2,1.57E2,3.68E2,1.47E2,7.71E2,1.077E3,1.23E2,7E0,7.8E1,9.51E2,1.9E1,1.726E3,8.86E2,7E0,9E0,1.9E1,1E1,1.05E2,6.9E1,1.5E1,9.1E1,1.94E2,4E0,1.6E1,2.15E2,2.1E1,3.7E1,6E0,3.1E1,1.2E1,5E0,1E0,4E0,1E2,3.19E2,7E0,5.72E2,3.79E2,1E2,2E0,6.9E1,3E1,3.15E2,1.62E2,1.84E2,1.68E2,1.54E2,4E0,9.1E1,3.5E1,2.54E2,8.2E1,3.7E2,8.7E1,7E1,5.9E1,3.09E2,5.9E1,8.8E1,5.36E2,2.35E2,8.94E2,1.83E2,1.5E1,1.08E2,1E0,7.7E1],"tree_param":{"num_deleted":"0","num_feature":"16","num_nodes":"121","size_leaf_vector":"1"}},{"base_weights":[1.7205596E-1,1.5877526E-1,2.172604E-1,2.0597965E-1,1.5649416E-1,1.9708848E-1,2.3865362E-1,1.519789E-1,2.3989251E-1,1.50955655E-2,1.5722021E-1,2.553569E-1,1.8584879E-1,2.283424E-1,2.635756E-1,1.5813438E-2,1.8248434E-1,1.8075258E-1,2.8002983E-1,-4.5825284E-2,2.3679474E-1,1.7129527E-1,1.4996706E-1,2.584045E-1,8.603937E-2,7.303136E-2,1.8165031E-1,2.3723838E-1,2.0988907E-1,3.694514E-2,7.9343714E-2,-2.694243E-2,2.1787891E-1,3.017045E-1,1.4953655E-1,2.8505453E-1,2.3676587E-2,1.7404073E-1,3.248848E-1,-8.9577064E-2,8.813081E-2,3.0745268E-1,-7.0053735E-3,1.6588482E-1,2.975731E-1,1.17886424E-1,1.5933058E-1,2.5917667E-1,1.6406063E-2,2.9681316E-2,5.1669003E-3,1.5205912E-1,1.8818794E-1,2.4537593E-1,2.1563274E-1,5.9185687E-2,6.89106E-2,2.5390258E-2,-3.3805598E-2,5.9772986E-3,7.871594E-2,1.01516284E-1,-2.4030272E-2,6.143717E-2,2.300106E-2,8.8387355E-2,-3.7629716E-2,3.3091035E-2,-4.7418598E-2,2.9116467E-2,9.184348E-2,1.10685095E-1,5.4847047E-2,-4.689118E-2,1.7852122E-2,1.0311601E-1,1.3477297E-2,-1.6522704E-2,1.3370285E-2,5.2836183E-2,4.180836E-2,3.547912E-2,1.0788863E-1,3.9788444E-2,2.0855604E-2,5.533591E-2,4.448524E-2,8.293438E-2,7.11633E-2,5.087811E-2,4.145507E-2,6.039856E-2,5.274695E-2,8.732675E-2,7.185524E-2,2.7348012E-2,6.4991325E-2],"categories":[],"categories_nodes":[],"categories_segments":[],"categories_sizes":[],"default_left":[0,0,0,0,0,0,0,0,0,0,0,0,0,0,0,0,0,0,0,0,0,0,0,0,0,0,0,0,0,0,0,0,0,0,0,0,0,0,0,0,0,0,0,0,0,0,0,0,0,0,0,0,0,0,0,0,0,0,0,0,0,0,0,0,0,0,0,0,0,0,0,0,0,0,0,0,0,0,0,0,0,0,0,0,0,0,0,0,0,0,0,0,0,0,0,0,0],"id":10,"left_children":[1,3,5,7,9,11,13,15,17,19,21,23,25,27,29,31,33,35,37,39,41,43,45,47,49,-1,51,53,55,-1,-1,57,59,61,63,65,67,69,71,73,-1,75,77,79,81,83,85,87,-1,-1,-1,89,91,93,95,-1,-1,-1,-1,-1,-1,-1,-1,-1,-1,-1,-1,-1,-1,-1,-1,-1,-1,-1,-1,-1,-1,-1,-1,-1,-1,-1,-1,-1,-1,-1,-1,-1,-1,-1,-1,-1,-1,-1,-1,-1,-1],"loss_changes":[6.3177795E0,8.4880066E-1,9.886627E-1,6.484566E-1,7.9933167E-1,7.6529694E-1,2.3790741E-1,6.077213E-1,4.90592E-1,5.6460136E-1,7.6742554E-1,7.993603E-2,2.0820618E-1,8.613205E-2,9.674072E-3,2.4777576E-1,4.2624903E-1,1.5496669E0,5.805111E-1,5.166246E-1,1.5719157E-1,1.7509232E0,1.5237122E0,1.6345024E-2,2.73408E-3,0E0,1.6038895E-1,4.396248E-2,2.4102211E-2,0E0,0E0,2.3914267E-1,3.8824514E-2,3.7725067E-1,3.7081003E-1,2.608714E-1,6.3142896E-1,3.9743352E-1,5.1472664E-1,3.077387E-1,0E0,5.1207006E-2,9.891979E-3,6.6205597E-1,1.148076E0,8.2073975E-1,1.0749359E0,7.6436996E-3,0E0,0E0,0E0,2.084589E-2,9.393501E-2,3.553009E-2,1.411438E-4,0E0,0E0,0E0,0E0,0E0,0E0,0E0,0E0,0E0,0E0,0E0,0E0,0E0,0E0,0E0,0E0,0E0,0E0,0E0,0E0,0E0,0E0,0E0,0E0,0E0,0E0,0E0,0E0,0E0,0E0,0E0,0E0,0E0,0E0,0E0,0E0,0E0,0E0,0E0,0E0,0E0,0E0],"parents":[2147483647,0,0,1,1,2,2,3,3,4,4,5,5,6,6,7,7,8,8,9,9,10,10,11,11,12,12,13,13,14,14,15,15,16,16,17,17,18,18,19,19,20,20,21,21,22,22,23,23,24,24,26,26,27,27,28,28,31,31,32,32,33,33,34,34,35,35,36,36,37,37,38,38,39,39,41,41,42,42,43,43,44,44,45,45,46,46,47,47,51,51,52,52,53,53,54,54],"right_children":[2,4,6,8,10,12,14,16,18,20,22,24,26,28,30,32,34,36,38,40,42,44,46,48,50,-1,52,54,56,-1,-1,58,60,62,64,66,68,70,72,74,-1,76,78,80,82,84,86,88,-1,-1,-1,90,92,94,96,-1,-1,-1,-1,-1,-1,-1,-1,-1,-1,-1,-1,-1,-1,-1,-1,-1,-1,-1,-1,-1,-1,-1,-1,-1,-1,-1,-1,-1,-1,-1,-1,-1,-1,-1,-1,-1,-1,-1,-1,-1,-1],"split_conditions":[2.33516E-5,3.9192532E-8,4.505113E-5,2.939987E-8,3.9989697E-8,1.208122E-6,3.244664E-5,1.7567677E-7,3.7140455E-6,1.19649385E-5,3.5096225E-8,5.303835E-6,1.0351473E-5,5.2120554E-6,5.0892973E-5,3.9729093E-7,6.4489486E-6,3.890445E-7,3.5407676E-5,3.6329704E-5,2.064648E-6,8.0890834E-7,3.573146E-5,1.7503768E-5,9.188477E-6,7.303136E-2,3.507681E-5,2.5386742E-6,7.250206E-5,3.694514E-2,7.9343714E-2,1.135387E-6,1.6047203E-8,7.588209E-7,1.1783151E-5,3.7043205E-6,1.1940183E-5,3.7130135E-8,4.4662794E-8,7.0841617E-7,8.813081E-2,2.6489502E-7,3.37204E-8,7.032386E-7,3.8131905E-6,5.4459868E-8,1.7711862E-7,4.383189E-5,1.6406063E-2,2.9681316E-2,5.1669003E-3,1.5853595E-5,9.188477E-6,7.585957E-5,2.6929943E-5,5.9185687E-2,6.89106E-2,2.5390258E-2,-3.3805598E-2,5.9772986E-3,7.871594E-2,1.01516284E-1,-2.4030272E-2,6.143717E-2,2.300106E-2,8.8387355E-2,-3.7629716E-2,3.3091035E-2,-4.7418598E-2,2.9116467E-2,9.184348E-2,1.10685095E-1,5.4847047E-2,-4.689118E-2,1.7852122E-2,1.0311601E-1,1.3477297E-2,-1.6522704E-2,1.3370285E-2,5.2836183E-2,4.180836E-2,3.547912E-2,1.0788863E-1,3.9788444E-2,2.0855604E-2,5.533591E-2,4.448524E-2,8.293438E-2,7.11633E-2,5.087811E-2,4.145507E-2,6.039856E-2,5.274695E-2,8.732675E-2,7.185524E-2,2.7348012E-2,6.4991325E-2],"split_indices":[9,3,8,2,3,2,5,5,10,12,2,3,5,3,7,6,11,6,14,14,9,7,14,5,4,0,10,2,8,0,0,8,2,7,12,10,12,3,2,7,0,5,2,7,10,2,3,11,0,0,0,6,4,13,7,0,0,0,0,0,0,0,0,0,0,0,0,0,0,0,0,0,0,0,0,0,0,0,0,0,0,0,0,0,0,0,0,0,0,0,0,0,0,0,0,0,0],"split_type":[0,0,0,0,0,0,0,0,0,0,0,0,0,0,0,0,0,0,0,0,0,0,0,0,0,0,0,0,0,0,0,0,0,0,0,0,0,0,0,0,0,0,0,0,0,0,0,0,0,0,0,0,0,0,0,0,0,0,0,0,0,0,0,0,0,0,0,0,0,0,0,0,0,0,0,0,0,0,0,0,0,0,0,0,0,0,0,0,0,0,0,0,0,0,0,0,0],"sum_hessian":[1.058E4,8.181E3,2.399E3,3.73E2,7.808E3,1.24E3,1.159E3,1.46E2,2.27E2,4E1,7.768E3,1.97E2,1.043E3,8.27E2,3.32E2,2.7E1,1.19E2,9.4E1,1.33E2,3.2E1,8E0,2.634E3,5.134E3,1.93E2,4E0,6.7E1,9.76E2,5.5E2,2.77E2,3E0,3.29E2,2.3E1,4E0,2.4E1,9.5E1,5.6E1,3.8E1,4.1E1,9.2E1,2.9E1,3E0,6E0,2E0,2.528E3,1.06E2,1.163E3,3.971E3,1.92E2,1E0,3E0,1E0,1.81E2,7.95E2,3.92E2,1.58E2,1.76E2,1.01E2,1E1,1.3E1,1E0,3E0,2.2E1,2E0,5.3E1,4.2E1,5.5E1,1E0,2.6E1,1.2E1,2.7E1,1.4E1,6.9E1,2.3E1,2E1,9E0,5E0,1E0,1E0,1E0,1.82E3,7.08E2,2.8E1,7.8E1,8.9E2,2.73E2,1.208E3,2.763E3,1.01E2,9.1E1,7.5E1,1.06E2,3.78E2,4.17E2,3.9E1,3.53E2,2E0,1.56E2],"tree_param":{"num_deleted":"0","num_feature":"16","num_nodes":"97","size_leaf_vector":"1"}},{"base_weights":[-1.7378126E-1,2.3309592E-2,-3.9344534E-1,7.441545E-2,-1.0280201E-1,-3.1483057E-1,-4.6801585E-1,1.0368889E-1,-1.1821772E-2,8.82832E-2,-1.3636573E-1,-5.312321E-1,-2.9766244E-1,-4.389788E-1,-5.209148E-1,1.0749255E-1,-3.8735735E-1,3.2446697E-2,-3.2160723E-1,2.0663251E-1,-5.6934617E-2,-5.892366E-1,-1.2853174E-1,-3.2736346E-1,-6.834155E-1,-1.3797347E-1,-3.2942548E-1,-5.4043746E-1,-3.8890103E-1,-6.585948E-1,-4.9176636E-1,1.2735611E-1,2.2586955E-2,-4.4910442E-2,-1.6111841E0,9.2654206E-2,-1.227129E-1,-4.7954535E-1,-9.502177E-2,3.7934718E-1,8.7467216E-2,-7.9761505E-1,2.5938304E-2,-5.210049E-1,-3.9725685E-1,7.789639E-2,-1.4768071E-1,-4.7922894E-1,-1.3687517E-1,-5.999031E-1,-9.13297E-1,-5.756884E-1,-1.1442317E-1,-5.111481E-1,-2.9769036E-1,-4.7751978E-1,-6.3320076E-1,-3.145311E-1,-4.8239455E-1,-8.8935614E-1,-6.3479114E-1,6.276068E-2,-5.008681E-1,4.9927805E-2,2.2321576E-2,1.07805945E-1,-4.0191477E-3,3.857155E-2,-1.3266522E-1,5.344123E-2,-6.309147E-1,3.775997E-2,-8.723372E-2,5.6002077E-2,-5.890563E-2,-3.928195E-2,-2.1038777E-1,-1.5291771E-1,2.46273E-2,1.3023221E-1,-1.51031045E-2,7.1387984E-2,-9.60308E-2,1.1469142E-1,-3.3068934E-1,4.1992128E-2,-1.8659757E-1,-2.2097612E-2,-2.7416897E-1,-3.210434E-1,4.8664562E-2,-8.433127E-2,-3.256406E-2,-4.115963E-2,-1.9188482E-1,-7.693815E-2,-1.4735434E-2,-1.8915169E-1,-3.9806582E-2,-6.4958455E-3,-2.84864E-1,-9.574697E-2,-3.234944E-1,-4.3156896E-2,2.7446281E-3,-1.3265105E-1,-2.1099554E-1,-4.8269935E-2,-1.0321953E-1,-1.6148113E-1,-9.130165E-2,-2.1526709E-1,-1.6454E-1,-8.284572E-2,-1.4416608E-1,-5.010645E-2,-1.4945309E-1,-2.9409064E-2,-2.8571492E-1,-1.3839921E-1,-2.0406967E-1,-6.808058E-2,8.165627E-2,-1.4431792E-1,-1.9421503E-1],"categories":[],"categories_nodes":[],"categories_segments":[],"categories_sizes":[],"default_left":[0,0,0,0,0,0,0,0,0,0,0,0,0,0,0,0,0,0,0,0,0,0,0,0,0,0,0,0,0,0,0,0,0,0,0,0,0,0,0,0,0,0,0,0,0,0,0,0,0,0,0,0,0,0,0,0,0,0,0,0,0,0,0,0,0,0,0,0,0,0,0,0,0,0,0,0,0,0,0,0,0,0,0,0,0,0,0,0,0,0,0,0,0,0,0,0,0,0,0,0,0,0,0,0,0,0,0,0,0,0,0,0,0,0,0,0,0,0,0,0,0,0,0,0,0],"id":11,"left_children":[1,3,5,7,9,11,13,15,17,19,21,23,25,27,29,31,33,35,37,39,41,43,45,47,49,51,53,55,57,59,61,63,65,67,69,71,73,75,77,79,81,83,85,-1,87,89,91,93,95,97,99,101,103,105,107,109,111,113,115,117,119,121,123,-1,-1,-1,-1,-1,-1,-1,-1,-1,-1,-1,-1,-1,-1,-1,-1,-1,-1,-1,-1,-1,-1,-1,-1,-1,-1,-1,-1,-1,-1,-1,-1,-1,-1,-1,-1,-1,-1,-1,-1,-1,-1,-1,-1,-1,-1,-1,-1,-1,-1,-1,-1,-1,-1,-1,-1,-1,-1,-1,-1,-1,-1],"loss_changes":[4.5810068E2,3.5958088E1,2.9187866E1,1.0023333E1,1.0331411E1,8.903275E0,3.7127686E0,5.5777187E0,1.3820159E1,4.153694E0,4.781189E0,5.298794E0,1.1427902E1,8.239227E0,3.3040314E0,4.958889E0,9.566842E0,8.2508135E0,4.4635286E0,2.7041721E0,6.7113647E0,4.3766804E0,5.3360443E0,2.190836E0,1.3911018E0,3.8203635E0,1.07243805E1,2.8901978E0,7.6148834E0,2.8684998E-1,3.8168182E0,4.9196014E0,6.778906E0,1.3664453E0,4.775153E0,8.135883E0,5.6640477E0,5.628542E0,3.93466E0,1.2924719E0,4.9830756E0,4.375927E0,7.4018764E0,0E0,3.4435396E0,1.1305761E1,6.407442E0,2.2711048E0,3.6520362E-1,1.0172825E0,7.874851E-1,2.1057014E0,1.3070383E0,3.3873062E0,1.0145187E1,3.3080673E0,1.1646729E0,3.8496246E0,2.3706207E0,5.051346E-1,8.2123566E-1,8.504805E-1,1.8303986E0,0E0,0E0,0E0,0E0,0E0,0E0,0E0,0E0,0E0,0E0,0E0,0E0,0E0,0E0,0E0,0E0,0E0,0E0,0E0,0E0,0E0,0E0,0E0,0E0,0E0,0E0,0E0,0E0,0E0,0E0,0E0,0E0,0E0,0E0,0E0,0E0,0E0,0E0,0E0,0E0,0E0,0E0,0E0,0E0,0E0,0E0,0E0,0E0,0E0,0E0,0E0,0E0,0E0,0E0,0E0,0E0,0E0,0E0,0E0,0E0,0E0,0E0],"parents":[2147483647,0,0,1,1,2,2,3,3,4,4,5,5,6,6,7,7,8,8,9,9,10,10,11,11,12,12,13,13,14,14,15,15,16,16,17,17,18,18,19,19,20,20,21,21,22,22,23,23,24,24,25,25,26,26,27,27,28,28,29,29,30,30,31,31,32,32,33,33,34,34,35,35,36,36,37,37,38,38,39,39,40,40,41,41,42,42,44,44,45,45,46,46,47,47,48,48,49,49,50,50,51,51,52,52,53,53,54,54,55,55,56,56,57,57,58,58,59,59,60,60,61,61,62,62],"right_children":[2,4,6,8,10,12,14,16,18,20,22,24,26,28,30,32,34,36,38,40,42,44,46,48,50,52,54,56,58,60,62,64,66,68,70,72,74,76,78,80,82,84,86,-1,88,90,92,94,96,98,100,102,104,106,108,110,112,114,116,118,120,122,124,-1,-1,-1,-1,-1,-1,-1,-1,-1,-1,-1,-1,-1,-1,-1,-1,-1,-1,-1,-1,-1,-1,-1,-1,-1,-1,-1,-1,-1,-1,-1,-1,-1,-1,-1,-1,-1,-1,-1,-1,-1,-1,-1,-1,-1,-1,-1,-1,-1,-1,-1,-1,-1,-1,-1,-1,-1,-1,-1,-1,-1,-1],"split_conditions":[8.954446E-7,1.4338073E-7,5.715088E-6,4.077481E-7,6.4774804E-7,7.9891515E-6,2.1259508E-5,3.1223004E-7,9.294022E-8,3.333856E-8,6.533331E-7,1.609413E-6,2.3517E-6,4.591379E-5,3.974688E-5,6.8155678E-6,1.2840545E-7,2.4342395E-7,2.524894E-7,1.1729323E-6,3.9989697E-8,1.1395128E-5,5.0947996E-8,7.5916264E-6,5.7553666E-7,2.1781756E-5,3.8576305E-5,1.1864898E-5,4.8322067E-6,1.781913E-6,7.899958E-5,1.184718E-5,3.5585483E-6,2.1142621E-5,1.9730402E-8,1.3179097E-6,6.4025807E-7,2.0410697E-7,3.7659054E-6,2.1359243E-5,3.8417743E-6,3.3651087E-8,6.918266E-6,-5.210049E-1,6.7196643E-6,6.3627867E-6,6.698668E-6,1.3342636E-6,1.547387E-7,2.4885294E-6,1.7629484E-6,2.3401128E-6,5.7553666E-7,3.903796E-6,3.8507274E-6,1.9974908E-5,2.1917692E-6,3.2333437E-6,1.24832195E-5,1.1801249E-6,2.5026507E-6,4.263111E-5,1.9726483E-4,4.9927805E-2,2.2321576E-2,1.07805945E-1,-4.0191477E-3,3.857155E-2,-1.3266522E-1,5.344123E-2,-6.309147E-1,3.775997E-2,-8.723372E-2,5.6002077E-2,-5.890563E-2,-3.928195E-2,-2.1038777E-1,-1.5291771E-1,2.46273E-2,1.3023221E-1,-1.51031045E-2,7.1387984E-2,-9.60308E-2,1.1469142E-1,-3.3068934E-1,4.1992128E-2,-1.8659757E-1,-2.2097612E-2,-2.7416897E-1,-3.210434E-1,4.8664562E-2,-8.433127E-2,-3.256406E-2,-4.115963E-2,-1.9188482E-1,-7.693815E-2,-1.4735434E-2,-1.8915169E-1,-3.9806582E-2,-6.4958455E-3,-2.84864E-1,-9.574697E-2,-3.234944E-1,-4.3156896E-2,2.7446281E-3,-1.3265105E-1,-2.1099554E-1,-4.8269935E-2,-1.0321953E-1,-1.6148113E-1,-9.130165E-2,-2.1526709E-1,-1.6454E-1,-8.284572E-2,-1.4416608E-1,-5.010645E-2,-1.4945309E-1,-2.9409064E-2,-2.8571492E-1,-1.3839921E-1,-2.0406967E-1,-6.808058E-2,8.165627E-2,-1.4431792E-1,-1.9421503E-1],"split_indices":[5,4,4,6,7,11,5,5,3,2,7,7,6,13,7,11,4,5,5,8,3,12,3,11,3,13,14,5,3,2,13,12,10,13,2,8,7,5,10,13,10,3,11,0,11,11,11,7,2,6,8,7,3,7,5,9,2,2,5,2,2,7,11,0,0,0,0,0,0,0,0,0,0,0,0,0,0,0,0,0,0,0,0,0,0,0,0,0,0,0,0,0,0,0,0,0,0,0,0,0,0,0,0,0,0,0,0,0,0,0,0,0,0,0,0,0,0,0,0,0,0,0,0,0,0],"split_type":[0,0,0,0,0,0,0,0,0,0,0,0,0,0,0,0,0,0,0,0,0,0,0,0,0,0,0,0,0,0,0,0,0,0,0,0,0,0,0,0,0,0,0,0,0,0,0,0,0,0,0,0,0,0,0,0,0,0,0,0,0,0,0,0,0,0,0,0,0,0,0,0,0,0,0,0,0,0,0,0,0,0,0,0,0,0,0,0,0,0,0,0,0,0,0,0,0,0,0,0,0,0,0,0,0,0,0,0,0,0,0,0,0,0,0,0,0,0,0,0,0,0,0,0,0],"sum_hessian":[1.058E4,5.577E3,5.003E3,3.969E3,1.608E3,2.438E3,2.565E3,2.963E3,1.006E3,2.4E2,1.368E3,1.77E2,2.261E3,1.662E3,9.03E2,2.941E3,2.2E1,8.81E2,1.25E2,1.32E2,1.08E2,2.2E1,1.346E3,7.7E1,1E2,3.76E2,1.885E3,5.46E2,1.116E3,1.54E2,7.49E2,2.383E3,5.58E2,1.8E1,4E0,6.35E2,2.46E2,7.3E1,5.2E1,5.3E1,7.9E1,1E1,9.8E1,2E0,2E1,1.14E2,1.232E3,4.2E1,3.5E1,7.6E1,2.4E1,1.8E1,3.58E2,2.78E2,1.607E3,3.29E2,2.17E2,6.24E2,4.92E2,1.1E1,1.43E2,1.2E1,7.37E2,1.37E3,1.013E3,5.3E1,5.05E2,1.3E1,5E0,1E0,3E0,5.85E2,5E1,4.7E1,1.99E2,2.9E1,4.4E1,1.5E1,3.7E1,4.7E1,6E0,5.8E1,2.1E1,2E0,8E0,8.4E1,1.4E1,1.3E1,7E0,7E0,1.07E2,2.78E2,9.54E2,1.4E1,2.8E1,1.4E1,2.1E1,7.1E1,5E0,1E0,2.3E1,1.3E1,5E0,2.89E2,6.9E1,2.07E2,7.1E1,4.08E2,1.199E3,2.42E2,8.7E1,1.05E2,1.12E2,5.09E2,1.15E2,2.4E1,4.68E2,1E0,1E1,3.2E1,1.11E2,5E0,7E0,6.53E2,8.4E1],"tree_param":{"num_deleted":"0","num_feature":"16","num_nodes":"125","size_leaf_vector":"1"}},{"base_weights":[1.20638765E-1,1.1061898E-1,1.5125933E-1,1.13829516E-1,7.671397E-2,1.3820626E-1,1.6850865E-1,1.0925453E-1,1.7412747E-1,6.0949836E-2,9.8026946E-2,1.8732134E-1,1.2790507E-1,1.6200218E-1,1.9068056E-1,1.1536932E-1,7.404513E-2,2.0971915E-1,1.151927E-1,6.979932E-2,4.013996E-2,1.7451641E-1,8.863836E-2,1.9341609E-1,1.2596712E-1,1.6018948E-1,1.24121726E-1,1.7667373E-1,1.5649368E-1,1.6247733E-2,5.7304207E-2,1.0938489E-1,2.0942792E-1,2.8463945E-2,9.658988E-2,2.2666244E-1,1.5374516E-1,7.469727E-2,1.5138267E-1,5.783475E-2,9.4826266E-2,2.9764185E-2,5.1837046E-2,1.1220938E-2,1.8268274E-1,1.10275246E-1,7.6744735E-2,1.9479126E-1,6.667751E-2,2.108502E-2,1.4278305E-1,1.6476701E-1,2.4712251E-2,1.1314935E-1,1.3494901E-1,5.630023E-2,4.8824392E-2,1.4722477E-1,1.6619016E-1,3.425633E-2,1.1024457E-2,6.793812E-2,3.2140315E-2,1.7158449E-2,3.1002297E-3,4.33802E-2,1.528091E-2,6.9810696E-2,4.771048E-2,1.6179845E-2,6.1969552E-2,3.0411584E-2,1.4106639E-2,5.382665E-2,2.4412625E-2,4.4540553E-3,1.9343507E-2,6.303591E-2,2.0584958E-2,1.4405771E-2,7.210822E-3,1.6550912E-2,2.042986E-3,5.79441E-2,2.8147483E-2,3.750279E-2,1.8383557E-2,1.079923E-2,2.4115598E-2,6.299394E-2,5.3655885E-2,3.876445E-3,2.408671E-2,4.7871266E-2,2.3944288E-2,3.3560973E-2,5.1590353E-2,4.2808294E-2,3.2052852E-2,7.2236575E-2,3.9886076E-2,4.8238803E-2,4.0602833E-2,2.0773388E-2,4.9980056E-2],"categories":[],"categories_nodes":[],"categories_segments":[],"categories_sizes":[],"default_left":[0,0,0,0,0,0,0,0,0,0,0,0,0,0,0,0,0,0,0,0,0,0,0,0,0,0,0,0,0,0,0,0,0,0,0,0,0,0,0,0,0,0,0,0,0,0,0,0,0,0,0,0,0,0,0,0,0,0,0,0,0,0,0,0,0,0,0,0,0,0,0,0,0,0,0,0,0,0,0,0,0,0,0,0,0,0,0,0,0,0,0,0,0,0,0,0,0,0,0,0,0,0,0,0,0],"id":12,"left_children":[1,3,5,7,9,11,13,15,17,19,21,23,25,27,29,31,33,35,37,39,41,43,45,47,49,51,53,55,57,-1,-1,59,61,63,65,67,69,71,73,75,77,79,81,-1,83,85,87,89,91,-1,93,95,-1,97,99,-1,-1,101,103,-1,-1,-1,-1,-1,-1,-1,-1,-1,-1,-1,-1,-1,-1,-1,-1,-1,-1,-1,-1,-1,-1,-1,-1,-1,-1,-1,-1,-1,-1,-1,-1,-1,-1,-1,-1,-1,-1,-1,-1,-1,-1,-1,-1,-1,-1],"loss_changes":[3.2296448E0,8.5948944E-1,5.634651E-1,1.9903564E0,2.2685957E-1,7.29393E-1,1.3039207E-1,1.4496689E0,1.0498066E0,7.104504E-2,1.9494271E-1,7.13644E-2,1.308403E-1,4.274559E-2,9.441376E-4,3.2243881E0,1.030005E0,2.6673794E-1,2.7447033E-1,7.8358054E-2,1.3263807E-2,2.7878225E-2,5.921769E-2,2.727127E-2,1.4310449E-2,3.130889E-2,1.1648178E-1,4.6691895E-3,3.3233643E-2,0E0,0E0,1.8887482E0,5.7509327E-1,1.7338505E-1,1.4655647E0,6.1839104E-2,3.948102E-1,6.4626455E-2,1.8562198E-1,5.3876817E-2,2.5452358E-1,5.8517903E-3,8.027673E-3,0E0,8.843005E-3,5.803442E-2,2.2769809E-2,1.763916E-2,1.8893499E-3,0E0,7.3490143E-3,2.5708199E-2,0E0,8.853769E-2,8.477783E-2,0E0,0E0,3.25799E-2,6.26564E-4,0E0,0E0,0E0,0E0,0E0,0E0,0E0,0E0,0E0,0E0,0E0,0E0,0E0,0E0,0E0,0E0,0E0,0E0,0E0,0E0,0E0,0E0,0E0,0E0,0E0,0E0,0E0,0E0,0E0,0E0,0E0,0E0,0E0,0E0,0E0,0E0,0E0,0E0,0E0,0E0,0E0,0E0,0E0,0E0,0E0,0E0],"parents":[2147483647,0,0,1,1,2,2,3,3,4,4,5,5,6,6,7,7,8,8,9,9,10,10,11,11,12,12,13,13,14,14,15,15,16,16,17,17,18,18,19,19,20,20,21,21,22,22,23,23,24,24,25,25,26,26,27,27,28,28,31,31,32,32,33,33,34,34,35,35,36,36,37,37,38,38,39,39,40,40,41,41,42,42,44,44,45,45,46,46,47,47,48,48,50,50,51,51,53,53,54,54,57,57,58,58],"right_children":[2,4,6,8,10,12,14,16,18,20,22,24,26,28,30,32,34,36,38,40,42,44,46,48,50,52,54,56,58,-1,-1,60,62,64,66,68,70,72,74,76,78,80,82,-1,84,86,88,90,92,-1,94,96,-1,98,100,-1,-1,102,104,-1,-1,-1,-1,-1,-1,-1,-1,-1,-1,-1,-1,-1,-1,-1,-1,-1,-1,-1,-1,-1,-1,-1,-1,-1,-1,-1,-1,-1,-1,-1,-1,-1,-1,-1,-1,-1,-1,-1,-1,-1,-1,-1,-1,-1,-1],"split_conditions":[1.9974908E-5,1.885659E-6,5.720704E-5,8.068107E-6,2.6634036E-5,2.2842867E-6,1.7757384E-5,3.2045665E-7,9.2264025E-7,1.574232E-6,8.884916E-6,2.0268244E-6,5.450636E-6,3.4786551E-6,1.121398E-6,3.049933E-6,1.39602025E-5,1.2982566E-6,4.4584976E-5,1.5373513E-5,5.3063955E-6,3.1756004E-5,5.715088E-6,6.866531E-5,3.733226E-5,6.1669625E-6,2.262239E-5,9.624533E-5,8.7605964E-5,1.6247733E-2,5.7304207E-2,1.4107074E-7,7.7974056E-7,1.7145366E-6,3.5275023E-6,3.7219146E-5,1.62111E-5,7.1187615E-6,9.970137E-6,6.685486E-7,7.584235E-6,4.3148848E-5,8.003524E-6,1.1220938E-2,6.0946136E-6,3.9198885E-6,1.2736979E-5,6.011102E-5,1.4689707E-6,2.108502E-2,1.6316546E-5,3.367707E-5,2.4712251E-2,1.37368115E-5,4.0826228E-5,5.630023E-2,4.8824392E-2,2.260871E-6,5.872522E-6,3.425633E-2,1.1024457E-2,6.793812E-2,3.2140315E-2,1.7158449E-2,3.1002297E-3,4.33802E-2,1.528091E-2,6.9810696E-2,4.771048E-2,1.6179845E-2,6.1969552E-2,3.0411584E-2,1.4106639E-2,5.382665E-2,2.4412625E-2,4.4540553E-3,1.9343507E-2,6.303591E-2,2.0584958E-2,1.4405771E-2,7.210822E-3,1.6550912E-2,2.042986E-3,5.79441E-2,2.8147483E-2,3.750279E-2,1.8383557E-2,1.079923E-2,2.4115598E-2,6.299394E-2,5.3655885E-2,3.876445E-3,2.408671E-2,4.7871266E-2,2.3944288E-2,3.3560973E-2,5.1590353E-2,4.2808294E-2,3.2052852E-2,7.2236575E-2,3.9886076E-2,4.8238803E-2,4.0602833E-2,2.0773388E-2,4.9980056E-2],"split_indices":[9,3,9,9,12,3,4,3,2,2,6,2,4,3,2,9,12,3,14,10,4,13,4,11,12,3,7,12,9,0,0,3,4,6,6,13,11,6,6,2,6,14,4,0,4,3,8,14,3,0,5,12,0,6,11,0,0,2,4,0,0,0,0,0,0,0,0,0,0,0,0,0,0,0,0,0,0,0,0,0,0,0,0,0,0,0,0,0,0,0,0,0,0,0,0,0,0,0,0,0,0,0,0,0,0],"split_type":[0,0,0,0,0,0,0,0,0,0,0,0,0,0,0,0,0,0,0,0,0,0,0,0,0,0,0,0,0,0,0,0,0,0,0,0,0,0,0,0,0,0,0,0,0,0,0,0,0,0,0,0,0,0,0,0,0,0,0,0,0,0,0,0,0,0,0,0,0,0,0,0,0,0,0,0,0,0,0,0,0,0,0,0,0,0,0,0,0,0,0,0,0,0,0,0,0,0,0,0,0,0,0,0,0],"sum_hessian":[1.058E4,7.975E3,2.605E3,7.283E3,6.92E2,1.488E3,1.117E3,6.772E3,5.11E2,4E2,2.92E2,2.55E2,1.233E3,8.7E2,2.47E2,5.768E3,1.004E3,3.17E2,1.94E2,2.79E2,1.21E2,3E1,2.62E2,2.3E2,2.5E1,1.25E2,1.108E3,2.29E2,6.41E2,1E0,2.46E2,5.425E3,3.43E2,3.33E2,6.71E2,2.41E2,7.6E1,9.3E1,1.01E2,1.91E2,8.8E1,6.6E1,5.5E1,2E0,2.8E1,9E1,1.72E2,2.27E2,3E0,7E0,1.8E1,1.17E2,8E0,5.56E2,5.52E2,1.21E2,1.08E2,3.36E2,3.05E2,5.088E3,3.37E2,2.93E2,5E1,1.28E2,2.05E2,3.26E2,3.45E2,2.19E2,2.2E1,2.7E1,4.9E1,4.6E1,4.7E1,7.1E1,3E1,2.6E1,1.65E2,1.5E1,7.3E1,1.4E1,5.2E1,5.1E1,4E0,2.4E1,4E0,6.8E1,2.2E1,1.5E1,1.57E2,1.1E2,1.17E2,1E0,2E0,1.3E1,5E0,1.6E1,1.01E2,9.4E1,4.62E2,8E0,5.44E2,1.51E2,1.85E2,2E0,3.03E2],"tree_param":{"num_deleted":"0","num_feature":"16","num_nodes":"105","size_leaf_vector":"1"}},{"base_weights":[-1.22237004E-1,3.7443954E-2,-2.564544E-1,1.0116732E-1,4.227046E-3,-1.6642849E-1,-3.0872568E-1,1.12799324E-1,-1.4214002E-1,8.798184E-2,-3.6206927E-2,-8.207493E-1,-1.626157E-1,-4.6755308E-1,-2.9594857E-1,1.1593091E-1,-7.2856414E-1,-5.2275337E-2,-8.994554E-1,1.7500025E-1,4.3264408E-2,2.1645819E-1,-5.0108694E-2,2.6517975E-1,-1.0644531E0,-1.1097744E-1,-1.9316252E-1,-3.647729E-1,-6.3225424E-1,-2.0095007E-1,-3.3205053E-1,1.353657E-1,-1.845723E-2,-2.2999406E-1,-4.832122E-1,6.681653E-1,-1.0688961E-1,-5.8047897E-1,-2.3180906E-1,2.9756105E-1,-9.647479E-3,1.2581384E-1,-3.2488316E-2,3.1834033E-1,-2.663439E-2,3.431883E-2,-8.91887E-2,1.1516186E-2,1.0781471E-1,-1.9637673E-1,-4.0301982E-1,-1.6679741E-1,-4.7423355E-2,-2.8774738E-1,-1.2199933E-1,-4.6347883E-1,-1.6958097E-1,-3.0999255E-1,-5.8712935E-1,-2.9681656E-1,-1.5726484E-1,-1.7725602E-2,-3.3595756E-1,5.2026298E-2,1.895991E-2,4.767183E-2,-6.3676834E-2,-1.04823194E-1,3.7150823E-2,-3.6719933E-2,2.6892197E-1,1.5506474E-2,-1.13984145E-1,4.864853E-2,-1.02910675E-1,-9.086478E-2,9.408157E-2,-2.0685944E-1,1.9437062E-2,6.808673E-2,6.9864173E-3,-2.0350167E-3,-2.3192455E-1,1.274988E-2,1.2721787E-1,1.1413436E-1,-3.2981962E-2,3.3034664E-2,-5.700804E-2,-9.481641E-2,-2.0074552E-2,1.23872966E-1,-5.37438E-2,1.6350884E-3,-2.770605E-2,-7.110857E-2,-1.4054716E-1,-2.1074865E-2,-5.3940736E-2,-1.2812085E-1,-2.636595E-1,-3.5652973E-2,-1.2978446E-1,-1.1487278E-1,-2.0170562E-1,-3.339889E-2,-1.3041073E-1,-1.2688221E-2,-6.041218E-2,-2.0609108E-1,8.244468E-3,-1.2900087E-1,-9.655896E-2],"categories":[],"categories_nodes":[],"categories_segments":[],"categories_sizes":[],"default_left":[0,0,0,0,0,0,0,0,0,0,0,0,0,0,0,0,0,0,0,0,0,0,0,0,0,0,0,0,0,0,0,0,0,0,0,0,0,0,0,0,0,0,0,0,0,0,0,0,0,0,0,0,0,0,0,0,0,0,0,0,0,0,0,0,0,0,0,0,0,0,0,0,0,0,0,0,0,0,0,0,0,0,0,0,0,0,0,0,0,0,0,0,0,0,0,0,0,0,0,0,0,0,0,0,0,0,0,0,0,0,0,0,0],"id":13,"left_children":[1,3,5,7,9,11,13,15,17,19,21,23,25,27,29,31,33,35,37,39,41,43,45,47,49,51,53,55,57,59,61,63,65,67,-1,69,71,-1,73,75,77,79,81,83,85,87,89,-1,-1,-1,-1,91,93,95,97,99,101,-1,103,105,107,109,111,-1,-1,-1,-1,-1,-1,-1,-1,-1,-1,-1,-1,-1,-1,-1,-1,-1,-1,-1,-1,-1,-1,-1,-1,-1,-1,-1,-1,-1,-1,-1,-1,-1,-1,-1,-1,-1,-1,-1,-1,-1,-1,-1,-1,-1,-1,-1,-1,-1,-1],"loss_changes":[2.2678119E2,1.022955E1,2.7002075E1,4.7027626E0,1.0765607E1,5.140499E0,7.240387E0,4.2500877E0,5.1252303E0,4.019861E0,7.5416265E0,3.4580116E0,3.295803E0,4.3230057E0,1.1484253E1,4.118702E0,2.268408E0,2.7863176E0,5.08211E0,7.9462013E0,4.287628E0,2.78236E0,6.7107987E0,5.0297633E-2,2.6392555E-1,2.7733974E0,8.849766E0,3.1581898E0,1.2392654E0,3.848114E0,2.9893494E0,3.7706928E0,6.908291E0,2.545355E-1,0E0,1.0119176E0,2.8341959E0,0E0,3.1854728E-1,2.1276798E0,7.180541E0,3.3959599E0,6.8099666E0,2.2857494E0,1.1948407E0,1.0971928E1,7.0026684E0,0E0,0E0,0E0,0E0,3.0590916E0,8.747316E-1,5.0775185E0,2.245799E0,1.303421E0,7.2263956E-1,0E0,1.3785439E0,7.3686504E0,3.242156E0,9.5677316E-1,3.054718E0,0E0,0E0,0E0,0E0,0E0,0E0,0E0,0E0,0E0,0E0,0E0,0E0,0E0,0E0,0E0,0E0,0E0,0E0,0E0,0E0,0E0,0E0,0E0,0E0,0E0,0E0,0E0,0E0,0E0,0E0,0E0,0E0,0E0,0E0,0E0,0E0,0E0,0E0,0E0,0E0,0E0,0E0,0E0,0E0,0E0,0E0,0E0,0E0,0E0,0E0],"parents":[2147483647,0,0,1,1,2,2,3,3,4,4,5,5,6,6,7,7,8,8,9,9,10,10,11,11,12,12,13,13,14,14,15,15,16,16,17,17,18,18,19,19,20,20,21,21,22,22,23,23,24,24,25,25,26,26,27,27,28,28,29,29,30,30,31,31,32,32,33,33,35,35,36,36,38,38,39,39,40,40,41,41,42,42,43,43,44,44,45,45,46,46,51,51,52,52,53,53,54,54,55,55,56,56,58,58,59,59,60,60,61,61,62,62],"right_children":[2,4,6,8,10,12,14,16,18,20,22,24,26,28,30,32,34,36,38,40,42,44,46,48,50,52,54,56,58,60,62,64,66,68,-1,70,72,-1,74,76,78,80,82,84,86,88,90,-1,-1,-1,-1,92,94,96,98,100,102,-1,104,106,108,110,112,-1,-1,-1,-1,-1,-1,-1,-1,-1,-1,-1,-1,-1,-1,-1,-1,-1,-1,-1,-1,-1,-1,-1,-1,-1,-1,-1,-1,-1,-1,-1,-1,-1,-1,-1,-1,-1,-1,-1,-1,-1,-1,-1,-1,-1,-1,-1,-1,-1,-1],"split_conditions":[5.66606E-8,1.0500346E-7,2.4984663E-6,2.7478126E-7,3.585867E-7,2.034062E-5,4.2252086E-5,1.2528077E-5,1.2219224E-5,3.5466128E-5,1.8724752E-8,8.874217E-8,1.3392718E-6,5.4104426E-6,6.0946136E-6,1.2778823E-6,1.0282782E-7,6.7969104E-8,8.214243E-8,2.1061525E-5,1.1778675E-5,7.561667E-8,2.0720263E-6,5.8017033E-8,4.1107936E-7,7.2223065E-6,2.3789595E-5,2.6502275E-5,5.8223927E-6,2.4944346E-5,8.2267866E-7,6.7160204E-6,6.65221E-7,4.5132694E-8,-4.832122E-1,2.3769303E-8,1.2077808E-6,-5.8047897E-1,2.014865E-8,1.1234846E-5,1.1377184E-5,6.270379E-8,1.0349928E-7,1.1313739E-6,1.742366E-7,7.11803E-7,2.092742E-6,1.1516186E-2,1.0781471E-1,-1.9637673E-1,-4.0301982E-1,4.1880494E-8,6.860014E-7,2.749637E-6,3.0704566E-6,1.8205063E-5,7.584235E-6,-3.0999255E-1,6.9341204E-6,7.584235E-6,1.0258751E-5,8.3451805E-6,3.534714E-5,5.2026298E-2,1.895991E-2,4.767183E-2,-6.3676834E-2,-1.04823194E-1,3.7150823E-2,-3.6719933E-2,2.6892197E-1,1.5506474E-2,-1.13984145E-1,4.864853E-2,-1.02910675E-1,-9.086478E-2,9.408157E-2,-2.0685944E-1,1.9437062E-2,6.808673E-2,6.9864173E-3,-2.0350167E-3,-2.3192455E-1,1.274988E-2,1.2721787E-1,1.1413436E-1,-3.2981962E-2,3.3034664E-2,-5.700804E-2,-9.481641E-2,-2.0074552E-2,1.23872966E-1,-5.37438E-2,1.6350884E-3,-2.770605E-2,-7.110857E-2,-1.4054716E-1,-2.1074865E-2,-5.3940736E-2,-1.2812085E-1,-2.636595E-1,-3.5652973E-2,-1.2978446E-1,-1.1487278E-1,-2.0170562E-1,-3.339889E-2,-1.3041073E-1,-1.2688221E-2,-6.041218E-2,-2.0609108E-1,8.244468E-3,-1.2900087E-1,-9.655896E-2],"split_indices":[2,4,4,5,6,13,14,12,12,14,2,4,6,5,4,8,4,4,4,13,12,3,9,2,6,11,13,13,8,12,2,11,7,2,0,2,8,0,2,12,12,3,3,8,5,7,9,0,0,0,0,3,5,7,5,12,6,0,6,6,6,6,12,0,0,0,0,0,0,0,0,0,0,0,0,0,0,0,0,0,0,0,0,0,0,0,0,0,0,0,0,0,0,0,0,0,0,0,0,0,0,0,0,0,0,0,0,0,0,0,0,0,0],"split_type":[0,0,0,0,0,0,0,0,0,0,0,0,0,0,0,0,0,0,0,0,0,0,0,0,0,0,0,0,0,0,0,0,0,0,0,0,0,0,0,0,0,0,0,0,0,0,0,0,0,0,0,0,0,0,0,0,0,0,0,0,0,0,0,0,0,0,0,0,0,0,0,0,0,0,0,0,0,0,0,0,0,0,0,0,0,0,0,0,0,0,0,0,0,0,0,0,0,0,0,0,0,0,0,0,0,0,0,0,0,0,0,0,0],"sum_hessian":[1.058E4,4.832E3,5.748E3,1.655E3,3.177E3,2.113E3,3.635E3,1.58E3,7.5E1,1.034E3,2.143E3,1.1E1,2.102E3,2.68E2,3.367E3,1.575E3,5E0,6.8E1,7E0,3.5E2,6.84E2,1.11E2,2.032E3,2E0,9E0,7.83E2,1.319E3,1.67E2,1.01E2,9.29E2,2.438E3,1.376E3,1.99E2,4E0,1E0,4E0,6.4E1,2E0,5E0,2.1E2,1.4E2,3.27E2,3.57E2,7.8E1,3.3E1,6.43E2,1.389E3,1E0,1E0,5E0,4E0,4.16E2,3.67E2,5.65E2,7.54E2,1.1E2,5.7E1,8E0,9.3E1,2.89E2,6.4E2,3E1,2.408E3,9E2,4.76E2,1.04E2,9.5E1,3E0,1E0,1E0,3E0,4.1E1,2.3E1,1E0,4E0,5E0,2.05E2,1.3E1,1.27E2,1.64E2,1.63E2,3.46E2,1.1E1,2.2E1,5.6E1,5E0,2.8E1,4.81E2,1.62E2,1.23E2,1.266E3,8E0,4.08E2,1.69E2,1.98E2,4.43E2,1.22E2,3.99E2,3.55E2,1.03E2,7E0,4.9E1,8E0,2.9E1,6.4E1,1.24E2,1.65E2,1.78E2,4.62E2,1E0,2.9E1,3.1E2,2.098E3],"tree_param":{"num_deleted":"0","num_feature":"16","num_nodes":"113","size_leaf_vector":"1"}},{"base_weights":[8.461262E-2,7.648872E-2,1.0383987E-1,7.968962E-2,4.1015137E-2,1.5837732E-1,9.999654E-2,7.609214E-2,1.4959577E-1,1.708169E-2,5.1680725E-2,1.902925E-1,1.3685675E-1,8.388594E-2,1.1392209E-1,7.934988E-2,2.7311021E-2,1.6726413E-1,1.0675581E-1,-2.7318265E-2,2.3587149E-2,9.845399E-2,3.9595816E-2,2.0618276E-1,1.07689194E-1,9.616856E-2,1.4597592E-1,6.570308E-2,9.263877E-2,8.0324374E-2,1.1326039E-1,7.587722E-2,1.5977652E-1,3.6489635E-3,5.8481183E-2,9.159258E-3,1.6997395E-1,6.417459E-2,1.4184028E-1,5.9254676E-2,-4.181706E-2,8.203154E-2,1.6895426E-2,1.0687631E-1,-1.3069168E-2,5.1753023E-3,4.42827E-2,4.7616392E-2,2.2952452E-1,1.1835349E-1,-6.241655E-3,1.00108564E-1,-3.4971983E-4,1.57398E-1,1.049569E-1,1.0130742E-1,5.501711E-2,1.2082912E-1,8.266525E-2,1.071599E-1,1.278433E-1,2.4316506E-2,8.831683E-3,5.457972E-2,3.277065E-2,2.3925839E-2,-8.129748E-4,3.8359232E-2,9.439095E-3,1.3812156E-2,-3.4713564E-3,5.162752E-2,2.1892593E-3,2.7424255E-2,8.719598E-3,9.8886E-3,4.5683287E-2,2.6965432E-3,2.1904176E-2,-2.94559E-3,-1.5960842E-2,3.91449E-3,3.290616E-2,8.8307355E-4,1.0509154E-2,2.5551753E-2,4.413882E-2,3.948875E-3,-7.858375E-3,8.1621045E-3,-6.8779844E-3,1.8809922E-2,9.339057E-3,7.068324E-2,2.1559812E-2,3.8116373E-2,7.859387E-4,4.9798433E-3,3.0868942E-2,5.5619475E-2,4.26116E-2,1.3056767E-2,3.544181E-2,3.653367E-2,1.6443951E-2,1.3232517E-2,2.0499356E-2,3.9117664E-2,2.747376E-2,2.7758721E-2,2.2011822E-2,3.787727E-2,3.0162655E-2,3.4696005E-2,4.0647086E-2],"categories":[],"categories_nodes":[],"categories_segments":[],"categories_sizes":[],"default_left":[0,0,0,0,0,0,0,0,0,0,0,0,0,0,0,0,0,0,0,0,0,0,0,0,0,0,0,0,0,0,0,0,0,0,0,0,0,0,0,0,0,0,0,0,0,0,0,0,0,0,0,0,0,0,0,0,0,0,0,0,0,0,0,0,0,0,0,0,0,0,0,0,0,0,0,0,0,0,0,0,0,0,0,0,0,0,0,0,0,0,0,0,0,0,0,0,0,0,0,0,0,0,0,0,0,0,0,0,0,0,0,0,0,0,0],"id":14,"left_children":[1,3,5,7,9,11,13,15,17,19,21,23,25,27,29,31,33,35,37,39,41,43,45,47,49,51,53,55,57,-1,59,61,63,65,67,69,71,73,75,77,79,81,83,85,87,89,91,-1,93,95,-1,97,-1,99,101,103,105,107,109,111,113,-1,-1,-1,-1,-1,-1,-1,-1,-1,-1,-1,-1,-1,-1,-1,-1,-1,-1,-1,-1,-1,-1,-1,-1,-1,-1,-1,-1,-1,-1,-1,-1,-1,-1,-1,-1,-1,-1,-1,-1,-1,-1,-1,-1,-1,-1,-1,-1,-1,-1,-1,-1,-1,-1],"loss_changes":[1.6448135E0,8.417549E-1,6.4232254E-1,1.7050095E0,1.5687048E-1,1.14758015E-1,6.491318E-1,1.0296745E0,2.3419523E-1,5.610205E-2,2.3746383E-1,8.280349E-2,3.2712936E-2,2.1115494E-1,1.2968254E-1,1.687664E0,3.007071E-1,9.8697186E-2,1.4029133E-1,3.385794E-2,6.431777E-2,8.3114445E-2,5.478263E-2,3.668666E-2,2.3017004E-2,1.0087639E-2,3.0800581E-2,1.6449523E-1,2.4839544E-1,0E0,1.2570572E-1,1.4008636E0,2.6119184E-1,1.12973E-1,3.258986E-1,4.3555684E-3,7.798147E-2,4.229203E-2,5.6346178E-2,2.1102168E-3,7.4927956E-3,3.1000972E-2,3.835561E-2,5.8233857E-2,2.7549462E-3,2.6627362E-2,7.0717216E-2,0E0,2.3368835E-2,1.3765231E-2,0E0,4.112333E-3,0E0,6.7813396E-3,1.5104651E-2,9.040904E-2,4.7238827E-2,5.4632187E-2,5.5722713E-2,1.2771797E-1,2.6929855E-2,0E0,0E0,0E0,0E0,0E0,0E0,0E0,0E0,0E0,0E0,0E0,0E0,0E0,0E0,0E0,0E0,0E0,0E0,0E0,0E0,0E0,0E0,0E0,0E0,0E0,0E0,0E0,0E0,0E0,0E0,0E0,0E0,0E0,0E0,0E0,0E0,0E0,0E0,0E0,0E0,0E0,0E0,0E0,0E0,0E0,0E0,0E0,0E0,0E0,0E0,0E0,0E0,0E0,0E0],"parents":[2147483647,0,0,1,1,2,2,3,3,4,4,5,5,6,6,7,7,8,8,9,9,10,10,11,11,12,12,13,13,14,14,15,15,16,16,17,17,18,18,19,19,20,20,21,21,22,22,23,23,24,24,25,25,26,26,27,27,28,28,30,30,31,31,32,32,33,33,34,34,35,35,36,36,37,37,38,38,39,39,40,40,41,41,42,42,43,43,44,44,45,45,46,46,48,48,49,49,51,51,53,53,54,54,55,55,56,56,57,57,58,58,59,59,60,60],"right_children":[2,4,6,8,10,12,14,16,18,20,22,24,26,28,30,32,34,36,38,40,42,44,46,48,50,52,54,56,58,-1,60,62,64,66,68,70,72,74,76,78,80,82,84,86,88,90,92,-1,94,96,-1,98,-1,100,102,104,106,108,110,112,114,-1,-1,-1,-1,-1,-1,-1,-1,-1,-1,-1,-1,-1,-1,-1,-1,-1,-1,-1,-1,-1,-1,-1,-1,-1,-1,-1,-1,-1,-1,-1,-1,-1,-1,-1,-1,-1,-1,-1,-1,-1,-1,-1,-1,-1,-1,-1,-1,-1,-1,-1,-1,-1,-1],"split_conditions":[2.4944346E-5,4.1808253E-6,6.9252565E-6,8.667826E-6,1.895781E-5,1.6778606E-5,2.5706582E-5,1.7624662E-6,3.3710153E-6,2.019483E-6,6.5296654E-6,1.3148504E-6,1.4514197E-5,2.94929E-5,5.1316045E-5,5.7949956E-6,7.1009626E-6,1.5801086E-5,4.1016927E-5,4.0934337E-6,2.192313E-6,1.6031196E-6,7.536692E-6,4.925071E-7,2.6879902E-6,4.1393373E-6,1.6446118E-6,9.970137E-6,1.13939395E-5,8.0324374E-2,4.3736138E-5,1.650745E-7,8.2378847E-7,1.876752E-6,3.1017514E-6,4.035216E-6,6.7225546E-6,4.98529E-6,7.021398E-6,3.7597073E-7,6.204377E-6,3.887166E-5,1.6446118E-6,8.501283E-6,6.8289255E-6,4.2935917E-5,8.3451805E-6,4.7616392E-2,9.508397E-6,2.1917692E-6,-6.241655E-3,8.097758E-6,-3.4971983E-4,5.0040035E-5,6.3327155E-7,6.0946136E-6,3.7219146E-5,2.051844E-6,2.427361E-6,3.3053907E-6,2.635484E-6,2.4316506E-2,8.831683E-3,5.457972E-2,3.277065E-2,2.3925839E-2,-8.129748E-4,3.8359232E-2,9.439095E-3,1.3812156E-2,-3.4713564E-3,5.162752E-2,2.1892593E-3,2.7424255E-2,8.719598E-3,9.8886E-3,4.5683287E-2,2.6965432E-3,2.1904176E-2,-2.94559E-3,-1.5960842E-2,3.91449E-3,3.290616E-2,8.8307355E-4,1.0509154E-2,2.5551753E-2,4.413882E-2,3.948875E-3,-7.858375E-3,8.1621045E-3,-6.8779844E-3,1.8809922E-2,9.339057E-3,7.068324E-2,2.1559812E-2,3.8116373E-2,7.859387E-4,4.9798433E-3,3.0868942E-2,5.5619475E-2,4.26116E-2,1.3056767E-2,3.544181E-2,3.653367E-2,1.6443951E-2,1.3232517E-2,2.0499356E-2,3.9117664E-2,2.747376E-2,2.7758721E-2,2.2011822E-2,3.787727E-2,3.0162655E-2,3.4696005E-2,4.0647086E-2],"split_indices":[12,5,5,10,12,9,7,5,5,4,6,2,8,11,13,10,10,12,14,7,4,2,8,2,3,4,3,6,5,0,6,3,4,6,6,6,6,6,9,2,9,14,3,8,7,14,6,0,6,2,0,7,0,14,2,4,13,2,2,3,2,0,0,0,0,0,0,0,0,0,0,0,0,0,0,0,0,0,0,0,0,0,0,0,0,0,0,0,0,0,0,0,0,0,0,0,0,0,0,0,0,0,0,0,0,0,0,0,0,0,0,0,0,0,0],"split_type":[0,0,0,0,0,0,0,0,0,0,0,0,0,0,0,0,0,0,0,0,0,0,0,0,0,0,0,0,0,0,0,0,0,0,0,0,0,0,0,0,0,0,0,0,0,0,0,0,0,0,0,0,0,0,0,0,0,0,0,0,0,0,0,0,0,0,0,0,0,0,0,0,0,0,0,0,0,0,0,0,0,0,0,0,0,0,0,0,0,0,0,0,0,0,0,0,0,0,0,0,0,0,0,0,0,0,0,0,0,0,0,0,0,0,0],"sum_hessian":[1.058E4,7.441E3,3.139E3,6.824E3,6.17E2,2.04E2,2.935E3,6.492E3,3.32E2,1.91E2,4.26E2,7.9E1,1.25E2,1.364E3,1.571E3,6.085E3,4.07E2,2.33E2,9.9E1,2.4E1,1.67E2,8.6E1,3.4E2,6.5E1,1.4E1,2.5E1,1E2,4.46E2,9.18E2,5E0,1.566E3,5.835E3,2.5E2,2.32E2,1.75E2,4E0,2.29E2,4.6E1,5.3E1,3E0,2.1E1,1.6E1,1.51E2,8E1,6E0,4.1E1,2.99E2,2.4E1,4.1E1,1.3E1,1E0,2.4E1,1E0,7.6E1,2.4E1,1.01E2,3.45E2,2.37E2,6.81E2,1.11E3,4.56E2,5.249E3,5.86E2,1.72E2,7.8E1,1.7E1,2.15E2,4.8E1,1.27E2,1E0,3E0,2.26E2,3E0,2.5E1,2.1E1,5E0,4.8E1,1E0,2E0,6E0,1.5E1,5E0,1.1E1,8.6E1,6.5E1,5.4E1,2.6E1,2E0,4E0,2.3E1,1.8E1,1.23E2,1.76E2,3.9E1,2E0,1.2E1,1E0,1E0,2.3E1,2.3E1,5.3E1,5E0,1.9E1,6.9E1,3.2E1,1.92E2,1.53E2,1.76E2,6.1E1,3.26E2,3.55E2,2.81E2,8.29E2,1.82E2,2.74E2],"tree_param":{"num_deleted":"0","num_feature":"16","num_nodes":"115","size_leaf_vector":"1"}},{"base_weights":[-8.592734E-2,2.0314274E-2,-1.8580285E-1,1.0628311E-1,2.748365E-3,-1.410724E-1,-2.3325342E-1,2.3997937E-1,7.4652106E-2,7.513571E-2,-2.0276677E-2,-2.6431873E-1,-1.3065638E-1,1.8501541E-1,-2.3602952E-1,2.1137984E-1,2.578201E-1,1.4043885E-1,2.8054346E-3,1.2317819E-1,1.7159227E-2,3.0902617E-2,-6.705024E-2,-1.9555934E-1,-5.171678E-1,-5.3985335E-2,-1.532135E-1,-1.4102294E-1,2.5120178E-1,-4.5278892E-1,-2.3044239E-1,2.2401665E-1,-2.6968116E-1,1.4897758E-1,-6.7382956E-1,1.7534846E-1,-8.233829E-2,3.2756886E-1,1.0080681E-1,3.4611326E-1,-2.2230392E-2,5.991017E-2,-7.558099E-2,6.484918E-2,-9.581626E-2,-6.657059E-1,-1.6872977E-1,-8.366819E-1,-4.0517274E-1,-1.5755239E-1,-6.7767594E-3,-2.1065304E-1,-1.1255768E-1,2.9251373E-1,-3.9091825E-2,-3.2684845E-1,-5.336717E-1,-3.828699E-2,-2.3773968E-1,8.147956E-2,-2.5390197E-2,7.133142E-2,2.577675E-2,-2.6666993E-1,-4.292849E-3,-2.4794226E-3,7.4669115E-2,-2.4727045E-1,-4.349756E-3,-6.921966E-2,1.3702895E-1,8.67813E-2,2.2619331E-2,1.5916286E-1,4.6639524E-2,3.0926967E-2,-2.7176687E-2,3.688681E-2,9.521377E-4,3.0884761E-2,-5.659767E-2,-1.3755117E-1,2.472892E-2,-4.3434907E-2,4.271876E-3,-2.8343597E-1,-1.1061036E-1,-6.1347704E-2,3.5052076E-2,6.8269804E-2,-2.89759E-1,1.39699755E-2,-1.389286E-1,-3.3916462E-2,-2.0789474E-1,-1.8056031E-2,5.6375135E-3,-4.909112E-2,-1.3051619E-1,-3.1241436E-2,-1.3612197E-1,1.980232E-2,9.119336E-2,5.1218034E-3,-2.2713125E-2,5.4932716E-3,-1.2080377E-1,-1.6434377E-1,-1.5685201E-3,-4.704555E-2,8.199506E-3,-1.2254121E-1,-6.9199085E-2],"categories":[],"categories_nodes":[],"categories_segments":[],"categories_sizes":[],"default_left":[0,0,0,0,0,0,0,0,0,0,0,0,0,0,0,0,0,0,0,0,0,0,0,0,0,0,0,0,0,0,0,0,0,0,0,0,0,0,0,0,0,0,0,0,0,0,0,0,0,0,0,0,0,0,0,0,0,0,0,0,0,0,0,0,0,0,0,0,0,0,0,0,0,0,0,0,0,0,0,0,0,0,0,0,0,0,0,0,0,0,0,0,0,0,0,0,0,0,0,0,0,0,0,0,0,0,0,0,0,0,0,0,0],"id":15,"left_children":[1,3,5,7,9,11,13,15,17,19,21,23,25,27,29,31,-1,33,35,37,39,41,43,45,47,49,51,-1,53,55,57,59,-1,61,63,65,67,69,71,73,75,77,79,81,83,85,87,89,91,93,95,97,99,101,103,105,107,109,111,-1,-1,-1,-1,-1,-1,-1,-1,-1,-1,-1,-1,-1,-1,-1,-1,-1,-1,-1,-1,-1,-1,-1,-1,-1,-1,-1,-1,-1,-1,-1,-1,-1,-1,-1,-1,-1,-1,-1,-1,-1,-1,-1,-1,-1,-1,-1,-1,-1,-1,-1,-1,-1,-1],"loss_changes":[1.1227807E2,7.743607E0,1.1543137E1,3.6612701E0,7.10009E0,3.572773E0,3.1149292E0,2.7590551E0,3.3318303E0,2.8612103E0,7.738956E0,3.6889563E0,4.476265E0,8.9853084E-1,3.0783234E0,2.4463167E0,0E0,2.659021E0,4.979981E0,2.536724E0,6.0587883E0,4.77368E0,6.4146547E0,2.0698686E0,1.3070631E0,2.8884807E0,4.653797E0,0E0,2.1530902E-1,4.876871E-1,3.5861816E0,2.358088E0,0E0,2.0231695E0,5.546527E-1,1.51456E0,1.1412867E1,4.072501E0,2.4108467E0,1.6755772E0,3.5902252E0,4.342081E0,6.7015905E0,2.825647E0,7.476713E0,3.9765072E-1,1.708992E0,1.7320886E0,9.6353865E-1,4.329337E0,5.5693525E-1,8.675114E0,3.3280582E0,1.8885612E-2,7.4625746E-3,7.4023724E-1,2.810974E-1,7.4318475E-1,2.8898163E0,0E0,0E0,0E0,0E0,0E0,0E0,0E0,0E0,0E0,0E0,0E0,0E0,0E0,0E0,0E0,0E0,0E0,0E0,0E0,0E0,0E0,0E0,0E0,0E0,0E0,0E0,0E0,0E0,0E0,0E0,0E0,0E0,0E0,0E0,0E0,0E0,0E0,0E0,0E0,0E0,0E0,0E0,0E0,0E0,0E0,0E0,0E0,0E0,0E0,0E0,0E0,0E0,0E0,0E0],"parents":[2147483647,0,0,1,1,2,2,3,3,4,4,5,5,6,6,7,7,8,8,9,9,10,10,11,11,12,12,13,13,14,14,15,15,17,17,18,18,19,19,20,20,21,21,22,22,23,23,24,24,25,25,26,26,28,28,29,29,30,30,31,31,33,33,34,34,35,35,36,36,37,37,38,38,39,39,40,40,41,41,42,42,43,43,44,44,45,45,46,46,47,47,48,48,49,49,50,50,51,51,52,52,53,53,54,54,55,55,56,56,57,57,58,58],"right_children":[2,4,6,8,10,12,14,16,18,20,22,24,26,28,30,32,-1,34,36,38,40,42,44,46,48,50,52,-1,54,56,58,60,-1,62,64,66,68,70,72,74,76,78,80,82,84,86,88,90,92,94,96,98,100,102,104,106,108,110,112,-1,-1,-1,-1,-1,-1,-1,-1,-1,-1,-1,-1,-1,-1,-1,-1,-1,-1,-1,-1,-1,-1,-1,-1,-1,-1,-1,-1,-1,-1,-1,-1,-1,-1,-1,-1,-1,-1,-1,-1,-1,-1,-1,-1,-1,-1,-1,-1,-1,-1,-1,-1,-1,-1],"split_conditions":[2.6180504E-7,1.8258287E-7,1.3923776E-6,3.2386794E-7,9.91509E-8,3.6007747E-5,2.6830019E-6,1.0199716E-7,2.0948075E-5,3.333856E-8,1.1995857E-6,1.6838947E-6,1.876752E-6,3.2290834E-6,2.1693584E-5,1.3882102E-6,2.578201E-1,1.7816636E-7,2.7429742E-8,2.0511154E-5,1.8951734E-7,1.2015007E-5,6.3285825E-7,2.0638805E-5,1.4565826E-6,7.6349115E-6,4.0748793E-5,-1.4102294E-1,1.3217523E-5,7.366551E-6,7.739324E-6,4.4662794E-8,-2.6968116E-1,3.7043205E-6,5.8859467E-8,3.533977E-5,2.8764518E-8,2.057125E-8,3.508829E-5,1.1768796E-5,6.448145E-7,3.7374173E-6,2.0753148E-6,1.8539873E-7,2.2924025E-6,6.801241E-6,3.049933E-6,2.7518083E-6,6.213152E-7,1.13861E-6,5.1098023E-6,4.8878587E-6,1.09984096E-4,1.5237579E-6,1.574232E-6,1.1245711E-6,5.872522E-6,4.526053E-5,1.4767389E-5,8.147956E-2,-2.5390197E-2,7.133142E-2,2.577675E-2,-2.6666993E-1,-4.292849E-3,-2.4794226E-3,7.4669115E-2,-2.4727045E-1,-4.349756E-3,-6.921966E-2,1.3702895E-1,8.67813E-2,2.2619331E-2,1.5916286E-1,4.6639524E-2,3.0926967E-2,-2.7176687E-2,3.688681E-2,9.521377E-4,3.0884761E-2,-5.659767E-2,-1.3755117E-1,2.472892E-2,-4.3434907E-2,4.271876E-3,-2.8343597E-1,-1.1061036E-1,-6.1347704E-2,3.5052076E-2,6.8269804E-2,-2.89759E-1,1.39699755E-2,-1.389286E-1,-3.3916462E-2,-2.0789474E-1,-1.8056031E-2,5.6375135E-3,-4.909112E-2,-1.3051619E-1,-3.1241436E-2,-1.3612197E-1,1.980232E-2,9.119336E-2,5.1218034E-3,-2.2713125E-2,5.4932716E-3,-1.2080377E-1,-1.6434377E-1,-1.5685201E-3,-4.704555E-2,8.199506E-3,-1.2254121E-1,-6.9199085E-2],"split_indices":[4,5,2,6,4,14,4,3,13,2,8,7,6,5,12,8,0,4,2,13,5,12,7,13,6,11,14,0,8,6,5,2,0,10,3,14,2,2,14,12,7,10,9,5,9,11,9,9,4,5,10,7,13,4,2,3,4,14,9,0,0,0,0,0,0,0,0,0,0,0,0,0,0,0,0,0,0,0,0,0,0,0,0,0,0,0,0,0,0,0,0,0,0,0,0,0,0,0,0,0,0,0,0,0,0,0,0,0,0,0,0,0,0],"split_type":[0,0,0,0,0,0,0,0,0,0,0,0,0,0,0,0,0,0,0,0,0,0,0,0,0,0,0,0,0,0,0,0,0,0,0,0,0,0,0,0,0,0,0,0,0,0,0,0,0,0,0,0,0,0,0,0,0,0,0,0,0,0,0,0,0,0,0,0,0,0,0,0,0,0,0,0,0,0,0,0,0,0,0,0,0,0,0,0,0,0,0,0,0,0,0,0,0,0,0,0,0,0,0,0,0,0,0,0,0,0,0,0,0],"sum_hessian":[1.058E4,5.127E3,5.453E3,8.69E2,4.258E3,2.809E3,2.644E3,1.65E2,7.04E2,1.027E3,3.231E3,2.17E2,2.592E3,1.7E1,2.627E3,1.59E2,6E0,3.67E2,3.37E2,5.61E2,4.66E2,1.543E3,1.688E3,1.72E2,4.5E1,5.9E2,2.002E3,1E0,1.6E1,6.4E1,2.563E3,1.58E2,1E0,3.64E2,3E0,1.11E2,2.26E2,5.4E1,5.07E2,4.9E1,4.17E2,1.213E3,3.3E2,3.02E2,1.386E3,8E0,1.64E2,1E1,3.5E1,1.84E2,4.06E2,8.28E2,1.174E3,1.4E1,2E0,2.7E1,3.7E1,9.4E1,2.469E3,1.37E2,2.1E1,1.5E2,2.14E2,2E0,1E0,3.2E1,7.9E1,1.8E1,2.08E2,1E1,4.4E1,5.9E1,4.48E2,2.4E1,2.5E1,1.47E2,2.7E2,5.74E2,6.39E2,1.28E2,2.02E2,9E0,2.93E2,9.59E2,4.27E2,3E0,5E0,1.46E2,1.8E1,1E0,9E0,4E0,3.1E1,1.71E2,1.3E1,1.31E2,2.75E2,6.86E2,1.42E2,1.147E3,2.7E1,1E0,1.3E1,1E0,1E0,5E0,2.2E1,3.6E1,1E0,3.3E1,6.1E1,9.6E1,2.373E3],"tree_param":{"num_deleted":"0","num_feature":"16","num_nodes":"113","size_leaf_vector":"1"}},{"base_weights":[5.9349608E-2,4.615831E-2,6.944452E-2,5.1059414E-2,-7.1479276E-2,1.4541234E-1,6.2365726E-2,1.11053005E-1,4.827047E-2,-1.5126431E-1,-2.7666729E-2,9.8242976E-2,2.0714357E-1,-3.0399315E-2,6.564697E-2,-7.781795E-2,1.2016912E-1,4.9659703E-2,-6.3849665E-2,-1.7863624E-1,-6.53317E-4,5.908849E-2,-1.18364304E-1,1.10109255E-1,-7.742741E-2,2.8294712E-1,1.4161608E-1,-2.0044553E-1,-8.962591E-3,1.57871E-1,6.3805476E-2,1.5868944E-1,5.2829284E-2,-4.985376E-3,5.241942E-2,1.9890928E-1,-1.3114727E-1,-2.0682059E-1,4.4173665E-2,5.2822903E-2,-4.8259262E-2,2.2051002E-1,-6.7932005E-3,1.7439278E-2,-1.4984928E-1,4.3377187E-2,1.416176E-1,-9.562295E-2,5.148979E-2,3.4032127E-1,2.3454349E-1,8.1046104E-2,2.0939164E-1,4.8062492E-2,-2.2648863E-1,7.796292E-2,-5.1961403E-2,-8.333798E-2,1.6845861E-1,4.8309453E-3,6.6674046E-2,6.5287195E-2,2.2890838E-2,4.488396E-3,8.469833E-2,-1.6659573E-2,2.590453E-2,1.3431757E-2,2.2175178E-2,-2.8620126E-2,8.247345E-2,-6.483813E-2,-1.3220679E-2,-3.0503876E-3,-7.1806185E-2,4.211577E-2,-1.8924592E-2,3.976991E-2,-1.124554E-2,-4.0748462E-2,9.0249866E-2,-2.4366453E-2,2.2413028E-2,-2.5792135E-2,4.055439E-2,-5.288591E-2,-1.3469557E-2,3.2291606E-2,-1.9122321E-2,6.273789E-3,4.8633616E-2,-3.7078112E-2,-1.1323249E-3,2.2042774E-2,1.127632E-3,1.0991711E-2,1.03959486E-1,1.1443977E-1,5.7612337E-2,5.682504E-2,7.5056404E-3,9.394018E-2,4.8019916E-2,-7.241825E-2,-1.8467778E-2,1.4702044E-2,6.711988E-2,-2.840187E-2,-5.467484E-4,-4.154306E-2,-1.2592971E-4,5.318603E-2,-2.5659505E-2,2.085393E-2,-3.3346768E-3,3.8008858E-2,1.9157195E-2],"categories":[],"categories_nodes":[],"categories_segments":[],"categories_sizes":[],"default_left":[0,0,0,0,0,0,0,0,0,0,0,0,0,0,0,0,0,0,0,0,0,0,0,0,0,0,0,0,0,0,0,0,0,0,0,0,0,0,0,0,0,0,0,0,0,0,0,0,0,0,0,0,0,0,0,0,0,0,0,0,0,0,0,0,0,0,0,0,0,0,0,0,0,0,0,0,0,0,0,0,0,0,0,0,0,0,0,0,0,0,0,0,0,0,0,0,0,0,0,0,0,0,0,0,0,0,0,0,0,0,0,0,0,0,0,0,0],"id":16,"left_children":[1,3,5,7,9,11,13,15,17,19,21,23,25,27,29,-1,31,33,35,37,39,41,43,45,47,49,51,53,55,57,59,61,63,65,67,69,71,73,75,77,-1,79,81,83,85,87,89,91,93,95,97,99,101,-1,103,105,107,109,111,113,115,-1,-1,-1,-1,-1,-1,-1,-1,-1,-1,-1,-1,-1,-1,-1,-1,-1,-1,-1,-1,-1,-1,-1,-1,-1,-1,-1,-1,-1,-1,-1,-1,-1,-1,-1,-1,-1,-1,-1,-1,-1,-1,-1,-1,-1,-1,-1,-1,-1,-1,-1,-1,-1,-1,-1,-1],"loss_changes":[1.4058151E0,2.650033E0,3.21319E0,7.320118E-1,6.3900274E-1,1.4646788E0,1.6709385E0,6.89692E-1,6.5939045E-1,2.678467E-1,9.512125E-1,6.151309E-1,1.0527182E0,6.835075E-1,8.893471E-1,0E0,4.8706126E-1,6.2791157E-1,9.4560474E-1,3.545226E-1,1.0273952E-1,6.6085076E-1,2.548839E-1,5.6787133E-1,4.9492262E-2,2.0066929E-1,4.756496E-1,2.3352885E-1,6.3198364E-1,2.770834E-1,8.7836075E-1,5.7090044E-1,6.1281145E-1,9.32733E-1,6.4801025E-1,2.7227667E-1,3.0127132E-1,3.1105685E-1,8.109094E-2,6.978255E-2,0E0,5.560595E-1,2.7904493E-1,1.5773478E-1,1.2526524E-1,6.1949944E-1,4.5425987E-1,4.320772E-2,2.8720805E-3,7.02858E-2,2.8892684E-1,3.8992265E-1,2.3643613E-1,0E0,3.4307122E-2,2.2540778E-1,2.418178E-1,2.2801962E-2,2.3714781E-1,2.5038508E-1,8.292923E-1,0E0,0E0,0E0,0E0,0E0,0E0,0E0,0E0,0E0,0E0,0E0,0E0,0E0,0E0,0E0,0E0,0E0,0E0,0E0,0E0,0E0,0E0,0E0,0E0,0E0,0E0,0E0,0E0,0E0,0E0,0E0,0E0,0E0,0E0,0E0,0E0,0E0,0E0,0E0,0E0,0E0,0E0,0E0,0E0,0E0,0E0,0E0,0E0,0E0,0E0,0E0,0E0,0E0,0E0,0E0,0E0],"parents":[2147483647,0,0,1,1,2,2,3,3,4,4,5,5,6,6,7,7,8,8,9,9,10,10,11,11,12,12,13,13,14,14,16,16,17,17,18,18,19,19,20,20,21,21,22,22,23,23,24,24,25,25,26,26,27,27,28,28,29,29,30,30,31,31,32,32,33,33,34,34,35,35,36,36,37,37,38,38,39,39,41,41,42,42,43,43,44,44,45,45,46,46,47,47,48,48,49,49,50,50,51,51,52,52,54,54,55,55,56,56,57,57,58,58,59,59,60,60],"right_children":[2,4,6,8,10,12,14,16,18,20,22,24,26,28,30,-1,32,34,36,38,40,42,44,46,48,50,52,54,56,58,60,62,64,66,68,70,72,74,76,78,-1,80,82,84,86,88,90,92,94,96,98,100,102,-1,104,106,108,110,112,114,116,-1,-1,-1,-1,-1,-1,-1,-1,-1,-1,-1,-1,-1,-1,-1,-1,-1,-1,-1,-1,-1,-1,-1,-1,-1,-1,-1,-1,-1,-1,-1,-1,-1,-1,-1,-1,-1,-1,-1,-1,-1,-1,-1,-1,-1,-1,-1,-1,-1,-1,-1,-1,-1,-1,-1,-1],"split_conditions":[2.300796E-6,3.1223004E-7,1.17330686E-7,5.676633E-7,2.1428457E-6,1.3781292E-6,7.1874906E-6,1.0226747E-6,5.298419E-7,4.0410605E-6,5.2013866E-7,2.3940646E-7,2.0732045E-7,6.6604866E-6,5.573138E-7,-7.781795E-2,1.209679E-6,5.865134E-7,1.1764885E-7,1.2206275E-5,1.12387866E-7,1.2840545E-7,8.83574E-8,3.7542753E-7,7.1874906E-6,1.6083933E-7,1.7629484E-6,6.241868E-6,4.6593294E-7,1.1859176E-5,4.938573E-6,6.6570465E-6,4.417417E-8,2.1099559E-5,3.5982666E-5,8.676573E-8,1.6839556E-7,5.2210602E-8,2.0554933E-6,2.0071244E-7,-4.8259262E-2,3.7105826E-6,1.2778823E-6,8.1830095E-8,2.7421257E-7,6.8095154E-8,2.0638805E-5,2.1422053E-5,5.55203E-8,3.4144205E-7,3.5580193E-5,7.70297E-8,4.724198E-6,4.8062492E-2,3.847862E-7,1.6281556E-6,1.2400331E-7,1.0431143E-6,2.4268877E-7,6.860014E-7,1.1859668E-6,6.5287195E-2,2.2890838E-2,4.488396E-3,8.469833E-2,-1.6659573E-2,2.590453E-2,1.3431757E-2,2.2175178E-2,-2.8620126E-2,8.247345E-2,-6.483813E-2,-1.3220679E-2,-3.0503876E-3,-7.1806185E-2,4.211577E-2,-1.8924592E-2,3.976991E-2,-1.124554E-2,-4.0748462E-2,9.0249866E-2,-2.4366453E-2,2.2413028E-2,-2.5792135E-2,4.055439E-2,-5.288591E-2,-1.3469557E-2,3.2291606E-2,-1.9122321E-2,6.273789E-3,4.8633616E-2,-3.7078112E-2,-1.1323249E-3,2.2042774E-2,1.127632E-3,1.0991711E-2,1.03959486E-1,1.1443977E-1,5.7612337E-2,5.682504E-2,7.5056404E-3,9.394018E-2,4.8019916E-2,-7.241825E-2,-1.8467778E-2,1.4702044E-2,6.711988E-2,-2.840187E-2,-5.467484E-4,